100 20
0 3.187061 -0.200526 -5.096330 4.316210 -9.479956 0.458986 -2.351131 -4.215157 5.965787 2.663270 11.831664 -0.545587 -1.636002 -0.675420 -3.045873 3.438345 1.666069 4.181741 1.310290 -0.153365 
1 0.495473 -0.582011 -1.598391 0.719510 -2.396256 1.292065 -0.848455 -2.163666 1.512372 -0.219225 2.910304 1.213948 0.297362 0.040717 -0.610510 0.042765 0.752093 1.967989 0.238879 -0.398407 
2 0.696700 0.594185 0.764105 -0.006215 0.043875 -0.219669 0.553343 0.540500 0.419044 0.615495 0.473066 -0.847282 0.115636 -0.371282 -0.251777 0.333975 0.277131 -0.354406 0.016719 0.134461 
3 3.765030 -1.504455 -4.605794 2.025280 -8.123807 1.724810 -2.494562 -2.722094 4.735795 3.196101 8.044262 -0.466752 -1.754937 -1.177535 -3.405540 1.621579 1.921295 2.336830 0.822370 0.851815 
4 1.132194 0.276051 -0.585063 1.236546 -2.638943 1.345622 -0.556558 -1.317449 0.439850 0.708266 3.679601 1.570163 0.564067 1.024487 -0.843535 1.524444 1.872100 0.500275 0.540885 0.135053 
5 0.486967 -0.069660 -0.032223 1.125366 -2.343811 1.368181 1.071760 -0.089411 1.050048 1.213485 2.272484 0.651554 -0.219908 -0.497041 -0.057629 0.340013 0.995307 2.046062 -1.472393 -0.039205 
6 1.601186 0.214330 -2.048963 1.097141 -3.838581 0.589700 -0.503010 -1.509812 2.867141 1.246766 3.227138 1.549438 0.616015 -1.453068 -1.297836 2.209160 1.517418 1.656527 0.971310 -0.331862 
7 -0.289965 0.329630 0.373578 0.341458 -1.440912 0.540598 -0.476795 -1.236223 0.820302 0.566136 0.653881 -0.221316 1.079963 0.072472 0.498153 0.105259 0.023900 0.242982 0.647502 0.115629 
8 0.148064 0.158601 0.187312 -0.788687 -0.305455 0.393474 0.003856 0.174822 -0.104188 -0.122360 0.477315 -0.093785 0.275201 -0.078815 -0.070052 -0.036415 -0.117820 -0.118426 -0.193088 -1.526835 
9 3.335129 -0.057767 -1.330438 0.816644 -4.206085 0.731062 0.085139 -2.517521 2.053209 0.751007 4.156988 0.633427 0.352588 -0.493140 -0.986092 0.646660 1.024718 1.953859 0.587535 -0.060460 
10 0.605622 -0.321289 -1.061558 0.699658 -2.116441 1.116578 -0.609246 -1.857637 1.438986 0.012690 2.842655 0.884151 0.427547 -0.061956 -0.623783 0.249397 0.806186 1.676838 0.240496 -0.219494 
11 2.704809 -0.327021 -0.865767 1.335012 -2.713591 1.036230 -1.075278 -1.976706 1.687087 0.097155 5.124367 1.507087 -0.475638 -1.199119 -2.803494 1.877770 2.252240 2.642023 0.234361 -0.123640 
12 -0.358605 0.040001 -0.379205 0.066248 -0.475857 0.877265 -0.635585 -1.014235 0.535244 -0.630529 0.667403 0.563437 0.428139 0.076357 0.205608 -0.603275 -0.129714 0.972102 0.168835 -0.182513 
13 3.098604 0.086217 -0.772563 1.931594 -4.607319 0.823015 -0.166367 -1.702982 2.898780 1.784956 5.962814 -1.064449 0.058373 -0.968277 -2.041604 2.557232 2.255090 1.543446 0.831270 0.274952 
14 -0.431200 0.402498 0.719530 0.177614 -0.407109 0.539494 0.107340 -1.206476 0.500056 -0.488019 1.118951 0.370945 1.020747 -0.351689 -0.639187 -0.339333 0.086239 -0.046238 0.290503 0.542022 
15 -0.193817 0.355608 0.341034 0.383288 -0.631043 0.855690 0.591952 0.398602 0.407621 0.319536 0.621011 0.094319 0.015196 -0.339945 0.375799 -0.267531 0.183658 0.973570 -0.951280 0.023968 
16 0.013835 0.795261 -0.566641 0.011310 -0.322460 1.093816 0.287941 0.278077 0.489221 -1.022570 0.786466 -0.785481 0.067009 -0.241371 0.413586 0.135011 0.445565 0.230837 -0.119316 0.303507 
17 -0.333699 0.056768 -0.307902 0.124951 -0.586069 0.868930 -0.650623 -1.015759 0.539520 -0.714211 0.801546 0.521570 0.384624 0.094973 0.259588 -0.569448 -0.119328 1.032630 0.180265 -0.153940 
18 -0.086897 0.603893 0.540380 0.347072 -0.182718 0.757276 -0.327340 -0.198868 -0.361325 -0.120977 0.750591 0.669389 0.464944 0.821251 0.159209 0.035016 0.490757 -0.190100 0.137019 0.063602 
19 1.651394 0.183036 -2.022214 2.218441 -3.775097 0.871437 0.047432 -0.505309 1.481470 0.589391 3.738496 -0.161114 1.589858 0.351211 -2.891878 0.854103 1.268413 2.647897 0.260426 -0.732821 
20 0.441163 0.116240 0.167967 0.083400 0.435628 0.210302 -0.318092 0.142864 0.007341 -0.483954 0.479664 0.372241 -0.467145 -0.375807 -0.656255 0.158669 0.212500 0.534797 -0.094017 -0.173142 
21 0.448793 0.695267 -0.618146 -0.260734 0.157417 -0.374682 -0.486050 -0.205158 0.368201 -0.677655 0.302453 -0.324551 0.168816 0.400962 -0.338554 0.046064 -0.440564 -0.465425 0.753602 -0.236177 
22 0.452163 0.308472 0.073973 0.024711 -0.168537 0.436299 -0.881646 -1.366801 0.943088 -0.372893 1.153514 -0.241916 1.013341 0.115056 -0.572657 0.204772 0.409942 0.229282 1.240476 0.003958 
23 -0.011832 -0.049753 0.867031 -0.294511 0.268189 -0.198467 -0.119504 0.238565 0.863526 -0.528522 -0.477212 0.489085 0.256453 0.579013 0.232852 0.010982 0.074254 -0.033885 -0.023075 -0.026490 
24 -0.303330 0.032324 0.679807 -0.164634 -0.225083 -0.080766 -0.449766 0.124031 -0.352625 -0.237196 -0.573902 0.092778 -0.252202 -0.125690 -0.289061 0.345242 -0.274923 -0.036132 -0.016076 -0.562015 
25 0.721175 0.080063 -0.881031 0.429570 -2.385342 -0.482919 0.984175 -1.433157 1.090257 -0.233021 4.103176 -0.025215 0.262372 -0.324178 -0.146110 1.735172 1.525571 2.358450 0.318958 -0.691366 
26 2.266788 -0.402122 -1.871126 0.269004 -4.690427 1.463263 -0.925531 -1.720021 2.479445 1.244523 5.700879 -0.220846 0.107747 -0.924119 -1.531778 1.549420 2.089283 1.821324 0.426295 -1.942117 
27 1.163483 -0.146964 -0.495053 1.267346 -2.413123 1.142244 -0.241115 -1.991741 1.761174 0.382624 3.453762 0.300851 0.966877 -0.509180 -1.132710 0.753285 1.407254 1.673885 0.318068 0.260581 
28 0.305548 0.662647 0.809008 0.200484 0.363508 -0.168807 0.102388 0.242589 -0.140859 0.301114 -0.081364 -0.354680 0.187503 -0.248426 0.034853 0.405202 -0.002022 -0.491921 0.023957 0.101352 
29 0.848983 1.223128 -0.583284 0.018320 -2.019228 0.634894 -0.481341 -2.027610 1.505892 0.625633 2.606258 0.380281 0.745290 0.034078 -1.143606 0.452011 1.965901 1.461256 -0.682236 0.361543 
30 0.689235 0.441968 -0.731634 -0.101137 -0.195609 -0.005499 -0.544172 -0.542301 0.834009 -0.346390 1.271606 -0.365258 0.493455 0.380631 -0.483893 0.244462 0.012422 -0.048641 0.830657 -0.115072 
31 5.052864 -1.726489 -9.657808 4.602113 -15.489806 -0.809410 -3.191725 -5.661463 8.071197 4.467176 16.967989 -1.668416 -4.774290 -1.915029 -4.673629 4.906394 3.648667 5.878595 2.122310 0.457797 
32 0.691156 0.008251 -0.803250 0.940018 -1.568472 1.269026 0.327506 -0.256948 1.129416 0.181327 2.430375 -0.362578 1.490779 0.147447 -1.464576 0.085702 0.946962 1.688900 0.007275 -0.407805 
33 1.732740 0.523566 -1.737913 1.336860 -2.206676 0.442634 -0.122245 -1.495531 2.155000 1.596516 4.925914 1.221174 0.646061 -0.183268 -0.624352 0.578870 1.398777 1.650365 0.455026 -0.093816 
34 -0.220456 0.379582 0.032556 -0.009349 0.546548 0.259862 0.082279 0.245057 0.228724 0.070164 -0.577063 0.439785 0.518460 -0.516265 0.093303 0.292735 -0.243474 -0.176017 0.140107 -0.230121 
35 0.179541 -0.796863 0.119071 0.581919 -0.069883 0.463124 0.397429 0.626338 0.188031 -0.352746 0.371031 -0.124481 -0.134028 -0.144466 0.250475 -0.051667 -0.594533 -0.110609 0.746772 -0.156502 
36 1.734383 -0.228943 -0.999456 1.163773 -3.446823 1.834396 -0.590081 -1.984951 1.596414 0.905837 4.637213 0.913354 0.402671 -0.124396 -1.110185 1.619730 2.117224 1.360197 0.504062 -0.112897 
37 0.115288 -0.243726 -0.321023 -0.094492 0.502412 -0.108909 0.093089 -0.123303 -0.078721 -0.130440 -0.221352 -0.262187 -0.063304 0.307513 0.122739 0.529098 -0.383400 -0.283993 -0.675711 -0.363201 
38 0.029154 0.991998 0.483173 0.088230 -1.127902 0.137563 -0.336239 -0.123540 0.078390 -0.190752 0.504707 0.345669 -0.268833 -0.411447 -0.239077 -0.571110 0.182948 0.460970 1.004681 0.000790 
39 0.509651 0.570496 -0.661902 1.141975 -1.157461 1.085291 -0.474761 -1.704485 -0.063237 0.699971 2.675094 -0.484334 0.544318 -0.975614 -0.501301 0.304345 0.342605 1.080104 0.221779 0.095365 
40 4.168421 -1.231824 -7.115281 3.588062 -11.925150 -0.161561 -2.602147 -4.568230 6.333459 3.433813 13.243177 -1.014928 -3.275671 -1.513420 -3.617976 3.835526 2.791067 4.719870 1.605801 0.414019 
41 0.197582 0.748604 -0.584843 1.390875 -1.115488 0.803474 0.833419 -1.241750 1.572713 0.001704 1.338072 -0.105665 -0.410848 0.169505 -0.680261 -0.215224 1.058745 0.445084 0.065335 -1.061847 
42 1.188429 0.695841 0.406709 0.185277 -0.728807 0.705197 0.168263 -0.953984 0.454869 -0.269137 0.723057 0.546673 0.916348 -0.234472 0.082375 -0.200278 -0.132054 0.560457 0.059383 -0.009826 
43 -0.103289 -0.132973 -0.073635 0.150551 0.374882 0.364182 -0.283465 -0.679363 0.270634 0.012386 0.064516 -0.016996 0.259125 0.097325 0.096231 0.545105 -0.554970 -0.104474 -0.713277 0.079120 
44 0.972988 -0.321445 -1.012572 0.999697 -3.396176 0.971490 0.473182 -1.968859 1.954773 0.107055 5.172634 0.723473 0.797711 -0.795040 -1.997504 0.820871 1.203560 0.784545 -0.176171 0.153803 
45 -0.045200 0.207419 -0.113782 0.581968 0.266919 -0.395639 0.068754 0.091758 -0.083126 -0.017818 -0.558488 0.105049 -0.499592 0.271022 -0.020967 0.008060 -0.456413 -0.015165 -0.120638 0.700200 
46 3.317059 -0.294165 -2.007616 1.735917 -3.361266 1.241372 -1.205530 -2.265344 2.687134 0.353466 5.933998 1.059092 -1.148514 -1.715292 -2.680708 1.827599 2.353336 2.866082 0.460265 -0.206578 
47 -0.317258 0.168723 -0.100973 0.047348 1.161191 -0.248680 0.009450 0.272361 0.164381 0.337886 0.250078 0.258115 0.183845 0.167449 0.518547 -0.542096 0.175528 -0.092606 0.124292 -0.259442 
48 0.803228 -0.684014 -0.644486 0.765308 -0.934605 0.794621 -0.169996 -1.791904 1.442749 0.400741 2.169114 0.021249 0.933282 0.161265 -0.561317 1.490157 0.685365 0.862614 -0.838888 0.000616 
49 -0.841838 -0.184020 -0.534199 0.726353 -1.066705 0.773841 -0.724987 -0.440643 1.682945 0.645718 2.612752 -0.302292 0.211241 -0.240811 -1.047770 0.683795 1.481353 0.932706 0.218859 0.287454 
50 -0.204018 0.258613 -0.057907 0.415234 0.094907 -0.211075 0.197770 -0.071369 -0.067195 -0.099323 -0.488491 0.059867 -0.617534 0.182350 -0.046321 0.021891 -0.117587 -0.391035 -0.136205 -0.448496 
51 0.853496 -0.305867 0.245573 0.247498 -1.485895 0.706118 0.107197 -0.548742 2.335865 -0.415240 2.120829 0.467844 0.607350 0.569872 -0.549594 0.523314 1.338123 0.979196 0.146324 0.120711 
52 0.536321 0.525227 0.428377 0.514955 -0.121840 0.560086 -0.899701 -0.705100 0.551167 0.217390 0.302827 -0.108759 0.546505 0.232144 0.503709 0.302680 0.492590 1.052945 0.693398 -0.166026 
53 0.301817 0.187887 0.560549 -0.221586 -0.633887 1.070961 -0.070266 0.116126 -0.005200 -0.826828 -0.445562 -0.572984 0.009586 -0.116158 -0.255682 0.206597 -0.120360 0.183455 -0.302802 0.218353 
54 0.085648 0.186018 -0.349773 -0.532178 0.227781 -0.121713 -0.066772 0.553613 -0.120760 0.420490 0.114862 0.353272 -0.425669 -0.227199 0.405736 -0.387357 -0.296349 -0.307299 -0.208133 -0.281839 
55 -0.421266 0.748863 0.167523 0.281616 -1.250184 0.458450 -0.061833 -0.577614 0.969790 0.287629 0.707275 -0.390002 0.943725 0.205393 0.612729 0.018337 -0.100840 0.204420 0.131372 0.015927 
56 0.020717 0.531582 -0.125122 -0.088695 0.235561 0.620268 -0.042846 0.055031 0.596250 0.090757 -0.385472 0.551913 0.611119 -0.815236 0.131718 0.321187 -0.071612 0.054555 0.273258 -0.168780 
57 1.329225 -0.119717 -1.004019 1.328344 -4.104115 -0.134431 -0.143001 -2.608043 1.865580 0.454465 4.995763 0.642408 0.433070 -0.490180 -1.167909 2.166183 2.182196 2.820688 0.963203 -0.326932 
58 -0.014455 -0.106021 0.308295 -0.330862 0.515420 -0.556851 0.188819 0.180451 0.076940 0.597425 0.070192 -0.102484 -0.011550 0.211961 -0.142688 -0.682362 -0.547017 0.186594 -0.220807 -0.523424 
59 2.574101 -0.350965 -1.691353 1.730787 -6.948272 1.205259 -1.338914 -2.638366 2.633823 0.027927 4.543773 -0.692789 -0.851757 -0.694792 -2.356380 3.052844 1.184844 2.123353 0.560161 0.407078 
60 1.741000 -0.549625 -0.441542 0.585184 -3.084926 0.820758 -0.142945 -0.815898 3.219314 -0.024149 3.514841 0.581815 0.179129 0.504932 -1.044838 1.189819 1.825237 1.561689 0.250010 -0.171197 
61 1.408100 0.179166 -1.139421 0.273795 -3.008380 1.896433 0.565119 -2.235696 1.925850 1.180312 4.111688 0.423907 0.001156 0.122968 -1.877166 1.695888 1.113466 2.260121 1.064522 0.217088 
62 0.212893 0.237278 0.050699 -0.122135 -0.231743 -0.229541 0.247286 -0.286314 1.233989 -0.198600 0.206140 -0.881611 0.040882 -0.814600 -0.321950 -0.492461 -0.518767 0.880517 -0.181016 -0.088488 
63 0.109800 -0.277257 0.996852 0.173801 0.201374 0.305818 -0.333272 -0.841615 0.368029 0.701174 0.450256 0.425234 0.487347 0.101398 -0.327053 -0.354266 0.089164 0.735148 0.363788 -0.107200 
64 2.475705 -0.354047 -1.531356 1.245342 -3.554868 2.298264 -1.095277 -1.397737 2.694546 1.643354 3.837847 0.299240 0.038898 -0.235004 -2.082955 0.159065 1.172935 0.836384 0.027929 0.284062 
65 0.184661 0.261579 0.084237 0.367604 -0.311968 0.751966 0.312400 -0.886075 0.679009 -0.188478 0.075932 -0.130067 -0.782575 -0.292567 -0.012559 -0.217781 0.531170 -0.015655 0.145516 -0.729934 
66 2.266756 -0.338029 -1.813839 0.140855 -4.699141 1.581942 -0.996241 -1.559698 2.423802 1.258525 5.899664 -0.356928 0.214748 -0.959486 -1.452879 1.540346 1.960855 1.797799 0.351173 -2.202592 
67 0.107738 0.148394 0.734848 0.041106 -0.050425 0.437508 -0.112321 -0.476973 0.139022 -0.529672 0.979237 -0.768599 0.010093 0.675756 -0.229231 -0.748959 0.169806 0.374893 -0.161040 0.192962 
68 3.642589 0.284111 -1.008225 0.951566 -3.539006 0.966426 0.791279 -2.296480 1.381254 0.069805 3.748670 0.692596 0.657765 0.020493 -0.666981 0.792272 0.619493 1.610293 0.018973 -0.525494 
69 0.054914 1.171087 0.187758 -0.445838 -0.252696 0.521216 -0.610395 -1.077089 0.587612 0.040502 0.521272 -0.303140 0.612117 -0.261838 -0.454338 -0.264456 0.813687 0.772709 -0.537963 0.107381 
70 1.283095 0.116497 -1.197423 0.119756 -2.626771 1.602863 0.485961 -1.398466 1.696500 1.027414 3.411999 0.056284 -0.338165 0.057403 -1.504975 1.425897 0.849732 1.954459 0.794902 -0.025586 
71 0.013162 -0.087670 -0.124738 -0.725172 0.043647 -0.273768 -0.512032 0.873828 -0.338114 0.070597 0.217814 -0.050365 0.234629 -0.006059 0.267429 0.153953 -0.679355 0.345235 -0.189680 0.637636 
72 -0.042396 -0.633675 0.255989 0.316632 0.454288 0.268502 0.322450 0.488301 0.095427 -0.330027 0.095891 -0.056025 0.004378 -0.033081 0.320923 0.007319 -0.550050 -0.163265 0.560677 -0.148432 
73 0.447345 0.773345 -1.226017 0.144588 -1.350175 1.402294 0.321608 0.071300 1.243867 -0.699002 2.057752 -0.725338 0.296666 -0.417192 0.077287 0.335134 0.895509 0.562110 -0.186771 0.199359 
74 -0.312284 0.610508 0.742660 0.426029 -0.217446 0.035891 0.169027 -1.278383 0.223093 -0.696747 1.341320 0.068243 0.914663 -0.243820 0.311629 0.606296 0.522364 1.085457 0.551760 -0.126277 
75 0.982530 0.087584 -0.336069 1.505671 -1.745568 0.007120 -1.109202 -0.842439 1.251240 -0.263325 2.344091 0.210722 0.779349 -0.754039 -0.160230 0.070470 1.130561 0.548226 -0.475380 -0.124918 
76 1.011443 -0.415702 -0.114834 0.372877 -1.931071 0.859342 -0.058974 -1.221217 0.943432 0.192658 3.320855 -0.656727 -0.125462 0.556289 -1.007504 -0.234426 1.136446 1.285649 -0.042828 0.264490 
77 0.544882 0.291543 0.328146 0.009183 1.088647 0.512126 0.023872 0.065244 0.007833 -0.797155 0.351335 0.547716 0.009737 -0.410631 -0.512539 -0.166836 0.447169 0.474522 -0.119079 -0.021192 
78 -0.235990 0.402447 -0.073122 -0.743451 0.345678 0.370294 0.561401 0.109292 -0.062758 0.257385 -0.200053 -0.068406 -0.446958 0.433024 -0.228049 0.125589 -0.721625 0.269024 0.250834 0.079746 
79 1.108839 0.159329 -0.675408 1.908375 -2.292889 0.406847 -0.099880 -2.155794 1.787568 0.379377 2.820870 0.908390 0.198386 0.080482 -1.122575 0.933547 1.138310 1.648257 0.476558 1.965526 
80 4.024323 -1.663560 -5.768421 1.484052 -10.080625 -0.158739 -3.203901 -2.520605 4.646085 3.081983 11.616903 -0.679147 -1.363877 -1.477579 -2.744804 3.823952 1.635914 4.629232 0.952443 1.724535 
81 1.359053 0.125268 -0.206172 -0.131571 -2.370727 0.445875 -0.494096 -2.228176 1.976195 0.692282 3.383844 0.960633 -1.068588 -0.648241 0.315497 1.062474 1.005155 0.337000 0.246515 0.667490 
82 0.784787 0.410820 -0.008306 0.345171 0.003364 0.790612 -0.644428 0.062066 0.496665 0.256494 0.049190 -0.732715 -0.049126 0.421373 0.848143 0.239610 0.548452 1.340091 0.435726 -0.355676 
83 -0.768001 0.512638 0.243823 0.095502 -1.014762 0.303507 0.101914 -0.450599 0.681013 0.351454 0.225495 -0.597215 1.004106 0.593941 0.642395 -0.198775 -0.092450 -0.058661 0.408501 0.014206 
84 1.727764 -0.479736 -1.044245 1.993296 -5.268998 1.767578 -0.161570 -1.844708 2.469929 1.675049 5.272992 0.664313 -0.418728 -1.294319 -1.146119 1.588735 1.943793 3.086980 -0.641582 -0.032677 
85 0.074266 -0.087304 0.267836 0.475651 0.024790 -0.526352 -0.722000 0.293991 -0.062622 -0.432996 -0.257759 -0.110342 0.123867 -0.383582 0.553872 -0.401664 0.091986 -0.449116 -0.483256 -0.211043 
86 -1.022267 0.068235 0.013836 0.012301 0.267680 -0.083531 -0.598785 0.562554 0.093354 -0.005459 -0.168957 -0.236556 -0.684545 -0.079655 -0.359242 0.308645 0.045225 -0.025857 0.004778 -0.039914 
87 0.464339 0.295277 -0.862399 0.599440 -3.176178 0.611670 0.443406 -1.509350 2.011584 0.030190 4.543497 0.890134 0.555049 -0.949595 -2.050771 0.681396 0.487837 0.539903 -0.438704 0.157226 
88 0.200989 0.363648 -0.202917 -0.107549 -0.217777 -0.198642 0.280440 -0.228037 1.150454 -0.181846 0.186937 -0.745767 -0.105119 -0.715336 -0.388010 -0.368967 -0.626643 0.779326 -0.058302 -0.089950 
89 1.253245 -0.160031 -0.073650 0.364835 -2.273898 1.036515 -0.569940 -2.970724 2.298056 0.699669 3.990589 0.609267 -0.298930 -0.820380 -0.115957 1.041434 1.484398 0.647995 0.390025 0.456750 
90 0.111434 0.200791 0.309089 -0.306754 -0.045737 -0.016059 -0.245262 -0.334501 0.247748 -0.007744 0.230284 0.212613 -0.752174 -0.248743 0.489841 0.157266 -0.193630 -0.302640 0.028402 0.132205 
91 0.182069 0.085752 0.429921 -0.585368 -0.209460 0.043022 -0.669568 0.331399 -0.086935 -0.317704 0.312015 0.139001 0.500773 -0.133236 0.175756 0.188181 -0.613382 0.424052 -0.173592 0.621933 
92 0.067134 0.040128 0.260565 -0.374414 0.239119 0.056790 -0.091038 -0.308546 0.768021 -0.236765 -0.093700 -0.437015 0.029755 -0.719875 0.128881 -0.375135 -0.337615 0.553743 -0.075718 -0.090834 
93 -0.104267 -0.529763 0.240628 0.450545 0.247891 0.181698 0.179846 0.313737 -0.193257 -0.249957 -0.007630 -0.036501 -0.191082 -0.223204 0.391900 0.071097 -0.675867 -0.308032 0.553161 -0.138690 
94 0.043877 -0.160942 0.225858 -0.021868 0.203611 -0.269539 -0.029651 0.103628 -0.531649 -0.166606 -0.058236 -0.543872 -0.595460 0.646097 0.000466 -0.406095 -0.288645 -0.133877 -0.396267 -0.010588 
95 1.647492 -0.658194 0.120888 1.545161 -3.968012 0.273274 -1.063284 -2.904622 1.956943 1.848738 4.255312 1.341347 0.480606 -0.098311 -2.330343 1.393611 1.183920 1.988345 0.765173 -0.722342 
96 -0.075742 0.711327 0.654149 -0.053441 -0.095931 0.383701 -0.467927 -0.093417 0.162673 -0.166900 0.115145 0.247890 0.170451 -0.381230 0.265758 -0.763769 0.142467 0.317877 0.854281 0.160453 
97 -0.094860 0.302371 -0.045035 0.268616 0.297371 0.112246 -0.287083 -0.281256 -0.922522 0.242887 -0.202828 -0.287948 -0.093954 -0.605298 0.141555 -0.007232 -0.486096 -0.128882 0.084083 -0.060690 
98 0.482324 0.269565 0.109072 0.157543 -0.168800 1.494334 -0.621389 -0.167724 0.763804 0.300480 0.005309 -0.039762 0.388242 -0.107198 -0.608279 -0.729096 -0.139601 -0.370765 -0.138280 0.327325 
99 0.093977 0.838504 -0.676424 -0.085019 -0.146957 1.090484 0.184969 0.242545 0.500197 -1.092684 0.515013 -0.648939 0.047019 -0.322556 0.502287 0.129395 0.487457 0.137098 -0.036233 0.344001 
