100 100
0 -0.290812 0.035877 -0.271298 0.058220 0.291043 -0.735838 0.094787 0.112992 0.025011 -0.008619 0.274438 0.139144 -0.129288 0.258800 -0.026852 0.004004 -0.299079 -0.196845 0.192898 0.234007 0.104685 0.302181 -0.406259 0.071313 -0.202419 -0.023569 0.107605 0.504865 0.220050 -0.094330 0.205139 -0.420173 0.018030 0.427639 -0.174126 -0.304308 0.033308 0.374905 -0.305335 0.049843 0.202816 -0.079172 0.207337 -0.300469 0.103312 -0.193650 -0.166648 0.128761 0.571345 0.014824 0.092763 -0.345953 0.028828 -0.275333 0.391384 -0.316256 0.151603 -0.066015 -0.079753 0.143531 0.509917 0.214867 0.244966 0.192627 0.163252 0.230140 -0.118376 0.052621 -0.315112 -0.209559 -0.237503 0.199385 -0.352564 0.522985 0.208167 0.091993 0.061516 -0.204202 -0.075168 -0.283200 0.316727 -0.020560 0.108333 -0.282987 0.073603 0.319126 0.225285 -0.004177 0.256020 0.253000 -0.022993 0.015222 -0.179731 -0.079079 0.480875 0.431854 0.136156 -0.028391 -0.102601 0.210836 
1 -0.037976 0.064840 0.125473 -0.182126 -0.007497 -0.543698 0.243346 0.624635 -0.411331 -0.222493 0.418845 0.182845 0.145811 -0.130821 -0.546837 0.160433 -0.425163 -0.725607 -0.070726 -0.228864 -0.303786 0.158265 -0.848419 0.077012 -0.449787 -0.006857 0.143567 0.534019 0.739423 -0.477698 -0.162969 -0.971664 0.111625 0.501298 -0.337662 0.096936 0.474857 0.606992 -0.212249 0.535265 0.212100 -0.613794 -0.092816 0.141669 -0.016536 -0.677777 -0.382866 0.488702 0.820986 -0.126725 -0.122659 -0.283960 -0.362624 0.053934 0.097458 0.068638 0.063940 0.479475 -0.469027 0.492120 0.644332 0.125426 -0.279131 0.420982 0.508664 0.651638 0.091595 0.084074 -0.410584 0.007630 -0.695272 0.448487 -0.876662 0.058083 0.218716 0.220831 0.244549 0.308972 -0.315996 -0.489425 0.404982 -0.039395 0.056024 -0.701146 0.025267 0.282209 0.347855 0.148453 -0.130906 0.318602 -0.558706 -0.199050 0.172230 -0.020651 1.107461 0.148614 -0.035528 0.052082 0.251443 -0.103553 
2 -0.620932 -0.164407 -0.088559 0.625310 0.677740 -0.938371 0.686970 -0.044843 0.356595 -0.583131 0.752612 0.209431 -0.151190 0.644820 0.100000 0.212529 0.247839 -0.565963 -0.043950 0.820777 -0.276559 -0.135783 -0.256641 0.620037 -0.213158 0.123552 0.040804 1.052362 0.292352 -0.638900 -0.166176 -0.517602 0.302467 0.106779 -0.089038 0.146563 -0.060285 -0.050292 -0.756514 0.354462 0.030675 -0.075929 -0.073397 -0.307829 -0.246612 -0.553359 -0.014911 0.440651 0.470303 0.097411 -0.498249 -0.660459 -0.244431 -0.932998 0.485387 -0.000503 0.085551 -0.230812 0.116090 0.369870 0.678623 -0.240481 0.295513 0.562346 -0.255829 -0.175941 -0.434615 -0.114082 0.118773 -0.304114 0.205913 -0.056105 -0.545089 0.271409 0.069339 -0.018455 -0.352029 0.035383 -0.346853 -0.336727 -0.028129 0.303513 0.485060 -0.188068 -0.128675 0.793661 0.347735 0.321147 0.038805 0.817190 0.459760 -0.284815 0.078153 -0.558754 0.813829 0.585772 -0.155501 -0.169865 0.050860 -0.055928 
3 -0.109426 0.444698 0.112585 0.542867 0.485462 -0.616628 -0.048059 0.304742 0.477122 0.241028 0.608852 -0.197897 0.219633 -0.152753 -0.159394 -0.151787 -0.283535 -0.436299 0.171805 0.123427 0.077168 -0.047848 0.088551 -0.013617 -0.419994 -0.129946 -0.167419 0.352478 -0.008107 -0.187143 0.342938 -0.244160 -0.058709 0.139488 -0.653372 -0.009009 -0.218016 0.986097 0.128115 0.589012 -0.178202 -0.350946 -0.286653 -0.089945 0.253029 0.288007 0.229444 0.522639 0.388837 0.676912 -0.071655 -0.190658 -0.089336 -0.584466 0.507439 -0.623918 0.622646 0.188389 -0.546884 0.249409 0.837580 0.825306 0.826404 0.690842 -0.092452 0.082404 -0.229976 0.296224 -0.254286 0.550212 -0.463599 0.117114 -0.947923 0.744505 0.477964 -0.017643 0.715296 -0.082229 0.187437 0.049463 0.569728 0.260939 -0.359075 -0.086333 0.364290 0.173532 -0.344117 -0.378780 0.813687 0.804748 -0.007211 0.062086 -0.351899 0.100092 0.678980 1.172753 -0.247115 -0.165408 0.452888 0.320504 
4 -0.046967 0.605313 -0.187693 0.584902 0.104073 -0.978881 0.160755 -0.306320 -0.344168 -0.435697 0.499616 0.641831 0.068091 0.680599 -0.124088 -0.252229 -0.999269 -0.672325 0.576959 -0.040402 -0.418327 0.109686 -0.781622 0.339541 -0.383403 -0.524930 0.147017 0.512064 0.233544 -0.170570 -0.101089 -0.061961 0.060577 0.616731 0.375586 0.041336 -0.583620 0.351870 -0.494296 -0.170095 0.616128 -0.194041 0.496235 -0.570273 0.530022 -0.409275 -0.508298 0.529127 0.392825 -0.013480 0.031592 -0.802091 -0.406629 -0.558170 0.179561 -0.748805 -0.137585 0.252858 0.097800 0.428633 0.967092 0.776817 -0.150455 -0.046985 0.050280 0.909678 0.053868 0.019650 -0.234918 0.128081 -0.388667 0.049758 0.130283 0.108530 0.316276 0.233080 0.339653 -0.601270 0.279212 -0.010204 0.190680 -0.201746 0.163057 -0.337529 0.291567 0.463608 0.125027 -0.456284 0.310310 -0.158610 -0.164453 -0.117992 0.024978 0.381787 0.194266 0.829934 -0.051730 0.043234 -0.136869 -0.011771 
5 0.111391 -0.308432 -0.004677 -0.204373 0.497697 -1.088103 0.044887 0.432813 -0.172908 -0.122250 0.150045 0.273772 0.165329 0.742146 -0.401333 0.376016 -0.395456 -0.156743 0.036709 0.165985 -0.168888 0.572908 -0.690076 -0.351937 0.013014 -0.304747 -0.054965 0.399965 0.688143 0.315267 0.144870 -0.942229 -0.010037 0.811791 -0.479041 0.307229 -0.165085 0.273598 -0.527767 -0.348708 -0.218643 -0.221912 0.626109 -0.444408 -0.230529 -0.563441 -0.126197 -0.368851 0.380740 0.375150 0.116357 0.192646 0.044727 -0.273488 0.233799 0.032732 -0.235374 0.378679 0.388578 -0.143022 1.340249 0.143225 0.758756 -0.009115 0.802284 0.225951 -0.269863 0.203568 0.100808 -0.467038 0.286034 0.748575 0.162710 0.516648 0.142342 0.241568 0.386367 -0.805497 0.224373 0.316076 -0.027563 0.234565 0.294769 -0.511556 0.752078 0.372052 0.337770 0.101811 0.393727 -0.108625 -0.039488 -0.333341 -0.843084 0.340136 0.640741 0.136835 0.296521 -0.525653 0.390099 -0.078599 
6 -0.601021 0.147799 -0.227308 0.056731 0.243417 -0.797076 0.098664 -0.207736 -0.239060 -0.260721 -0.004471 0.496922 0.351361 0.227301 0.041698 -0.195820 -0.280502 0.061198 0.417621 -0.046990 0.382279 0.488574 -0.240042 -0.005151 -0.007153 -0.090195 0.496440 0.929970 0.218347 0.310340 -0.044158 -0.467398 0.038430 0.615188 -0.316207 -0.628743 -0.556767 0.215253 -0.141096 -0.279376 0.105842 0.320200 0.830803 -0.405809 -0.016028 -0.511874 -0.106501 0.216173 0.303385 -0.564647 -0.447962 -0.802497 0.700388 0.020688 0.870185 -0.147439 0.103150 0.212833 -0.729533 -0.211145 0.237128 -0.110995 -0.148273 -0.135409 0.125538 -0.103015 -0.344997 0.028059 -0.351615 0.135169 -0.619468 0.218293 -0.946839 0.848079 0.519884 -0.321569 0.201262 -0.074744 0.449910 -0.495455 0.724090 -0.187987 0.052341 -0.226193 0.281411 0.308125 0.422496 -0.287481 0.426144 0.862990 0.102591 0.149837 -0.437035 -0.443532 0.678653 0.486880 0.603014 0.197997 -0.033086 -0.175852 
7 -0.497566 0.101789 -0.732295 -0.311836 0.135753 -0.507666 0.193472 0.153151 0.456519 -0.467664 0.085396 -0.262972 0.040590 0.568051 -0.103727 -0.216298 -0.088566 -0.806029 0.076520 0.152651 0.616130 0.872308 -0.332617 0.010505 -0.330901 0.229717 0.420439 0.363082 0.083186 -0.457235 0.568516 -0.401145 -0.364622 0.573353 -0.156903 0.121897 0.106735 0.686482 -0.376171 0.075652 0.005837 -0.502268 0.600688 -0.625403 0.675403 -0.048846 -0.769091 -0.130360 0.718385 0.159748 -0.278174 -0.285743 -0.061216 0.120950 0.331621 -0.463278 0.195817 0.574004 -0.099604 0.675423 0.203891 -0.201932 0.197701 0.703519 0.471245 -0.262953 0.152266 -0.369230 0.080636 -0.366753 -0.262349 0.255305 -0.034948 0.972178 0.413697 0.511930 0.554976 0.102672 0.317063 -0.495876 0.138308 0.018521 -0.339959 -0.133048 -0.479433 0.830932 -0.038487 0.063720 0.103475 -0.179589 0.359996 0.461171 -0.747849 -0.187906 0.527726 0.268488 0.212030 0.266864 0.319105 0.658398 
8 -0.039074 0.063010 -0.019242 -0.230793 0.816534 -0.847889 -0.455089 -0.395577 -0.329009 -0.236901 0.094785 0.006429 -0.188247 0.491948 0.430047 0.382253 -0.199446 -0.290092 -0.235854 0.996545 -0.431452 0.340311 -0.273557 0.417813 0.303735 -0.132430 0.255782 0.087741 0.153577 -0.586556 0.261283 -0.505551 0.148309 0.640078 -0.212046 -0.476405 -0.234288 0.032546 -0.220857 -0.007795 -0.109293 0.338741 -0.003553 -0.409881 0.132666 -0.372680 0.070256 0.400556 0.635224 -0.287424 0.700806 -0.894342 0.559350 -0.524899 1.161153 -0.022314 0.284746 -0.110234 0.388421 0.586104 0.289463 0.837503 0.066792 0.238824 -0.341404 0.059809 0.029309 0.253582 -0.283155 -0.403267 -0.486189 0.100500 -1.070133 0.316539 -0.351374 0.481973 -0.053319 0.184526 0.502382 -0.018570 0.039722 0.334835 0.233362 -0.264804 -0.209601 0.518033 0.582260 0.524668 0.387565 -0.141889 -0.257198 0.452454 -0.439603 -0.011042 0.423440 1.088551 0.912717 0.300139 -0.260549 -0.058193 
9 -0.656526 0.012890 -0.159120 0.384419 0.419153 -0.758841 0.088545 -0.139818 0.451357 0.180856 0.700592 0.489381 -0.302935 0.865431 0.439596 0.154813 -0.271785 -0.519967 -0.103275 -0.080002 -0.356391 0.098624 -0.886486 0.128917 -0.260413 -0.144784 0.298651 0.455834 0.397131 -0.612690 0.665869 -0.230847 -0.182419 0.818460 -0.634161 -0.156448 -0.663749 0.147040 0.075738 0.592388 0.831013 0.067107 -0.347216 -0.583573 -0.285995 0.205825 -0.677595 -0.296359 1.005381 -0.428446 0.368534 -0.070034 -0.278598 0.077582 0.199920 0.045557 0.611624 0.399800 0.148553 -0.146859 0.396353 0.407049 0.443432 0.562714 -0.090883 0.122875 0.183619 0.348385 0.045083 -0.658698 0.007110 0.069738 -0.326084 0.088365 0.601678 -0.366727 -0.605008 -0.695532 -0.340642 0.095385 0.256145 0.242518 -0.272698 -0.625678 0.630699 0.432362 0.195404 -0.089605 0.554997 -0.246331 -0.552663 -0.201332 -0.049563 -0.519812 0.233099 0.894983 0.311586 -0.253556 -0.608328 0.511476 
10 -0.091432 0.035199 0.077949 -0.134273 0.055321 -0.622591 0.202639 0.521864 -0.362652 -0.181443 0.365585 0.214667 0.081016 -0.082311 -0.442245 0.125644 -0.387725 -0.619279 -0.022143 -0.137179 -0.234085 0.167664 -0.762468 0.088311 -0.438060 -0.050646 0.136997 0.549578 0.636352 -0.440069 -0.099152 -0.906791 0.120845 0.512526 -0.337500 0.055810 0.397821 0.570589 -0.252937 0.454713 0.232590 -0.506692 0.016818 0.062157 0.043548 -0.598054 -0.363024 0.438940 0.777215 -0.081558 -0.083313 -0.321081 -0.292757 -0.009813 0.141589 -0.035795 0.086638 0.364317 -0.396479 0.431464 0.623182 0.128389 -0.199647 0.423703 0.435772 0.588548 0.082663 0.068567 -0.414236 -0.009982 -0.633168 0.389891 -0.797503 0.121533 0.208963 0.181769 0.207956 0.213968 -0.261115 -0.458508 0.366562 -0.064013 0.059014 -0.650209 0.038682 0.302693 0.299964 0.142625 -0.047543 0.349629 -0.451042 -0.151348 0.113546 -0.040501 1.032882 0.205494 -0.026565 0.059549 0.206531 -0.059062 
11 -0.542386 0.301081 -0.241413 -0.107091 0.262261 -1.085556 0.256186 -0.032514 -0.348294 -0.360425 -0.175083 0.039588 0.118034 -0.160791 0.116999 -0.128420 0.051917 -0.237625 0.049727 -0.102553 0.286566 0.523845 -0.067887 0.195432 -0.711863 0.337559 0.588045 0.618845 -0.093203 0.234617 0.400313 -0.797921 0.169548 0.750453 0.102336 0.262520 0.157462 0.187812 -0.066929 -0.181001 0.196967 -0.351816 0.039916 -0.484886 0.163675 -0.384836 0.156985 -0.366666 0.188483 -0.307618 0.523012 0.016377 -0.475392 -0.771879 0.112157 -0.721655 0.681277 -0.096667 -0.061787 0.691368 0.151643 0.352997 0.660432 0.359116 -0.195095 -0.095228 -0.204074 0.412616 -0.360621 0.170580 0.215754 0.162774 -0.851271 0.211841 -0.044689 0.419894 -0.015925 -0.532128 0.173379 -0.022016 0.213351 -0.392130 0.409327 -0.862854 0.363239 0.752537 0.147001 -0.491459 0.266808 0.222326 -0.112693 0.004864 -0.007042 -0.181225 0.722508 0.288582 0.603396 -0.371205 -0.367136 0.273736 
12 -0.219097 -0.210382 -0.461440 0.378905 0.313163 -0.394011 0.559883 -0.277269 0.292290 0.142508 0.498448 0.321766 0.043877 -0.076584 0.006979 0.526227 -0.730722 -0.286347 0.288069 -0.220870 0.372534 0.367809 -0.393880 -0.148183 -0.080950 -0.320407 0.634187 0.453485 -0.008583 0.405719 0.454488 -0.986674 -0.188044 0.388325 -0.427857 -0.351479 0.211784 0.800284 -0.811078 -0.414674 -0.108361 -0.344083 -0.306981 0.045244 0.410553 0.021875 0.210075 -0.286542 1.013554 -0.566012 0.088954 -0.762084 0.264601 -0.270401 0.307905 0.015568 0.416419 -0.298241 0.272626 0.509343 0.539467 0.083247 -0.163706 0.515079 0.162837 0.160829 -0.565587 0.221983 -0.625176 0.305825 -0.225357 0.230347 0.023684 0.640787 -0.057866 0.469823 0.539105 0.213809 -0.228179 -0.414476 0.780526 -0.242634 0.067614 0.056266 -0.279738 0.792922 0.207957 0.148400 0.447436 0.592428 -0.271705 0.453071 -0.396002 0.410727 0.283583 1.076183 0.426416 -0.401850 0.239709 -0.248284 
13 -0.413869 -0.040620 -0.213819 -0.022346 0.416172 -0.747451 -0.136892 0.173428 0.170954 0.305321 -0.093880 -0.047999 0.361707 0.637850 0.200857 0.374733 -0.927798 -0.586566 0.324228 -0.254904 -0.478447 -0.132723 -0.473237 0.303873 -0.223904 0.606017 0.157383 0.995775 -0.240551 0.334430 -0.207466 -0.892139 -0.423835 -0.131035 -0.578613 -0.517326 0.303777 0.919441 -0.786158 0.059508 0.067770 -0.597481 0.335068 0.112580 0.035991 -0.622360 -0.254997 -0.076129 0.107905 0.011889 -0.008269 -0.117949 -0.086971 -0.074865 0.762127 -0.785866 0.054809 -0.385167 0.234170 -0.125939 0.616261 0.165723 0.116388 -0.296379 0.420826 -0.293045 0.372101 -0.417648 -0.564424 -0.865385 -0.823133 -0.242088 -0.082925 0.354448 0.362852 -0.176900 0.203804 -0.195266 -0.637439 0.039868 0.741096 0.521292 0.039715 -0.416423 0.098849 -0.209586 -0.101189 -0.459774 0.071872 0.142801 0.289306 0.385149 -0.602770 -0.037275 0.371101 0.842293 0.012196 0.451173 0.106474 0.751102 
14 -0.217680 -0.237120 -0.647659 -0.182977 0.422888 -0.231187 0.158326 -0.334726 -0.436044 0.350796 0.038202 -0.394628 0.159248 0.142808 0.243538 0.205521 -0.154581 -0.231873 0.003345 0.453373 0.479407 0.339999 -0.358329 -0.008413 0.296877 -0.605767 -0.364973 0.951593 0.808970 -0.232329 0.022896 -0.336445 -0.053363 0.075127 0.269208 -0.582266 -0.545843 0.842124 -0.118609 0.226788 -0.193756 -0.684798 0.718698 -0.521981 0.224402 0.041112 0.138291 -0.050194 0.512805 0.233094 -0.340704 -0.400299 0.415827 -0.782758 -0.083402 -0.143928 -0.354147 0.089906 -0.606805 0.513138 0.939424 0.401558 -0.134750 -0.131281 -0.000797 -0.159956 -0.428575 -0.337117 -0.136010 -0.575024 -0.722412 -0.175073 -0.518408 0.785553 0.278400 0.333859 0.214852 -0.721634 -0.590560 -0.108643 0.592451 -0.055831 0.164199 -0.451962 0.442616 0.226350 0.226863 0.354474 0.887725 -0.313956 0.154444 -0.132418 -0.151439 -0.389584 0.200853 0.971475 0.122817 -0.486293 0.079514 0.412984 
15 0.300850 -0.295938 -0.012878 -0.350155 0.032575 -0.880885 0.401414 0.448037 0.632761 -0.445914 0.206520 0.295274 -0.057934 0.504344 0.439676 -0.302748 -0.287394 0.075894 0.523737 -0.112057 0.291019 -0.368029 -0.664505 -0.424671 -0.617559 0.444552 0.501462 0.183186 -0.158512 -0.302181 -0.382902 -0.088680 0.560387 0.164495 0.318325 -0.071276 -0.350090 0.631646 -0.586574 -0.078400 0.609614 -0.400200 0.550527 0.089529 -0.075058 0.027114 0.060074 0.525352 1.149783 -0.243073 0.412979 -0.462333 0.293283 0.084313 0.266118 -0.496439 0.641125 0.231725 -0.507690 0.299674 0.434019 0.238116 0.104746 0.630903 0.616791 0.035040 0.031676 -0.373699 -0.443203 -0.443359 0.132058 0.331654 -0.273480 0.531223 0.350706 0.084385 -0.216327 -0.126723 0.047608 0.113406 0.472126 0.031968 -0.009675 0.075006 0.629743 0.689019 0.742185 -0.181793 0.536071 0.226214 0.159251 -0.485115 0.229734 0.296490 0.953588 0.791978 0.564701 0.248818 -0.245676 0.732668 
16 0.161553 -0.216352 -0.576066 0.297658 0.765728 -0.848159 -0.424929 0.590173 0.607411 -0.175880 0.243974 0.555804 -0.549467 0.717476 -0.421714 0.395165 -0.651372 0.058427 -0.067799 -0.226689 -0.015796 0.663995 -0.388169 0.328469 0.244794 0.427653 0.004532 0.976772 -0.010337 0.348027 -0.104630 -0.398562 0.305738 0.936847 -0.697392 -0.412288 -0.497928 0.786885 -0.823110 -0.125559 0.382121 -0.302901 0.238846 0.081614 0.641661 -0.116763 -0.493266 0.269196 0.110832 -0.475382 -0.137067 -0.293511 -0.081815 0.207656 0.765370 -0.354516 0.071195 0.349106 -0.086181 0.044319 0.940051 -0.003969 0.640525 0.352015 -0.089991 0.688405 -0.505349 0.030058 -0.410972 0.017123 -0.478886 0.280218 -0.718266 0.187032 -0.288546 0.336050 -0.307231 -0.555835 -0.330710 -0.186620 -0.064736 -0.089650 -0.038817 0.052255 -0.133408 0.535795 0.597754 -0.390171 0.597569 -0.077194 -0.154825 -0.317853 0.367880 -0.113525 -0.011610 0.116358 0.304446 0.240113 -0.315379 0.379581 
17 -0.193272 0.147100 -0.522488 0.400320 -0.258289 -0.216032 0.014952 -0.382743 -0.255839 0.052725 0.176670 -0.280003 0.481229 0.735523 -0.088083 -0.053102 -0.044699 -0.121254 0.409904 0.060767 -0.264125 -0.044614 -0.474269 -0.147411 -0.405439 0.312164 -0.170657 0.029359 -0.182660 -0.422574 0.526983 -0.411947 0.318536 0.553906 -0.339092 -0.698513 0.363476 0.285214 -0.902925 0.143597 0.492210 -0.103540 0.364248 -0.627177 0.580769 -0.580473 -0.820189 0.451956 0.510457 0.370678 -0.177073 0.056708 -0.047550 -0.798242 1.011145 -0.871702 -0.271812 -0.234984 -0.523528 -0.152103 0.280053 0.729827 0.466803 0.633054 0.221084 0.514905 -0.540938 0.282127 -0.007549 -0.034877 0.190884 0.097370 -0.469337 0.505769 -0.329977 -0.019401 0.169694 0.113107 0.263346 0.117820 0.347037 0.329375 0.424066 -0.275575 0.663087 0.486870 0.799257 0.146079 0.597745 -0.096660 0.340254 0.138325 0.001545 -0.547959 0.985359 0.063419 -0.268993 0.324764 -0.487095 0.742380 
18 -0.108651 0.004470 -0.655155 -0.381704 -0.125668 -0.625379 -0.135793 0.687411 0.318497 0.126809 0.012541 0.471450 -0.360016 0.416016 -0.150122 -0.133943 0.030683 -0.269079 0.711438 0.024309 0.204040 0.075125 -0.037673 0.379947 -0.312242 -0.484315 0.139653 0.539567 0.168975 -0.583652 0.782085 -0.507232 -0.100164 0.814372 0.139734 -0.380873 0.019899 0.870313 -0.175816 -0.169341 0.204373 -0.311492 -0.210071 0.117192 -0.312150 0.153680 -0.435180 0.678996 0.764392 0.190508 0.709375 -0.553782 0.326399 -0.430949 1.032456 -0.093910 -0.262034 -0.012078 -0.593659 -0.038419 0.108574 0.049231 0.497318 -0.161818 -0.307076 0.087058 0.214902 -0.280270 -0.238417 -0.387177 -0.659935 -0.200414 -0.337331 0.459255 -0.249439 0.083501 -0.540883 -0.282001 -0.250155 -0.981670 0.367696 -0.450931 0.291691 -1.028976 0.181238 0.493949 -0.018952 -0.121230 -0.190229 0.096811 0.161473 -0.640572 -0.027406 0.097212 0.620080 0.928454 0.211733 0.347829 0.000661 -0.272713 
19 -0.796540 -0.430471 -0.981698 0.256248 0.979381 -0.402324 0.306510 -0.000583 0.057505 0.559130 -0.225819 -0.363633 -0.155186 0.451002 -0.235664 0.308648 -0.679798 -0.383527 0.429464 0.419037 -0.364294 0.277704 -0.763286 -0.377890 -0.417786 0.439454 -0.019277 0.675316 0.008750 0.237747 0.238990 -0.477652 0.265587 -0.299216 -0.699763 -0.176401 0.035086 0.747241 0.193081 -0.431994 0.112728 -0.266601 -0.144569 -0.319058 -0.525592 -0.092470 0.296338 0.597159 1.081959 -0.154104 0.427828 -0.796676 0.346514 -0.577942 1.038813 0.065724 0.533885 0.053416 0.233227 0.331946 0.267818 0.748759 -0.137079 -0.263508 -0.156399 0.239340 -0.312855 0.081743 -0.142173 0.200978 -0.063213 -0.123415 -0.095171 0.706959 -0.301891 -0.142074 0.589598 -0.503293 0.499578 -0.440242 0.100330 -0.561123 0.070640 -0.269351 0.569717 0.062205 0.901490 -0.400571 -0.288626 0.261047 -0.625420 -0.360549 -0.255825 -0.275487 0.398940 -0.246342 -0.101270 0.043172 -0.209899 0.697680 
20 -0.548309 0.246303 -0.277233 -0.077849 0.314171 -1.118544 0.246807 -0.016107 -0.314274 -0.312218 -0.061293 0.062542 0.101225 -0.120255 0.112265 -0.101715 -0.036590 -0.284448 0.099715 -0.008888 0.269335 0.513184 -0.165427 0.214980 -0.637698 0.295857 0.531970 0.658427 -0.038820 0.218867 0.378722 -0.783376 0.116877 0.763934 0.028542 0.166095 0.155532 0.236183 -0.108414 -0.157495 0.209610 -0.340165 0.096753 -0.470362 0.181983 -0.385511 0.085015 -0.267939 0.306618 -0.252644 0.465614 -0.105264 -0.400773 -0.722078 0.211533 -0.716301 0.599406 -0.108933 -0.079205 0.648505 0.266086 0.341189 0.622911 0.328367 -0.123814 -0.019130 -0.232034 0.342889 -0.409356 0.093810 0.116629 0.191609 -0.802940 0.297460 0.008469 0.383829 0.005017 -0.501475 0.124586 -0.093586 0.270955 -0.351222 0.380807 -0.812914 0.325427 0.697163 0.169562 -0.416995 0.298861 0.261968 -0.085010 -0.005113 -0.047684 -0.174691 0.729191 0.302487 0.547186 -0.328447 -0.350565 0.282722 
21 -0.714149 -0.271668 -0.709487 0.428770 0.389858 -0.558531 0.201298 0.258206 0.286379 0.175161 0.785612 -0.113030 0.021779 0.170444 -0.263242 0.529819 -0.704566 -0.810723 0.495944 0.603558 0.340353 -0.290446 -0.135788 0.080064 -0.550663 0.460400 -0.009778 0.419195 0.685689 -0.322738 0.021456 -0.316516 0.116678 0.037901 -0.574072 -0.436365 -0.411576 0.087395 0.122467 -0.417989 0.022001 -0.456489 0.278515 -0.474058 0.515774 -0.752193 -0.582534 0.150026 0.899348 0.250895 0.227910 0.047541 -0.225199 -0.368681 0.396801 -0.465559 0.451386 0.135031 -0.105477 0.319445 0.486822 0.383944 0.718479 0.218544 0.438163 0.560275 0.064494 -0.155377 -0.542255 -0.104949 -0.036247 0.516964 -0.345173 0.624216 -0.281773 0.097286 -0.310789 -0.565718 0.348284 0.081247 0.378218 -0.079415 0.176837 -0.079786 0.075693 0.527115 0.559981 0.131983 0.053440 0.544360 0.460375 0.109764 0.166264 0.279282 0.088340 0.839885 0.591034 -0.381190 -0.212728 -0.083596 
22 -0.485577 -0.193923 -0.157040 0.274722 0.000360 -0.159522 0.153064 -0.307553 -0.186678 0.067870 0.803379 0.600762 -0.018833 0.698665 0.520597 -0.183353 -0.826212 -0.605787 0.395939 0.459167 -0.260962 -0.252088 -0.217449 0.588295 -0.424661 -0.120427 0.008583 0.687939 0.578794 0.019409 0.578763 -0.396993 -0.188200 -0.122806 -0.063188 -0.708620 0.571695 -0.024077 -0.146999 -0.161148 0.784939 0.582612 0.509446 -0.335549 0.294784 0.333699 -0.454351 0.352649 0.571065 0.020185 -0.005447 -0.419806 0.129020 0.349261 0.899234 -0.378187 0.705403 0.443979 0.216923 0.275007 1.217593 0.460562 0.119527 -0.174992 0.223456 -0.017460 -0.618098 0.347985 -0.409753 0.083989 -0.606669 0.075731 -1.080350 0.119749 -0.146736 -0.391190 -0.014036 -0.001570 -0.585852 -0.521674 0.370284 -0.351322 0.057126 0.238259 -0.205260 -0.007232 0.056460 0.051842 0.402265 -0.026115 -0.177418 -0.173707 -0.818003 0.201264 0.419377 -0.027494 0.249620 -0.553985 0.330518 0.599044 
23 -0.682276 0.017390 -0.259409 -0.217921 0.763716 -0.568774 -0.363586 0.219163 0.191499 0.177946 0.249181 0.303073 0.241902 0.035750 -0.530060 -0.501973 -0.686111 -0.194515 -0.133884 0.742768 -0.204008 -0.126779 -0.168599 0.590757 -0.597328 0.328723 -0.324655 0.392686 0.029798 0.142791 0.159839 -0.240747 -0.480438 0.561364 -0.299500 -0.824331 -0.174345 0.222551 -0.454762 -0.205206 -0.355682 -0.196748 0.488510 -0.049283 0.605015 -0.091566 0.055817 0.025973 0.850721 0.324720 0.165245 -0.014256 0.362650 -0.380392 0.161221 -0.335791 -0.185670 0.480565 -0.597915 -0.166743 0.749341 0.480739 0.044559 0.495262 -0.177273 0.555343 -0.207780 0.497262 -0.212533 0.151921 0.138823 0.283389 -0.575887 0.548091 0.552079 0.300570 -0.488127 -0.801931 -0.357852 -0.107792 0.532046 0.042500 -0.219213 -0.631465 0.189386 0.069504 0.746505 0.318116 -0.106180 -0.190449 -0.623746 0.519430 -0.716838 -0.017159 0.638808 0.202540 0.383928 0.418716 0.204571 0.297903 
24 -0.105933 0.260936 0.166864 -0.148472 0.193716 -0.992410 0.122072 0.142585 -0.404312 0.360660 -0.076659 0.523418 -0.154991 0.190416 -0.224090 -0.006446 -0.645025 -0.626508 -0.042158 0.345108 0.398783 0.158751 -0.938524 0.030119 -0.089289 -0.345758 0.055097 0.727225 -0.193877 0.050622 -0.350146 -0.685072 0.401993 1.073495 -0.003115 -0.756543 -0.270727 0.278943 -0.736688 0.324896 0.660298 -0.208102 0.419538 0.083149 0.388214 -0.009351 -0.341140 0.252111 0.046969 0.315337 0.299872 -0.570088 0.458368 0.176620 0.249866 0.091585 0.393117 -0.467527 0.188571 0.667501 0.459377 0.128557 0.318719 0.743785 0.228488 -0.009802 0.164185 -0.361148 -0.185393 0.340993 0.197913 0.579094 -0.702384 0.301686 0.546271 0.102346 0.340660 -0.915628 0.010440 -0.513051 -0.334717 0.387855 -0.261276 -0.305217 -0.259790 0.071785 -0.091075 0.477013 -0.093336 0.586354 0.034332 0.278228 -0.672709 0.229451 0.251389 0.567679 0.335989 0.069389 -0.336818 0.458233 
25 -0.691016 0.654650 -0.778961 0.052780 0.257099 -0.417107 0.143851 0.497228 -0.382928 0.440525 0.203871 -0.185690 0.221712 -0.150594 0.081456 0.440508 -0.025258 0.002634 0.460767 0.325478 0.072464 0.701944 -0.392563 0.099693 -0.058619 0.546330 -0.140592 0.207258 0.225851 0.013962 0.208133 -0.708655 0.305959 0.586347 -0.323169 -0.187565 -0.016604 0.182046 -0.783767 -0.429005 0.188417 0.140949 0.430092 0.060739 -0.141511 -0.018620 -0.160496 0.470462 0.335603 -0.319225 0.369021 -0.666543 -0.489782 -0.245756 0.184539 -0.475753 0.200125 -0.524985 0.171905 -0.131365 0.730322 -0.107893 0.375649 -0.267441 0.755720 0.397631 0.040775 -0.026029 -0.892658 0.066564 0.020623 0.592397 -0.437596 0.824004 -0.031564 -0.375293 0.052111 -0.685144 0.049535 0.036418 0.499727 -0.229910 0.525952 -0.051496 -0.292672 -0.393684 1.128764 -0.497806 0.345441 -0.338308 0.172051 0.258862 0.108176 0.555883 0.662201 1.078398 0.628326 -0.500795 -0.069211 -0.258949 
26 -0.637027 0.548834 -0.538959 -0.452455 0.831120 -0.799566 -0.244802 0.660437 0.021342 -0.579113 0.130159 0.222607 -0.531475 0.853116 0.012100 0.278336 -0.844933 -0.726304 0.539541 0.371593 -0.166780 0.656561 0.061497 0.022008 0.236735 0.576729 0.393236 0.315181 0.582197 0.344659 0.820466 -0.118854 0.565117 0.206705 0.091355 -0.025368 0.462324 0.434619 -0.466339 0.198339 0.182227 -0.246797 0.422369 0.131084 -0.283604 -0.376965 -0.014179 0.010453 1.136690 -0.303015 0.703968 -0.500439 -0.206620 0.252775 0.861584 -0.239243 -0.309465 -0.130087 -0.277792 0.288386 1.087837 -0.001845 0.090806 0.758015 0.510848 -0.206066 0.385959 0.118260 -0.197761 -0.225788 0.274340 -0.323767 -0.584290 0.468452 0.714589 0.072047 -0.169542 -0.170374 0.116217 -0.185650 -0.153978 -0.507113 0.313011 0.243864 -0.100191 0.011267 0.322348 0.603536 0.460023 0.523450 -0.424462 0.315278 0.333979 0.336388 0.296710 -0.026733 -0.383791 -0.368068 -0.285711 0.075911 
27 -0.610563 0.173373 -0.110030 -0.164821 0.163815 -0.527247 -0.484385 0.139222 -0.446488 0.136480 0.199544 -0.322158 0.133549 0.310127 0.465146 -0.061520 -0.322209 0.061280 0.085717 0.687957 -0.310986 0.038134 -0.513411 -0.412506 -0.823844 -0.611681 0.168261 0.873253 -0.247868 -0.555048 0.583785 -0.012827 -0.367896 0.203942 -0.558281 0.083018 0.465779 0.586066 -0.444085 -0.258724 0.476636 -0.439521 0.338327 -0.060524 -0.002044 -0.106879 0.037857 0.012818 0.299855 0.039634 0.004805 -0.605935 -0.011956 -0.017841 0.442947 -0.344045 0.472922 0.495751 -0.193526 0.004876 -0.002484 0.100591 0.601945 0.633384 0.069513 0.593835 -0.233558 -0.220488 -0.734491 -0.407041 -0.577109 0.671495 -0.064864 0.996724 0.526383 0.138273 0.077418 -0.538492 -0.041345 -0.721097 0.402648 0.228466 0.358748 0.095417 0.118811 -0.034764 0.038706 -0.437626 0.138147 -0.030971 -0.358959 -0.083321 0.116034 -0.604270 0.716257 0.529977 0.492512 -0.147552 -0.334437 -0.098616 
28 -0.841499 -0.001935 -0.697086 -0.075415 0.654878 -0.533413 0.004838 0.172664 0.174775 0.108066 0.790280 0.347289 -0.456542 -0.138106 0.313698 -0.046016 -0.232554 0.282056 0.736534 0.097408 -0.584477 0.271875 0.010018 0.132808 -0.173405 -0.023178 0.111950 0.089533 0.282683 -0.395456 -0.422762 -0.194401 0.132653 0.746888 -0.311311 -0.052576 0.659116 0.760641 -0.092627 0.216992 0.627717 -0.131775 0.319057 -0.717062 0.537449 0.112369 0.286113 0.193780 0.216320 0.253811 -0.133915 0.220496 0.282532 -0.260339 0.219079 -0.348080 0.213634 -0.384856 0.437005 0.471167 0.614431 -0.034064 0.037496 -0.244010 0.050549 0.932364 -0.297611 -0.304360 -0.464182 0.396197 -0.245202 -0.170161 -0.622831 0.800209 0.775477 0.539613 -0.301658 -0.679090 -0.500814 -0.586095 0.285687 -0.430539 -0.225434 -0.293808 0.083862 0.760077 0.556697 -0.211948 -0.108630 0.148024 -0.018113 -0.337187 0.108687 -0.216636 0.374878 0.919574 0.055262 -0.639630 0.282984 0.625474 
29 0.364616 0.466917 -0.337179 0.042854 0.295967 -0.323549 -0.533873 0.244162 -0.456485 0.049081 0.577716 -0.079327 -0.053617 -0.120013 0.188512 0.304269 -0.556719 0.278884 -0.331173 -0.084204 0.405083 0.797025 -0.693712 0.234302 -0.442851 0.591474 -0.362195 0.207094 0.517756 -0.025209 0.126146 -0.429975 0.857290 0.508945 -0.398235 0.348098 0.018186 -0.027636 -0.203405 0.251769 0.295838 0.349092 0.219035 -0.705919 -0.049643 -0.399801 -0.377874 -0.149981 0.193677 0.561415 -0.276065 -0.563428 -0.227068 0.041340 0.582089 -0.604962 0.488141 0.220227 -0.586951 0.624529 1.239803 0.511476 -0.083007 0.878076 -0.461841 0.350946 -0.233289 -0.039201 -0.649107 -0.677854 0.498417 -0.180825 0.327818 0.721275 0.257045 0.296823 0.282757 -0.062230 -0.652356 -0.707845 0.086968 0.001324 0.038141 -0.604603 0.061464 0.003523 0.427347 0.045257 0.043922 0.095675 -0.280540 0.547130 -0.136093 -0.177269 0.084795 1.037540 0.094059 0.069934 -0.468511 0.295364 
30 -0.670124 -0.255082 -0.707260 0.452972 0.362136 -0.418956 0.197357 0.278087 0.275923 0.178034 0.790242 -0.167708 0.052291 0.112935 -0.273373 0.583887 -0.697078 -0.809817 0.484365 0.571103 0.373846 -0.342966 -0.075539 0.076873 -0.525125 0.482214 -0.024884 0.334648 0.702360 -0.322356 -0.021462 -0.229170 0.138990 -0.040713 -0.578955 -0.403590 -0.441068 0.021203 0.175056 -0.454378 -0.027402 -0.477192 0.228155 -0.443352 0.549544 -0.755332 -0.594264 0.133715 0.846351 0.234542 0.230239 0.121566 -0.257630 -0.324150 0.359792 -0.428699 0.435426 0.150317 -0.093721 0.311012 0.407497 0.355754 0.718189 0.180607 0.422120 0.546275 0.114097 -0.157815 -0.503455 -0.083964 0.013904 0.528326 -0.306703 0.550720 -0.333557 0.072600 -0.354910 -0.587087 0.391582 0.118956 0.363337 -0.083165 0.172320 -0.007063 0.058939 0.495706 0.544740 0.144810 0.009004 0.515907 0.511828 0.103009 0.206292 0.315601 -0.042679 0.803481 0.630571 -0.397729 -0.233740 -0.139908 
31 -0.298767 -0.242882 0.075365 0.502021 0.109415 -1.081819 0.233723 -0.037274 0.070868 -0.153593 0.430129 0.256129 0.207505 0.038564 0.148948 0.001125 -0.870690 0.126166 -0.182343 0.547702 0.459218 0.731160 -0.467286 0.300405 -0.133749 -0.414216 0.035391 0.247028 0.529340 -0.240737 0.407888 -0.957179 0.128020 0.418745 0.205775 -0.680940 -0.163380 0.798224 0.035837 0.110848 0.495233 0.247787 -0.151141 0.245740 -0.188003 -0.134899 -0.505672 0.438143 0.819695 0.144350 0.070462 0.141724 -0.170033 -0.658805 0.214416 -0.117684 -0.096344 -0.083227 -0.479290 -0.191881 0.282484 -0.015298 0.681738 0.107697 -0.242870 0.464500 0.310567 0.100229 -0.158621 -0.324089 0.237497 -0.079041 -0.662548 0.298649 0.573660 -0.212712 0.434421 0.237260 0.375029 -0.433377 0.312177 -0.056073 0.595440 -0.496344 -0.412615 -0.021947 0.063638 0.358933 0.925312 0.427615 -0.139724 -0.133624 -0.719174 -0.226210 0.284383 0.288919 0.034197 -0.478922 -0.559467 0.580550 
32 0.086591 -0.195802 -0.371332 0.254871 0.638399 -0.712441 0.437515 0.307383 -0.362519 -0.393638 -0.150104 0.605618 -0.189650 0.115427 -0.003598 -0.150453 0.058855 0.154604 -0.062728 0.261835 0.216427 -0.127502 -0.359484 -0.340918 -0.164264 -0.090810 0.180471 0.856698 0.307182 0.175139 0.295023 -1.119947 0.020614 0.043630 0.211921 0.194015 -0.079313 0.805916 -0.536019 0.384876 0.666599 0.354730 0.386359 -0.695543 0.342442 -0.176822 0.018340 0.669299 1.051108 -0.263030 0.117055 0.126791 -0.035531 -0.316759 0.760587 -0.603576 -0.285882 0.239194 -0.292673 0.151143 0.689824 0.126944 -0.139748 0.693053 0.505465 0.247117 -0.563966 -0.336258 -0.143671 0.248588 -0.801394 -0.323240 0.127010 0.748771 -0.077960 0.115649 -0.347002 -0.227805 -0.299913 -0.253835 0.495894 0.562286 0.610085 -0.583448 -0.343764 0.366634 -0.207799 -0.356603 0.047070 -0.039170 -0.119236 0.470820 -0.452930 0.324344 -0.000102 0.049825 0.489362 -0.332928 -0.516643 0.284676 
33 -0.206943 0.123105 -0.425408 0.418527 0.346130 -0.799431 0.556553 0.063722 0.199746 0.452707 0.159963 0.240053 -0.163180 -0.311813 -0.224833 -0.373996 0.155992 -0.481361 0.811732 0.061834 0.259514 0.844957 0.046977 0.143785 -0.716058 0.466946 0.436973 0.886241 0.389452 -0.194513 0.186821 -0.122133 0.057805 0.056199 0.096179 -0.007742 0.144019 -0.201799 -0.108715 0.271489 0.803102 0.261889 0.228531 -0.777462 -0.112396 -0.483017 -0.005619 0.232620 0.986872 0.019646 0.150439 -0.914814 0.415249 0.269015 -0.023339 -0.628955 0.233734 -0.480821 0.334546 -0.182795 0.461507 0.699320 0.490508 0.686705 0.364519 0.523570 -0.393645 0.419310 -0.475920 -0.391323 -0.020083 0.174633 0.315219 0.807299 0.735811 -0.383732 0.143557 0.265253 -0.107623 0.436047 -0.160998 0.057789 0.572572 -0.361821 -0.058844 0.376931 0.333080 0.028352 0.322027 0.366117 0.434707 -0.246114 -0.622130 -0.169633 0.469604 0.155289 -0.318459 -0.098974 0.009586 0.476995 
34 -0.477286 -0.293104 -0.044657 0.468793 0.795057 -1.172435 0.636625 -0.281182 0.098213 -0.332256 -0.076277 0.109559 0.160192 0.094186 0.385084 0.499491 -0.069669 -0.563924 0.475795 -0.334057 -0.274859 0.005884 -0.591105 0.572759 0.375833 0.315876 0.087980 0.306097 -0.070657 0.426577 -0.053685 0.015502 -0.542414 0.379014 0.228471 0.077093 0.149743 0.802507 -0.048791 0.076409 0.393292 -0.375434 0.033351 -0.001410 0.566617 -0.196887 -0.584787 0.039627 0.881686 -0.042446 0.358150 -0.291695 0.417248 -0.406832 0.754256 -0.519195 -0.122220 -0.252978 -0.323541 0.401913 0.968800 -0.106428 0.463395 -0.199110 0.157977 0.737041 -0.577151 -0.170223 -0.221902 -0.343565 -0.331729 0.271997 -0.652369 0.570664 0.050399 0.124728 0.309682 0.030013 0.016587 -0.421926 0.019704 -0.274193 -0.375496 -0.652751 0.564418 0.014809 0.232614 0.595510 0.625032 0.401030 0.316321 -0.336467 -0.293678 0.499545 0.809966 0.228712 0.315676 -0.218444 -0.523465 -0.049132 
35 -0.280375 -0.381512 -0.315541 0.037991 0.266685 -0.672356 -0.221284 0.606560 -0.198420 -0.297444 0.311975 0.485186 -0.454493 0.638699 0.417848 0.121318 -0.037665 -0.694594 -0.125841 0.415153 0.231552 0.381954 -0.937166 0.440093 -0.047212 -0.085220 0.521854 0.907638 0.068061 -0.496636 0.259781 -0.144570 -0.507322 0.950052 0.068398 0.041552 -0.079878 0.164691 -0.236679 -0.116232 0.228306 -0.150453 -0.058874 -0.245893 0.293927 -0.656325 0.163659 0.405910 0.258691 0.281777 0.573370 0.051395 0.051624 -0.196085 0.846356 -0.493977 0.121256 0.159778 -0.473938 -0.093365 0.643772 -0.006529 -0.079865 -0.167495 -0.279307 0.191538 -0.650843 0.500430 -0.617750 0.073391 -0.199196 -0.042646 -0.182751 0.899517 0.625736 0.779377 0.585032 -0.281199 -0.338109 -0.399216 0.905533 -0.341548 -0.102856 0.111723 -0.425561 -0.140645 0.381047 0.014291 0.754349 0.338456 0.108710 -0.195238 -0.473759 0.290330 0.022211 0.954109 -0.148773 0.402654 0.054988 0.379711 
36 -0.398233 0.268915 -0.840372 -0.118402 0.159478 -0.512880 -0.079826 0.072425 0.455060 -0.127947 0.751268 0.466682 -0.563747 0.590595 -0.296497 -0.334554 -0.451856 0.182130 -0.321542 0.765137 -0.308645 0.328244 -0.616214 0.178508 -0.034079 -0.371608 0.191068 0.237786 0.384185 -0.371989 0.488671 -0.911027 -0.384082 0.781806 0.249971 -0.436475 0.640846 -0.003049 -0.810939 -0.194104 -0.162696 -0.504048 0.006800 -0.189838 0.033395 -0.277588 -0.658675 0.256537 0.412428 -0.225888 -0.491302 0.019028 -0.158590 -0.270555 0.494784 -0.932001 0.233051 -0.429744 0.249741 0.028720 0.591389 0.199307 0.518075 0.727181 0.080027 0.053241 0.219382 0.087354 -0.751931 -0.408778 -0.121127 0.124896 0.078199 0.369951 0.203517 0.185259 -0.091914 -0.671154 -0.454883 0.095302 -0.050152 -0.017562 0.303872 -0.101846 0.073399 0.741434 0.004486 -0.433409 0.094369 0.469217 -0.037289 0.219581 -0.493422 0.496644 0.123377 0.663777 0.261992 0.273801 -0.225358 -0.394130 
37 -0.412555 -0.384972 -0.631432 -0.092590 0.065196 -0.317441 -0.010512 -0.197353 0.417885 0.026980 0.047701 0.017900 0.204764 0.607743 -0.282350 -0.086489 -0.480169 -1.019278 0.075870 -0.087234 0.681284 0.915417 -1.002429 -0.051491 0.235788 0.065889 -0.168251 0.287470 0.374226 0.072415 0.451508 -0.315435 0.190938 0.096575 -0.166693 -0.890002 0.162697 0.028759 -0.380477 0.281333 -0.168806 0.461497 0.003552 -0.864594 -0.178373 -0.940876 0.119955 0.529202 1.128586 0.038551 0.475388 -0.159000 0.103747 -0.364519 0.670396 0.290584 0.142363 0.574276 -0.301582 0.615699 0.231758 0.395658 0.951274 -0.164672 0.476105 -0.169609 -0.210809 0.524837 -0.132756 -0.750265 -0.089406 -0.258566 -0.689230 0.525609 -0.280046 0.102723 -0.145199 -0.533393 -0.308505 0.307485 0.943610 -0.084105 0.217764 -0.050948 0.182889 0.579059 -0.262192 -0.436645 0.175539 0.265209 -0.078972 0.261732 0.016716 0.485991 0.263666 0.722679 0.070622 -0.214871 0.046196 -0.069226 
38 0.175129 0.388025 -0.333875 0.202393 0.602228 -0.834413 0.248626 0.031484 -0.431991 -0.134989 0.834365 0.502112 0.376734 0.433834 -0.028038 0.579416 -0.087798 -0.734747 0.277968 -0.111862 0.240082 0.206495 -0.196578 -0.360554 -0.276184 -0.364438 -0.044141 0.170806 0.158081 -0.240197 0.165661 -0.338121 -0.494779 0.251080 -0.559645 -0.025001 -0.482877 -0.096847 -0.749758 0.195809 0.612072 0.215822 -0.234020 -0.024978 0.261845 0.215333 -0.380839 0.429198 0.444611 0.016394 0.620725 -0.499308 0.385428 -0.454620 -0.033589 0.252495 0.739805 0.170780 0.149735 -0.212356 0.779105 0.271564 0.716494 -0.269926 0.527158 0.458194 0.290316 -0.463938 -0.614836 -0.728451 -0.704536 0.516849 -0.326778 0.754861 0.074171 0.431404 0.468752 -0.094233 -0.477002 0.062644 0.513460 -0.036727 0.066694 -0.111670 -0.304780 0.862694 0.485092 0.501917 0.199711 0.301314 0.169720 -0.288323 -0.494412 -0.389287 0.457951 0.116459 0.219916 0.426979 -0.259170 0.459635 
39 -0.662446 -0.287689 0.015074 0.266638 -0.255432 -0.964935 0.309410 0.026568 -0.425341 0.260415 -0.065018 -0.278129 -0.362294 0.031038 -0.353838 0.403546 -0.643889 -0.384574 0.215646 0.805518 -0.290425 1.122670 -0.197378 0.090497 -0.008246 0.135151 0.183493 0.467043 0.369976 -0.303769 -0.059210 -0.223224 0.163506 0.100914 -0.460825 -0.886726 0.499890 0.088763 -0.077424 -0.123579 0.235069 -0.518180 0.303043 0.138001 0.394250 0.266949 -0.651289 -0.134268 0.661224 -0.027493 -0.269940 -0.776696 -0.013686 0.179171 0.668689 -0.007968 -0.126445 0.345480 0.127467 -0.068244 0.695082 0.296599 0.860009 0.152586 0.314282 0.209185 -0.006543 -0.610440 -0.024797 0.022532 0.062611 0.354399 -0.631256 0.466414 0.506149 0.400235 0.180087 0.041095 -0.700775 -0.160276 0.138463 -0.252867 0.403413 -0.422514 0.279680 0.639086 0.678105 -0.367421 0.857987 0.767905 0.506521 -0.178300 -0.309763 -0.177038 0.551577 0.542114 0.505375 0.080330 0.290885 -0.155549 
40 -0.314985 -0.180238 -0.007017 0.420467 0.180217 -1.082434 0.208515 0.013058 0.078001 -0.141021 0.419502 0.260929 0.145309 0.070916 0.113155 0.003548 -0.797580 0.073660 -0.105769 0.529863 0.410434 0.682980 -0.486651 0.255221 -0.167426 -0.354728 0.055698 0.342820 0.504727 -0.227956 0.398114 -0.884004 0.110243 0.449073 0.142308 -0.649005 -0.152650 0.772035 -0.033686 0.107254 0.454882 0.184460 -0.073218 0.159141 -0.134078 -0.144755 -0.469833 0.387198 0.827843 0.118395 0.074323 0.039273 -0.130597 -0.616670 0.232429 -0.168988 -0.049816 -0.093896 -0.395931 -0.126854 0.371730 0.025264 0.635923 0.120745 -0.171806 0.450830 0.258927 0.084786 -0.217998 -0.323680 0.136640 -0.015425 -0.610994 0.376985 0.527024 -0.174295 0.398441 0.157918 0.299783 -0.430067 0.331673 -0.049613 0.510463 -0.454119 -0.338142 0.041626 0.088469 0.312525 0.820437 0.417658 -0.137572 -0.121004 -0.642880 -0.209155 0.324798 0.334399 0.050256 -0.386877 -0.513130 0.538750 
41 -0.204712 -0.223562 -0.228788 -0.215194 0.684337 -0.667033 -0.202939 0.191609 -0.076532 -0.200959 0.168913 -0.157478 -0.458366 0.680564 0.291670 -0.237340 -0.417109 -0.225720 0.100246 0.305001 0.080602 0.349111 -0.124070 0.202253 -0.121521 -0.153386 -0.233660 0.364151 0.437910 0.298955 -0.079103 -0.276662 0.353702 0.504580 0.125993 -0.533875 0.184584 0.363010 -0.500404 0.140741 0.133828 -0.605748 -0.093331 -0.413343 0.382603 0.001214 -0.652438 -0.188286 0.965189 -0.150597 0.184007 -0.768067 0.031381 -0.879810 0.080727 -0.194060 0.342226 0.393389 -0.106223 -0.339363 0.517463 0.102691 0.074415 0.129584 0.052140 0.208790 -0.274498 0.476313 -0.834670 0.042097 -0.530092 0.537074 -0.244876 0.767620 0.544602 -0.350847 0.217699 -0.057518 0.069530 -0.570318 0.036671 0.430194 0.342758 -0.666403 0.369920 0.242142 -0.073113 -0.221743 -0.058045 0.621331 0.174104 -0.101963 -0.360162 0.154893 0.334729 0.237953 -0.351190 -0.291654 0.162158 0.045979 
42 -0.087142 0.419164 -0.242917 -0.332233 0.677953 -0.674559 -0.107365 0.190498 -0.237825 0.433409 0.144519 -0.064007 -0.534121 0.019105 0.435288 -0.011728 0.127867 0.080790 0.497290 -0.172044 0.210387 0.402801 -0.170718 0.605280 0.284692 0.011324 -0.161467 0.765667 -0.099430 -0.100873 0.500958 -1.016490 -0.327797 0.808609 -0.623973 -0.782282 0.030020 0.320635 -0.118426 0.225585 0.587209 -0.462228 0.358828 -0.551765 -0.160648 -0.309962 0.156547 -0.177503 0.753963 0.321351 -0.449069 0.271604 -0.263247 0.041496 0.836490 0.358954 -0.227794 -0.179183 -0.278958 -0.401375 0.854586 0.671710 0.665716 -0.408964 0.454904 0.478153 -0.457331 0.240510 -0.573552 -0.211048 0.144856 -0.031199 -0.510734 0.144078 0.451453 -0.040905 -0.414475 0.358353 0.267762 -0.230062 0.307086 -0.293198 0.198406 -0.270154 -0.025919 0.206325 0.014002 -0.251605 0.281499 0.035633 -0.359664 0.370398 -0.369782 0.546400 0.985122 0.404565 0.348981 0.159609 -0.814759 0.224645 
43 -0.607920 -0.524170 -0.439291 -0.209753 0.043979 -1.000874 0.692658 0.049733 -0.132150 0.061935 0.401856 0.510097 -0.743141 0.718900 0.112272 0.325515 -0.709552 -0.041280 -0.330359 0.149749 0.380484 0.246239 -0.053630 -0.465421 -0.889254 0.371793 -0.256844 1.014470 -0.101748 0.128332 0.288148 -0.569200 -0.287176 0.265430 0.357745 -0.546798 -0.038679 0.579483 -0.165512 0.073222 0.092327 0.215637 0.070940 -0.499307 -0.414650 0.010963 0.020198 -0.181009 0.540313 0.130741 0.603331 0.069548 0.067457 0.023087 0.847296 -0.525930 -0.317467 -0.403481 0.350806 0.584891 0.886928 0.078473 0.463901 0.443913 -0.278053 0.576802 -0.241505 -0.249822 0.086177 -0.457474 0.159585 0.729199 -0.020097 0.086595 -0.063175 0.053009 -0.186607 -0.277884 0.474922 -0.542087 0.204963 -0.088977 -0.377956 0.110671 -0.121901 0.103980 0.476369 -0.333937 0.344013 0.421399 0.191770 0.436914 -0.248250 0.215289 1.083584 0.300037 0.219423 0.361522 -0.120071 -0.314789 
44 0.130006 0.165696 -0.665541 0.221680 0.234313 -1.137868 -0.014909 -0.176136 -0.311876 -0.414608 0.364838 0.227617 -0.458621 0.374450 -0.065960 -0.456315 -0.480650 -0.071277 -0.295165 0.378456 0.198233 0.573571 -0.476284 0.032234 0.148640 -0.064763 0.062718 0.110881 0.695216 0.105586 -0.044055 0.029682 0.620227 0.360900 -0.619911 -0.090381 -0.101134 0.454697 -0.496102 -0.216048 0.305070 -0.446866 0.512161 -0.388787 -0.196308 -0.755183 -0.121709 0.248270 1.293948 0.475301 0.464142 -0.034201 0.420983 0.118002 0.951797 0.075695 -0.077906 -0.681367 -0.437116 0.077556 0.265040 0.767778 0.356457 0.215847 -0.185865 0.183499 -0.468656 -0.424307 -0.439879 0.172972 -0.478617 0.693977 -0.547018 0.053561 0.090756 -0.042774 -0.195985 -0.615708 0.020728 -0.749573 0.867142 0.357445 -0.226209 -0.212356 -0.145664 0.271002 0.192910 -0.016971 0.293670 -0.008625 0.044642 -0.287320 -0.210367 -0.429204 0.780467 0.155236 -0.049265 -0.409161 0.179434 -0.043245 
45 -0.532645 -0.236498 -0.063437 -0.089613 0.074970 -0.699910 0.676731 0.247445 -0.144956 0.525233 0.358190 -0.030560 0.075098 0.402877 -0.044972 -0.387362 -0.072369 -0.624966 -0.030561 0.680796 0.092066 0.009021 -0.720006 -0.152127 0.236464 0.222189 0.048008 0.877383 -0.254420 0.397534 0.814780 -0.329376 0.025817 0.852488 -0.718731 -0.633844 0.006266 0.249158 -0.201813 -0.189040 0.672723 -0.299511 0.441838 -0.098548 0.678234 -0.605120 0.080013 0.148875 0.968936 0.251750 -0.444210 -0.333966 -0.279450 0.007911 -0.192184 -0.087663 -0.197052 -0.574403 -0.053267 0.511995 0.761396 0.280840 -0.322226 -0.107171 0.811182 0.559114 -0.410445 0.491449 -0.596042 0.062212 -0.694973 0.059326 -0.011226 0.813150 0.109171 -0.136332 0.239423 -0.497152 0.196802 -0.419996 0.111038 0.294823 -0.269567 -0.025188 -0.140684 0.525597 0.340588 -0.393626 0.298654 0.219823 0.398041 -0.273314 0.212277 -0.429037 0.149293 0.315102 -0.345444 0.152873 0.034586 -0.161073 
46 -0.482509 -0.185546 -0.743724 -0.076587 0.253334 -1.396119 0.467171 -0.000741 0.043010 0.259328 0.826386 0.387577 -0.093445 0.163357 0.105495 -0.365278 0.098224 -0.417613 0.629756 0.360086 0.132722 0.384052 -0.640285 -0.270597 -0.537692 0.356441 -0.340298 0.057720 0.072054 0.442478 0.222220 -0.799340 -0.280911 0.509633 0.253018 -0.724164 0.186679 -0.114146 -0.037034 -0.370871 -0.145319 -0.374559 -0.392900 -0.507415 0.057920 -0.323783 -0.459501 0.640745 0.271708 0.265681 0.205152 -0.569504 -0.390051 -0.298577 0.074234 0.124919 -0.260383 0.304206 -0.321841 0.322429 0.191216 0.652919 -0.046651 0.348779 -0.007999 -0.201546 -0.634221 -0.279588 -0.563585 -0.248260 -0.068927 0.302173 -0.331125 0.647895 0.459848 -0.503038 0.073769 0.413684 0.245033 -0.720669 0.753980 -0.493103 0.276237 -0.009452 0.084491 -0.164981 0.453453 0.159574 -0.242569 -0.180877 0.008519 0.492402 -0.363845 0.357815 0.691932 1.045177 0.136215 0.012113 0.144573 0.664781 
47 -0.056990 0.354769 -0.174592 -0.105189 0.123499 -0.780050 0.045391 -0.136252 -0.429785 -0.240513 0.984857 0.252489 -0.480522 0.294432 -0.022478 0.505699 -0.216964 -0.127054 -0.084438 0.700364 0.416046 0.237615 -1.013815 -0.349450 0.057801 -0.373108 0.576554 1.105941 -0.172828 0.221303 0.114280 -0.627405 0.361847 0.393752 -0.838754 -0.762642 -0.071005 0.389527 -0.455849 0.046237 -0.084301 -0.141317 0.057451 -0.503278 -0.362102 -0.075414 -0.065571 -0.096628 0.231328 0.442159 -0.343022 -0.526214 -0.334388 -0.057620 0.787737 -0.631292 0.121541 0.339782 0.285484 0.221709 0.071229 -0.262269 0.080347 -0.335128 0.194247 0.270962 -0.208810 0.211218 -0.171743 0.029991 -0.290043 0.199929 -0.197560 0.249075 0.215916 0.602977 0.009264 -0.403820 -0.580833 -0.242360 0.959066 -0.172803 0.119678 -0.612356 0.244131 1.016670 -0.179722 0.182323 0.039799 0.389019 0.338227 -0.251975 -0.095531 0.217468 0.982638 0.232987 0.475375 0.432863 -0.476795 0.506837 
48 0.184935 0.206605 -0.910997 -0.350565 0.311620 -0.903974 -0.204330 0.493596 0.224189 -0.242233 -0.106503 0.210851 0.034754 0.391822 0.725868 0.115004 -0.520356 0.028511 0.713442 -0.078440 0.154664 0.020684 -0.011934 0.320612 -0.536288 -0.121078 0.365673 0.840529 -0.100314 -0.624280 0.563369 -0.700676 -0.394166 0.558056 -0.363162 -0.500722 -0.259960 0.482065 -0.108313 0.259306 0.527266 0.138966 -0.139207 0.262773 0.685185 -0.578396 0.065276 -0.177729 0.363916 0.161653 -0.062660 -0.345409 0.340736 0.228941 -0.039406 0.014025 -0.182180 -0.167478 -0.139527 0.658250 1.173246 0.232494 0.508987 0.779365 0.345069 0.412219 -0.439628 0.211804 0.274726 -0.318595 0.174688 0.620615 -0.758631 0.554609 -0.037491 0.202122 -0.091822 0.199736 0.124628 -0.551548 0.882274 0.149750 0.804499 -0.611323 -0.244944 0.043924 0.547392 0.278660 0.239541 0.262317 0.501833 0.482899 0.060812 -0.315859 0.000298 0.472768 -0.309713 0.059831 0.478410 -0.198349 
49 -0.670650 0.375245 -0.489367 -0.144451 0.430684 -0.471317 0.702620 -0.202278 -0.560093 -0.277530 -0.009843 0.056465 0.254255 0.869210 -0.585945 -0.013152 -0.165111 0.234901 0.764608 0.523599 -0.492718 0.506978 -0.807467 -0.293454 -0.105507 0.467870 0.242348 0.529229 0.205507 -0.411812 0.038413 -1.021729 -0.151407 0.091598 -0.051080 -0.168835 -0.242311 0.797081 -0.143784 -0.234477 0.101678 -0.043086 -0.190030 -0.931266 0.108138 -0.271597 0.299879 0.665564 0.765685 0.133895 -0.016049 -0.082482 0.721574 0.113377 0.089786 -0.068046 -0.070853 0.013720 -0.479215 0.552120 0.268421 -0.201880 0.571500 0.689122 -0.001205 0.054429 -0.052785 0.159010 -0.901164 -0.988924 0.052593 0.448125 -0.693968 0.047500 0.525121 0.255155 0.003797 -0.329230 -0.537974 -0.667202 0.434707 -0.419365 -0.285048 0.001660 -0.463547 0.363815 0.504819 0.589723 0.075116 0.155952 -0.416960 -0.486387 -0.681923 0.128097 0.038833 0.715074 0.482089 -0.112094 -0.447179 -0.110637 
50 -0.212444 -0.228888 -0.198493 -0.243943 0.660016 -0.701880 -0.160353 0.177458 -0.088159 -0.195887 0.229640 -0.178831 -0.444143 0.678584 0.292903 -0.280849 -0.436237 -0.240561 0.180296 0.267648 0.069774 0.355623 -0.100494 0.158520 -0.127164 -0.116175 -0.290304 0.319655 0.416148 0.384577 -0.104996 -0.231827 0.367805 0.472854 0.185537 -0.563201 0.177750 0.295670 -0.492981 0.115751 0.132974 -0.629059 -0.147892 -0.404668 0.343462 0.013084 -0.622159 -0.217804 0.958408 -0.182329 0.221016 -0.737366 0.015997 -0.846869 0.110720 -0.151637 0.337355 0.366685 -0.112357 -0.291889 0.477873 0.107163 0.055213 0.086246 0.079628 0.170032 -0.291014 0.467225 -0.850796 0.034988 -0.515155 0.574637 -0.250572 0.712140 0.535148 -0.359208 0.211648 -0.035002 0.095351 -0.563370 0.058189 0.390726 0.343301 -0.602564 0.351039 0.196679 -0.046836 -0.216011 -0.077470 0.597224 0.195419 -0.084477 -0.323292 0.171323 0.327030 0.224859 -0.324842 -0.331799 0.160633 0.019445 
51 -0.251890 0.236559 -0.185098 0.108114 0.490140 -1.181547 0.534842 -0.405120 -0.190318 0.095088 0.740764 -0.220053 0.157549 0.646191 -0.149762 -0.200104 -0.293419 -0.377920 0.118501 -0.171203 0.301820 0.460805 -0.040619 -0.026186 0.391468 -0.309219 -0.402928 0.170878 0.343165 0.179466 -0.070300 -0.435101 -0.451448 0.651335 -0.034034 -0.622730 0.462165 0.064101 -0.049277 0.068233 0.147969 -0.522197 -0.188470 -0.563925 -0.257732 -0.361197 0.096846 -0.064145 0.401930 -0.165908 -0.090220 -0.844222 -0.492879 -0.134927 0.749590 -0.242076 0.280483 0.153699 -0.001592 0.170767 0.671862 0.523127 0.123242 0.317500 0.114969 0.825948 -0.038214 0.336704 0.246011 -0.310085 -0.188807 0.665882 -1.054453 0.737472 0.170034 0.629700 -0.366416 -0.216167 -0.300924 -0.172395 0.380665 0.205748 -0.019383 -0.339357 -0.347052 -0.295701 0.835864 -0.331637 0.480003 0.422123 -0.148133 0.441615 0.345370 -0.431191 -0.049081 -0.009208 -0.104714 -0.221058 0.005906 0.622985 
52 -0.700213 0.570505 -0.109006 -0.236948 -0.261449 -0.754839 0.283573 0.604034 0.556742 -0.571619 0.730770 0.354163 0.121767 -0.086175 -0.391297 -0.094563 -0.904237 0.343960 0.223512 0.413577 0.347899 0.686798 -0.961674 -0.027573 -0.027673 0.320603 -0.438058 0.907334 0.444193 -0.450007 0.498383 -0.287899 -0.421485 -0.144741 0.061461 -0.798862 0.028752 0.965006 -0.360473 -0.010285 0.419519 0.057347 0.375822 -0.233619 -0.048533 -0.497539 0.275191 -0.172086 0.522713 -0.339124 -0.345140 -0.107470 -0.423182 -0.709236 0.463713 0.164392 -0.240079 -0.376550 0.343544 0.383355 0.730358 0.611330 0.424254 -0.192155 -0.301857 -0.290726 -0.152305 0.288300 -0.534011 -0.107144 -0.203830 0.197069 -0.048616 0.660284 0.439548 -0.263638 0.344127 -0.228509 0.117877 -0.708595 0.762844 0.161715 0.504917 -0.252761 0.186624 0.222395 0.578242 -0.018538 -0.014686 -0.116252 -0.608267 0.047428 0.712567 -0.206101 0.186595 0.484107 0.625718 0.004205 0.287862 -0.166995 
53 -0.731047 -0.429161 -0.383929 0.302946 0.193695 -1.037025 0.389235 0.388151 0.482180 0.400966 -0.143905 0.274356 -0.303404 -0.252817 0.388849 0.365723 0.026159 0.270799 -0.003456 0.120608 -0.422097 -0.006477 -0.753214 -0.142173 -0.079388 0.098946 0.405578 0.268345 0.306634 -0.519709 0.368884 -0.343126 0.130663 0.583122 -0.694118 0.083827 0.488154 -0.046400 -0.753459 0.253289 0.276865 0.261102 0.204997 -0.837607 0.784594 -0.590823 -0.086000 0.329934 0.532060 0.117798 -0.090255 -0.894686 -0.055423 0.077198 0.442620 -0.374724 -0.343121 -0.264129 -0.555959 0.351038 0.540855 0.523650 0.629158 0.183640 -0.195392 -0.105890 0.194581 0.265864 -0.118175 -0.430027 -0.270399 0.026456 -0.537979 0.234305 0.740534 0.002547 0.351693 -0.518052 0.402691 -0.596235 0.553130 0.161071 -0.034619 -0.103744 0.163717 0.445071 0.168437 -0.274511 0.781841 0.091683 -0.315311 0.402894 -0.611651 0.414368 0.554996 0.289650 0.359127 -0.117086 0.033115 0.076452 
54 -0.074177 -0.295110 -0.826713 0.257195 0.106433 -1.313555 0.499343 0.207151 0.251853 -0.031467 0.141640 0.253730 0.003861 -0.320757 0.168183 -0.228378 -0.065812 0.304754 0.246898 -0.186633 0.247065 0.675948 -0.302403 -0.125651 -0.386497 -0.509917 -0.335294 0.836316 0.631041 -0.061144 0.414966 -0.622597 -0.425089 0.020314 -0.732751 -0.588644 -0.348113 0.077792 -0.595020 0.216148 0.083329 -0.379430 0.421749 0.197170 -0.373052 -0.640760 -0.252807 0.239045 0.947422 -0.292565 0.289251 0.171198 0.410191 -0.531251 -0.027883 -0.810953 0.736573 0.268527 0.047663 0.366538 0.271815 0.495617 0.508988 0.036559 0.570324 0.372668 0.277750 0.110233 -0.356203 -0.262600 -0.410628 0.331459 -0.349680 0.162365 0.081168 0.410308 -0.150789 -0.059872 -0.250555 -0.665958 -0.312448 -0.480626 0.255038 0.208979 0.563310 -0.089065 0.841783 0.348082 0.496127 0.492272 -0.031963 0.522365 0.347684 0.409818 0.263521 0.328301 -0.376350 -0.221270 -0.373447 -0.028613 
55 0.163749 0.159696 -0.191283 -0.006173 0.048389 -0.499258 -0.406943 -0.031236 0.472068 0.509924 0.013018 0.224206 -0.550566 0.494173 0.069973 0.531537 -0.813237 -0.717087 0.557795 -0.061163 0.290645 -0.020147 -0.891843 0.392485 -0.362765 -0.540418 0.232384 0.547451 0.392609 0.328173 0.509965 -0.150428 -0.594051 0.090147 -0.110864 -0.619593 0.202492 0.037589 -0.209252 -0.457295 0.332918 -0.652205 0.279056 -0.415711 -0.212018 -0.778240 -0.626944 0.531706 0.455413 -0.509626 0.164377 -0.009341 -0.443031 -0.689996 0.598016 0.064708 0.420033 -0.356283 -0.092188 0.302404 -0.016299 -0.219247 -0.134786 0.014632 0.361419 0.167673 -0.460995 0.383793 0.034430 -0.245742 -0.297539 0.185146 -0.878855 1.132443 0.414280 0.332024 0.269395 -0.184309 -0.223489 -0.358349 -0.168069 0.064336 0.721254 -0.813356 0.057586 0.469851 0.712127 0.024223 0.217680 -0.307692 0.253666 -0.166073 -0.646114 -0.402268 0.554775 0.070396 0.280312 -0.409806 -0.568672 0.450272 
56 -0.578987 -0.267483 -0.220376 -0.329855 0.657859 -1.077327 -0.213832 0.143837 0.605410 0.182528 0.075321 0.635770 -0.552569 -0.190903 0.130419 0.326647 0.087179 0.147369 0.664240 0.887013 0.335275 0.898056 -0.134342 0.454254 -0.285058 0.331750 -0.089956 0.343080 0.436982 -0.079547 0.060354 -0.106503 -0.210966 0.231554 -0.017214 -0.302435 -0.201796 0.416978 -0.430656 0.393493 -0.373384 0.061832 -0.315700 -0.818271 -0.116202 0.305623 -0.387757 -0.071007 0.358004 0.535083 -0.428655 -0.606607 -0.078483 -0.402391 0.735278 0.253681 0.299735 -0.277688 0.223650 0.398928 0.939577 0.732621 0.249835 0.420511 0.806851 0.471390 -0.129751 -0.343068 -0.037204 -0.562361 -0.739589 -0.247636 -0.161526 1.128552 -0.241957 -0.026514 -0.059197 -0.251036 0.154811 -0.728998 0.136648 0.625955 -0.220457 -0.106140 0.428545 0.438126 0.228524 -0.183632 0.329097 0.125466 0.550120 -0.274826 0.111639 0.323556 0.034513 0.179909 0.404467 0.266943 -0.467167 0.198592 
57 -0.585280 -0.392258 -0.062886 0.412975 0.038142 -0.693767 -0.237142 0.125447 -0.446823 -0.038129 0.549696 -0.111362 0.039384 0.542212 0.588857 0.405418 0.031679 0.292757 0.049342 0.272575 -0.260004 0.606031 -0.309885 0.493988 -0.549975 0.394053 0.637788 0.846807 0.405696 -0.243411 0.119704 -0.872671 -0.371003 0.427168 0.044279 -0.770348 -0.375147 0.718527 -0.060356 -0.076510 -0.278295 0.332172 0.171196 -0.213862 -0.027651 -0.074777 -0.586828 0.381039 0.707980 0.020676 0.243134 -0.635405 -0.363131 -0.674582 0.707325 -0.149198 0.666113 -0.196801 -0.442182 -0.079664 0.185539 0.635355 -0.025728 0.348517 0.168045 0.689040 0.131163 -0.337664 -0.650385 0.281664 -0.408905 0.463772 -0.089294 0.477384 0.095899 -0.102203 0.060488 -0.523029 -0.490947 0.061446 -0.076305 -0.356716 -0.230273 -0.161291 -0.130833 0.330310 0.002292 0.274284 0.100600 0.251090 0.142275 0.120025 0.224367 0.147501 0.929511 0.557425 -0.277514 0.138347 0.050216 0.495340 
58 -0.717102 -0.208664 -0.583830 0.265756 0.427128 -0.937472 -0.173169 0.338144 -0.466547 -0.102322 0.411055 0.595838 0.036443 0.072210 0.035053 -0.229624 -0.141399 -0.194532 -0.132128 -0.109267 0.472302 0.284284 -0.518578 0.603209 -0.297168 -0.440664 -0.030866 0.349863 0.276692 -0.494139 0.141644 -0.364258 -0.328254 0.586578 0.027517 -0.629464 0.217298 0.842384 -0.719518 -0.245753 0.321678 -0.325354 0.687005 0.053995 0.139134 0.023310 0.097744 0.011365 0.955042 0.154522 -0.119326 -0.910027 0.149433 0.163966 0.303454 -0.494699 0.169859 -0.319033 0.507182 -0.414214 0.382437 0.387151 -0.005097 0.099020 -0.262528 -0.124258 -0.075495 0.492339 0.292163 0.231460 0.053283 0.192774 -0.092593 0.861565 0.342599 -0.109319 -0.383472 0.235351 -0.335889 -0.524947 0.356784 -0.190348 0.035048 -0.094577 0.568043 0.651763 -0.218361 0.034243 0.703340 0.119566 0.212804 0.253365 0.241869 -0.300808 0.324982 0.478142 0.039168 0.158810 -0.415445 0.690884 
59 -0.149240 0.143259 -0.054903 0.188242 0.282993 -1.040804 0.066731 -0.004267 0.174505 -0.111085 -0.268556 0.545591 -0.328880 -0.343756 0.023342 -0.339595 -0.285375 0.188888 0.586440 -0.079857 0.149770 -0.072550 -0.111675 -0.068802 -0.024969 -0.354412 0.491807 0.346754 -0.003134 0.252472 -0.321916 -0.337395 0.472276 0.827084 -0.845796 -0.327267 0.099448 0.346169 0.095138 -0.246598 0.595898 -0.605595 0.490177 -0.822967 -0.304930 0.149179 -0.228968 0.434244 0.796309 0.109473 0.041031 -0.687538 -0.365673 -0.591631 0.115149 -0.536365 -0.333491 -0.047707 0.331387 0.113827 0.610825 -0.166955 0.412211 0.627242 0.070666 0.622757 0.535014 -0.343470 -0.898909 -0.688223 -0.496863 0.065057 -0.742771 0.934826 -0.224700 0.024198 0.065591 -0.209515 0.364354 -0.288955 0.609271 -0.550039 -0.292416 -0.226865 0.012601 0.448716 -0.622944 0.441347 0.367413 0.447538 -0.315134 0.197984 -0.024545 -0.529444 0.087023 -0.042289 -0.481528 0.458782 -0.561211 0.105924 
60 -0.260985 0.211121 -0.209278 0.095071 0.466642 -1.126053 0.466948 -0.326346 -0.136568 0.105094 0.680570 -0.168692 0.116088 0.601382 -0.129778 -0.176790 -0.300210 -0.348964 0.141473 -0.111923 0.282246 0.440475 -0.088501 -0.009621 0.294637 -0.265413 -0.337664 0.236332 0.331363 0.119966 -0.038178 -0.453997 -0.385586 0.636344 -0.041722 -0.585097 0.377333 0.098679 -0.099234 0.075862 0.167895 -0.460125 -0.140489 -0.536388 -0.192949 -0.337061 0.041138 -0.018317 0.438245 -0.125324 -0.072415 -0.778020 -0.406312 -0.149981 0.714641 -0.261080 0.266563 0.091417 -0.023962 0.168372 0.669396 0.478138 0.136215 0.308139 0.132183 0.756858 -0.043851 0.284001 0.152552 -0.327179 -0.193806 0.589477 -0.956815 0.720553 0.172452 0.554369 -0.311671 -0.223251 -0.280331 -0.198734 0.363850 0.186121 -0.003302 -0.333689 -0.291304 -0.204340 0.751481 -0.276298 0.462397 0.408209 -0.147231 0.394937 0.244077 -0.384575 0.017854 0.076670 -0.056745 -0.193267 -0.004702 0.584002 
61 -0.582246 0.137822 0.164436 0.033778 0.616807 -1.171003 -0.330956 -0.216965 0.448151 -0.238999 0.252077 0.464239 0.166502 0.577540 -0.512875 0.394435 0.018678 -0.044981 -0.292985 0.431875 -0.063967 0.170175 -0.463234 0.040339 0.242371 -0.289752 -0.032038 0.559687 0.480316 -0.281888 0.690810 0.004099 0.433299 0.636864 0.038744 0.185262 0.323946 0.910138 -0.621025 -0.024720 -0.208641 -0.031903 0.139335 -0.555784 0.417424 0.143869 0.328431 -0.314879 0.475029 0.064380 0.272045 -0.189095 -0.268279 0.016622 -0.020293 -0.120244 0.134122 -0.477548 -0.573767 0.512706 0.329721 0.385599 0.264572 -0.128671 0.320446 0.701664 -0.132094 0.008279 -0.398299 -0.179657 -0.305748 0.396386 -0.492060 0.521328 0.055651 -0.498387 0.088532 0.199064 -0.528348 -0.152356 0.668740 -0.478681 0.197862 -0.316275 -0.254486 0.132697 0.091494 -0.229691 -0.293934 0.772274 0.256075 0.482922 -0.557024 -0.148710 0.424448 0.508913 -0.061948 0.361774 -0.464877 0.469360 
62 0.111195 0.395338 -0.126777 -0.138913 0.659912 -0.919512 -0.134108 0.245559 -0.289425 0.137462 0.410217 -0.159150 -0.473409 0.323361 -0.567775 0.233479 -0.347523 -0.017230 0.497935 -0.212300 0.230731 -0.004346 -0.749198 0.584420 -0.287943 -0.346210 -0.272894 0.843144 -0.080004 -0.579713 0.560986 -0.226692 0.106547 -0.030519 0.230069 -0.405377 0.223734 0.272762 0.052028 0.692910 -0.015495 0.423747 0.743463 -0.758404 0.085750 -0.271441 0.032888 0.394519 0.284401 -0.458398 0.581774 -0.499914 0.274556 -0.770842 0.017812 -0.688970 0.101415 0.395937 0.299779 0.495876 0.686631 -0.039209 0.398366 0.686793 0.337102 0.066864 0.269872 0.494010 0.030033 -0.116579 -0.350109 0.415168 -0.601326 0.944423 0.607528 0.092710 0.014219 -0.076657 -0.114610 -0.433431 0.180155 -0.199824 -0.195696 -0.177303 0.018821 0.558606 0.128655 -0.033530 0.234373 0.201754 0.255683 0.250785 0.013845 -0.053823 0.703039 0.447689 0.097014 0.376133 -0.297193 -0.289981 
63 0.139948 -0.522436 -0.138526 0.445458 0.488214 -1.274190 0.717683 0.594599 -0.208645 -0.178506 0.272893 -0.167774 0.406189 0.082524 -0.436062 -0.339913 -0.874138 0.057208 0.298002 0.332192 -0.290277 0.592158 -0.150170 0.127542 -0.573819 -0.209680 0.348492 -0.092983 0.502527 -0.137975 0.257593 -0.000536 0.099139 0.344185 -0.543603 -0.830427 0.455578 0.577744 -0.075397 0.257920 -0.167205 -0.111699 -0.020007 -0.359983 0.253204 0.083922 -0.622138 0.557320 0.758663 0.079100 -0.214700 -0.351853 0.504945 -0.458527 -0.003060 -0.682491 0.401688 0.169794 0.160758 0.280458 0.593957 -0.124850 0.046192 -0.176420 -0.116300 -0.220346 -0.229120 0.449474 0.046439 -0.670456 -0.454439 -0.139069 0.121314 0.877878 -0.131407 -0.018011 0.016613 -0.655391 -0.019043 -0.172727 0.771997 0.251685 0.152903 -0.188947 -0.609364 0.848817 0.138348 -0.012235 -0.275057 -0.091915 -0.214837 -0.562927 0.294200 0.349999 0.960880 0.347880 0.310372 -0.037709 -0.399606 0.362610 
64 0.014887 -0.238909 -0.787485 -0.145238 0.202770 -0.488032 -0.323605 0.238019 0.103538 -0.273228 0.740683 -0.107300 -0.205373 0.631005 -0.204443 -0.481607 -0.028402 0.284649 0.863211 0.827111 -0.142617 -0.032390 -0.589508 0.580565 -0.752217 -0.448308 -0.329145 0.465195 -0.217208 0.285102 0.215241 -0.157918 -0.072248 0.938002 -0.366943 -0.208580 -0.185073 0.843247 0.135541 -0.398632 -0.266948 -0.120953 0.650348 -0.234515 -0.412337 -0.731023 0.080180 0.265611 0.355826 -0.415078 -0.193510 -0.090617 -0.379064 0.072097 0.072461 0.207691 0.825294 -0.240361 0.373767 0.655582 0.885923 0.315140 -0.200158 0.700370 0.040404 0.423157 0.112823 -0.119626 0.097324 0.133723 -0.590459 -0.279679 -0.438301 0.444043 -0.051970 -0.402045 -0.278054 0.125225 0.044838 -0.009637 0.789716 0.265933 0.064550 -0.890383 0.295046 0.777389 -0.141458 0.607907 0.525540 0.290852 0.291167 -0.250411 -0.682733 0.202580 0.944869 0.682345 0.055193 -0.201764 0.157690 0.361013 
65 -0.578259 0.536000 -0.340609 -0.235132 0.575163 -0.898612 -0.205298 0.174893 0.154924 0.364555 0.295647 0.344291 0.228923 0.308061 -0.468752 0.019199 -0.441436 0.133310 0.639432 -0.213162 0.211069 0.026022 -0.249960 0.388755 -0.275909 -0.636119 0.542770 1.003248 -0.110152 -0.569265 0.745551 0.077510 0.111443 0.538734 0.040628 -0.469248 -0.232542 -0.011707 -0.004862 -0.246424 0.107587 0.378292 0.055359 0.089081 -0.158009 -0.806867 0.181507 -0.226800 0.969145 0.394404 0.238896 -0.105066 0.022084 -0.267105 0.796239 -0.593483 0.166570 -0.350435 -0.298320 0.213931 0.503134 0.375705 -0.050005 -0.164790 0.534631 -0.032038 -0.684262 -0.492323 -0.609545 -0.801292 -0.010784 -0.398046 0.047990 0.378027 0.007044 0.739717 -0.152582 -0.573039 -0.399053 0.202458 0.233936 0.362502 -0.091538 -0.011672 -0.102036 0.739263 0.454663 0.169239 0.401688 0.680404 -0.021393 0.357216 -0.541683 -0.581556 0.317765 0.305224 0.527724 -0.472742 -0.283652 -0.041055 
66 -0.332269 -0.259861 -0.881127 -0.110325 -0.022863 -0.728126 -0.358392 0.332485 0.152549 -0.016702 0.180639 -0.203830 0.241914 0.228788 -0.626520 0.366351 -0.709050 -0.276803 0.656961 -0.034429 0.587551 -0.013154 -0.123152 0.003408 0.199522 0.157979 0.043308 0.917477 -0.123886 0.284258 -0.102432 -0.039266 0.079234 0.434462 -0.713115 0.160157 -0.233312 0.873188 -0.493245 0.604254 0.469582 0.461589 0.583782 -0.061106 -0.296151 0.229850 -0.816104 0.101887 0.953306 -0.152558 -0.116186 -0.568484 -0.122468 0.113246 0.079878 -0.448895 -0.240499 -0.144437 0.353830 0.728799 0.084397 0.214625 0.399821 -0.161549 0.059314 0.504248 -0.270245 0.389013 -0.777590 0.144937 0.010777 0.050501 -0.407151 0.650623 0.796075 0.083826 -0.311869 0.066412 0.107457 -0.750937 0.846541 0.202609 0.423724 -0.602994 -0.243970 0.161083 0.409364 0.305483 -0.058208 0.396730 -0.476719 -0.212643 -0.818365 0.063199 0.247880 0.261746 0.351646 -0.166894 -0.031697 0.359533 
67 -0.530224 0.540613 -0.706563 0.557684 0.307577 -0.731436 0.203075 0.841892 0.065446 -0.124257 0.833104 -0.190109 0.016491 0.707751 -0.062655 -0.310761 -0.948511 -0.102585 -0.330095 0.685968 -0.367492 0.386114 -0.416409 0.173277 0.237680 0.028747 0.740182 0.953209 0.404318 0.637554 -0.395844 0.177011 0.013348 0.474339 -0.198687 -0.701437 -0.369683 -0.047570 0.157934 -0.359508 0.238054 -0.223500 -0.145683 -0.736903 0.090526 -0.100713 0.144172 -0.226928 0.589844 -0.038001 0.027657 0.020323 0.457467 -0.343548 0.825104 0.110169 0.257884 -0.165012 0.216941 -0.154759 0.156769 0.694456 0.628297 0.768829 0.704388 0.767117 -0.053090 0.185324 0.179623 -0.648402 -0.131834 0.476214 -0.473547 0.729824 0.482269 0.535342 0.115063 0.475711 0.128296 -0.326488 0.922562 -0.277238 0.497533 0.020372 0.560610 0.665157 0.020959 -0.426030 -0.376121 -0.310207 -0.199346 0.407880 -0.276871 0.196799 -0.053416 0.241114 0.561126 -0.376316 -0.541475 0.310545 
68 0.024844 -0.266224 0.005341 0.077545 0.695749 -0.940020 0.095885 0.345677 0.043996 -0.410938 0.680078 -0.350830 -0.085864 0.162331 -0.188663 0.366760 -0.046517 0.126918 -0.275350 0.117645 0.287270 -0.108541 -0.108415 -0.413837 -0.400773 -0.130384 -0.095436 0.224085 0.488082 0.100968 0.441314 -0.444295 -0.400979 0.890064 -0.346690 -0.415173 0.430864 0.247504 -0.464394 0.552408 0.205225 0.291542 0.140061 0.211002 -0.115014 -0.527341 -0.186741 -0.374526 0.771509 -0.197666 0.085172 -0.271415 -0.294001 0.243660 0.492700 -0.596457 -0.328419 -0.338650 -0.114100 0.028278 0.412041 -0.264667 0.119401 0.132859 -0.056698 -0.021343 -0.119325 0.395664 -0.947818 -0.716590 -0.383440 -0.193692 -0.779635 0.991193 -0.166038 0.173041 0.172243 -0.413454 0.120374 0.161614 0.322496 -0.437604 0.478150 -0.339582 0.357852 0.424296 0.390776 0.388426 0.591823 0.121163 0.496464 0.018627 0.174825 -0.479380 0.600950 1.066978 0.096938 0.054443 0.377418 0.222746 
69 -0.387718 0.729394 -0.335952 0.445382 0.499863 -0.953843 0.640277 0.001280 0.373307 0.433303 -0.054996 -0.219772 0.169545 0.658352 -0.049532 0.417615 -0.019436 0.208546 0.157792 -0.060984 0.266733 0.489866 -0.502777 -0.109202 -0.507215 0.519706 -0.473114 0.988244 0.271168 -0.566022 0.108762 -0.393409 0.255788 0.513169 -0.131888 -0.324571 -0.105289 1.125479 -0.412812 0.105553 0.442284 0.007577 0.781074 -0.122236 0.489609 0.207204 -0.545931 0.231548 0.380506 0.173861 -0.129319 0.020064 -0.088966 -0.057181 0.106114 -0.140481 0.870534 0.507425 0.240723 -0.431738 0.646029 0.752341 -0.047859 -0.174395 -0.024249 -0.110726 -0.536728 0.346251 -0.557884 -0.842686 0.192665 -0.260240 -0.531041 0.245884 -0.117436 -0.112240 -0.498890 -0.475584 0.582952 -0.245112 0.130547 -0.206329 -0.307075 -0.933256 -0.218748 -0.254840 0.023227 0.396886 0.232683 0.698354 0.417029 -0.077120 -0.285995 -0.586008 0.608072 0.165516 0.056436 -0.154516 0.526757 -0.300642 
70 -0.536274 0.110807 0.098453 0.040353 0.591351 -1.141366 -0.303612 -0.216780 0.420640 -0.198597 0.247897 0.429939 0.148403 0.521470 -0.467894 0.366120 -0.023915 -0.038762 -0.240287 0.415137 -0.040060 0.171442 -0.464427 0.041168 0.210856 -0.268340 -0.016197 0.563615 0.454694 -0.270307 0.659471 -0.038385 0.419764 0.616014 0.027011 0.112768 0.285397 0.850147 -0.570478 -0.001809 -0.161159 -0.013349 0.123551 -0.557777 0.391108 0.093979 0.267682 -0.288578 0.483908 0.085875 0.266016 -0.200202 -0.245236 -0.037792 0.027553 -0.166897 0.147993 -0.432390 -0.518802 0.466337 0.373843 0.366765 0.280030 -0.090521 0.306014 0.658118 -0.133477 0.022534 -0.391915 -0.197412 -0.314020 0.369559 -0.467036 0.518370 0.075647 -0.415782 0.101291 0.188267 -0.505557 -0.142321 0.625415 -0.427102 0.225696 -0.334929 -0.222681 0.172775 0.119220 -0.212872 -0.188311 0.732619 0.255831 0.452249 -0.551103 -0.154024 0.411258 0.491605 -0.046345 0.321043 -0.437660 0.483006 
71 -0.244298 0.491064 -0.832804 0.419619 0.361897 -1.088211 0.176001 -0.196269 0.515442 -0.131817 0.371290 -0.188195 -0.709648 0.548676 0.044752 0.128860 0.054086 -0.614004 0.298532 0.419376 0.228529 -0.105764 -0.550764 -0.422888 -0.073498 0.448015 -0.027976 0.531615 0.507585 -0.068436 -0.098338 -0.676838 -0.205897 0.570350 0.132763 -0.621347 0.212653 0.627925 0.082100 -0.073105 0.066153 -0.128954 0.377597 -0.199549 0.347533 -0.649872 -0.234361 0.491201 0.099706 0.451995 0.462954 -0.692494 0.459091 -0.501295 -0.016093 -0.753476 0.134378 -0.483433 0.101229 0.044032 0.800896 -0.090171 0.377845 -0.347016 -0.060336 0.357945 0.120778 0.209855 0.143397 -0.095222 0.045041 0.366362 -0.571039 0.258166 -0.114175 -0.239643 0.485813 0.165850 -0.309309 -0.057984 0.650678 -0.117318 0.176002 -0.150546 -0.065469 0.741534 -0.153890 -0.261072 0.382855 -0.270007 -0.192147 -0.115790 -0.580398 -0.446676 0.001766 0.151269 0.087246 -0.270140 -0.031141 0.094080 
72 -0.799589 -0.313058 -0.527773 -0.426968 0.245541 -1.260834 -0.303768 -0.259652 -0.235693 -0.405996 0.055307 0.079544 -0.564897 0.335742 -0.189901 -0.328080 -0.594735 -0.437455 0.609073 0.410513 -0.339490 0.128169 -0.422156 -0.330035 0.167136 -0.160368 -0.259444 0.156374 0.127483 -0.684325 0.229927 -0.763335 -0.056550 0.794697 -0.491349 -0.794824 -0.482112 0.474274 -0.039270 -0.215464 0.684770 0.169708 0.579665 -0.548513 -0.116568 -0.005427 -0.256765 0.220491 0.205680 0.513720 0.278336 -0.035866 0.295442 -0.073128 0.231201 -0.430969 0.455467 0.350004 -0.344330 -0.031973 0.238291 0.043780 0.401853 0.295440 0.420182 0.365344 0.031854 0.358236 -0.296452 0.108977 -0.632315 -0.316497 0.109167 1.082326 -0.009762 0.018083 0.317198 0.231144 0.085990 0.328929 0.331066 -0.225035 0.641105 -0.488258 -0.279904 0.276096 0.510604 -0.416637 0.289833 0.544032 -0.132468 0.393590 0.165938 0.318788 0.706234 0.580558 -0.098121 -0.066107 0.289689 0.120639 
73 -0.368063 -0.587858 -0.314644 -0.041750 0.228878 -0.776287 0.162713 -0.463913 0.246302 -0.513620 0.093160 0.476603 -0.384588 0.135053 -0.154382 0.248525 -0.758270 -0.331671 -0.170084 0.691946 -0.289247 -0.001820 -0.821954 0.522221 -0.105453 0.284628 0.380480 0.967282 0.305287 0.588744 0.576291 -0.045164 -0.231308 0.640079 0.237159 -0.841310 0.334637 0.761018 -0.496585 -0.151966 0.369864 0.238033 0.254448 -0.287380 0.045408 0.175837 0.242428 0.153304 0.320649 -0.615634 0.249346 0.019440 0.026855 -0.931364 0.196624 -0.019731 0.633044 0.156103 0.178117 0.022301 0.609667 1.026407 0.421722 0.248769 -0.002989 -0.130794 -0.465434 -0.102914 -0.550878 -0.427429 -0.482721 0.578377 0.071422 0.240774 0.760802 0.761904 -0.392166 0.063134 0.138990 0.233710 0.838990 0.527569 0.014748 -0.349279 -0.371287 0.452853 0.461844 -0.014059 0.293292 0.036526 0.068461 -0.639789 -0.240497 -0.633629 0.621122 -0.015090 -0.488830 0.012505 -0.702051 0.056457 
74 0.077713 0.362408 -0.243135 -0.399216 0.541231 -0.640197 0.157643 0.058532 -0.021702 0.517287 0.731446 -0.276424 -0.684732 0.306504 -0.322737 -0.169725 -0.629722 0.171813 0.399365 -0.109736 -0.127063 0.436831 -0.678986 -0.381504 0.030740 0.214704 0.208952 0.447155 0.845233 -0.642195 0.543837 -0.283982 -0.043990 0.647710 0.289858 -0.082025 -0.492493 0.048526 -0.259515 0.508456 0.340530 -0.198358 0.609864 0.091936 0.607971 0.226595 -0.599419 -0.306476 0.225348 0.075716 0.148089 -0.772738 0.013388 -0.849325 0.864162 -0.135186 0.337548 -0.439665 -0.052936 0.119338 0.409824 0.249576 0.027811 0.360649 0.158393 -0.013029 -0.520482 0.412171 0.074347 0.221487 -0.197444 0.253433 -0.681989 0.355936 -0.030016 0.204993 -0.222942 -0.224378 -0.329121 0.298363 0.961042 0.352948 0.248965 -0.189100 0.362445 -0.231130 0.640388 0.091452 -0.223826 0.483635 -0.526325 -0.353262 -0.294220 0.526400 0.883811 0.225853 0.601406 -0.588500 -0.576837 0.160376 
75 0.170001 -0.028135 -0.171482 0.493261 0.619316 -1.067664 0.090391 -0.193304 -0.214030 -0.136892 0.843901 -0.422735 -0.445133 -0.245696 0.446369 -0.554634 -0.256747 -0.851530 0.905473 0.269343 -0.023921 0.784661 -1.062977 0.127622 0.164562 0.237849 0.274620 0.093502 0.070986 0.338373 0.562443 -0.807304 -0.119830 0.165560 -0.243992 -0.122746 0.005114 0.748100 -0.625349 -0.393190 0.486438 0.238522 0.393435 -0.252659 -0.014225 0.035286 -0.024845 -0.162379 0.307696 0.280702 0.089068 -0.334860 0.280421 -0.457130 0.245151 -0.472844 0.415380 0.316464 -0.135134 -0.028766 0.462810 -0.046290 -0.034299 0.787180 0.602573 -0.112883 0.060740 0.193369 -0.129017 0.015453 -0.502280 -0.245062 -0.480425 -0.018151 0.311905 0.052149 -0.585327 -0.769269 -0.201858 0.140095 0.312553 -0.106527 -0.346124 0.169302 -0.092128 0.351429 -0.108079 0.204027 0.885622 0.777972 0.369207 0.400408 -0.388663 -0.682950 0.454002 0.447296 0.355073 0.011996 -0.213333 0.129791 
76 -0.195948 -0.337216 -0.693651 0.434341 0.539378 -1.149740 0.003732 0.470230 -0.413855 0.574460 -0.072791 -0.334155 -0.661354 -0.089384 -0.732585 0.452247 0.099424 -0.180831 0.062664 0.744253 0.278097 -0.103990 -0.468006 -0.252307 -0.394098 -0.151886 -0.273094 0.698388 0.141405 0.323969 0.651009 -0.395177 0.080310 0.435188 -0.779621 -0.521219 -0.289914 -0.152808 0.137278 -0.025009 0.209595 0.392557 0.732180 -0.733077 -0.167367 -0.816331 -0.203775 -0.500898 0.117146 0.162604 0.305158 -0.514658 0.163208 -1.101982 0.277755 -0.361536 -0.241260 0.326653 -0.366336 -0.285289 0.005558 0.410185 0.389579 0.332871 -0.008637 0.864329 -0.285110 -0.306248 -0.542022 -0.624811 -0.515709 0.016890 -0.084909 0.130497 0.044385 -0.082638 0.465022 0.107268 -0.193683 -0.870231 0.006521 0.455897 0.043514 -0.627871 -0.216111 0.086031 0.124141 0.436905 0.769992 0.506888 -0.128639 -0.460790 -0.410472 -0.305626 0.898652 0.414337 -0.023941 -0.194014 0.192048 0.351302 
77 -0.485792 -0.202369 -0.006982 -0.144311 0.104541 -0.703312 -0.252479 0.564300 0.274027 0.151197 0.999753 0.348164 -0.091228 0.783235 0.402707 0.018474 -0.864451 -0.500990 0.103001 0.405413 0.686733 0.366688 -0.332157 -0.183655 0.318163 -0.022678 0.395805 0.351658 -0.020048 -0.421048 0.056189 -1.300301 0.353735 0.100336 0.271831 0.164122 0.468496 -0.001739 -0.609287 -0.584412 0.438774 -0.138080 0.611595 -0.860891 -0.030672 -0.254639 -0.106708 0.724601 0.448741 -0.358627 -0.234347 -0.571765 0.331841 -0.242847 0.081731 -0.364371 0.475498 -0.515090 0.182596 -0.398101 0.578267 0.004009 0.249046 0.002622 0.383530 0.022011 -0.454755 -0.499183 -0.634130 -0.346826 -0.544664 -0.043547 -0.190986 0.928317 -0.246725 0.382518 0.279545 -0.533570 0.490204 -0.860891 0.708790 0.449125 -0.230617 -0.376823 -0.250524 -0.263512 0.197224 0.669225 -0.072245 0.387226 -0.012960 -0.192398 0.264265 0.219151 0.627704 0.268844 0.221159 0.004323 0.210478 0.138191 
78 -0.235007 -0.254137 -0.761000 -0.433859 -0.187042 -0.431593 0.739495 0.012642 -0.020878 0.223467 0.842799 0.390064 -0.042161 0.393660 -0.170490 0.596708 -0.694391 -0.116936 -0.283689 -0.063412 -0.069752 0.338949 -1.057609 0.473329 -0.099328 0.479305 0.161857 -0.084260 0.095249 0.037521 -0.056154 -0.152679 -0.536579 0.795667 -0.297652 0.097249 0.522044 0.251118 -0.186152 0.339848 0.693782 -0.540930 1.040288 0.033937 0.185550 -0.258533 -0.023016 -0.109856 0.423486 0.131886 0.362604 -1.036299 0.657274 -0.832192 -0.054759 -0.243229 -0.161096 0.266340 -0.359428 -0.447846 0.385686 0.198781 0.397701 0.823939 -0.076917 0.259485 -0.563320 -0.079535 -0.324392 -0.450096 0.080656 0.257962 -0.972599 0.522119 -0.173032 0.078218 -0.040360 -0.482425 0.128070 -0.314180 0.308825 0.203934 0.179601 -0.753070 -0.532485 0.710466 -0.211815 -0.517779 0.152545 0.153387 0.286644 -0.089998 0.387891 0.074386 0.254978 0.974230 0.088252 0.022781 0.042663 0.008436 
79 -0.191829 0.191264 -0.538448 0.606531 -0.096530 -0.420988 0.072508 0.049462 0.213187 -0.566744 0.029276 0.029323 0.095086 0.096828 -0.234528 -0.267277 -0.419956 -0.054742 -0.257753 0.863577 -0.130608 0.486749 -0.636426 0.052917 -0.004455 0.174823 0.294789 0.423627 0.034299 0.119105 0.133440 -0.116900 0.166949 -0.123830 -0.226010 0.020016 0.063968 0.761892 -0.130346 -0.020279 0.152810 -0.057607 0.099227 -0.872603 -0.389964 -0.263894 -0.416380 -0.095734 0.573118 -0.202926 0.646969 0.079995 -0.244764 -0.038442 0.142900 -0.669416 0.126934 -0.504075 0.336375 -0.560203 1.175344 -0.525482 0.017446 0.191704 0.340190 0.174752 0.095670 0.504695 -0.195342 0.041548 -0.395232 0.672975 -0.560843 0.976645 -0.028538 0.519830 -0.550370 0.237772 -0.244374 -0.715739 -0.543213 -0.029851 0.035627 -0.454906 0.187392 0.024657 0.506497 -0.237220 0.429323 0.039444 -0.406875 -0.612123 -0.650705 -0.260382 0.886584 1.075375 -0.094422 0.709813 0.065373 0.636069 
80 -0.235676 0.458616 -0.766403 0.384785 0.345185 -1.049487 0.160920 -0.161402 0.480717 -0.149398 0.357414 -0.150638 -0.659831 0.520718 0.040086 0.102763 -0.002233 -0.544620 0.279707 0.409427 0.207024 -0.050975 -0.539838 -0.381818 -0.094270 0.386387 -0.004481 0.526122 0.480952 -0.089404 -0.066795 -0.646411 -0.164738 0.550162 0.098373 -0.577499 0.200362 0.619362 0.038256 -0.047280 0.081944 -0.108959 0.357255 -0.189628 0.335720 -0.599365 -0.231075 0.455913 0.142605 0.413748 0.411564 -0.667067 0.424820 -0.482646 0.015229 -0.708543 0.140442 -0.445228 0.083605 0.043360 0.765504 -0.065402 0.361416 -0.278200 -0.053144 0.338881 0.115518 0.208692 0.115351 -0.105415 0.040426 0.343444 -0.528958 0.253206 -0.076458 -0.210266 0.455436 0.143355 -0.294506 -0.070381 0.621068 -0.095736 0.189614 -0.160780 -0.067418 0.725432 -0.145683 -0.247064 0.353868 -0.238665 -0.197755 -0.133113 -0.548119 -0.429328 0.023441 0.169713 0.082775 -0.252048 -0.031380 0.096284 
81 -0.166905 -0.080936 -0.072240 -0.249273 0.004316 -0.912475 -0.173486 -0.139438 0.361817 0.417048 0.571415 -0.111853 -0.372891 0.301894 -0.046730 0.072345 -0.312596 -0.300480 0.392159 0.406615 -0.020961 0.277360 -0.309908 -0.434179 -0.591095 -0.239104 -0.389881 0.787865 0.538799 0.339906 -0.062196 -0.136829 0.064165 0.149388 0.075929 -0.149297 0.329814 0.164307 -0.633246 -0.316279 0.242062 0.616569 0.386723 -0.252573 0.318969 -0.195971 -0.449192 0.031031 1.037241 0.166009 0.197734 -0.269580 0.225817 -0.731718 0.745432 0.007395 0.127872 -0.320958 -0.034542 -0.137214 0.663718 0.326274 -0.019518 -0.048390 0.610744 0.167458 0.239489 0.139598 -0.065908 0.047185 0.107902 0.151478 -0.391331 0.326974 0.503739 0.405129 0.431079 -0.431206 0.029384 -0.275671 0.571410 -0.255949 0.372987 -0.641153 -0.010077 -0.014606 -0.053761 0.181070 0.522374 0.115743 0.219179 0.320262 0.202886 0.179692 0.387916 0.965228 0.272450 0.487443 -0.293021 0.368368 
82 -0.691303 0.047265 -1.054367 0.107006 0.342828 -0.084530 0.073957 0.003219 0.344310 0.260695 -0.155549 0.186034 -0.129361 0.353719 -0.026428 0.270625 0.148345 -0.101255 -0.028087 -0.142344 0.652350 -0.060696 -0.719063 -0.319985 0.133249 0.630089 0.490237 0.538154 -0.271256 -0.196405 0.525441 -0.673115 0.471418 0.671397 0.394548 -0.904988 0.238994 0.644592 -0.217769 0.451214 0.578445 -0.101299 0.155857 -0.359706 -0.173642 -0.188918 0.178014 0.204338 0.727350 0.410760 -0.298860 -0.952826 -0.104915 -0.161760 -0.008000 -0.159814 0.533049 0.515353 -0.208774 0.188633 0.477824 0.441700 0.579888 -0.110642 -0.273125 0.397152 -0.446107 -0.037505 -0.489590 0.327458 -0.854313 0.700028 -0.641552 0.401793 0.619215 0.553399 -0.028942 -0.274801 -0.275298 0.324091 0.142520 0.546247 0.714618 0.213568 0.344515 0.246437 0.795400 0.088003 -0.283199 0.505778 0.381943 0.598048 -0.597149 -0.076750 0.744893 0.913751 0.252227 -0.304631 -0.301616 0.266579 
83 -0.570342 0.097063 0.078690 0.607789 0.644120 -0.107541 0.354331 0.528635 0.215464 -0.520374 0.647943 0.639567 -0.336438 0.880009 -0.546560 -0.363444 0.144896 -0.612450 0.155177 0.021334 0.536179 0.813221 -0.149705 0.513373 -0.466532 -0.438852 0.086231 0.534286 0.063819 0.029693 -0.114394 -0.426908 0.166763 0.217210 -0.469910 -0.340170 0.329760 -0.120741 -0.625565 0.222626 0.499654 0.058238 0.519502 0.110142 0.121028 -0.541954 -0.550520 -0.212008 0.476162 -0.302131 0.236724 -0.126364 0.590924 -0.145345 0.514133 -0.626149 -0.476030 0.149235 0.153186 0.561165 0.248228 0.062702 0.211207 -0.184657 0.663100 0.357313 -0.337430 -0.220309 -0.269816 -0.431660 0.013664 0.093232 -0.249368 0.522512 0.633877 -0.173485 -0.491650 -0.578242 0.170617 -0.633145 0.257439 0.373757 -0.231490 -1.072565 0.244063 -0.163211 0.658582 -0.325848 0.307422 -0.034547 0.250084 0.427949 0.116863 0.046888 0.700329 0.683652 -0.112696 -0.155065 -0.321920 0.447436 
84 0.211629 -0.010237 -0.570671 0.361192 0.386085 -0.341321 0.347125 -0.433051 0.318111 0.493876 0.667034 0.661310 0.042113 0.214871 -0.129784 -0.074657 -0.701088 -0.547184 -0.033168 0.716473 0.199439 0.464608 0.133617 0.133483 0.068510 0.458724 0.331920 0.922673 -0.140559 -0.623477 0.493646 -0.316819 0.560514 0.628344 -0.755484 -0.344127 0.228651 0.105093 -0.452716 0.466100 -0.236434 0.274055 0.807880 -0.159300 0.572800 0.170273 0.068401 -0.248287 0.269270 -0.022533 0.531303 -0.130218 -0.279166 -0.757002 0.419193 -0.542783 0.107751 0.075205 0.258155 0.476243 0.261734 0.042506 -0.222153 0.324225 -0.434725 0.218290 -0.060573 -0.262724 -0.463692 -0.655051 -0.612862 0.462878 0.062094 0.597047 0.470842 -0.152222 0.141735 -0.293416 0.005118 0.007484 0.106484 -0.457881 0.675462 0.208166 0.620736 0.382122 0.318474 -0.329699 0.490325 0.246963 -0.463995 0.149485 0.206489 0.105380 0.874802 0.263763 0.020819 0.023285 0.431466 0.592864 
85 -0.084510 0.338175 -0.969753 -0.191144 -0.201619 -0.477108 -0.124473 -0.309215 0.035754 -0.413143 0.587999 -0.319166 -0.714919 0.233661 0.327972 -0.224325 -0.146336 -0.228887 -0.105918 0.011759 0.125951 -0.185175 -0.067573 0.302165 0.250290 -0.301053 0.553789 0.432554 -0.092454 0.388144 0.216789 -0.300402 0.339106 0.952367 -0.606602 -0.599250 0.336592 0.094514 0.122659 -0.042019 -0.178967 0.264422 -0.217401 -0.334623 0.021628 0.126588 -0.519140 0.757710 0.748641 -0.391238 0.504347 0.123389 -0.204354 -0.842721 0.142365 -0.004398 0.388027 0.344308 -0.528132 -0.026173 1.109896 0.389236 0.408990 0.195698 0.622737 0.092756 -0.592920 -0.438625 -0.015567 -0.472653 -0.141470 0.226497 -0.153282 0.496564 0.232877 0.140315 0.218905 -0.658952 0.094175 -0.714725 0.511053 0.615367 0.058791 -0.227034 0.089530 0.459921 0.785489 0.131085 0.917366 0.194566 -0.135964 0.514194 0.245682 0.119318 0.324474 0.449534 0.460826 -0.031131 0.102018 0.636123 
86 -0.513812 -0.374840 -0.507438 0.091444 -0.057212 -0.808152 0.665108 -0.075485 0.255656 0.684190 -0.155681 0.099966 -0.230802 0.733031 0.194812 -0.560737 -0.832211 -0.496527 0.304915 0.114020 0.278346 -0.215056 -0.135816 0.064335 -0.162310 -0.426017 -0.357509 0.418137 0.750561 -0.101840 -0.191534 -0.581512 -0.087853 0.473529 0.204223 -0.069093 -0.046672 0.367551 0.166780 0.358700 0.361390 0.300417 -0.143681 -0.490649 0.113062 -0.740287 -0.195865 -0.281123 0.244286 -0.312783 0.033199 -0.330792 -0.445478 0.028772 0.567032 -1.086239 0.385408 0.216950 -0.149545 -0.008728 0.335005 0.314295 0.674590 0.086960 0.157557 -0.276462 -0.064124 -0.338970 -0.484801 0.118533 -0.663226 0.717714 -0.182629 0.638001 0.256249 0.454175 0.347573 0.314602 -0.424043 -0.103588 0.436943 -0.134275 -0.238947 -0.796543 -0.250811 0.678339 0.393014 0.539647 -0.045488 0.038177 -0.057768 -0.440025 0.090312 0.158540 0.466962 0.698663 0.328649 0.135226 -0.587757 0.217866 
87 -0.615313 0.088021 0.287997 0.402640 0.165140 -0.925453 -0.365221 0.293125 0.136141 0.100848 -0.048719 0.400236 0.059243 0.386813 -0.550074 -0.226753 0.325880 -0.700302 0.715114 0.586400 -0.310966 0.288794 -0.158931 -0.197561 -0.726587 0.270583 -0.336562 0.267844 0.586497 0.065181 0.535364 -0.465063 -0.120945 0.754746 0.078347 -0.470161 -0.444898 0.464473 -0.096105 0.168229 -0.206759 -0.105249 0.763101 -0.231299 -0.291107 -0.002957 -0.526227 0.167469 0.591325 -0.448570 -0.370726 -0.642342 0.020361 -0.082231 0.195106 -0.622902 0.491707 0.044522 0.167830 0.511744 0.912891 -0.345249 0.009757 -0.243768 -0.275410 -0.010254 -0.502584 -0.151218 -0.695538 -0.397747 -0.166606 0.512730 0.030685 0.307650 0.699933 0.477785 0.498287 0.121753 -0.468927 0.054628 0.161457 0.339251 -0.212000 -0.204548 0.345330 0.068932 -0.055991 -0.006767 0.671004 0.521391 -0.520613 0.494285 0.012735 -0.172272 0.813968 0.445732 -0.166277 -0.124093 -0.540997 0.021549 
88 0.162159 0.325965 0.216182 -0.356131 0.042171 -0.735727 0.184734 0.178698 0.128395 0.145944 0.120739 0.250591 0.291454 0.144550 0.404562 -0.436804 -0.179667 -0.381659 0.386444 0.666149 0.415125 0.589355 -0.516288 0.133811 -0.512531 -0.570706 0.602888 0.056446 0.527521 -0.324421 -0.363211 -0.240003 -0.748770 0.288558 -0.807611 -0.561172 0.470605 0.882393 -0.249419 0.263224 -0.186921 0.257004 0.241557 -0.708580 0.392111 -0.405921 -0.390973 0.509529 0.347077 -0.114612 0.167912 -0.705301 -0.297294 -0.542894 0.150306 -0.526649 0.293012 -0.718205 -0.265238 0.090064 0.924655 0.185350 0.334146 0.580077 0.276148 -0.037525 -0.718089 -0.370903 0.215691 -0.278808 -0.030417 -0.015240 -0.187307 -0.105809 0.550898 0.244914 -0.388119 0.017555 0.140523 -0.507662 0.506678 -0.441001 0.351578 -0.312455 0.478004 -0.181776 0.057965 -0.331167 -0.120337 0.959836 -0.490416 0.027078 -0.027778 -0.363270 0.059763 0.745401 0.505386 -0.246001 -0.475230 0.360583 
89 -0.529335 0.033665 -0.099133 -0.175676 0.600930 -0.961417 -0.221089 -0.266054 0.466081 -0.194857 0.583521 -0.343626 -0.136411 -0.154380 -0.131525 -0.152244 -0.738760 0.099489 0.404512 0.284493 -0.228909 0.269820 -0.316058 -0.083513 -0.854428 -0.327818 0.025331 0.507879 0.373239 -0.090679 0.377446 -0.999163 -0.068612 0.621503 -0.243771 0.086242 -0.581221 -0.115020 -0.730586 0.553596 0.404379 -0.814512 -0.507131 -0.635266 0.810545 0.413811 -0.344978 0.440619 0.869895 0.231462 0.220039 -0.398908 0.363398 0.137530 0.534060 -0.644543 -0.132731 -0.553697 -0.228236 -0.019132 0.530036 -0.142341 0.269520 -0.187491 0.504835 -0.170193 -0.224040 -0.258989 -0.420468 -0.004743 0.129355 0.120432 -0.150511 0.281031 -0.327325 -0.484814 0.232935 -0.013126 -0.445680 -0.914591 -0.263602 -0.090496 0.134378 -0.630513 -0.231516 0.277409 0.668546 0.084619 0.576797 0.132726 -0.327584 0.257486 0.196017 -0.678820 0.459999 0.019496 0.647366 -0.067776 0.105375 0.153494 
90 -0.122667 -0.093916 -0.014450 -0.303905 -0.074967 -0.864293 -0.216070 -0.183843 0.401237 0.464708 0.557414 -0.152906 -0.379277 0.276579 -0.046887 0.069196 -0.269548 -0.277786 0.395253 0.395881 -0.023386 0.237461 -0.250800 -0.506106 -0.601538 -0.268469 -0.442671 0.777950 0.531408 0.378698 -0.122633 -0.047424 0.069694 0.083731 0.107011 -0.111797 0.371164 0.077356 -0.627920 -0.344074 0.239258 0.663351 0.387457 -0.243044 0.340289 -0.171460 -0.463852 0.004954 1.023394 0.194056 0.190418 -0.243418 0.236593 -0.750419 0.731956 0.093457 0.100210 -0.365995 -0.026082 -0.199625 0.608775 0.320795 -0.042458 -0.071724 0.645359 0.154983 0.287549 0.138319 -0.004421 0.085126 0.154772 0.121622 -0.377354 0.288937 0.487055 0.420934 0.458392 -0.438089 0.070768 -0.248643 0.565696 -0.264522 0.382090 -0.655632 -0.028904 -0.108270 -0.096547 0.205071 0.508247 0.079798 0.259621 0.358674 0.257877 0.186047 0.318855 0.952358 0.265844 0.538287 -0.298686 0.356661 
91 0.355961 0.284041 -0.877450 -0.336632 -0.041848 -0.348843 0.186598 0.478108 0.409130 0.524491 0.465164 0.389507 -0.318055 0.483444 -0.153058 0.351232 -0.161340 -0.674784 -0.396793 0.728155 0.179775 -0.011882 -0.165872 0.410171 -0.304635 0.428522 0.422364 0.502873 0.990298 -0.266927 -0.197456 -0.255284 -0.383527 0.443156 -0.192196 -0.320383 -0.293246 0.797238 -0.710476 0.314549 0.189585 0.001077 -0.258595 -0.435379 0.145678 -0.227266 0.135673 0.258878 0.299389 0.264172 -0.155854 0.036389 0.244833 0.141175 0.744855 -0.617280 0.131154 -0.352957 0.112474 0.477951 0.719086 -0.326922 0.613751 0.026805 0.890790 0.562418 -0.406275 0.604056 -0.887456 -0.255371 -0.693585 0.005236 -0.564531 0.168142 0.273576 0.264974 -0.193741 -0.419167 0.657253 -0.374577 -0.239253 0.464585 0.007505 -0.323492 0.340049 0.340630 -0.065093 0.188805 0.671195 -0.117187 -0.736590 0.577769 -0.354444 -0.600173 1.050409 -0.069356 0.176932 -0.518296 -0.597490 0.530116 
92 -0.345114 0.402064 -0.042036 0.159381 0.250036 -1.020542 -0.190592 -0.132087 0.119854 0.220337 -0.375036 0.564179 -0.455148 0.402876 -0.206553 -0.621533 0.079740 -0.087940 0.285826 0.062094 0.417939 0.638190 -0.982408 0.305244 -0.737579 -0.031218 0.473094 0.897914 -0.249282 0.228054 0.555414 -0.881892 -0.000901 0.305058 -0.497148 0.217551 0.557534 -0.030021 -0.531466 -0.022509 -0.368507 0.241538 -0.015028 -0.077863 0.380933 0.091747 -0.393872 0.117178 0.425268 0.090413 -0.069556 -0.309191 0.454568 -0.160663 0.674807 0.058657 0.256612 -0.548924 -0.226493 -0.251959 0.695276 0.361791 -0.094732 0.210824 0.172883 -0.195006 0.358926 0.300707 0.063317 -0.572869 -0.415882 0.618759 -0.599843 1.132850 0.042638 -0.136166 -0.073896 -0.141534 -0.167119 0.108813 0.448973 0.361425 -0.312374 -0.129631 0.001571 0.612236 0.131308 0.210891 -0.303733 0.295005 -0.554506 0.228850 0.319289 -0.236328 0.838261 0.588534 -0.361686 -0.462786 0.420867 -0.109328 
93 -0.227545 0.411887 -0.609112 0.482246 0.548199 -0.336598 0.517567 0.137579 -0.298753 -0.200755 0.603601 0.294072 -0.622632 -0.187746 0.118718 0.587560 -0.830427 -0.181672 0.514987 0.091086 -0.138700 0.068104 0.058769 0.182147 -0.452068 -0.547445 -0.148310 0.201793 -0.121374 0.106847 0.493754 -0.764227 0.556095 0.638678 0.128911 -0.834449 -0.480742 0.378963 -0.095523 0.161865 -0.111742 -0.631643 0.406927 0.124360 0.358676 -0.571437 -0.602098 -0.270907 0.160901 -0.525732 -0.182041 -0.148300 0.259050 -0.063791 0.673970 -0.000997 -0.000516 -0.270552 -0.286522 -0.289582 0.824095 0.529057 0.493032 0.682745 0.358377 0.007340 0.312773 -0.006627 -0.610891 -0.590673 -0.538567 0.286975 -0.258669 0.886403 0.779499 0.302133 0.541520 0.251472 -0.003537 -0.219364 0.467522 0.045204 0.658334 -0.224497 0.171455 0.137393 0.021731 0.243733 -0.227093 0.572021 -0.418977 -0.525813 0.291828 -0.521402 0.870499 0.902633 0.298595 0.227191 -0.215963 0.426981 
94 -0.079505 0.121577 -0.140534 -0.539085 0.674678 -0.140188 0.458344 0.336917 -0.436874 -0.458261 0.206613 -0.194610 -0.504002 0.849359 -0.024634 0.421462 0.003795 0.053457 0.781389 0.280486 0.354547 0.988193 -0.680433 -0.097811 -0.179733 -0.525012 0.088001 0.492109 0.544652 0.161404 0.176019 -0.399629 -0.111613 0.925994 -0.031861 -0.242723 -0.289052 0.514042 0.310349 -0.363456 0.709807 0.232740 0.162445 -0.076084 0.789204 -0.626622 0.298575 0.243495 1.099819 -0.318875 0.092986 -0.298594 0.064056 -0.554000 0.925075 -0.635457 -0.221173 0.461722 0.271489 0.069890 0.190915 -0.122481 -0.139748 -0.008918 -0.163433 0.857151 -0.115948 0.114880 -0.017748 0.002107 -0.470931 0.280038 -0.166637 -0.010528 0.716304 -0.315084 0.207602 -0.109800 -0.309385 0.341950 -0.170593 -0.061215 0.684444 0.196901 0.397012 0.553989 0.489321 0.475436 0.713970 0.065129 -0.240978 0.230202 -0.428545 -0.651145 0.974035 0.427214 -0.259074 0.257454 -0.422370 0.015440 
95 -0.349267 -0.446777 0.213423 -0.413292 0.475585 -1.143893 -0.237361 0.768980 -0.368133 0.271846 0.732385 -0.094754 0.095961 0.146824 0.199369 -0.402368 -0.356965 -0.131692 0.666503 -0.297700 0.388592 0.868005 -0.550469 0.355564 -0.623191 0.057443 -0.194748 0.182913 -0.234815 -0.391068 -0.384084 -0.008487 0.439506 0.150035 -0.313563 -0.173977 -0.390566 0.270569 -0.792633 0.307800 -0.151490 -0.399471 0.051206 -0.389356 0.313220 0.300211 0.309737 0.057713 0.361583 -0.169818 0.168219 -0.490803 -0.559985 -0.168041 1.018842 -0.060005 0.327800 -0.515207 -0.178356 0.819556 0.506821 0.536024 -0.055296 -0.173788 0.398448 0.407214 0.054749 0.876447 -0.348851 -0.823153 -0.464996 0.662766 -0.124750 0.051096 0.567985 0.192610 0.080969 -0.435765 0.360740 -0.213539 0.541470 -0.193408 0.415837 -0.105687 0.336388 0.482951 -0.150370 0.275099 0.467368 -0.193300 0.067891 0.048722 -0.792535 -0.887334 0.651242 0.566486 -0.008140 0.105449 0.401833 0.229490 
96 0.180153 0.326784 0.125263 -0.467466 -0.016943 -0.780818 -0.438787 -0.347249 0.264527 -0.465952 0.178917 0.081439 -0.719006 0.427476 0.285485 0.093006 -0.520881 -0.392311 0.066503 0.088968 0.423155 0.266040 -0.211908 0.046151 0.221124 -0.464821 -0.332918 1.021304 0.349485 0.310697 0.410659 -0.843142 0.044106 0.220038 -0.062562 -0.256159 -0.142646 0.229989 -0.286494 0.495948 0.433385 0.434989 0.362815 0.005309 0.577369 -0.462642 0.136253 -0.045504 1.087753 0.206812 -0.578747 -0.358667 0.633028 -0.394720 0.456500 -0.703074 0.778202 -0.016250 -0.020831 0.202535 0.181136 -0.040733 0.802444 0.808831 0.144126 0.256292 0.424535 -0.142156 -0.739217 -0.668304 0.084137 0.431901 -0.216494 0.264533 -0.370482 0.242899 -0.303173 0.341022 0.129640 -0.326512 0.679325 -0.302062 -0.338493 -0.439948 0.421741 0.028146 -0.229941 -0.235698 0.155545 0.252747 0.223223 0.178154 -0.436868 -0.241803 1.077790 0.132180 0.289601 -0.630787 0.076024 0.621905 
97 -0.318418 0.256003 -0.104362 0.005281 0.608532 -0.163439 0.715975 0.685563 0.372157 0.573006 0.154578 0.153767 -0.560814 0.143364 -0.189907 0.184543 -0.035800 -0.301396 0.409389 0.180228 0.197843 0.590935 -0.700048 0.419584 -0.433196 0.406032 0.470656 -0.061177 0.971416 0.008028 0.306464 -0.256414 -0.443892 0.569949 0.195805 -0.717312 0.100754 0.357102 -0.906549 -0.366732 0.063620 0.361714 -0.067777 -0.023936 -0.243949 -0.365552 0.208141 0.162823 0.771438 -0.392507 0.422503 -0.083240 -0.207036 -0.533356 0.054317 -0.416426 0.018161 -0.190467 0.031029 -0.302077 0.442874 0.651890 0.266955 0.211233 0.600864 -0.042120 0.354604 0.081132 -0.255728 0.042098 -0.642303 0.365205 -1.042040 0.213462 0.696726 0.277240 0.383673 -0.634386 -0.500523 -0.679639 0.355337 -0.379573 0.214765 0.230782 0.511821 0.799784 0.474257 0.114225 -0.185179 0.604891 -0.042599 -0.680310 -0.560571 0.183764 0.555946 0.478969 0.471553 -0.157252 0.593059 0.646404 
98 0.053952 0.525511 -0.848894 0.421710 -0.150978 -0.393564 0.450048 0.446737 0.410405 -0.114402 0.744725 -0.215489 -0.404404 -0.187944 -0.602462 -0.080567 -0.314284 -0.525259 0.678778 0.009357 0.482020 0.217008 -1.046804 -0.295695 0.333756 -0.154170 0.493899 1.114940 0.660153 -0.126667 -0.354070 -0.051950 -0.365243 0.653929 -0.646367 -0.348259 0.050248 0.204442 -0.584420 0.341330 -0.100239 0.101630 0.030240 -0.379901 -0.408795 -0.092104 0.271727 -0.021499 0.737577 -0.502252 0.565198 -0.715591 0.194163 0.103553 0.636950 -0.014409 -0.079163 0.358100 -0.382282 -0.213533 0.679150 0.776052 0.917379 -0.143272 0.046164 0.125449 -0.492763 0.221582 -0.039201 -0.649243 -0.527211 0.247247 -0.673623 0.667999 -0.092963 -0.306077 0.662183 -0.116688 -0.116366 -0.555310 0.350356 0.267387 0.183548 -0.418934 0.576392 0.009251 0.564383 0.394649 0.436794 -0.297523 0.617996 0.141860 -0.099764 0.247497 0.718778 0.697867 -0.044915 0.440739 -0.680134 0.035155 
99 0.096702 1.015954 -0.204762 0.283710 0.062501 -0.134273 0.502270 0.668252 -0.532047 -0.109568 0.964030 -0.164859 0.448564 0.749607 -0.492461 -0.292357 -0.746084 -0.602288 0.311182 0.076772 0.094885 0.583878 -0.110709 0.296742 -0.447679 0.399180 -0.629004 1.086488 -0.118223 0.005192 0.158380 -0.325866 -0.087510 1.152809 0.818492 -0.634623 -0.073075 0.323685 0.289441 0.828989 -0.156154 -0.043498 -0.532829 0.078487 -0.191374 -0.163163 -0.468152 -0.232519 0.819706 -0.451521 0.015156 -0.708203 -0.115552 -0.494838 1.015769 -0.517284 0.312524 0.060098 -0.634455 0.653997 0.472037 -0.023976 -0.220936 -0.002968 0.394807 0.657557 -0.476346 -0.062044 -0.422994 -0.242210 -0.198966 0.221789 -0.374614 1.455876 -0.650619 -0.673549 0.454577 -0.264291 -0.116697 -0.163310 -0.117453 -0.458840 -0.357190 0.235574 0.017928 0.760154 0.421017 -0.819809 -0.053470 0.466252 0.290610 -0.319993 -0.981536 0.201495 0.004114 0.032470 0.785114 0.439237 -0.341549 0.155298 
