94 20
0 -1.101166 -1.577039 -0.027840 0.937620 -1.069972 1.430624 -3.339093 -3.176494 1.141985 -0.153599 2.973693 1.259391 -0.264505 1.402063 -1.447042 -1.635298 -1.197698 -4.592732 -2.359160 -2.227547 
1 0.137522 -0.280449 -0.064677 0.064130 0.110360 -0.102990 -0.266995 -0.395866 0.397499 -0.167160 0.396225 -0.183754 -0.301450 0.000922 -0.424136 -0.181041 -0.246136 0.430251 0.073665 -0.218118 
2 -2.393205 -1.083143 0.876080 1.440920 -0.593448 1.287199 -2.016076 -1.142001 -0.201091 0.333358 2.603163 1.140156 -0.865480 0.772562 -1.442138 -1.832189 -1.774498 -4.149215 -0.719006 -1.798596 
3 0.000000 0.000000 0.000000 0.000000 0.000000 0.000000 0.000000 0.000000 0.000000 0.000000 0.000000 0.000000 0.000000 0.000000 0.000000 0.000000 0.000000 0.000000 0.000000 0.000000 
4 -0.470576 -0.140085 -0.447736 0.287527 0.947876 0.099348 -0.628727 -1.111477 1.033585 0.303483 0.975222 0.888261 -0.742755 0.050430 -1.193296 -0.350109 -0.225069 -0.497355 -0.034748 0.610324 
5 -1.844005 -1.867687 1.084821 0.956856 -1.259230 2.226355 -3.373888 -2.952569 0.303387 -0.812718 4.742632 1.722245 -1.914845 1.916389 -2.366952 -1.057112 -1.273098 -6.068205 -3.391235 -3.213127 
8 -1.824352 -1.807584 2.434856 0.825309 -0.946004 2.068711 -3.021578 -3.976397 0.601316 -0.526771 5.129976 0.737426 -1.455038 1.294506 -3.049197 -1.939427 -1.309843 -5.112140 -2.240650 -2.631415 
9 -1.728184 -0.339006 0.037110 0.702805 -0.426916 -0.119901 0.200602 0.109661 -0.889890 0.293193 0.841749 0.379559 0.412689 0.216559 -0.291182 -0.334191 -1.052101 -1.652381 0.089355 -1.179924 
11 -2.763123 -1.875462 2.024990 0.455156 -1.352772 2.569671 -4.317404 -2.554784 -0.802619 0.256958 4.630283 1.122106 -1.601571 2.670820 -2.681597 -3.081211 -1.596552 -5.941460 -5.500295 -2.127715 
12 -0.584231 0.115155 0.064618 0.475398 0.190931 -0.218098 -0.286702 -0.737423 0.540692 0.400367 0.559492 0.144914 -0.305728 0.760432 0.733286 -0.290026 0.603604 -1.128173 0.239226 -0.010588 
13 0.526988 -0.367220 0.345277 -0.003396 -0.120461 -0.224608 0.071522 0.400171 -0.174654 -0.612958 -0.470191 0.043758 0.464767 -0.320530 -0.756396 0.362220 0.005147 -0.149278 -0.165906 -0.085554 
14 -1.317746 -1.819335 1.061923 0.687552 -1.438615 2.225045 -3.006768 -2.622557 0.406973 -0.893162 4.376138 1.594650 -1.969768 1.871011 -2.268227 -0.559047 -1.015407 -5.476659 -3.229841 -3.050342 
15 0.000000 0.000000 0.000000 0.000000 0.000000 0.000000 0.000000 0.000000 0.000000 0.000000 0.000000 0.000000 0.000000 0.000000 0.000000 0.000000 0.000000 0.000000 0.000000 0.000000 
16 -1.599575 0.199769 0.191833 0.090299 -0.123326 0.040674 -1.219912 0.357578 -0.812220 -0.434321 1.933827 0.977782 0.202629 0.427661 -0.864789 -1.525544 -1.662327 -1.762938 0.020436 -1.334901 
17 0.000000 0.000000 0.000000 0.000000 0.000000 0.000000 0.000000 0.000000 0.000000 0.000000 0.000000 0.000000 0.000000 0.000000 0.000000 0.000000 0.000000 0.000000 0.000000 0.000000 
18 -1.972204 -0.494799 0.138953 0.696203 -0.642924 -0.084822 0.305351 -0.099947 -1.124553 0.447404 0.875618 -0.000004 0.390134 0.339335 -0.126761 -0.216117 -1.477137 -1.695975 0.241965 -1.509869 
21 0.000000 0.000000 0.000000 0.000000 0.000000 0.000000 0.000000 0.000000 0.000000 0.000000 0.000000 0.000000 0.000000 0.000000 0.000000 0.000000 0.000000 0.000000 0.000000 0.000000 
22 -1.014584 -1.093104 1.585371 1.575430 -0.444340 2.082323 -3.693221 -3.856435 1.099158 -0.998951 4.994329 1.748792 -1.817787 1.902864 -3.336920 -2.472008 0.059279 -5.686499 -3.743993 -1.796616 
24 0.000000 0.000000 0.000000 0.000000 0.000000 0.000000 0.000000 0.000000 0.000000 0.000000 0.000000 0.000000 0.000000 0.000000 0.000000 0.000000 0.000000 0.000000 0.000000 0.000000 
26 -1.524194 -0.460957 0.283266 0.055487 -0.751422 -0.015095 0.560074 -0.157349 -0.970631 0.160651 0.134330 -0.305748 0.651345 0.085124 0.454859 0.320632 -0.867859 -1.205999 0.178448 -0.783739 
27 0.000000 0.000000 0.000000 0.000000 0.000000 0.000000 0.000000 0.000000 0.000000 0.000000 0.000000 0.000000 0.000000 0.000000 0.000000 0.000000 0.000000 0.000000 0.000000 0.000000 
29 -2.430146 -2.409838 2.769539 0.564059 -2.531940 2.929804 -3.661856 -6.351760 0.033084 -1.437362 6.117748 -0.129187 -1.439481 3.397626 -2.396332 -1.787695 -2.157177 -9.456724 -5.675570 -4.165749 
30 -2.048379 -1.430115 1.020994 1.940330 -0.814493 2.940039 -3.726495 -4.792443 1.151027 -1.348222 5.781039 0.558349 -1.395443 2.115415 -2.666233 -1.982231 -2.340835 -7.614608 -4.817218 -3.023944 
31 0.542588 -0.378127 0.632092 -0.309210 -0.189463 -0.270805 -0.439558 -0.147094 -0.138026 0.396274 -0.627711 -0.127704 -0.198141 -0.042057 -0.198000 0.246205 0.586219 0.360485 0.536121 -0.081315 
35 -1.357011 -0.015229 0.401393 -0.168926 0.284441 -0.055983 0.049208 0.733281 0.116274 0.129404 0.348795 0.781661 0.708129 -0.265814 -0.645683 -0.712936 0.212215 -0.843864 -0.059324 -0.265979 
37 -1.212855 -0.536023 1.542152 0.396722 -0.583282 2.427311 -3.545455 -4.795557 1.375904 -1.759026 5.785793 0.667485 -0.894021 2.381251 -3.182288 -2.017374 -1.139919 -8.084970 -3.888037 -3.793228 
39 -0.670446 0.276625 0.071685 -0.342405 1.031749 0.880079 -0.461099 0.550984 0.143560 -0.000761 0.367438 0.519632 -0.214652 0.507669 0.595111 -0.106292 -1.192878 -2.035260 -0.419593 -0.453424 
38 -1.777159 -0.404689 0.169326 0.771613 -0.513400 -0.114516 0.300225 -0.569444 -0.292161 0.318361 1.570252 1.137714 -0.202217 0.772565 -1.074390 -0.768078 0.564812 -1.584693 0.047815 -0.398698 
40 -0.689814 -0.155907 0.693385 -0.176269 0.070849 -0.039040 -0.761869 -0.504752 -0.168171 1.031694 -0.005541 0.495724 -0.353965 0.956984 -0.473106 -0.322786 0.685099 -1.175072 0.504469 -0.492079 
42 -0.822132 -1.386982 1.880057 0.606532 -1.851217 2.729446 -3.734955 -4.484247 0.927331 -2.713018 6.632956 1.090218 -1.573890 2.156643 -2.950815 -3.015470 -3.000623 -6.681926 -4.297075 -1.760108 
43 -0.983281 0.518102 -1.128044 0.691167 -0.536771 0.388812 0.363275 0.455990 -0.610556 -0.871892 0.785730 0.804688 -0.098177 0.580636 0.493407 -0.399306 -0.402884 -1.320534 -0.548735 0.148887 
47 0.036967 0.100029 -0.165697 -0.404332 0.664921 0.374474 -0.238951 0.689123 -0.184453 -0.186016 -0.522009 0.427531 0.325603 0.129945 0.640837 0.267653 -0.688945 -1.026913 -0.253130 -0.052149 
48 -1.712123 0.397387 -0.452155 0.732859 0.308452 -0.233006 -0.611889 -0.234255 -0.696302 -0.109448 1.101055 0.719396 -0.746716 0.728243 -1.003248 -0.563884 -0.657394 -2.269243 -0.195311 -1.334960 
49 -1.351408 -0.501359 -0.166967 -0.049238 0.269913 0.463794 0.009051 -0.195324 -0.448008 0.519038 1.027721 0.907340 -0.286425 0.022058 0.338045 -0.650708 -0.507157 -1.962491 0.551485 -0.137456 
50 -2.554919 0.621066 0.071011 0.718707 0.214254 -0.184438 0.687425 1.046116 0.562404 1.056537 2.231970 -0.360904 -1.119346 0.000992 -0.476239 -0.719321 -1.346059 -2.212209 0.511883 -0.363760 
52 -0.018801 0.053627 -0.091097 -0.007013 -0.070738 -0.281397 0.212028 0.411498 0.344293 0.208169 0.444165 -0.458715 -0.198239 0.224056 -0.212586 0.086033 -0.009340 -0.318504 0.008331 0.271665 
53 0.000000 0.000000 0.000000 0.000000 0.000000 0.000000 0.000000 0.000000 0.000000 0.000000 0.000000 0.000000 0.000000 0.000000 0.000000 0.000000 0.000000 0.000000 0.000000 0.000000 
54 1.064908 -0.123419 -0.269126 0.081968 0.202017 0.410643 0.153982 -0.067560 -0.683818 0.239723 -0.063442 0.056362 0.201146 0.095155 -0.807915 0.601056 -0.084348 0.398665 0.278784 0.675730 
55 -1.416959 0.881146 0.714976 1.334733 -0.451470 1.113744 0.030087 0.827881 -0.086275 -0.199331 0.596266 0.614860 -0.604903 1.220976 0.273539 -0.526389 -0.228423 -1.142511 0.446031 -0.496696 
57 -0.155058 0.219011 -0.023540 -0.425249 0.490135 0.389234 -0.100505 0.489692 0.133106 -0.179029 -0.435286 0.062074 0.139392 0.213956 0.217592 0.248765 -0.382203 -0.766518 -0.180732 0.136617 
56 -0.479188 -0.014960 -0.134050 0.392954 0.253887 -0.175308 -0.365259 0.921164 -0.287230 -0.092002 -0.307563 0.604189 0.543510 -0.223771 -0.510677 -0.484033 -0.226636 -0.997090 -0.047277 -0.714567 
64 -1.007524 0.122995 0.674068 -0.370825 0.035889 0.418696 0.688194 0.999652 -0.212560 0.099249 0.481577 1.080614 -0.104099 0.575171 -0.219287 -0.995866 -0.077244 -1.519762 0.012132 -0.197636 
66 0.330277 0.068725 0.144060 -0.134241 -0.603873 -0.701335 0.044380 -0.322949 0.539487 -0.737422 -0.571280 0.055467 -0.135470 -0.077148 -0.031763 0.219583 0.402150 0.339024 0.119368 -0.006077 
67 -1.187203 -0.310979 0.046738 0.848299 0.718397 0.366445 0.566277 -0.576431 0.407708 0.888260 0.017970 0.113150 -0.523941 1.161903 -0.591449 0.490699 1.225915 -1.857307 -0.809510 -0.278077 
69 0.808961 -0.737092 0.086803 0.128673 -0.503224 0.548349 0.048637 0.135053 0.289338 0.028497 0.148633 -0.324300 0.466524 0.079026 0.211454 -0.006257 0.516715 0.493612 0.258363 0.184157 
71 0.116643 -0.493042 -0.474180 0.112152 0.293951 -0.176023 0.112515 0.346222 -0.011452 0.168817 -0.704480 0.128183 0.320036 0.140676 0.258067 0.440034 0.435925 -0.266473 -0.223348 -0.063811 
70 -2.400516 -0.330327 3.933518 0.737878 -1.690161 2.997359 -5.188777 -6.556113 1.650532 -0.946609 6.898020 1.714510 -1.918568 4.118218 -4.156409 -0.672442 -1.497432 -8.224995 -5.735506 -3.243086 
73 -2.484403 0.631518 0.884769 0.386870 -0.087254 0.277052 -0.387900 -0.062115 0.256318 0.199186 1.596312 1.430489 0.028426 0.695264 -0.717117 0.229051 -1.124798 -1.655433 0.289768 -0.636609 
74 0.000000 0.000000 0.000000 0.000000 0.000000 0.000000 0.000000 0.000000 0.000000 0.000000 0.000000 0.000000 0.000000 0.000000 0.000000 0.000000 0.000000 0.000000 0.000000 0.000000 
75 -0.700351 -0.620508 -0.444548 0.545162 -0.185302 -0.242486 -0.780096 0.094843 -0.447187 0.050950 -0.371195 0.745704 0.019421 -0.081330 0.090320 0.227397 -0.229573 0.077838 -0.158991 0.931951 
76 0.000000 0.000000 0.000000 0.000000 0.000000 0.000000 0.000000 0.000000 0.000000 0.000000 0.000000 0.000000 0.000000 0.000000 0.000000 0.000000 0.000000 0.000000 0.000000 0.000000 
77 -1.948311 -0.696256 0.859960 0.355004 0.269606 1.174517 0.270650 0.032592 0.714868 0.300991 1.194381 0.992354 0.320640 -0.309775 0.153586 -0.406236 -1.164989 -1.655313 0.499794 0.212525 
79 0.000000 0.000000 0.000000 0.000000 0.000000 0.000000 0.000000 0.000000 0.000000 0.000000 0.000000 0.000000 0.000000 0.000000 0.000000 0.000000 0.000000 0.000000 0.000000 0.000000 
78 -2.135850 -1.203928 0.158593 0.809103 1.196477 0.774565 0.005737 -0.987452 -0.337585 -0.624674 2.010879 1.165824 -1.042547 1.013976 -0.593468 -1.663599 -1.126483 -1.726215 0.070173 -1.741251 
82 -0.735194 0.073428 -0.492700 -0.623031 0.416079 -0.012568 0.564446 -0.382058 0.403869 0.170233 -0.132162 0.525143 0.299887 1.167952 -0.087940 -0.099834 -0.017788 0.330945 -0.173909 -0.113300 
84 0.000000 0.000000 0.000000 0.000000 0.000000 0.000000 0.000000 0.000000 0.000000 0.000000 0.000000 0.000000 0.000000 0.000000 0.000000 0.000000 0.000000 0.000000 0.000000 0.000000 
85 -1.058494 0.850828 0.101493 0.559066 0.580994 -0.034877 0.074627 -0.895072 -0.049151 0.565226 0.254877 -0.175766 0.579001 0.728819 -0.235574 -1.496232 -0.142427 -1.434782 0.128927 0.585236 
87 -0.640545 -2.446465 1.775088 -1.063519 0.083138 1.393073 -4.390296 -6.566362 1.304767 -0.217720 5.086038 0.401185 -1.239583 1.938697 -4.033678 -1.559633 -1.299464 -7.579775 -4.793221 -3.091215 
88 -2.017596 0.477274 -0.770136 -0.778636 -0.145623 1.296017 -0.167647 0.154307 0.115463 -0.322688 -0.187138 -0.392617 -0.421901 0.098634 -0.814385 -0.458170 0.320101 -0.785282 0.526438 0.039400 
89 -2.989217 -1.077599 0.522932 1.851005 -1.281734 1.893980 -3.504924 -3.062263 -0.227501 -0.175862 4.189177 1.229267 -1.408896 1.757034 -1.939512 -2.031965 -1.908375 -4.839622 -1.970502 -1.851177 
91 -1.524375 -1.061080 1.393764 3.206595 -1.431050 2.921799 -4.494014 -5.634383 1.547696 -2.057961 6.292484 -0.441866 -0.705250 3.755378 -5.090134 -1.783562 -0.886580 -6.704224 -6.472353 -4.599653 
92 0.571714 -0.059079 0.096158 -0.560143 -0.433094 -0.412890 0.315356 -0.062832 -0.337047 -0.268406 -0.335609 0.442202 -0.484734 0.282154 0.112173 0.076064 0.362002 -0.488445 0.298345 0.600431 
95 -0.031147 0.342668 0.159053 0.280259 0.213971 -0.057668 0.151850 -0.468530 -0.132403 -0.031921 -0.514358 -0.275688 0.631697 0.275740 -0.166875 -0.508662 0.176819 -0.319247 0.137017 0.831458 
96 0.382898 -0.193352 -0.980259 0.024821 -0.257614 -0.272231 -0.602429 -0.256241 0.778182 0.403317 -0.492107 0.142645 0.345042 0.169486 0.363504 -0.069097 -0.096741 -0.034333 0.174325 0.108267 
97 -0.299782 0.142681 -0.249849 -0.225467 0.369220 -0.303254 -0.709535 0.292875 -0.641660 -0.222117 0.129277 0.070248 0.644619 0.147568 0.658409 0.420795 0.621527 -0.192974 0.283247 -0.176611 
98 0.000000 0.000000 0.000000 0.000000 0.000000 0.000000 0.000000 0.000000 0.000000 0.000000 0.000000 0.000000 0.000000 0.000000 0.000000 0.000000 0.000000 0.000000 0.000000 0.000000 
99 -0.694768 -1.412784 0.880125 1.291253 -2.201529 2.482878 -1.171819 -3.245081 1.391320 -0.008341 1.407588 1.960395 -2.530299 2.412769 -2.599481 -2.614018 -3.403395 -5.723505 -2.274969 -1.313536 
6 0.000000 0.000000 0.000000 0.000000 0.000000 0.000000 0.000000 0.000000 0.000000 0.000000 0.000000 0.000000 0.000000 0.000000 0.000000 0.000000 0.000000 0.000000 0.000000 0.000000 
23 0.097626 0.285078 -0.358490 -0.695401 -0.428750 -0.181872 -0.494786 0.169377 0.000146 -0.072762 -0.058627 0.301013 0.655763 -0.120441 0.122735 -0.492312 -0.176763 -0.031055 0.257241 0.190824 
19 0.000000 0.000000 0.000000 0.000000 0.000000 0.000000 0.000000 0.000000 0.000000 0.000000 0.000000 0.000000 0.000000 0.000000 0.000000 0.000000 0.000000 0.000000 0.000000 0.000000 
20 -1.723333 -1.495121 2.187801 0.266863 -1.151546 2.286446 -3.953223 -3.587960 -0.189450 0.074646 4.442226 0.431303 -1.603522 3.291150 -2.670087 -2.595009 -0.861541 -5.852272 -5.601183 -1.957129 
32 -0.352409 0.042713 0.411920 -0.350102 0.192024 -0.553946 0.413556 -0.193602 -0.322593 -0.743044 0.110946 0.223573 0.375977 -0.161115 -0.083846 0.111412 0.609790 -0.090734 -0.664789 0.741141 
34 -1.049219 -0.363828 -0.076756 0.034967 -0.517922 -0.155449 0.352321 0.035343 -0.768598 0.199888 -0.180328 -0.055425 0.567771 0.185747 0.322257 0.321461 -0.612603 -0.880757 0.291635 -0.548524 
33 0.000000 0.000000 0.000000 0.000000 0.000000 0.000000 0.000000 0.000000 0.000000 0.000000 0.000000 0.000000 0.000000 0.000000 0.000000 0.000000 0.000000 0.000000 0.000000 0.000000 
36 -1.069291 -0.034736 0.105349 0.107868 -0.503308 -0.279665 0.033296 0.120154 0.751164 -0.291970 -0.478735 0.236913 0.337780 -0.225796 0.403803 -0.258404 0.289116 -0.536607 -0.465822 -0.065088 
46 -0.393896 0.354886 0.349988 0.265465 0.280324 0.894776 0.492878 -0.932517 0.511610 -0.506999 1.490639 0.601017 0.064291 0.701793 -0.979356 -0.609251 -0.546734 -2.717055 0.739853 -2.042144 
45 -0.843781 -0.381798 0.062345 0.739083 0.378381 1.332205 -0.629083 -1.016803 -0.966785 0.464509 2.421066 1.005738 -0.383911 1.267504 -2.170270 -0.594956 -1.254130 -2.690794 -0.208296 -0.773599 
51 0.000000 0.000000 0.000000 0.000000 0.000000 0.000000 0.000000 0.000000 0.000000 0.000000 0.000000 0.000000 0.000000 0.000000 0.000000 0.000000 0.000000 0.000000 0.000000 0.000000 
61 -0.502108 0.215708 0.082304 -0.066510 0.216150 0.489321 0.374299 -0.057661 0.538071 0.247435 1.091747 0.694881 0.935244 1.033975 0.537075 -0.178845 0.533566 -0.733851 -0.476342 0.317855 
62 -1.396269 0.100617 0.509666 1.193888 0.685159 -0.127897 -0.594512 0.462331 0.550807 0.256120 0.058918 1.050785 -0.051152 -0.339553 -0.231660 -0.359975 -1.153849 -1.451263 0.602407 -1.036594 
60 -0.981240 -1.134631 1.984709 0.004163 -1.070336 2.363444 -3.858624 -4.934931 0.598360 -0.396389 4.698770 0.211166 -1.325643 3.341578 -2.892752 -2.508302 -0.385976 -7.393063 -5.397052 -3.707874 
72 0.000000 0.000000 0.000000 0.000000 0.000000 0.000000 0.000000 0.000000 0.000000 0.000000 0.000000 0.000000 0.000000 0.000000 0.000000 0.000000 0.000000 0.000000 0.000000 0.000000 
65 -0.503979 -0.596535 -0.577570 -0.301814 0.452429 -0.308768 0.253292 0.329733 -0.199295 -0.227780 -0.046869 0.767644 0.355262 0.591766 0.339188 -0.364580 -0.107120 0.097633 0.235202 -0.451109 
83 -0.984245 0.251181 -0.564230 0.784752 0.127448 0.087144 0.112776 -0.709816 0.265567 -0.532042 0.795913 0.649324 0.036137 -0.205790 0.269121 0.767798 -0.433660 -1.322837 1.208809 -0.057037 
90 0.000000 0.000000 0.000000 0.000000 0.000000 0.000000 0.000000 0.000000 0.000000 0.000000 0.000000 0.000000 0.000000 0.000000 0.000000 0.000000 0.000000 0.000000 0.000000 0.000000 
93 -0.888942 -2.528986 3.177541 2.361224 -0.672744 3.619824 -5.561012 -6.268271 0.060057 -2.112098 7.108019 0.382530 -3.568444 2.817468 -3.578288 -2.928819 -0.396127 -10.446255 -5.489363 -3.388635 
41 0.000000 0.000000 0.000000 0.000000 0.000000 0.000000 0.000000 0.000000 0.000000 0.000000 0.000000 0.000000 0.000000 0.000000 0.000000 0.000000 0.000000 0.000000 0.000000 0.000000 
44 -1.194105 0.127298 0.284886 0.227369 0.423742 0.722235 0.421016 0.697297 -0.440391 -0.003036 0.590673 -0.211067 0.692373 -0.072994 -0.144421 0.084890 0.483737 -0.463528 -0.127279 -0.123390 
81 0.000000 0.000000 0.000000 0.000000 0.000000 0.000000 0.000000 0.000000 0.000000 0.000000 0.000000 0.000000 0.000000 0.000000 0.000000 0.000000 0.000000 0.000000 0.000000 0.000000 
80 -0.683348 -0.045193 0.000378 -0.160427 0.436237 -0.336563 0.534357 0.096139 0.015463 -0.649474 0.033735 0.222221 0.815375 -0.693534 -0.649261 0.181393 0.343352 -0.749412 -0.338966 0.385415 
86 -0.856500 0.714419 -0.053125 0.227426 0.369653 -0.081938 0.226948 -0.452023 0.059219 0.384846 -0.105693 -0.085785 0.589794 0.549175 0.005745 -0.890716 0.031576 -0.829150 0.254244 0.518780 
10 0.000000 0.000000 0.000000 0.000000 0.000000 0.000000 0.000000 0.000000 0.000000 0.000000 0.000000 0.000000 0.000000 0.000000 0.000000 0.000000 0.000000 0.000000 0.000000 0.000000 
28 0.000000 0.000000 0.000000 0.000000 0.000000 0.000000 0.000000 0.000000 0.000000 0.000000 0.000000 0.000000 0.000000 0.000000 0.000000 0.000000 0.000000 0.000000 0.000000 0.000000 
68 0.000000 0.000000 0.000000 0.000000 0.000000 0.000000 0.000000 0.000000 0.000000 0.000000 0.000000 0.000000 0.000000 0.000000 0.000000 0.000000 0.000000 0.000000 0.000000 0.000000 
