100 20
0 -7.486740 -2.022400 -11.898718 -10.316833 1.968001 -0.904863 0.536244 -2.927071 -2.727863 0.843729 4.918262 -0.660275 -1.251496 -3.846722 -5.250787 -1.165064 0.498937 0.385705 1.423703 -1.236141 
1 0.065673 0.307574 0.052829 -0.202582 1.038465 0.194903 0.588168 -0.746702 -0.513938 0.812877 -0.119103 0.429944 0.373647 0.068695 -0.230780 -0.037023 -0.224893 0.322269 -0.266406 -0.052037 
2 -2.192818 -0.158150 -1.709261 -0.238442 0.106970 -0.131692 0.642015 -1.487342 -1.243059 -0.007973 0.442728 -0.963884 -1.367675 0.277740 -1.206769 0.582211 0.493848 -0.408247 0.329499 -0.584564 
3 -2.236486 -0.972255 -3.169561 -3.097798 1.653596 -0.465133 -0.114499 -0.619534 -1.126843 0.237583 1.855569 0.889315 -2.472456 -0.225620 -1.451530 -0.648110 -0.359118 -0.838815 1.180792 -0.330452 
4 0.240011 0.357323 0.455217 -0.543205 0.021025 0.227666 -0.266648 0.072545 0.597373 0.425857 0.007683 -0.837667 0.207906 -0.032939 0.400082 -0.041691 0.320609 0.126185 0.487521 0.193427 
5 -0.087834 0.164424 -0.418795 -0.395913 0.125672 0.070476 -0.242663 -0.159222 0.328139 -0.148115 -0.346194 0.699863 -0.385221 0.333005 0.341336 0.970560 0.425601 0.616068 -0.235684 0.332817 
6 0.068383 -0.238168 0.255238 -0.198441 -0.050960 -0.333634 -0.093660 0.111623 -0.098856 0.607859 -0.409405 -0.136537 0.183579 -0.038321 0.941140 0.249363 0.041678 0.066558 -0.463619 0.469091 
7 0.456738 0.848435 0.097654 0.450143 -0.482491 -0.249907 0.073622 0.476837 -0.021447 0.524015 0.447815 0.001667 -0.335220 0.235292 -0.083707 -0.115197 -0.190616 0.553614 0.029984 0.195317 
8 0.358291 -0.359576 -0.067375 -0.052501 -0.166798 0.186103 -0.226275 0.238686 -0.532484 0.110985 1.123103 0.128987 -0.176633 0.376005 -1.141773 0.233168 -0.156543 0.490121 -0.304367 0.466328 
9 -2.792932 -2.148454 -2.651583 -2.602419 0.204157 -1.748612 0.447576 -0.795728 -0.856909 0.957804 1.362788 0.634430 -2.147112 -0.271812 -2.255350 -0.890569 1.305697 1.232090 0.422809 -1.648713 
10 -3.093720 -1.844516 -5.252887 -4.956255 2.030405 -0.831902 1.330374 -3.098067 -1.927365 1.588427 1.705264 0.479738 -1.159633 -1.386557 -2.893086 -1.060376 0.069891 1.030357 -0.181831 -0.974273 
11 -2.708682 -2.160717 -4.920031 -3.446608 0.830166 0.355525 1.584874 -1.242610 -1.736098 -0.146444 1.557342 -0.118526 -2.552484 -0.731610 -2.509823 -1.358070 1.613865 1.179082 1.080321 -0.300065 
12 -2.774832 -1.652685 -3.192694 -2.343142 -0.551123 -0.294656 1.859299 -1.252020 0.062474 0.436880 1.495345 0.584241 -1.264857 1.473392 -1.725032 -1.042445 0.406455 -0.082050 0.798759 -1.196121 
13 -2.810280 -2.114963 -3.938763 -2.288150 0.005456 -1.005764 1.182148 -1.919736 -1.819060 -0.276057 1.735161 1.566655 -1.919361 -0.218766 -1.703112 -0.797496 0.548932 0.603367 -0.157016 -1.048010 
14 -2.125424 -1.762363 -3.377816 -0.605938 0.049856 0.103097 0.380642 -1.683588 0.521070 0.747695 2.217466 0.550646 -1.774918 -0.126991 -0.903501 -1.015021 1.173896 0.219526 -0.019282 -1.537112 
15 0.269418 0.087951 0.517359 0.191712 -0.231962 -0.013279 -0.141893 -0.071787 -0.405882 0.106544 -0.179368 0.292074 0.370497 0.986370 0.434016 -0.114545 0.577648 -0.247689 0.010579 -0.271652 
16 -1.964027 -1.205793 -2.756888 -1.247192 -0.932150 -0.157030 1.606962 -1.637527 -0.576389 -0.319486 1.149668 0.150124 -0.308153 -0.151148 -1.413136 -0.644005 1.404130 1.071216 -0.159515 -1.502016 
17 -2.435519 -1.011258 -2.641889 -2.497878 -0.819798 -1.229164 0.229896 -2.036992 -0.560295 0.277689 2.193629 0.923556 -0.807165 -0.017751 -1.021198 -0.322455 0.181012 -0.377241 0.221982 -2.071776 
18 -0.244149 0.110212 0.003467 0.149875 -0.736451 0.218491 -0.300889 0.387690 0.071707 -0.717147 -0.057147 0.236756 -0.140983 0.007275 0.510914 0.358900 0.099252 -0.254997 0.178716 0.444627 
19 -3.168381 -1.575859 -2.528069 -2.949420 -0.642370 0.209790 1.727193 -1.686565 -0.894472 0.394904 1.948090 0.777043 -1.854911 -1.264810 -1.810439 -0.250074 0.905610 -0.347759 0.692056 -1.225627 
20 -1.493862 -1.425291 -2.699246 -1.564203 0.367352 0.248270 1.076473 -0.769776 -1.076724 -0.107227 1.242779 0.167781 -1.835671 -0.117227 -1.656438 -0.757397 1.134542 0.861748 1.026176 -0.513824 
21 -0.599520 0.552865 0.086045 0.802106 0.216163 0.018100 -0.159409 -0.273019 -0.498116 0.181741 -0.304034 -0.850347 -0.361972 0.268974 -0.214361 0.697047 -0.079029 -0.305511 0.121037 0.270551 
22 -1.747059 -1.899916 -2.365901 -2.111301 0.337170 -1.321468 1.342252 -1.643281 -0.609839 -0.424595 2.291954 -0.116592 -2.037189 0.367830 -1.130165 -0.779894 0.831604 0.912231 0.529407 -1.545062 
23 -4.409740 -1.150162 -5.812895 -6.424741 0.717839 -1.080258 -0.543711 -3.583023 -1.428719 -0.619507 0.971144 0.235034 -1.399557 -1.609648 -2.996216 -2.707741 0.320236 0.629758 -0.244583 1.081350 
24 0.081352 -0.298581 -0.560853 0.311164 0.093097 -0.903642 0.645794 -0.268777 0.056646 0.093862 0.803333 0.518323 -0.011094 -0.052736 -0.740786 0.517866 0.614270 0.012617 0.969362 0.438217 
25 0.631358 0.368023 -0.291506 0.179493 0.036148 0.564285 0.255204 -0.613490 -0.071524 -0.321117 0.075567 -0.015072 0.304813 0.100183 0.603975 0.043610 -0.645141 -0.240401 0.089423 0.294891 
26 -1.747922 -1.424246 -4.036314 -2.636835 -0.047153 0.013732 1.351174 -2.316333 -0.950987 -0.089087 2.243675 0.375237 -1.769503 -0.489887 -1.679415 -0.684640 0.373183 0.143921 0.982772 -1.342227 
27 -0.176008 -0.453127 -0.422276 0.159196 -0.070472 -0.054434 0.228335 -0.216242 -0.369981 0.233589 1.179699 0.377193 -0.811949 0.109004 -1.213656 -0.121403 0.017498 0.352107 1.093846 -0.548827 
28 -0.148689 -0.830875 0.416051 0.258567 0.715820 0.264019 -0.395447 -0.085553 0.214113 -0.416513 -0.166196 0.186796 0.588848 -0.008105 -0.232230 0.489380 -0.237847 -0.040770 0.585031 -0.085937 
29 -1.722361 -1.530541 -3.029686 -2.932196 1.074867 -0.761937 1.389695 -2.744674 -1.134589 2.085109 1.661452 0.457976 -1.445823 -0.276013 -2.552771 -1.226621 0.992793 0.815361 0.603540 -1.803689 
30 -2.885819 -0.495468 -3.102697 -1.498755 0.404205 -0.439379 0.575448 -1.855747 -1.556729 0.203857 0.770502 -1.123917 -1.668677 -0.170283 -1.837835 0.271061 0.479852 -0.305140 0.290553 -0.541937 
31 -12.275320 -3.470555 -21.299610 -19.967510 5.379004 -2.146983 1.310010 -4.581880 -4.180011 0.333702 3.651016 -1.949727 0.538486 -8.210661 -6.193378 -2.464242 -0.476421 -0.944937 -3.693734 0.872841 
32 -1.895474 -3.253711 -3.977494 -3.342655 -0.658267 -1.594122 0.786669 -2.120452 -2.031622 0.934382 1.710906 0.175738 -2.374722 0.763353 -0.915954 -0.740001 0.725099 1.197988 1.126524 -1.581723 
33 -3.069939 -1.266804 -4.869973 -4.315385 0.965743 -1.229447 1.082799 -2.235893 -1.014792 -0.825180 2.271124 -0.561983 -1.615514 -0.760297 -2.453025 -0.879104 0.612878 -0.118292 0.120254 -1.408129 
34 -1.985118 -1.871858 -4.042240 -2.806234 0.070102 -2.093190 1.720660 -2.160375 -0.643541 0.436706 2.411397 0.765767 -1.342857 -0.731651 -2.209897 -0.445003 1.643189 0.000959 1.391862 -0.129348 
35 -0.046189 0.153195 0.812712 0.310806 0.501154 -0.317787 0.321690 -0.130110 -0.042904 -0.638337 0.434469 -0.168658 -0.233382 0.792242 0.456626 0.062800 0.256903 -0.058966 -0.240029 -0.237989 
36 0.125952 -0.150772 -0.540724 0.067183 0.241586 -0.139124 -0.322427 -0.368349 -1.023172 -0.204858 0.909766 0.424090 -0.524533 -0.914931 -0.386634 0.207947 0.505110 0.547395 0.501989 -0.742528 
37 0.093924 0.298247 0.124719 0.383743 -0.375219 0.304722 0.310172 -0.386626 -0.080135 -0.239896 -0.208505 -0.127109 0.880334 0.253995 0.113298 0.094103 0.258480 0.313969 -0.315838 -0.143087 
38 -2.357975 -1.156153 -3.088736 -3.151868 -0.720483 -1.724338 0.267109 -2.372185 -0.927417 0.850459 2.759222 1.052099 -1.562897 -0.512320 -1.861608 -0.628612 0.145493 0.211873 0.720486 -2.173260 
39 -3.838659 -1.758759 -2.290564 -2.757947 0.354640 -1.562064 0.308023 0.075613 -0.965467 0.538715 1.094722 0.853960 -1.170634 -0.201971 -2.270218 -0.844097 1.996154 1.050789 -0.273383 -1.488410 
40 -10.651377 -2.917192 -18.535374 -17.352934 4.585223 -1.848606 0.996597 -3.969437 -3.564438 0.164305 3.059327 -1.683017 0.496521 -7.125402 -5.350007 -2.208428 -0.416635 -0.857084 -3.198940 0.924698 
41 0.256251 -0.011633 -0.292492 0.191740 0.315713 -0.120410 -0.446666 -0.228496 -0.963352 -0.199145 0.799554 0.310385 -0.280902 -0.962679 -0.205136 0.339827 0.521440 0.514600 0.460033 -0.683772 
42 0.604694 0.257213 -0.193988 0.191510 0.154835 0.519243 0.402371 -0.523021 -0.177440 -0.263570 0.141270 0.022009 0.243285 0.218948 0.528455 -0.013591 -0.564224 -0.053070 0.064062 0.371806 
43 -0.117437 0.350337 -0.142640 0.526795 0.608431 -0.669454 -0.050316 0.011478 0.320423 0.036457 -0.616431 0.422577 0.269975 -0.050839 0.245821 -0.215024 -0.172071 0.336999 0.538676 -0.056082 
44 -0.234127 0.268774 -0.000377 -0.805581 0.085915 -0.237678 0.585908 0.191424 -1.008796 -0.315927 0.043882 0.324287 0.201756 0.255915 -0.695828 0.113508 -0.082107 0.295454 0.692316 -0.227898 
45 -0.174794 0.118964 -0.177708 0.912997 0.275667 0.305985 -0.483452 -0.304307 0.662369 0.315183 0.058625 0.102653 -0.165364 0.266228 0.422995 0.100345 0.382445 -0.021711 -0.579672 0.284658 
46 -0.276759 -0.870115 0.238247 0.317628 0.610488 0.296840 -0.227448 -0.241237 0.050659 -0.337775 0.366245 0.260877 0.384015 0.101040 -0.576085 0.407254 -0.130850 0.076464 0.938646 -0.410194 
47 -2.859185 -1.364058 -3.917446 -2.734537 0.104540 -1.218793 1.552928 -2.177855 -0.840426 0.303622 1.370778 0.710208 -2.235639 -0.719965 -1.201928 -1.272846 1.084281 0.592416 1.581442 -2.257501 
48 -0.498403 -0.150384 -0.369216 -0.057306 -0.085039 0.100426 0.546373 0.208505 0.294732 0.320856 0.475259 0.361934 -0.129143 0.907465 -0.881430 0.026088 -0.615651 0.243033 0.452243 0.043649 
49 -1.520946 -1.093712 -4.999709 -2.370465 0.936130 -1.682547 0.230100 -1.651438 -1.166222 -0.300116 1.718084 0.288276 -1.273721 0.598832 -2.306612 -1.538232 0.931910 0.840901 0.747362 -1.856754 
50 0.285687 0.220490 0.316477 0.158175 0.066351 -0.080412 -0.532353 0.018711 -0.281385 0.020682 0.181653 -0.124243 0.138977 -0.529825 0.315164 0.106870 0.191614 0.352508 0.174164 0.082613 
51 -2.658504 -1.134916 -3.271759 -2.938192 0.020278 1.018894 0.272695 -1.173892 -1.435710 0.075186 1.312093 -0.149261 -2.026506 -0.040121 -1.407035 -1.548949 0.176627 0.617847 -0.022801 -2.443906 
52 0.158227 0.604933 0.540747 -0.574972 0.085074 0.064235 0.614941 0.213781 -0.856078 -0.495575 -0.426010 0.201659 0.534415 0.354902 -0.011925 0.162111 -0.101149 0.055666 0.291549 0.082733 
53 -0.313879 0.028658 0.250165 0.588757 0.179054 -0.195163 0.133415 0.400715 -0.248673 0.053980 0.364807 -0.184267 0.595647 -0.257572 0.210614 -0.789236 -0.160209 -0.228865 0.088452 0.376599 
54 0.395508 -0.404827 0.232933 -0.062234 0.075061 0.450482 -0.347393 0.372318 -0.155759 0.024822 0.668581 -0.068075 0.362903 0.366878 -0.627739 0.519269 -0.213065 -0.059333 -0.550022 0.568266 
55 -1.286230 -2.039553 -3.200684 -2.794600 -0.070855 -0.820693 0.895298 -0.981265 -0.237564 0.232887 2.130349 1.546820 -1.213739 -0.419349 -1.670293 -1.413664 0.902392 0.867886 0.951067 -1.631886 
56 0.360048 0.521304 0.080663 -0.130794 0.128729 0.122368 -0.283635 -0.055196 0.478924 -0.197273 -0.235523 0.575838 -0.482112 0.420243 0.072727 0.994533 0.240959 0.541670 -0.168048 0.144450 
57 0.101984 0.104582 0.614855 0.400234 -0.145781 0.004478 -0.454117 -0.325705 0.118919 -0.130844 0.033329 0.329500 -0.092169 0.169971 -0.545838 -0.278160 -0.374809 0.561648 0.561768 0.306201 
58 -2.308759 -2.515508 -4.329468 -3.961084 0.555889 -0.914680 0.491657 -2.165455 -2.021973 0.465050 2.348536 0.432269 -1.879032 0.022090 -1.960113 -1.558345 2.046464 -0.374723 0.349572 -1.152430 
59 -3.202300 -3.396100 -7.520677 -5.953012 -0.505395 -1.373423 0.032165 -2.284956 -1.900921 1.585020 1.240379 -0.400297 -1.570174 -1.565448 -2.421952 -0.497661 -0.715717 1.259428 1.576332 -0.929285 
60 -0.105624 0.209941 0.282918 -0.091741 0.025312 0.700727 -0.537958 0.277933 -0.175212 0.056778 -0.163606 -0.373317 -0.126921 0.108026 0.282856 -0.260910 -0.357356 0.366574 -0.207381 -0.358261 
61 -1.559646 -1.872147 -3.195003 -3.554373 0.050859 -0.111388 1.440174 -0.891148 -0.376300 -0.276341 2.458005 2.241139 -0.918893 -0.212252 -0.719946 -1.926342 1.104947 1.005452 0.417453 -1.550668 
62 -2.549963 -1.379984 -3.326144 -2.022818 -1.052018 -0.302908 0.769583 -0.883710 -0.660980 -1.236995 2.251203 0.310241 -1.872813 -0.005975 -1.153547 -0.770972 1.051369 0.040814 1.109455 -1.608832 
63 -0.158245 0.457550 0.035914 0.419149 -0.024590 -0.066068 -0.157947 0.236487 0.302089 -0.050634 -0.086776 0.049585 0.217983 -0.328997 -0.447443 0.329118 -0.662222 0.525048 0.484187 0.064169 
64 -0.445076 0.552188 0.080912 -0.149973 -0.255301 -0.370324 -0.324869 -0.753054 0.088317 0.150599 0.769141 0.501059 0.612835 0.318328 0.131128 0.272332 -0.513490 -0.571602 -0.308956 -0.781142 
65 -0.482576 0.372165 -0.641060 0.013829 -0.033556 1.024977 0.006364 0.035316 -0.490792 0.698357 -0.352981 1.193069 0.348681 -0.065349 -0.581736 -0.128056 0.540737 -0.381882 0.283585 -0.120355 
66 -3.125607 -2.305819 -2.344911 -3.369307 -0.726079 0.100352 1.805808 -2.020277 -1.299651 0.940112 2.177415 0.747257 -2.594130 -0.997937 -1.307643 -0.338758 0.882948 0.490558 0.467413 -0.769092 
67 -2.452604 -1.675170 -3.150657 -1.066955 -0.207966 -0.607676 1.328620 -1.508787 -1.703089 -0.632312 1.175577 1.774483 -1.565913 0.158720 -1.148520 -0.525806 0.323780 0.051881 -0.446154 -1.160068 
68 -0.313986 0.246981 0.075799 -0.207314 0.899023 -0.111224 -0.215372 0.203912 -0.182443 0.036866 0.525799 0.584825 -0.864881 0.372016 -0.069337 0.115688 -0.425000 -0.807704 0.422356 -0.020528 
69 -0.297237 0.216589 -0.960582 0.194548 -0.125954 0.774024 -0.003086 0.134374 -0.278260 0.812385 -0.073075 1.027667 0.203079 -0.410149 -0.633562 0.058429 -0.053286 -0.035835 0.560152 -0.143577 
70 -1.128939 -1.576711 -2.377126 -2.409353 0.013968 -0.259791 1.028965 -0.842597 -0.439395 -0.060563 1.956379 1.571438 -0.971194 -0.146168 -0.899996 -1.368086 0.758133 0.851116 0.637407 -1.342205 
71 -2.482133 -1.037717 -3.646086 -2.197402 -1.105294 -0.295213 0.389015 -0.085010 -0.389648 -1.780254 1.737949 0.208428 -1.326147 -0.073401 -0.709930 -0.585309 0.998657 -0.308816 0.840479 -0.849137 
72 -2.959488 -0.362407 -2.885174 -1.441831 -0.289675 -0.275558 1.835671 -1.678659 -0.650529 0.018312 0.643853 0.886449 -1.857304 -0.246065 -0.330889 -1.097841 1.444043 -0.101080 1.732818 -2.313201 
73 -3.104923 -0.470044 -3.204129 -2.725336 0.786139 -0.111549 1.315667 -1.820375 -0.648496 -0.629199 2.461307 0.772851 -1.579082 -0.834988 -2.365742 -1.223547 1.520454 -0.083325 -0.007133 -1.172315 
74 -2.579098 -2.674549 -2.876768 -2.397054 0.464966 -0.066832 0.587981 -2.087532 -0.466072 -0.655146 0.908298 0.719417 -0.786357 -0.222702 -1.269527 -0.506839 1.017431 -0.071208 0.959218 -1.734773 
75 0.065918 -0.680273 -0.694512 0.419926 0.472276 0.419581 0.670506 0.231719 -0.447303 -0.007187 0.286924 0.137996 -0.908294 0.156591 -0.874780 -0.222288 0.549367 0.818602 0.917483 -0.043245 
76 -0.590812 0.111988 -0.324929 -0.086006 0.144482 0.866997 -0.095731 -0.234607 -0.586515 -0.144053 0.081874 0.183973 -0.353433 0.531202 -0.043360 -0.361443 -0.350707 0.083222 -0.128115 -1.130312 
77 0.028879 -0.085412 -0.151940 0.529832 0.359468 0.128265 0.434432 0.920511 -0.056972 0.262718 0.383933 0.027136 0.266597 0.032954 0.308889 0.881438 -0.169790 -0.009448 0.249610 -0.506202 
78 -1.677872 -0.829838 -2.874851 -2.538479 -0.104405 -0.097403 0.893898 -1.778692 -0.238804 -0.390603 1.276999 1.139388 -1.856038 0.515077 -1.665768 0.580251 1.468932 0.651570 0.466156 -1.731781 
79 -2.223304 -0.514549 -4.591098 -3.379824 -0.751202 -1.316922 1.459265 -1.332682 -1.731325 1.121644 2.564666 0.303234 -2.697994 -0.564614 -2.081899 -1.509709 0.985396 0.858824 0.037955 -1.054727 
80 -10.026980 -2.537777 -17.079702 -15.388235 2.682462 -1.482272 0.157762 -2.305588 -2.879787 -1.621974 2.895872 -1.788979 0.292708 -6.416297 -4.157900 -1.658852 -0.225486 -1.441719 -2.434728 1.090581 
81 0.182552 0.573233 0.378037 -0.488466 0.189484 0.400475 -0.067213 0.094447 0.724865 0.317784 0.143385 -0.746199 0.263329 -0.004651 0.223331 -0.066598 0.439934 0.036778 0.679721 -0.031931 
82 -0.764886 0.837238 0.216171 0.241970 0.888321 0.624675 0.554788 0.117519 0.275403 -0.641362 0.708458 0.682555 -0.096498 -0.210113 -0.451465 -0.334723 0.578654 -0.227616 -0.372848 0.024536 
83 -1.131518 -1.007284 -4.569986 -1.887184 0.913056 -1.315004 0.062405 -1.256113 -0.889002 -0.513315 1.524145 0.198935 -0.786968 0.885455 -1.703305 -1.499039 0.745141 0.691799 0.374707 -1.606162 
84 -2.133747 -1.746666 -4.125446 -3.348548 -0.164847 -0.041993 0.680739 -1.993899 -1.843354 0.869853 2.030747 0.353984 -1.548745 0.193849 -1.704045 -1.138562 2.224641 -0.790190 0.595786 -1.344726 
85 -0.256939 0.313448 0.146518 0.171328 0.317382 -0.162328 0.348579 0.332737 0.534593 -0.139474 0.121381 0.085773 0.002102 -0.397058 0.026031 0.486917 -0.772617 0.886224 -0.122146 -0.014043 
86 0.150211 -0.290344 0.338870 -0.064296 -0.005942 0.333081 -0.555105 0.200873 0.004430 -0.053950 0.368186 -0.178544 0.592051 0.314256 -0.382336 0.272952 -0.131993 0.097588 -0.435118 0.506101 
87 -2.462409 -1.697338 -3.625985 -2.122394 -1.230335 -0.233482 1.505642 -2.141246 -0.833980 0.171031 2.178988 -0.027695 -0.580345 -0.492241 -2.352707 -0.776915 1.559742 1.899238 0.545499 -1.831203 
88 -2.321555 -2.146439 -3.000915 -1.595225 -0.113514 -0.597196 1.201625 -1.414927 -1.561342 0.394094 2.405938 0.218120 -1.196642 -0.445353 -1.630492 -2.003939 0.354474 0.158280 1.193977 -1.554796 
89 0.004788 -0.342798 -0.692125 0.245813 0.422049 0.088872 0.749501 0.798208 -0.330010 0.417899 0.958422 -0.056159 0.038821 -0.071169 -0.084966 0.828841 0.110826 -0.025367 0.333228 -0.996160 
90 0.149504 0.423957 0.305767 -0.330598 0.077477 0.256912 -0.143057 0.093414 0.475808 0.216638 0.066373 -0.505239 0.272785 0.063405 0.225407 0.006339 0.313696 0.027246 0.379735 0.043193 
91 -0.307411 -0.200650 0.333013 0.264713 -0.128051 -0.262660 -0.062335 0.359010 -0.215521 0.102762 0.070345 -0.228829 0.448404 -0.309854 0.556726 -0.490724 -0.159981 -0.112721 0.009906 0.629989 
92 -0.364803 0.650538 -0.028409 0.316139 -0.003414 -0.298177 -0.514531 0.269367 -0.107961 0.135978 -0.298598 0.051018 0.607798 0.417843 -0.284446 0.184147 0.262288 -0.284479 -0.055710 -0.289512 
93 -2.773297 -2.096425 -1.645404 -2.548380 -0.774686 0.158904 1.735292 -1.764306 -0.874900 0.974176 2.020484 0.987716 -2.117198 -0.978943 -0.902946 -0.359500 0.925290 0.593307 0.939853 -0.777587 
94 -0.058052 0.184932 0.207092 0.237555 -0.003121 0.348906 -0.376677 0.471338 -0.014422 0.085074 -0.027088 0.030508 -0.182276 0.261180 0.203683 -0.293068 -0.618542 0.856148 0.003010 -0.234360 
95 -0.420060 -0.233608 -0.481972 0.222263 -0.023248 -0.471667 0.597676 -0.129964 -0.062936 -0.069581 0.864338 0.408384 -0.757775 -0.148879 -0.784745 0.145264 -0.638807 1.192522 0.684428 -0.448505 
96 0.212814 -0.084958 0.183775 0.922981 -0.146288 -0.101214 0.003910 0.308575 -0.241535 0.082217 0.325587 0.656199 -0.161144 0.078795 -0.431607 0.358568 -0.436874 0.461082 0.516493 -0.047381 
97 0.178594 0.131282 0.260194 0.058372 0.720537 -0.107350 -0.409184 0.580558 -0.086757 0.288241 0.236467 0.438183 -0.602433 0.271551 0.071042 0.234399 -0.530561 -0.562122 0.599219 0.201543 
98 -2.082814 -1.652515 -2.889058 -2.443631 -0.594640 -0.800769 0.584004 -2.701484 -1.093898 0.245469 1.828877 0.896490 -2.426441 0.037210 -2.120991 -1.790643 1.098703 0.875848 0.992910 -0.969645 
99 -0.802492 0.724176 -0.033812 0.116567 0.797207 0.622134 0.527583 -0.013263 0.206725 -0.603532 0.783823 0.741048 -0.223955 -0.156394 -0.545831 -0.312791 0.540681 -0.297134 -0.252103 -0.134931 
