100 20
0 -2.997943 -1.527703 1.749417 1.154269 -0.816204 -3.136415 -2.322504 2.606043 0.352822 -0.538906 1.839280 2.304844 0.308062 1.856664 0.065872 -0.320406 -2.074276 -1.628549 -0.294506 1.290030 
1 -8.394237 -0.580899 0.971355 0.836073 0.875825 -3.351117 -3.837111 7.423054 1.756292 3.588555 1.982882 5.223523 2.076550 0.290016 -3.044622 -2.163814 -6.972538 -4.684144 1.216537 2.567112 
2 -0.162781 -0.642905 0.592154 0.645243 0.418552 -0.608857 0.168197 -0.026523 0.294074 -0.657981 1.207753 -0.071537 -0.266256 0.069619 -0.289803 0.107271 -0.309300 -0.609727 -0.286583 0.312155 
3 -0.397348 -0.442677 -0.069948 0.925219 -0.332616 -0.269875 -0.896446 0.633184 0.436522 -0.118975 0.731405 -0.243415 -0.570708 -0.084976 0.798217 0.397248 0.095987 -0.712881 -0.375921 0.512891 
4 0.273692 -0.512096 0.550489 0.612340 -0.196561 -0.853790 0.192942 0.521383 0.253301 -0.004798 0.182104 -0.273299 -0.514649 -0.750144 0.254811 0.120405 0.374631 -0.298311 0.441449 -0.020642 
5 0.721187 0.252224 0.463549 0.088586 -0.371371 0.032271 0.275878 0.920705 -0.053215 0.559901 0.338196 -0.572058 -0.347669 0.493089 -0.116929 -0.003040 -0.258866 0.443481 -0.210703 -0.128038 
8 -8.549041 1.125559 0.169676 0.814836 2.529372 -1.804161 -4.893036 6.107946 1.327751 4.179064 2.964784 4.405948 2.179617 1.701390 -1.559888 -1.267393 -6.624410 -3.250095 -0.484985 1.495774 
7 -0.559979 -0.152782 0.232484 0.075569 -0.311381 -0.161408 -0.244922 0.859954 0.827332 0.300167 0.824880 -0.611539 0.296779 0.049799 0.453895 -0.034875 0.508353 -0.542341 -0.035860 -0.310573 
9 0.000000 0.000000 0.000000 0.000000 0.000000 0.000000 0.000000 0.000000 0.000000 0.000000 0.000000 0.000000 0.000000 0.000000 0.000000 0.000000 0.000000 0.000000 0.000000 0.000000 
10 -7.761147 -0.657738 0.975248 0.837304 0.845737 -3.212384 -3.698385 6.971010 1.733642 3.238945 1.955332 4.924363 2.000752 0.328159 -2.785864 -1.998743 -6.368129 -4.339937 1.153252 2.420415 
11 -8.033534 -0.037262 -0.073534 0.563791 -0.342751 -3.022135 -4.187370 4.622470 1.683610 3.340513 3.442068 4.091210 2.222053 0.095581 -2.226994 -1.715856 -6.944080 -4.762904 3.420210 1.822352 
12 -0.253496 -0.102925 -0.303906 -0.375399 0.110415 -0.884979 -0.189026 0.424765 -0.361693 -0.289387 0.977252 -0.048408 -0.006804 0.199771 0.857298 -0.977895 0.255933 -0.250807 -0.587578 -0.090167 
13 -0.733504 -0.537689 -0.193167 0.207583 -0.869626 -0.933105 -0.535285 1.190962 0.775624 -0.442347 1.801556 1.327782 0.357934 0.750081 0.305104 0.548445 -0.256480 -0.193716 -0.516916 0.525514 
14 0.328465 -0.316437 -0.078563 -0.380928 0.347467 -0.602572 -0.692475 0.323552 0.738062 0.051163 -0.108227 -0.485973 0.567180 0.117061 0.240041 0.121708 0.035826 -0.434012 0.110153 -0.511972 
15 -0.302581 -1.283423 0.151836 -0.261277 -0.540202 -0.102811 -0.514166 0.021389 -0.387749 1.421177 0.742390 -0.127225 0.578326 0.332816 0.027487 0.176671 -0.239259 -0.302772 -0.513640 1.393271 
16 0.368577 -0.542173 0.587780 -0.314286 -0.727466 -0.735112 -0.133206 0.932960 0.436244 -0.403449 0.998971 0.482679 0.543733 1.221689 -0.411053 -0.092598 0.205143 -0.614691 0.671417 0.465853 
17 0.328117 -0.711257 0.387460 0.336121 0.632853 -0.630480 -0.304266 1.324103 0.370821 -0.398212 0.129837 0.352530 -0.080826 0.850077 0.086445 -0.139902 0.476157 0.090415 -0.907041 0.456834 
18 0.441888 0.121353 -0.213059 0.228026 -0.205357 -0.244025 -0.803006 -0.124399 -0.157294 0.104924 -0.110101 -0.768218 0.331419 0.498998 0.116338 -0.291974 0.132709 -0.355119 0.670835 -0.259428 
19 -0.166454 -0.101139 -0.166628 -0.414205 -0.821768 -0.457044 -1.147572 0.921944 0.006996 0.065279 0.316149 0.677473 -0.149767 0.949245 1.126771 -0.013431 0.495528 -0.165703 0.198437 0.592224 
21 0.000000 0.000000 0.000000 0.000000 0.000000 0.000000 0.000000 0.000000 0.000000 0.000000 0.000000 0.000000 0.000000 0.000000 0.000000 0.000000 0.000000 0.000000 0.000000 0.000000 
22 -1.009508 0.000957 -0.270240 -0.132544 -1.280278 -0.475680 -0.702252 -0.150473 -0.168712 0.067150 1.796816 0.065047 0.234651 0.747257 0.459921 0.281163 -0.782623 -1.183542 0.646724 0.108112 
25 -5.865810 -0.448962 0.210642 -1.446085 1.415812 -3.432616 -4.073133 6.465331 0.461176 2.997770 1.469815 6.182600 1.845169 1.444086 -3.279750 -1.889848 -7.551769 -3.824413 1.455130 2.733245 
24 -0.808301 -0.490283 0.366225 0.477979 -0.745307 -0.211982 -0.547783 1.043019 -0.126327 0.082030 1.625174 0.768111 -0.260940 1.191845 0.175367 -0.325898 0.014504 -0.759689 0.172731 0.976250 
26 0.163224 0.390400 -0.372842 0.045930 -0.454618 -0.385607 -0.383291 0.903468 -0.544133 -0.018654 0.280496 -0.492297 -0.163471 -0.014272 0.389968 0.930669 0.352685 0.024934 0.039239 0.507484 
27 -6.349381 0.186464 -0.559510 0.842516 2.052404 -2.119595 -4.397107 5.232497 1.200412 2.206180 0.888537 3.977840 1.691981 1.005035 -2.527497 -1.517639 -4.890088 -4.106239 2.326480 2.939086 
28 -7.242159 0.231965 -0.463852 0.356976 0.185365 -3.026480 -5.043556 7.358337 1.680128 4.253433 0.713300 5.395386 1.852623 0.601137 -1.203161 -1.798102 -4.953172 -3.024081 2.575240 2.852228 
29 0.512297 0.009874 -0.132264 0.089884 0.100169 -0.092344 0.363388 -0.454430 -0.504796 -0.073367 -0.908758 -0.087791 -0.300944 -0.160845 -0.341704 0.021190 -0.307682 -0.369311 0.055291 -0.165788 
30 -9.410414 -0.445819 1.221895 0.612374 2.108857 -4.285870 -5.663465 6.779300 3.181270 3.060344 1.702609 3.422011 1.753825 0.449041 -3.287875 -3.293770 -7.744489 -1.460050 2.861337 3.668405 
31 -8.002500 -0.652181 -1.223184 2.556431 1.849074 -1.546218 -3.317941 7.790761 0.703912 3.636869 3.601164 6.164952 1.036177 -0.566337 -1.422688 -2.320322 -7.267983 -2.376850 3.439401 2.165483 
34 -6.435587 -0.666360 0.602515 0.857076 1.908792 -2.621461 -3.756186 4.239374 2.564535 3.507470 2.199549 5.684413 2.922187 1.282059 -2.776831 -3.952571 -5.058829 -4.191997 1.395665 1.839840 
35 0.312558 -0.897482 0.201954 0.488251 -0.082369 -0.416387 -0.235419 0.060620 0.204925 0.397511 -0.208753 -0.615986 0.055030 -0.255851 0.378749 -0.225445 0.338996 -0.362334 0.059266 -0.219174 
37 -0.609604 0.456309 -0.221346 0.276340 -0.766398 -0.832125 -0.847064 1.380542 -0.545787 0.222463 0.703532 0.103112 -0.006519 0.492224 0.443910 1.128563 0.155346 -0.323145 -0.126891 0.792395 
36 0.151918 0.325085 0.010814 -0.238521 0.764733 -0.348110 -0.421384 0.225803 -0.322077 -0.102898 0.989815 1.086458 0.194057 0.848114 -0.455108 0.160593 0.242214 0.447994 0.041540 1.136838 
39 -0.172057 -0.101155 -0.019972 -0.247254 -0.680021 -0.396554 -0.728011 0.687332 0.190918 0.232467 0.105678 0.462462 -0.213995 0.507534 0.800970 -0.139127 0.373832 -0.103100 0.134727 0.443446 
38 -0.325950 -0.163672 0.132336 0.146325 0.331643 -1.183655 -0.529239 1.175681 -0.698336 -1.158790 0.872286 0.149652 0.172949 0.286388 0.327359 0.935427 -0.618188 -0.874211 -0.182154 -0.705515 
41 -0.119922 -0.401991 -0.367192 0.566435 -0.495607 -0.380799 -0.233466 0.996589 -0.162528 0.255280 1.485613 1.706434 0.577534 0.971370 0.295946 0.367959 0.204516 -2.090479 -0.642961 0.123689 
40 -0.802004 -0.018801 -0.166268 0.109460 -1.101829 -0.430228 -0.691911 0.683452 0.371685 -0.185983 1.433265 1.003661 0.280707 1.282875 -0.122971 0.142233 -0.638199 -0.390644 -0.512223 1.030382 
42 -6.636601 0.221876 -0.062939 0.531595 1.119989 -2.272014 -4.163801 6.826011 1.298344 3.250672 2.483231 4.540663 2.793431 1.658957 -2.301615 -2.612335 -5.906486 -2.669112 1.842534 1.172279 
43 -0.203667 -0.275060 -0.213369 0.560696 -0.452756 -0.410247 -0.396262 0.926216 -0.053842 0.239057 1.521807 1.812744 0.653043 0.961864 0.163054 0.148640 0.253840 -2.035041 -0.638073 0.178168 
46 -0.197795 -0.471047 -0.370542 0.761253 -0.092865 -0.015887 -0.754790 0.661767 0.741806 0.031700 0.932958 -0.424911 0.533847 0.604021 0.442628 -0.073919 0.206369 -0.313257 0.064173 0.108116 
47 -0.871503 -0.223557 0.054486 0.242973 -0.444358 0.300276 -0.038222 1.455512 0.540658 -0.101336 0.776524 0.317589 -0.364159 1.386690 0.289734 0.274660 -1.294309 -1.187544 -0.679373 0.239580 
48 -0.103741 -0.589411 0.138250 -1.000516 0.526650 0.359639 -0.368635 0.285765 -0.305502 -0.332305 0.464930 -0.624807 -0.433760 0.935256 0.591487 -0.111044 0.035474 -0.443424 0.413864 0.122598 
49 -0.787308 -0.461953 0.927156 0.174093 -0.634698 -1.060505 -0.853080 1.139496 -0.209091 0.087461 1.458145 0.616773 0.047134 1.289436 0.348400 -0.220954 0.083694 -0.949658 -0.314786 0.297803 
51 -0.303892 0.529878 -0.853490 -0.547133 -0.238099 -0.865865 0.222504 0.612638 0.079736 -0.214743 0.622945 -0.760569 0.319718 -0.051756 -0.164556 -0.840795 0.365135 -0.604954 -0.626984 0.719398 
50 0.555723 -0.150450 -0.421457 0.408933 -0.138989 -0.354353 -0.079014 -0.414569 -0.286164 -0.153517 -0.477332 -0.037001 -0.308571 -0.060961 0.159679 -0.562351 -0.337215 0.532635 -0.098529 -0.208694 
52 0.282445 -0.208172 -0.396893 0.130669 -0.216074 0.034651 0.005178 0.399446 -0.147090 0.124356 0.753338 0.655430 0.307935 0.465856 0.304689 0.247401 0.347482 -1.110005 -0.355718 0.038925 
53 0.276113 -0.276361 -0.009372 -0.081311 -0.496778 -0.547378 0.263240 0.353518 0.611301 -0.276350 0.295283 -0.258085 -0.347833 0.252047 0.002737 -0.384534 0.047407 -0.582595 -0.178279 0.763117 
54 0.128625 -0.681878 -0.189924 0.090623 0.155197 -0.478333 -0.377982 -0.023875 -0.443363 -0.561135 1.011854 0.195872 -0.264366 0.176914 0.291608 0.525289 0.023004 -0.171248 -0.237874 1.071665 
55 0.535931 -0.417160 -0.608436 -0.621641 -0.067907 -0.218926 0.226359 0.478607 0.567802 -0.316795 0.037781 0.104883 0.092524 -0.272828 0.390644 0.619186 -0.529472 0.168868 0.296487 -0.262849 
56 -0.272661 -0.595953 0.101261 0.178707 -0.143750 -0.611300 0.730967 -0.152636 0.093480 -0.500195 -0.488084 -0.232077 0.196220 0.284116 0.436487 -0.027703 0.431557 0.411549 0.090205 -0.092273 
57 -0.027281 -0.486617 0.311983 -0.583005 0.429176 0.087207 -0.027684 0.136883 -0.183573 -0.365095 0.240823 -0.442015 -0.415359 0.450674 0.446138 -0.190777 0.026094 -0.218365 0.169142 0.059245 
63 -6.765222 -0.135604 1.230390 -0.082255 2.229427 -1.535268 -3.134822 6.440204 2.981923 3.339348 2.585439 3.909053 1.627932 0.329298 -2.217270 -0.376504 -3.937354 -3.932384 2.206970 2.819171 
64 -6.769161 0.076662 -0.452757 -0.786490 1.780126 -2.410489 -3.128619 5.086717 1.849787 1.920140 2.371546 4.265763 2.426769 0.259787 -2.115287 -1.487189 -4.570751 -2.724321 2.315555 2.076433 
65 -2.168195 -0.387590 0.114860 0.686556 -0.427657 -1.217569 -0.022914 1.087853 -0.001335 -0.044896 0.727256 1.168224 0.881092 1.723080 0.025307 0.320624 -0.290812 -0.831065 -0.001418 0.668790 
66 -6.698778 -0.039409 0.318725 2.209344 0.811519 -3.254008 -4.689859 6.473271 2.753257 3.034804 2.360856 4.939057 2.683225 0.223813 -3.234191 -1.151172 -5.608619 -3.104125 2.356319 2.134433 
67 0.525099 -0.597884 0.458254 0.243615 -0.015728 0.253499 -0.730441 -0.390272 0.730661 -0.065706 0.039379 0.390880 -0.506679 1.094271 0.259118 0.688255 -0.284304 0.065683 0.668194 0.123241 
68 -7.434713 -1.621134 0.481525 1.704624 2.377712 -2.871107 -4.793292 5.688045 1.003940 3.345948 2.241321 5.005049 2.567868 0.211725 -1.368383 -1.414454 -5.503201 -3.003735 1.317439 1.106748 
69 0.345698 -0.341502 0.487979 -0.333415 0.133360 -0.452688 0.436908 -0.418074 -0.272692 0.005981 -0.166893 -0.110309 -0.017183 -0.343947 -0.009685 -0.285453 0.036940 0.610202 0.150673 -0.413807 
71 -0.361343 0.321211 0.599453 -0.506525 -0.454905 -1.061821 -1.544527 -0.276673 0.724572 0.027821 0.422285 0.200271 0.280014 0.672844 0.103143 0.935435 -0.033625 -0.837252 -0.957432 0.743890 
70 -0.478289 1.228054 1.003082 0.037013 -0.446312 -1.079221 -0.698153 0.587294 0.132324 -0.449995 0.988118 1.124726 -0.935424 0.884631 0.395808 -0.397887 0.035889 -0.672284 0.149315 -0.126403 
72 -8.481762 -0.253689 1.700738 0.019058 2.730038 -2.015609 -3.937348 7.997753 3.746268 4.159218 3.282150 4.938438 1.951705 0.308149 -2.794885 -0.472167 -4.967496 -4.960803 2.697616 3.541711 
73 0.377244 0.674004 -0.660967 -0.273823 -0.237494 -0.306477 0.376134 0.516174 0.706191 -0.845567 0.074195 -0.354906 -0.386475 0.106874 -0.334899 0.025740 -0.039623 -0.270801 0.289507 0.463260 
74 0.083281 0.173386 0.307874 -0.006681 0.060043 -0.879497 -0.891058 0.774562 -0.442768 -0.126316 1.818379 0.571350 0.715576 1.114530 -0.343784 0.483239 0.322201 0.052172 0.765685 0.742022 
75 -7.532507 -1.981414 -1.484842 1.574587 1.806289 -2.561656 -3.483392 8.224117 1.039736 3.565304 2.631393 4.633525 3.428243 -0.073786 -3.598928 -3.129291 -6.607807 -3.648993 2.967522 2.967656 
76 -0.335993 -0.502300 -0.863169 -0.370891 0.369237 0.111648 -1.190973 0.316938 0.232020 -0.256712 1.006867 -0.108870 0.717558 1.089013 0.330256 -0.000451 0.095253 -0.319968 0.269477 0.871054 
77 -0.102862 -0.710252 0.124081 0.371955 0.259824 -0.940359 -0.583841 0.156010 0.222278 -0.481862 0.632465 0.302547 -0.259586 -0.291293 0.485205 0.073884 0.597438 -0.683789 0.549962 0.636766 
79 -0.386076 -0.860990 0.441210 0.582854 0.226841 -0.759182 -0.688961 0.410001 -0.241555 -0.104744 0.857356 0.353249 0.212100 0.268811 0.808575 0.268703 -0.084235 -0.197516 -0.365520 -0.169199 
78 -0.372779 0.007415 0.146945 0.592570 -0.332316 -0.932405 -0.508182 0.490179 -0.077140 -0.259395 1.535449 -0.242304 1.106730 1.011331 -0.843918 0.433944 -0.843729 -0.359798 -0.871453 0.022920 
81 -8.372187 -0.996351 -1.696544 2.449073 1.749398 -2.920423 -4.895798 6.913648 3.294827 3.414118 1.278006 5.791620 3.010365 0.019159 -3.737632 -0.807516 -7.842558 -4.522997 1.180897 3.853493 
82 -0.594392 0.182546 -0.364711 1.142796 -0.195131 0.265089 -0.951015 0.410413 0.929002 0.429978 1.315773 -0.463727 0.512467 0.978505 0.182287 -0.129354 0.536194 -0.020931 0.326983 0.684849 
83 0.343384 -0.132092 0.220967 0.000890 -0.238653 -0.284304 -1.567642 0.902838 0.170340 -0.107564 1.687559 0.245474 -0.325453 0.305273 0.180343 -0.075996 -0.400385 -0.857788 -0.430733 0.471978 
84 -0.284398 0.000529 -0.115440 -0.080449 -0.966746 -0.852473 -0.457678 0.769889 0.724653 -0.328781 0.864749 0.043000 -0.155245 0.929198 -0.561008 -0.428052 0.082813 -1.260219 -0.158505 1.533694 
85 -7.212702 -1.148648 -1.293681 0.186864 1.398908 -2.844343 -4.348835 5.799882 1.697072 3.591179 2.022062 4.277291 0.656593 0.906061 -4.180905 -1.535733 -4.599954 -3.038774 1.774259 1.010834 
86 0.000000 0.000000 0.000000 0.000000 0.000000 0.000000 0.000000 0.000000 0.000000 0.000000 0.000000 0.000000 0.000000 0.000000 0.000000 0.000000 0.000000 0.000000 0.000000 0.000000 
87 -0.854464 -0.728376 -0.738550 -0.247340 -0.273037 -0.701069 -1.027954 0.676404 0.257050 0.343784 1.126493 0.435483 -0.901028 0.965271 -1.079724 0.412047 0.448718 -0.367243 -0.125727 -0.333927 
88 -0.377889 -0.482813 0.177088 -0.609554 -0.327962 -0.368432 0.116654 0.230631 1.130379 -0.135994 1.425014 0.709989 0.101188 -0.017499 0.683353 0.012705 0.068321 0.824518 -0.350330 -0.042989 
89 -2.491111 -0.193660 -0.249977 1.023419 -0.261846 -0.562964 -1.188391 1.360888 0.614102 0.185930 0.600350 1.118402 -0.666177 0.879101 0.445742 -0.119395 -1.390913 -1.600114 -0.845702 1.025743 
90 -5.624045 0.577960 -0.048788 2.284252 2.479707 -2.250586 -3.916140 5.570598 -0.465752 3.096129 0.815283 2.556658 1.373028 1.489424 -3.014182 -1.953786 -4.646040 -4.728886 2.264059 2.481440 
91 -0.027143 -0.465119 -0.241876 -0.347467 -0.026603 0.190834 0.296099 -0.350197 0.841224 0.013977 -0.314834 0.158552 -0.415346 -0.424500 0.249428 -0.325714 -0.052681 -0.113261 -0.006651 0.174161 
92 0.402217 -0.248749 0.281975 0.002447 -0.207089 -0.291330 -0.923721 0.603538 0.088747 -0.277992 1.124078 0.077388 -0.359792 0.142446 0.200585 -0.156922 -0.197600 -0.515863 -0.351919 0.242733 
93 0.096525 0.530738 0.021555 0.401276 0.559878 0.155413 0.303316 -0.352719 0.245149 -0.543740 0.183585 -0.391311 -0.345869 -0.017440 0.103470 -0.006993 0.339359 0.165785 -0.049248 -0.325145 
95 0.317966 0.123907 -0.334272 -0.298397 -0.375627 -0.338584 0.140594 0.166651 0.588797 -0.143784 0.124456 -0.417229 -0.221310 0.376657 -0.312472 -0.385268 0.264454 -0.514225 0.155041 0.924432 
96 -0.248985 -0.669131 -0.684891 -0.292449 -0.054479 -0.450065 -0.518831 0.148298 0.262506 0.229604 0.559721 -0.129249 -0.903795 0.501865 -0.653087 0.333645 0.619450 0.028376 0.031785 -0.518398 
97 -8.343405 -0.536147 -0.263245 2.106637 2.270561 -2.822278 -3.838257 8.695134 3.126946 2.473303 2.265160 5.611834 1.884844 1.592291 -2.982963 -4.286984 -7.179473 -4.555043 3.478994 0.959477 
98 0.211189 -0.223245 -0.755934 0.321532 0.099640 0.304704 -0.746556 0.070204 0.728313 0.213874 0.570706 -0.539558 0.473944 0.579265 0.522803 0.048766 0.426018 0.088128 0.240342 0.365279 
99 0.365864 0.025403 0.193706 0.061420 -0.370876 0.106361 0.343290 -0.200478 0.346367 0.345738 -0.563715 -0.217061 -0.174630 0.116910 0.079963 -0.361144 -0.196774 0.263895 -0.323375 -0.814290 
6 -5.436714 -1.868060 0.142533 -0.111684 0.850477 -1.766728 -2.876703 4.340992 0.390357 4.387978 1.347170 3.038117 2.616510 0.067517 -2.013138 -1.395211 -4.799607 -2.544536 1.125854 2.843165 
23 -7.009829 -1.031420 -0.088904 -0.106798 1.993183 -3.523141 -5.051069 6.848448 3.056346 3.598193 0.940539 3.894622 4.014580 0.587481 -2.696040 -2.177322 -6.336971 -4.466605 1.944394 0.903982 
20 -0.509583 0.046342 0.062530 -0.090218 -0.768123 -0.322686 -0.343628 -0.369697 -0.034912 -0.154827 1.054042 -0.172369 -0.025891 0.396157 0.150980 0.198168 -0.484308 -0.636912 0.633435 0.070173 
32 -1.400973 -1.271127 0.554231 0.570989 -0.618393 -1.009754 -1.097714 1.535861 0.372497 -0.342638 1.336169 0.590827 0.168829 0.937843 -0.322141 0.681416 -1.065958 -0.824388 -0.092406 0.983866 
33 0.462382 0.441549 0.351272 0.098268 0.260368 0.282418 0.540538 -0.183075 0.130140 -0.000388 -0.501132 -0.117499 0.383559 -0.379183 0.672253 -0.096310 -0.406013 0.130900 0.208728 0.228327 
44 0.000000 0.000000 0.000000 0.000000 0.000000 0.000000 0.000000 0.000000 0.000000 0.000000 0.000000 0.000000 0.000000 0.000000 0.000000 0.000000 0.000000 0.000000 0.000000 0.000000 
45 -6.448730 0.456732 0.121232 2.350613 0.663455 -4.269716 -4.162611 5.514705 3.007347 4.478379 2.165890 6.628653 3.623159 0.008692 -3.594898 -3.188006 -5.325163 -3.663207 1.472730 2.078514 
58 0.000000 0.000000 0.000000 0.000000 0.000000 0.000000 0.000000 0.000000 0.000000 0.000000 0.000000 0.000000 0.000000 0.000000 0.000000 0.000000 0.000000 0.000000 0.000000 0.000000 
59 -7.933762 -0.426855 -0.035750 -0.650123 1.832490 -4.081787 -2.105709 6.147368 1.337414 2.483041 0.840524 5.688211 1.272894 -1.230922 -2.142463 -1.105841 -5.705068 -4.267995 0.627659 2.539040 
61 0.377948 -0.299899 -0.272748 0.401278 -0.218588 -0.641969 -0.389081 -0.097135 -0.166260 -0.326398 0.143585 0.123964 -0.208318 0.301064 0.257761 -0.432115 -0.370892 0.221931 -0.164806 0.049714 
62 0.078862 0.458504 -0.371027 -0.337899 0.322782 0.012355 0.667493 -0.204726 -0.045762 0.357801 -0.459365 -0.323712 -0.120464 -0.576601 -0.162075 -0.335723 0.128630 0.114408 -0.074296 -0.007173 
60 -0.614518 0.115954 0.657512 -0.225317 -0.491926 -1.189626 -1.369637 0.180342 0.537590 -0.134375 0.771410 0.464795 0.261158 0.710081 0.092576 0.716264 -0.003304 -0.911266 -0.940003 0.661044 
80 0.157995 0.112465 -0.706447 0.177556 0.340340 -0.204043 -0.688938 0.178944 0.649291 -0.929378 0.327505 -0.061011 0.243352 0.204133 0.323022 0.402159 0.197564 -0.301228 0.438745 -0.191558 
94 0.000000 0.000000 0.000000 0.000000 0.000000 0.000000 0.000000 0.000000 0.000000 0.000000 0.000000 0.000000 0.000000 0.000000 0.000000 0.000000 0.000000 0.000000 0.000000 0.000000 
