100 10
0 -0.0015851602086751515 -0.024995410003562757 -0.005920579883251065 -0.021474790924712363 0.02867688765059031 -0.03476154630017193 -0.02546436441623896 0.02551922015542333 -0.024145985087657095 -0.0074287235199532505 
1 -0.0022512772784314184 -0.002371771668083289 -0.036044746097291594 -0.007783770858861639 -0.0014757449320249249 -0.02107955360025331 -0.03571272547349101 0.04192967533625819 -0.005429435007873707 0.04303282144247039 
2 -0.011535874445392901 0.0017106440942962543 0.004315129846776034 0.002572834749577979 -0.03701708119094973 0.026763172347699038 0.010302091209924346 0.03228521440579092 -0.012751591713141507 -0.028257841942715578 
3 -0.006850415379365915 0.03405299396214949 -0.019847955779993022 -0.007317726488759469 -0.009169368543485924 -0.010756204540667325 0.0016587504918346597 0.044513342827956624 -0.0040484356378095885 -0.025521401300209502 
4 -0.004672666455080976 -0.033305402277771665 -0.010262888677414617 5.916704639144177E-4 0.03528807149159073 0.04725399185058906 0.02559135406221601 -0.02863323713372399 -0.02307627936906037 -0.043602209375892806 
5 0.017389024479198677 0.04857601663059406 0.004347784835402513 0.04485947597821364 -0.041938313574880426 -0.04708546583918647 0.03974659116905993 0.009285949495116108 -0.007421447558533245 0.026614859944732637 
6 0.029749350646759064 0.03721291410199079 -0.003918195105758882 0.032842122725012114 -0.047786927532818824 -0.042439792469211514 -0.03727851671725194 -0.030588074143298838 -0.00684323993029855 0.03908181240802707 
7 -0.006354872754265206 0.02993951289349387 0.028052135404537715 -0.001165909509266494 -0.016367460293309023 -0.04577984642343165 0.0042756103712241035 0.005479799572481481 0.04502616430307056 -0.02854294919307554 
8 -0.037750954134011805 -0.011875732008598715 -0.025107231019751198 -0.04510546379179018 -0.048355637426241105 -0.009615938263523938 -0.033237745180602477 -0.025519324475425743 -0.00400016703267656 0.04151734892115296 
9 -0.008175438823420677 -0.04462512815522972 0.034193434959052235 -0.048300873821661615 0.026125812057991738 0.02443236925885136 0.020441405992482155 -0.023096699208971318 -0.01990999886992899 -0.04576091437425467 
10 -0.004162276427602962 0.040357601249981626 -0.005397344215981559 -0.005163507866256 -0.046077092367389424 0.04216616112398629 0.003928101925958283 0.016967735444762377 0.010368220204865252 0.03644850733884698 
11 0.02989207229870917 -0.022507393853122136 -0.04741602804429794 0.006222652733500334 -0.03595340075026441 -0.04243969606114317 -0.01109169368348406 0.020263820578316973 0.01494424402946718 0.017195423189745217 
12 0.03900548885285586 0.013299309154475003 0.046183910298187504 -0.04385604722174188 0.007200388162817961 -0.008846147107846392 0.007550632447414973 -0.02985750999854968 -0.04130150801911493 0.025838769016018493 
13 -0.03364313271315518 0.04421530388952066 -0.025011544687447228 -0.027917901708491254 -0.020997007666257783 0.030170241185237513 -8.031826041455358E-4 0.006425821032116585 0.00380988811527061 0.014155924376072304 
14 -0.00523776696515742 -0.03722983918557828 0.045336588500380845 -0.008040939269705293 0.03151914319175579 0.014123880006436329 0.037681181558999285 0.034662107336163706 -0.01787147212009509 0.029323400731874318 
15 0.019673287770959225 0.04534794368002156 -0.04123396277766631 0.015612458390962581 0.028401602610874745 -0.0212704186161344 0.04507538105182436 0.04322791962572444 0.039180112973781434 0.01989941105524202 
16 -0.018382356663162826 0.03651631453975619 0.009841824631010344 -0.004166210498128808 0.04439468924764526 0.007609502336137153 0.04515891163621585 0.023855304691279333 0.015497630972535958 0.0033168533734074025 
17 -0.0167765866192638 -0.015053663495861824 -0.017471117025839845 0.0336451535201698 0.019782747738923013 0.04662404729708978 0.019169015437976434 -0.048763555050745755 0.028809437562260055 -0.049971750537582335 
18 -0.006892692139405199 -0.044982161376508865 0.00799464910273917 0.018940059215424486 0.019527496826616718 -0.0015137372700286477 -0.02360974318123833 0.044640669001156166 0.02843792952594486 -0.0066949247974700254 
19 -0.021915670057483638 0.04983588366460275 0.04235794352126685 0.012268264577289611 5.800882890343306E-4 0.03731360016859862 -0.0327800155776349 0.012191976203394527 -5.414810744385767E-4 -0.015432294764656152 
20 -0.01618038914049702 0.016921954771297154 0.03194000980772875 -0.045686661446595556 -0.01025680502180758 0.023399381449103196 0.041120521954729386 -0.047365147088682294 -0.01757422469027985 0.0196065567876045 
21 -5.702672183524049E-5 -0.018550795920105133 -0.007160796500500277 0.03221771246908066 0.019374628407130046 3.392246797173648E-5 -0.023716649858923668 -0.04609080286513669 0.04879651834626263 0.031560212307346645 
22 0.04185080068545266 0.03553715488496354 0.0482709982441417 0.02488814304590663 -0.04464184972899449 -0.033230261819439735 -0.007861252763427496 0.009322298530115158 -0.018115379647298223 0.010264801251495093 
23 -0.02869334115974135 -0.03940737501146742 0.04353142219244225 -8.870972641150221E-4 -0.0023767677474978545 0.03001672077871149 -0.044387094718653694 -0.044980598965137106 -0.02210177713056597 -0.02438392723791426 
24 -0.029786761135847727 0.03557828436916779 0.01740846523049532 -0.026099721374699535 -1.1004457200080031E-4 -0.027005699291631248 0.03314196727231581 -0.01590035152349011 0.016278425385201488 0.02373888249339621 
25 0.005567463080790725 -0.017182049203055827 0.018448920787960444 0.008879224373075246 -0.02562312057236893 -0.013606436880239192 0.04409061459189982 -0.011801198354152598 -0.011566829257989974 0.0306985966956967 
26 -0.04705547592500392 -0.022268460276863012 -0.0469336797631292 -0.01632795995415497 0.04638004102878181 -0.010039286972847793 -0.021104722082620854 0.024574341965210078 -3.9264163560552844E-4 0.04868758898294527 
27 0.025513908010356624 0.03576726880734369 -0.026259243376479148 0.0064537214431184655 -0.049335920256039265 0.017764267125924882 0.04377539031633915 -0.028595268129031293 0.020929252747273808 -0.0436370098525571 
28 0.025512825108333324 0.0326122573233127 0.013517002978107973 0.041863026124028105 0.009568283577889025 -0.04187525049218236 0.04035917822536479 -0.035311692854578566 0.013815170322130487 0.028396618333276658 
29 -0.04445658034712065 -0.010824972027645008 0.04697015286403798 -0.04075081594721656 -0.034999957133584114 0.03785238493730092 0.03549466449323872 -0.03685421453021596 0.04340337649614693 0.00223478821184967 
30 0.003586417705382772 -0.004682715406935945 -0.02259321438263928 0.032960627300086975 0.011757129401772082 0.032153144861536406 -0.003384128249107621 -0.04794589800178717 -0.04665966567462526 0.03327715269637851 
31 0.02411432941981676 -0.02684701567433252 -0.019754180614857918 0.04585573047894903 -0.023107707959795543 0.011736638836828817 -0.020625149952231636 0.019940746975310796 -0.026813036707528104 0.016704995119015874 
32 0.04933305238026632 0.01702761077978676 -0.041469353866121814 -0.04289940487561903 0.033425419046944925 0.010513318467402033 0.04521132889361509 -0.04666778546864068 0.049390613845315255 -0.0036319304879703805 
33 -0.02911379546616071 -0.049049967912604034 0.018929375412950488 -0.044912036253520284 0.021248630353053844 -0.0031613877832597946 0.04080450364206904 0.031875164212651144 0.02893418993093296 -0.007364484840441688 
34 -0.029862492440667264 0.030995875764881442 -0.04373829707353284 -0.031750391331149805 -0.036500251675670316 -0.0476046702399757 -0.007059868824409532 0.03954469356390657 0.024493461983112662 0.03390293687375255 
35 -0.04846743999350509 -0.011429649317331637 0.037740801974802375 7.396172241606492E-4 0.02325350569834539 0.03216342198564941 0.01054658836747895 -0.03445673096119598 -0.03541396309272306 0.025309851409705507 
36 -0.04902676655102435 -0.033242783253953766 0.02124029419858371 -0.020651916781719314 -0.0013361526689815606 -0.019019615046348214 -0.03986482594645744 -0.03808837647158173 -0.009527716481883141 -0.004243119232688275 
37 -0.027629902875584478 -0.014550303467603798 -0.01319355577692317 -0.016713466538559797 0.030563945324976784 -0.01576855216506956 0.006563944321370874 -0.027333132715763885 0.032473382372814295 0.02593047288506566 
38 0.01863674544901167 -0.021469096896561568 0.03946296301109318 0.0032028633073158063 0.01618416175541414 0.00732404105400517 0.02318455769133696 0.0031134248159621182 -0.04377881680675881 0.028967267519557693 
39 -0.03326619836481557 -0.04216895595462024 -0.01845819051363847 -0.028717263218995336 0.02758643497539658 0.03870565564025765 -0.04540530615201978 -0.03268825379476711 -0.04122247334596102 -0.03234435011574817 
40 0.023651035957436173 -0.038465956182246554 0.0020717568456008807 -0.015264059000106 0.010452387819928077 -0.03999875874718323 0.012283099349259108 0.028823333220062152 -0.04450137660865505 -0.00847390668854362 
41 0.04543736536511571 -0.04045272120775707 -0.01776598684086511 0.032323248168846075 0.04513124615204293 -0.02708955958276016 0.04461199666871489 0.03487601701653702 -0.00877332342395607 0.04048495273748163 
42 0.0038668950360921882 -0.0066923933892658605 0.0329294316797694 0.032636625353435124 0.039793472652759024 -0.027835842040928004 0.01433608020285596 -0.030079194279734357 0.039432911276100026 0.02327084666594027 
43 0.014693572155022294 -0.016390066411829007 0.02178639603716579 0.016201207388893524 -0.032099147049001374 -0.04374568191408553 -0.04897479837682454 0.011903750906408462 -0.003807908022452544 -0.043755988618708996 
44 -0.037361199283845584 0.016158848950339876 -0.00852373490157875 -0.023468903125332806 -0.022939820861806237 -0.040207248666519126 0.0044679578846053445 0.036988065847592344 0.0035301928348002052 -0.03404544305972793 
45 -0.043470542367725254 0.012319446425087421 0.04331048850440446 -0.018734217808863106 -0.027945681942871135 0.0030101731042403656 -0.014172904736369618 -0.03271882645723777 0.040257752492187285 -0.02451438931604468 
46 -0.04607545106458655 -0.028546766160204896 -0.04560061864779341 -0.04052538491340789 -0.0048670242673734985 0.022671885832039752 0.043748991798823786 0.005508315185416957 0.034698276539883346 0.025454608551961366 
47 0.00901613347192105 -0.026446200579284672 0.0030981901729952967 -0.041008774802073544 -0.004500454467666959 0.04497324895561868 0.02586465289530724 0.022501525657134702 -0.010127463575066987 0.024315451223869432 
48 0.0167555642469022 0.006742718180985563 0.0063056185571183756 0.024888107600073938 0.04666670711796021 0.013007674662079794 0.03553784161845412 0.012625652827918565 -0.02985279040419959 -0.014416187883326149 
49 -0.03345654750088983 0.016458804302377884 -0.021020388291003656 -0.028603632500831845 -0.04539938847200731 2.0839571002725376E-4 0.018008267077949447 -0.028561287228639633 0.001854104780982435 0.030967499048781433 
50 0.0422474378571117 0.0025963041751161263 0.03687412424094062 -0.027997765218288194 0.016273117646401623 0.04559972086165605 0.028248348912485434 -0.025606949427934157 -0.042999742188245746 0.015096167955092865 
51 0.043904717823424956 0.040954705595307894 -8.30244626775678E-4 -0.04879225438188892 -0.02735259111128301 -0.01158546090594469 0.019217180985494277 -0.0015513170190220582 -0.04270122213624324 0.03939509089363702 
52 -0.012332091280221636 0.007502583029782362 0.049875068068214436 0.034438448713989545 0.03280096744111083 -0.03188522197410998 -0.011616077093273702 -0.033873805173241914 -0.010953449830418027 -0.04276640851781373 
53 0.01211686314851539 0.002290177638661339 -0.027570156580031167 -0.03446156063512386 -0.022279934944954737 -0.016624264151497127 -0.027653583168574504 0.04762139489344834 0.011861905846243493 -0.04978952819293654 
54 -0.025947867980138185 0.026342918070566924 0.03797593248968169 -0.017252025851627863 0.02947315754235035 -0.029738757664125072 0.04434301831245161 0.0077974106173730575 -0.02471067408593075 -0.0454611096400937 
55 0.018686702128123633 -0.03568378631124449 -0.04328324931515879 0.010358635621306978 -0.039509228171063934 -0.0014654231831373599 -0.046986751252584 -0.034364791266386974 -0.0035916283593727784 -0.002003194121077223 
56 0.01645280154232237 -0.019312143927344906 -0.03358292318170649 -0.03645395403191174 0.0303629030438186 -0.01345712840825306 0.018784461674013975 -0.03865473857186284 -0.03620865074879594 0.04066402505677587 
57 -0.049556063189766096 -0.0067812178965974915 -0.049533364385113375 0.025162822990004895 -0.04395928300884957 -0.02708489290490742 0.04793880632967281 0.02591931385486933 0.0036929808693084154 -0.00166689149124436 
58 0.03913526524272154 0.047548219905874434 0.038423404081197654 -0.034679880046941815 0.02303866903711037 0.03877391285864181 0.02525143257510736 -0.022658133674135696 0.003791768608752677 0.025531785384792383 
59 -0.016903171499778224 -0.032859450189100414 0.028256592487070943 -0.02500757441269632 0.02793010398305499 -0.03856114980750094 0.040903169986810595 0.04270887524968179 0.03901572984695606 -0.012186041315930197 
60 0.02187549633484929 -0.012783733033733901 -0.014370940009130773 0.04405721482129852 0.04918025227896119 -0.02833312102081136 0.003288124734183373 0.024651311052539614 -0.020833705782488377 0.010462730617548122 
61 -0.011673418973109872 0.026438402248784167 -0.02918928222403432 -0.03964840489602135 -0.012455724222902665 0.03611892517330828 -0.01120012225030701 8.131428851286815E-5 -0.004292972982963961 0.03591227396922895 
62 0.007991411005483206 -0.009538824350616548 0.03782737707567842 -0.049473069639664344 0.007566005622503413 -0.04244204151681034 0.005443256623623216 -0.0014709583565208017 -0.012974741873086792 -0.004241693949211256 
63 0.0365216021749468 0.004264826343433314 -0.041835321310043104 0.044557800088787666 -0.022850794542134244 -0.027316372301739323 -0.0327514953113859 -0.046808797595933385 0.03983312509669591 0.028724803775058826 
64 -0.020164335743747718 0.010597083395670804 -0.02198174136715957 -0.024626911005854492 0.017053917382266137 -0.015285917208310263 0.029339740310000716 0.03005342423172518 -0.033408224964763866 -0.01526514808991658 
65 0.04116303253460395 -0.04227228821908892 0.004275559177263177 0.032697728074442454 -0.01887527572839859 0.030872295682169315 -0.047178466042119914 0.00667502088958708 -0.04732779658657853 0.011456429744918905 
66 -0.02679925240945309 -0.0031792580492913227 -0.018989463163691777 -0.031891630663859624 0.031026853395902533 -0.0023305020410766875 0.008400008848664764 0.01284714729021258 0.0054748494331936515 0.045332171121793205 
67 0.03940801038393451 -0.03392552329038408 0.011461336880567585 -0.0033870579494920117 0.006504017221029557 0.03596265487569169 -0.012835486406471341 0.03857606630799212 -0.015703357900760807 0.028940743996177753 
68 -0.04156514799864158 0.011719794499659486 -0.033253154365131335 -0.008327306036855164 0.02924497955185873 0.027668642718694646 0.035851602233656875 0.0217374914044847 -0.036950009240803314 -0.03682578052257583 
69 -0.007422613593438298 -0.02583715873783704 0.01377708479328198 0.016218652758728615 -0.008766883746393917 0.03403025231639985 0.03713602210047985 0.01714357343499797 0.01700722479689224 0.02156083464676778 
70 -0.03696040236220551 -0.002018405443496618 -0.026946192372877997 0.04540754302250938 0.038145995374917176 0.03654599976441457 -0.0017021673097310619 0.022320935178912184 -0.046117521462414934 0.008338386232497408 
71 0.02003965691842984 0.03692200373348734 -0.04021739832138945 -0.0010371653403338677 -0.04352581560908307 0.024006988591880794 0.024566741809279636 -0.04751087870199413 0.02340017958842444 0.017625514056895376 
72 0.0481184138273999 -0.042913616124917876 -0.03331958574339551 0.026114781413805556 0.04635649477399428 -0.0017474537214337115 0.03742346252445319 -0.03966104197289 0.027976137998951378 0.04209374071891314 
73 -0.04960686671723291 -0.036425662052010796 -0.04287119384360908 0.046361861795874613 0.01781167734358683 -0.03420279910022661 0.049334505984246727 0.03533725042748661 0.030508050434625934 0.012572762976006268 
74 -0.020732987246908984 0.0161475112994094 -0.033727296212747025 -6.900345355531634E-4 -0.01147458349996392 -0.04125774972031172 0.04131549125324706 -0.024661713913970762 -0.030896877072835848 0.009497532604544367 
75 -0.015116534394802528 -0.03092082320761407 -0.03601202836075199 -0.04069729673687672 0.009380473689241354 0.025526080454852995 -0.029825119509495002 0.040986129722844836 -0.03125936018620338 0.04031344603678089 
76 -0.048654983834139166 -0.011934629702070276 0.04634294635603845 0.020846547003793736 -0.03243681000087504 0.04706109900091453 -0.009585672429417536 0.004280285299180853 0.007567820515822876 -0.0010068738363880115 
77 0.01965380370789329 0.014576633031645646 -0.034424545642814997 0.012180681371811764 -0.04527965766540246 0.04643669512218175 0.03899450403465458 0.018098044018298832 -0.007737656315738939 0.0225948442073745 
78 0.03604050861846066 -0.02520944852361855 0.027326716220428336 -0.0172212483601752 -0.027032128649183362 -0.04176511132647785 0.04727074283762232 0.027580554043460513 0.00948073887902664 0.0010314729902126008 
79 -0.03428993990103364 -0.041449195601595025 0.017858233828561478 -0.020054355741020137 0.03857120480063907 0.02701825259623427 0.006427036622239457 0.03906832420804531 0.005977413370474749 0.028454924545123807 
80 0.021236876333364806 0.023745659070908066 0.03348141000884575 -0.04335265031001123 0.03114218113509578 -0.008068928349889459 -0.015930813074487193 -0.03749878187742428 -0.03903421180768748 -0.03575788853037799 
81 0.03839385920482119 0.04599815131441169 -0.0249816974077811 -0.028241670567940323 -0.005141164035645562 0.04663963895109609 0.02896926419330139 -0.03852466135834206 0.02345478408858682 -0.012345336019801856 
82 0.0019140579146285975 0.02333414698301811 0.017664887797136687 -0.02768609086856233 -0.007546963026261932 0.00987371048539173 -0.012711796515925956 0.02688480470419452 0.012697098238798544 0.02980861293453001 
83 -0.038309052860728984 0.034078200276255056 0.04233651460509839 0.010212643334688288 0.02778078274018698 0.0032786885452692595 0.011257515982511058 0.03849294533207663 0.009909310729876252 -0.020582824692774872 
84 -0.03633618472858822 0.014968399271612965 0.009943099323219472 0.0010355795578998127 0.019257836186910314 -0.030380350713587235 -0.03509620185845338 -0.02008998811121345 -0.012240847268534482 0.02245727989886196 
85 0.04686296114328146 -0.010459832601083375 0.011885224475044554 -0.004041604919931519 0.025187450725781123 0.017879075135609858 0.010892247326457804 0.020150844676723855 0.034766378336319514 -0.039131234859851496 
86 -0.02812849165620508 0.006178243294802222 0.04551070183709767 0.00766380180519437 -0.010780626407634775 0.0025577813216805636 0.00820183727956103 -0.0041339430052027785 -0.015953355358595787 -0.010153184413885973 
87 -0.04032435579687391 -0.004339523721309535 0.04476566484951533 0.014063048685705171 0.00636347979714077 0.015433041429175875 0.01769127390592895 0.006957072688333998 -0.030627970378800207 0.008268488108491678 
88 0.04221429253415223 -0.007885067720647999 -0.033431159940970415 -0.001333221748928659 -0.03104605848229437 0.029872284120291394 0.02755064547519198 0.04188372386854703 0.021268175662214783 0.011150603800431891 
89 -0.014093279476659514 -0.025507440930667046 -0.03940132075972329 -0.02942014807986242 -0.03015037646809643 0.014079677870531515 -0.005650193847381191 -0.04734914909159967 0.01707089146262828 0.018429137283096197 
90 0.021348505496183744 0.031144592995895948 -0.027410608179083907 0.020116957578625118 0.04440484912555311 -0.04828543213880686 -0.01060482469230969 0.011127646680998315 -0.007909495575539683 0.040252107402583094 
91 0.040851840703436185 -0.03607823096890379 -0.017424895351861192 -0.004456333450884908 -0.028894403375805643 0.04032482022187846 0.031208114336864035 -0.03626713977072572 -0.04484066280693556 -0.042325973936056735 
92 -0.049493482389889945 -0.02577102008393569 0.013805189503021597 -0.04714885670727409 0.01630621930951288 0.0019576021717833125 0.030269226434298923 0.009145700682287228 -0.022942220266443946 0.009227852320426944 
93 0.04520708133983169 -0.011665443259340724 -0.03540529492565423 0.011994748278691158 -0.03540056124451317 0.04093004421866538 0.02417522157525359 0.009923977650054016 0.0011315215257181044 -0.04875964335931299 
94 0.019196076672362738 0.017420358572844897 -0.016199190835462153 0.010702304819557685 -0.018300420496176882 0.03366015515673879 0.012782427085803039 0.002887882999232516 -0.02635722257361902 -0.00632869051131898 
95 0.006991770172422418 0.026652565683889982 -0.00412973527027809 0.04963456033245166 -0.009680895898114916 -0.019915348939303346 0.03182982979206196 0.04183232888475881 -0.010828987853218808 -0.022768686051374065 
96 0.04129277972001026 0.03205116875525428 -0.0312612405757014 -0.02798146395650759 0.025688423488842715 -0.011252533564477451 0.018323747493752852 0.019348393702456113 -0.028865108060431112 0.03291496524487878 
97 0.007085427981485171 0.012048644856256896 0.03784607519481693 -0.023653321132799044 -0.029262795092156502 -0.00583404623224546 0.005317181193439024 0.009862530807352022 -0.04299905714157699 -0.03396451810461487 
98 0.0015389859522567883 0.028078105567152577 -0.0469590196978103 -0.035374003206846895 0.041463610000040715 0.009418677706611978 0.04163356376666022 0.023851055140577938 -0.02495778464758509 0.005336698385346528 
99 -0.015512134556367985 -0.006146800843509126 -0.0016222749256979752 0.03106972588755409 0.010919905233200577 0.025709548275999673 0.012883321743097198 -0.008220198726145123 -0.0020092317610358123 0.008573568732411652 
