100 20
0 -1.0591669962148007 0.20014223148526306 -0.2961955123682509 0.6689851536699496 -0.2982826956874164 0.4723465482459207 -0.027483258806443575 -1.5352323424681038 -0.6029338531182906 -1.203937235973584 -0.022961948955605542 1.3204950992229727 1.605708853848859 0.2639366866580137 0.3159712674258424 -0.13077468513856202 1.517021448688013 0.3705241567065926 0.07122589142852767 0.6461508106372904 
1 -0.4789033876773662 -0.5710894920467912 -0.07846902449236935 0.6530186586138826 0.3437089429216971 0.6177433301164118 0.11434575047511002 -1.7402531536281327 -0.6164084568988486 -1.1752846959067318 -0.11857100978310432 1.355801329974329 1.5217817531921944 -0.358562959104503 -0.09118279737999206 -0.279220756937088 1.538915995874002 0.6543037588942997 0.5737841206515099 0.17683772086528102 
2 -1.1700566847570906 0.002874854438713694 -0.19790394407500136 0.36956802170206154 -0.3222200926007553 0.38577284718633686 0.08937672161810688 -1.3667237022830363 -0.32853884373531467 -1.2833665357401063 0.22116173702762415 1.4124131526208694 1.099989468769379 -0.09219083023406363 -0.05940283131971455 0.1053864659965137 1.4779328723203617 1.0964114625581156 -0.06386641363922102 0.44765330961051575 
3 -0.04176541150102145 -0.09298242780421583 -0.13323089711810746 0.5948380875959638 0.4844589146413777 0.2702745683349504 0.20801820668812976 -1.7207700999869917 -0.40028775890322643 -1.3492287150584736 0.3714632903840023 1.1443003491399186 0.6251013608419911 -0.24849763778018596 -0.10549100581093411 -0.31737542117770895 1.4854708486800792 1.316747626922817 0.021142812356895503 0.44662402736395446 
4 -0.5899600290438396 0.5430057772716136 -0.08365513969288903 0.4464560797875418 -0.3864255035022928 0.40526594804436944 0.22940091500654164 -1.2321611214188746 -0.6235530628923934 -0.8587404282297845 0.6788068330840739 0.7095539833016979 0.6166287029370634 -0.1470236097792125 -0.173730955597413 -0.13470618280836652 1.7752924946636293 1.5010809272172112 -0.2333000190570507 0.42759889457804784 
5 0.10134792953226684 0.45193807909493056 -0.029341670939867486 0.6188397903551629 -0.10116231019357799 0.6729934954319965 0.43314876976712374 -1.692226902102475 -1.1020769171285236 -0.9319033917187344 0.3142271568319146 1.004192187268128 -0.3055535609794822 -0.2410979413542415 -0.042121227654383676 -0.5674820309903407 1.857897041364414 1.2516053525593411 0.022583928562299575 0.055991209818555314 
6 -0.46860003883816 0.7739614649035014 -0.7743112345748974 0.43005480818908015 -0.6881188742217995 0.8526726675199735 0.41947183417566586 -0.5328373697004436 -1.27820762114813 -0.7625145103354292 0.15473762567384286 0.759494778952771 0.11902521612944968 -0.3016828275745948 -0.2994097803251578 -0.5622539657999799 2.0493620576739664 1.4116662487891722 -0.24551125825157966 0.2548394625114158 
7 0.45355692554679145 0.7748129737903137 -1.0938528639730007 1.184242413123092 -0.8256625599587522 0.2555339922489649 1.2981384887727339 -1.4359695027818642 -1.2384507027473437 -1.5370624094243321 -0.05755163551877264 0.15739382021852774 0.11429887207615134 0.24276743056295047 -0.917781312237798 -1.2193546075876287 1.0944838178624343 0.8053307811148918 0.08547876069568276 -0.01392360637535904 
8 -0.21473209018170533 1.2251836892531525 -1.5112084850828273 1.1047340694093744 -1.0526922210745395 0.453026744211327 0.91833534274439 -1.0076917432035388 -0.7349642174459281 -1.342398780229168 0.451164622790552 -0.20729283174472438 0.5516979134148986 0.3263596479772479 -0.287690131739612 -1.1308926581078143 1.0703563878444853 1.0583702557131385 0.13078544551201834 0.2171261206439025 
9 -0.07597334892178542 0.6314035434539679 -2.135093841640126 0.8762385649843851 -0.4881735114674075 0.5839566024329448 0.9834327415760759 -1.5252316214985129 -1.2679272578554215 -1.3864068105650542 0.41994314251564513 0.2843281676422119 0.012666075909685217 0.5194524546321061 -0.367528183377338 -1.0289194970240765 0.46101664838447604 0.8179447552584872 0.6157736911953554 -0.04907497081348173 
10 -0.6016424325612827 -0.25128228751032 -0.199834775070506 0.8868889753944923 0.5820686148224045 0.6910160307241358 -0.36841115017253523 -1.7390091285461262 -1.1637140588048482 -1.5043591426993983 -0.07851713114178573 1.3445728490376085 1.4112655639070228 0.054754726399852356 0.33241111809027957 0.08876397976539555 1.0232656737543124 0.17569331644182767 0.22512374869143637 0.48938873139140565 
11 -0.9831957523372425 0.07446032819736252 0.052718085014715935 0.6561148286271162 -0.2034270009181731 0.5426234024740476 -0.10360230239720729 -1.3775444496437237 -0.5205059798166032 -1.1995774377636905 -0.2053975336324911 0.9484494270397745 1.7056897001038784 0.18585394140204725 0.1111510200802411 0.09287700311324949 1.7804399148829777 0.6019925064749052 0.18103077430329592 0.18719642076129875 
12 -0.8211110614698715 -0.8341981631262285 -0.11224140439927094 0.5149287752661182 0.3899913379882235 0.5633869849207119 0.018693519376794317 -1.2738427632635934 -0.6243335974937865 -1.1211791889226557 0.2244815070131939 1.2407326590487813 1.0872239525876422 -0.4926261296964265 0.07818471200285988 -0.03976083474738676 1.1581558737630715 1.358111544556305 0.001682584746726959 -0.004135922221679657 
13 -0.519420823415319 0.16194334667796303 -0.4593433125162876 0.34617496560310645 -0.12140124512869067 0.09188973181664413 0.1625292325493905 -1.113339626983176 -0.46298154300713407 -0.9235445942087089 0.7202338518934405 0.8628388568320239 0.9989157837134098 -0.12259255744596545 -0.21833641967063494 0.25959642427317436 1.5324876230546347 1.6442212588923275 0.0050777021480706095 0.36079688723967224 
14 -0.1522510295193588 -0.006268693764236049 -0.0146489086989015 0.39992844450190096 0.017840563670289827 0.3875395980340872 0.8532959507781626 -1.5252918582120587 -0.8694711749995238 -0.8319892402838243 0.3832343874195299 0.43096323579419216 0.3899817067003998 -0.39750765392056536 -0.15479585541744192 -0.05842092933425397 1.5207595297588339 1.5195942520716657 -0.38613294944676924 0.16839069714656243 
15 -0.43787537677138827 0.9026673029485945 0.02815384797504388 0.49935999362054634 -0.47529344111388183 0.43154447952994546 0.42498016975983155 -1.3794797606240348 -0.9145921868621182 -0.7248158495595447 0.4346015440836789 0.732468953106519 -0.13770740041959084 0.041817696929972635 0.0340798535501666 -0.1604215362042697 2.0247349646290287 1.5240495618097754 -0.24725667253790937 0.1049723521878813 
16 0.3103697024103872 0.20997068691888862 -0.7025043861515384 0.6679729340609413 -0.4994646849642469 0.8015380293463761 1.0530990450512758 -0.8023962405862398 -1.1220115471659688 -0.8138623356076077 0.30051248509100875 0.9033391437655449 -0.3360404426396533 -0.46814509772638496 -0.3082497432866914 -0.8187680449421324 1.5773817232713898 1.1385242510936096 -0.5527763153504985 -0.285867399398757 
17 -0.05611679449967454 1.2751091328413626 -1.01476888110848 0.5371210038949422 -1.1307946370934432 0.059757282835527566 0.9359382396342134 -0.8877646929325398 -1.0844059031693214 -1.4000825809440092 0.3689344323358265 0.39408784728531976 -0.03787791834755026 0.3190618239207971 -0.8152557621354382 -0.7988831223893353 1.7500374613795961 1.0513068393716225 -0.16477115812294701 0.3268849892943174 
18 0.08531970299219387 0.548221165181386 -1.7629407597699016 1.1561917758947444 -0.19867129878037082 1.3321684354938519 1.3645680979979782 -1.3130974549963792 -1.2304050261621051 -0.4855969016100492 0.3877568605224482 0.22388495289645258 0.6893772970084576 -0.05290950812137631 0.3192343539986941 -0.9808458656412528 0.32511043719732624 0.29874824375086195 0.36624937498297533 -0.1935729764271806 
19 -0.4705663340059285 1.0565099175847772 -1.89822005030714 1.0896585622996076 -1.2213709027063075 0.7509695344981543 0.9361837521274609 -1.1028675285997074 -1.0114233457767934 -1.073140549662498 0.5968867507140049 -0.18732035768382574 0.506380459226254 0.7101355518232708 -0.017308508939029948 -0.9080404077261641 0.5654301085759152 0.7810405002067133 0.4923372089414678 -0.2615561214956127 
20 -1.2090974149493303 0.7470161297711526 -0.38705262129626955 0.7187961111627774 0.2898363560525383 0.3141534942620712 -0.8145426418733887 -1.7241677593135776 -0.7915716894705324 -1.230502864176165 -0.01560927625359608 1.2307899915633838 1.691733690069445 0.33343655717394216 0.07123963901429285 -6.554622265703995E-4 0.9045477343450982 0.16459910942732195 0.1846882567603162 0.7975249719057184 
21 -0.4021512455899828 -0.5150813751848888 0.15540766133116857 1.023170661910659 0.09459550342542308 0.6432990144818318 -0.4884342379418406 -1.4691280025993292 -0.9834907745687701 -1.2814021546580445 0.2310744332850829 1.219378117273358 1.5644337561448969 -0.16041829112822698 -0.2757019425312336 -0.11187143439352504 0.790281313262376 0.6984171239745389 0.24789911024599515 -0.22337439997088 
22 -0.9477522541076306 -0.32503517709265145 -0.21010964942047497 0.6862166042094567 0.08159167234226172 0.015584764388470349 -0.0590653101859509 -0.9895129350366915 -0.39340210175467855 -1.0562472550959572 0.05213921195152631 0.7885814763963209 1.5423228482770508 0.07393206632452169 0.3741281925729182 0.17349794703808072 1.4098569952544957 1.269392221374868 -0.5933038170066843 0.017462067116180043 
23 -0.23336061475676895 -0.27138468059613663 -0.33879344631526415 0.4909600351219348 0.5876369207510992 0.35733539837193073 0.525145252585071 -1.2999700172127724 -0.5133962047846113 -1.0143343303642907 0.424202017910937 0.8165068335877608 0.772522887675145 -0.6065278649942493 -0.16251776590650752 0.15739183318123895 1.261084218312529 1.264448887001768 -0.22287603073533263 0.13058853457987718 
24 -0.45823116802630837 0.13617427472532095 -0.1550116772276283 0.23886415533351957 -0.2758652571332515 0.17190940216968206 0.7657222181490233 -1.0192416862909897 -0.9106732702782823 -0.4108913110331974 0.6548343231113563 0.16160053745504896 0.9748899825385935 -0.5196261254211475 -0.2930651922074671 0.561992734820972 1.30474845439777 1.2999503336745557 -0.3623478171798055 -0.09430053787121004 
25 -0.17479065130402083 0.14119162979739508 -0.799131905312265 0.08766601265165284 -0.1657830274577135 0.9002870952313119 0.881598170351045 -1.388656549723001 -1.0205126936266242 -0.35607555515735534 0.4204314542862506 0.5093159959889837 0.6560525301954263 -0.6835411092583629 -0.6211432856241466 -0.23222682482546683 0.8712623234982964 1.1101455888024059 -0.6557446571535827 -0.35506256311757506 
26 -0.09767081998033834 0.9545450631190535 -0.9085944625000113 0.5589161316953429 -0.6393922501985251 0.48419020911012345 1.1340156993883816 -0.7081658977385618 -0.7863594318767377 0.05232927635650366 0.1208887520780814 0.5960756721779762 0.38539730833757085 -0.7147032725766854 -0.30109330731654854 -0.19976340653655114 1.3919696918396594 0.9519073467059258 -0.6304122876237624 -0.5205156487773465 
27 0.3683954058341552 0.4413416714399419 -1.0666989590275413 0.5216678795093985 -0.23903405779867343 1.1138447958667348 1.4766295883654992 -1.1074139793902786 -0.9805819496857339 -0.05244950345756129 0.598090844224515 0.7193748129094162 0.2270539130513176 -0.48761075925040454 -0.09316523836437743 -0.42683153513654876 0.7275560242803731 0.6795125154765707 -0.4992532277494738 -0.38217995425670853 
28 -0.15574180472933594 1.1641312628375915 -1.7446151182421994 0.5842235230864347 -0.7682967431793323 1.3369525921933931 1.0795129965467678 -0.5161459647482242 -1.1112216970005289 0.04702578839294269 0.7673798271374721 0.1344983323180834 0.6496996782769006 -0.01424772156657639 0.3466398814002822 -0.2039214551091831 0.9075310956816606 0.5872578421930188 0.06471045076989977 -0.41329368297981006 
29 0.005183712969480591 0.43902193039235743 -1.891889463026601 0.7646945335937104 -0.6930458857365592 1.0430710644578927 1.257908631701736 -1.055918354327682 -1.2329458365674653 -0.6117059589216557 0.256112741173216 0.4536789966996726 0.4771575977712375 0.040500720292467 0.13639366049375012 -1.0550765598444292 0.26318143184849596 0.5230276533186631 0.6928212320947272 -0.5007155976552724 
30 -0.4810110314823235 -0.017241002234253282 0.040461554764072635 1.2837828189908722 1.1051824062971585 0.3769736611755802 -0.7031059246781207 -1.4471549100880616 -0.8888752174748495 -1.3403667229953353 0.036374283959439216 1.0181422655966426 1.2846463674644022 -0.11432724094257335 -0.004292767627888492 -0.26276305607639483 0.41627806771024634 0.40228512562098045 0.38454805327308544 -0.07288765224789413 
31 -0.5947187035913631 0.123815529400468 -0.0048991363514688255 0.9893038523317479 0.0010691346393303417 0.6673347404537765 -0.9437138007967466 -1.1376873291203866 -0.7338539257592116 -1.0163609519884893 0.377612882657652 1.146831406774953 2.115806689106327 0.4844146674092048 -0.673715607981991 0.4141129188252381 0.864417315135143 0.8346374705733146 0.017805340206094238 -0.022677006085969443 
32 -0.4679496282214368 -0.7788946031604065 -0.39957471078989376 0.9587669780358146 0.7998047135980855 0.18291680764070403 0.1474589195566795 -1.0186090047101262 -0.9382591712203017 -0.8776944968885086 -0.4644398723977141 0.677313919890518 0.8429759444755998 -0.4114752010973606 0.4891366134375823 -0.08663262120127084 0.8176439850580509 1.7410350823003786 -0.6419840968023816 -0.1773594647728313 
33 -0.4261787302806305 0.38875301386124644 -0.5718746419463314 0.3588642223117122 0.37580131231603386 -0.3351937835401198 0.5062806962482902 -0.6800936243225876 -0.4771816565610008 -0.735475212271387 0.23969064115755145 0.4465721667933984 1.1954334991311832 -0.5522160069216413 -0.25405808528107565 1.0056867053561251 1.2025424749939433 1.914368608206005 0.002987000107580317 0.2543157010915666 
34 -0.37389917651160215 -0.1551756020708893 -0.24131799998732872 0.5425688313073418 0.2882871304054323 -0.11368128870731155 0.7286125725891165 -0.6353244998225139 -1.133774487442433 -0.8333888834845486 0.41878417214481634 0.14401214469863757 0.3723262955958857 -0.9361463037731391 -0.1864095317549706 0.9186739406386147 1.119307141317544 1.6421009211079869 0.007679045599392828 -0.0425772373847032 
35 -0.42336418177998014 0.09714581982919657 -0.28759419169972605 0.9596353506433105 -0.6531006161388534 -0.7579341894890732 0.7536377234114009 -0.6631182250364865 -0.817656400452735 -0.186107764038227 0.3160755819024055 0.3629409866681586 0.9145022580489345 -0.6598471445494112 -0.2662474009640728 0.7851279065832891 1.5769537675779173 1.7086675655295003 0.3043925171948505 0.40557403844522477 
36 0.0991410625734348 0.8089686563114877 -1.176521917571739 0.9152967347871372 -0.13589500191180462 0.8932817895448798 1.098559720179045 -1.210277776543965 -0.7763946509817182 -0.12137657685553824 -0.28021509919221943 1.0852591434230936 0.031142557312109034 -1.0458939345350815 -0.4992579318944899 0.242351264889442 0.4143666618496249 0.345016558145779 -0.4094893925629783 -0.4199921980391485 
37 -0.3694006425836738 1.327594852896892 -1.091126732855828 0.7376374401140174 -0.7982404721002099 0.7844584571766585 1.587785372263512 -0.7282126599778341 -0.7538148551287688 0.08356891979907267 0.5511287408055823 0.8580282491812703 0.4437419675956035 -0.3612038598963726 -0.172579725102975 0.05200293574293366 0.7731426062960426 0.6519512779154324 -0.5098547349490797 0.1360887970830761 
38 0.24183641012573512 0.7035669770691838 -1.655768490444255 0.6777530335318978 -0.4055128787654282 1.0857507290244186 1.1923443369784301 -1.0275882108923207 -1.1207893056027427 0.03412146893695923 0.47337613458669375 0.6985998170943287 0.40194077604852047 -0.821351200387632 -0.0170750032939028 -0.5681359346268559 0.12079051550310599 0.36695293599000967 0.35394950334492786 -0.35675174165672513 
39 -0.3916589903123086 1.007388459406652 -1.58777337386193 0.23017282686796686 -1.0409931417917409 0.9545511887518284 0.9167710936768904 -0.7159356007449559 -0.4805777774852421 -0.34581158495242537 0.21446330464200314 0.450617306923609 0.9316930901850664 -0.18430465491785095 0.2909963576041534 -0.5742263667003362 0.09028157785342433 0.9099348065587151 0.5128013294257618 -0.4845157958780531 
40 -1.2119883787513344 0.7111934817454524 -0.49942963212995317 0.8719980820818277 0.49750473962929914 -0.24658777319820926 -0.7360887961853839 -0.8175728550888035 -1.2032168744841272 -0.7890019823842408 -0.017849698219845254 0.9383355068300836 1.6262551897861723 0.3827838767847103 -0.19329616506865957 0.23226363249835094 0.5485500574776424 0.6736540528697461 0.1976500459265607 0.28697627620688676 
41 -0.6224499473934307 -0.04239699043465695 -0.515551906437122 1.2304486487583062 1.0870156720731419 -0.0773721722132899 -0.4201799575859102 -1.1683181951967496 -1.1282555170508188 -1.1353742104816413 -0.110877832049179 0.6524682214629066 1.1477271383583239 -0.1646867325796924 -0.2721529000029992 -0.12982607378795039 -0.183854265928951 0.8163619449222799 0.2771226868544171 0.09372999658551956 
42 -1.0875261863678478 0.23675483227468525 -0.2934610024998965 1.0995600784916608 0.7830029762174638 -0.4708612074447305 -0.2562545323162514 -0.6072291619263598 -0.5385066608206392 -0.5074571378720412 0.1861993360489277 0.3040557312285682 1.0924965837264908 0.1253538988896723 0.17523422308505598 0.14464639222964337 0.33355063118903405 1.4653671462201638 -0.7395977757076098 0.2350912897376811 
43 -0.15275725306324267 -0.4384499966657737 -0.11767632649727902 0.72540653026407 0.8922635664713484 -0.09195939289954856 0.7750104489956007 -0.9088654554111079 -0.928070000043198 -0.7416623081002686 -0.22213527065453145 0.5492517177132124 0.6750397459970633 -0.5286594797503348 -0.20193776488807172 1.032036240087255 0.08934013879280024 1.3791702254664469 -0.10502961227225996 0.16347895246445976 
44 -0.6836864162912069 0.07016321721134901 -0.6116584715847503 0.5375855614793001 0.4455061704643717 -0.6957912218052718 -0.015220104217680346 -0.472621128192561 -1.0724502193728684 -0.19784152693226723 0.04070300316264833 0.37158630623182964 0.6948253622586847 -0.7686463039315244 -0.09671075066172177 1.3385177443134069 0.7173952841442596 1.5842220771615585 -0.02652141360368778 0.07288181898358358 
45 0.027923828581215893 -0.3993625618680718 -0.32205583581490077 0.9205821369511723 -0.16929495431707242 -0.6091597042020521 0.7923632149404406 -0.8925167959134725 -0.8611306073746505 0.3463421639628097 0.15178237524997784 0.4302561217560927 0.553869505346279 -1.1218820433587846 -0.14282890381490715 0.5876395331989216 0.6369732452297483 1.4178387471307239 0.5948055024177833 0.08758944755609437 
46 -0.44043677886796795 1.430940988146055 -1.281097881945181 0.9314349956086392 -0.5904590683711163 0.25580985412626095 0.8300374646202553 -0.652336526473585 -0.5090408902408163 0.21833134223044456 -0.28673759609368865 0.6940265742921506 0.1620709986615043 -0.8058153294006766 -0.06301058055496478 0.48705549849576657 0.7250126569862758 0.5100230181066736 -0.2923217620150208 -0.1509874091207506 
47 0.25508882130343713 0.7689916499248681 -1.3891074695002386 0.8251684023318441 -0.45359862622710717 1.0057021383298101 1.3308463323965922 -0.5629783578693299 -1.237112649003469 0.19561312681738605 0.3833868077150192 1.1716182254964291 0.040705918243266435 -0.8006271754551157 0.09865951787516532 0.06919719564285344 0.20499596448840465 0.28220995935706733 -0.30108859618900036 -0.34124629859664996 
48 -0.19828243787898533 1.5513596954806823 -1.591989100926041 0.31331197252891363 -0.9186848353665387 0.5597567977362091 1.1600232541064852 -0.8703353058857044 -0.9591344778563483 0.47111890818784824 0.5269247109113734 0.86406428397417 0.5751639862461322 -0.5989100434558415 0.5539513957219269 -0.4442701812924595 0.20737377752163558 0.3118487201758592 -0.11869885009720013 0.05264755143193726 
49 0.10116814868268435 0.9647137538587076 -1.3615108557585096 -0.01385260174050782 -0.7892761835813514 1.110047226274448 1.0436921655109257 -1.410278532870923 -0.505900988783565 -0.47697153046056834 0.2339331770598282 0.792129391976015 0.5662954376724039 -0.2553127779296894 0.08595163708795221 -0.8538059047453107 -0.5391067303717655 0.770179777711604 0.810518441880057 -0.3089891654933004 
50 -0.8849061553063192 0.15491882176561708 0.02184453847735957 1.1225296367068436 1.2323714100009142 0.4048612994748558 -0.2941825600909313 -0.5896346643115221 -1.3654143631303008 -1.108321255234045 -0.3974045541390243 0.6953965768116994 1.0878956491114928 0.04313336202046528 -0.43445750282769713 -0.5487817136757389 0.12003518369574025 0.49831844914937345 0.4947873469045756 0.21293566492414392 
51 -0.6029236963979304 0.528438623835348 -0.5040569783640196 1.3248485916287631 0.9898688436213288 -0.09949194964545176 -0.09974346861263332 -0.14293296063955194 -0.9449849576892758 -0.7717688382309892 -0.18793935320627306 0.45463349490971017 1.9537615877597145 0.13147309945415395 -0.5311257360370916 -0.3948351864197455 0.14392796087415974 0.7859924371447528 -0.21288270409139307 0.570289333167532 
52 -0.8698605929363411 -0.32562895311022705 -0.29655268124218 1.5941420442662724 1.00744399408005 0.03341666786679044 -0.2177387475815029 -0.2680235121925037 -0.5812821147952696 -1.0773598151461041 -0.15818380553562802 0.6754972517847986 0.5736357664093755 -0.39614848199649116 0.05460519973645295 -0.2895217664274343 -0.2615566443499837 1.137496554149194 -0.18881599545213248 0.8774674624096995 
53 -0.6790432835582491 0.5068167038362659 -0.5570964720572623 0.7183605895367349 0.20310912971253836 -0.4773051735773031 0.3199812929998842 -1.1633329512007589 -1.447928501760487 -0.4872677790695276 -0.548243818128524 0.23169831196304363 1.1249902547299742 -0.020314789206029506 -0.22713186344863137 1.3550514714439748 0.31890105368557536 1.6852907026645814 -0.1981671612783282 0.4264226335592915 
54 -0.40312421607274485 -0.36964386613508926 -0.8332946476951435 0.5018551079502569 0.3713588196985592 -0.5820310276145367 0.39803958375386633 -1.138573924243435 -1.4903933455169325 -0.14343043068271946 -0.20080441729062304 0.4675423040146062 0.3865333670992399 -0.9238205182748699 -0.15110089279480302 1.3064388012626884 -0.09845634512209793 1.4694215967912643 -0.09061857585528084 -0.03240725637583844 
55 -0.5519017683626932 0.4209434390006498 -0.6662904938494822 0.6059607018475147 -0.3364623466137228 -0.3158175326195676 0.62535938917031 -0.7026740513451938 -0.3831502145776934 0.28057736641078895 -0.029773358172870506 0.39810683020263643 0.6498416280820216 -0.9985786604130639 -0.1750377146437005 1.1562796713708061 0.41046730065478354 1.1605838578308811 0.14709404748931157 0.4067433575752604 
56 0.3200076683427032 0.23018447191897004 -0.9831553085408633 0.9306869334912545 -0.32884756123981923 0.3603578402744714 1.1037533625875424 -0.6942757669617088 -0.7588456835622549 0.1455979728937463 -0.8171650102357462 0.605982073864616 0.1842264858844099 -1.1018933885834137 -0.18445950655085416 0.4933907046532703 0.24083008406817052 0.6901566591777649 0.16187588018360685 -0.10260243641026705 
57 -0.37691680916593995 0.7776551717606741 -1.3162270338905793 0.7141039039638579 -0.8539906969909088 0.8477228338814566 0.9284375075168921 -0.13338957794683629 -1.2183616610374381 0.755887956410165 -0.3357172490285152 1.212481881444851 0.5469921768333369 -0.29470055382266136 0.20127495945160043 0.7981530536514352 0.4573275621321705 0.6009073181025186 -0.035817428797358636 -0.20602119778782857 
58 -0.34410054514707544 0.928033190478991 -1.8902790514337005 0.07719142877482409 0.0698449719637556 0.5866786825856398 1.5779044041773986 -1.5654988306290591 -1.159230960599181 0.22780840935485983 0.11422160003479773 1.6982911722190204 0.7604093003034781 -0.6314539000630819 0.6475877599131188 -1.0934281573645617 0.2541620302326916 0.275948016441612 0.2544849490502334 0.4042256855695018 
59 -0.08387815335616025 1.3242555004624852 -1.0564963143541168 0.09725075115567641 -1.3770719305639736 0.9961750577349182 0.2672452880707396 -0.9916428967081388 -0.3261405146485474 0.007548531594812153 0.34383638627947544 1.150694166426946 0.8428060999175546 -0.5164164169773774 0.4106292527864947 -0.7604735577603887 -0.5599289598202971 0.8822350250541803 0.6347331985164023 -0.018059738708176294 
60 -1.1718145015378223 0.7749565626190343 -0.29753653200563357 1.1340680401132286 0.6722692923605862 0.10161919080231364 -0.34266481068656407 -0.16064010896792888 -1.470081423066699 -0.379095784888252 -0.6221974456992128 0.5270986887189307 1.5302892026194432 0.6381738682574114 -0.27838546866956226 -0.6959515325134384 0.24224227726762596 0.8814710589562471 0.0983343727614289 0.5938847643887739 
61 -0.7260127183373252 0.10603080004383728 -0.20423605743890821 1.1510121969374514 1.0622366500233853 0.21933651319336187 0.4676952635381533 -0.1877160220813357 -1.3511551605628924 -0.8512294421658793 -0.6132534129751434 0.21201107341622788 1.3827597625046113 0.08773463762979482 -0.5828491115912477 -0.8280037458530866 -0.20495589590098726 0.5215152964184331 0.38800135125024837 0.8151206901393449 
62 -0.9831582582388092 0.3374202004054126 -0.44324520575524834 1.6710044036052858 0.6984763684772419 0.33800181500698306 -0.24567987043252745 0.2614956790308972 0.12545298063161797 -0.5510447665185375 -0.3267959394881809 0.2571775953556331 0.7005400269999524 0.08345324319796112 0.010673738679486924 0.041805278406065544 0.11297520275712367 1.237869845048113 -0.26195400796126156 0.697636377167303 
63 -0.4573337086485138 0.18170278377029467 -0.5643219288458514 2.1384646863896255 0.7087176676718464 0.11461156632638728 0.30426141077860963 -0.13761634320763536 -0.3280458145108516 -0.5729233500513778 -0.8914939097549626 0.9481168584296858 0.015455091319386254 -0.7601018939476285 -0.19528202161588892 -0.25584129258978816 -0.3126991908150834 0.6694846873822723 0.13141515859297537 0.8026569299453647 
64 -1.0658876531402781 0.36004248946322404 -0.8056224681783598 1.7855840439819979 -0.35825797386963887 -0.5647555080152539 0.24511396503837363 0.0012277827773852956 -0.5007088951284899 -0.19265385822412107 -0.7461350275181899 0.7559632158826065 0.20054952859011616 -0.5695385571079425 0.1427939524309009 0.21735760696128079 -0.2543688571790275 0.9789481651497325 -0.22028716346628094 1.1709804611442594 
65 -0.05363757274180918 0.04790729035898037 -0.679994809819076 1.2173479377483856 -0.20658848038835642 0.06217346524125646 0.5187101197428609 -0.02334124190972287 -0.57321292159237 0.31178820474951524 -0.4612003474738625 0.49004058552113866 -0.2093560104528763 -1.1443645451990918 -0.1586936311033619 0.7725074509830463 -0.6216222073642299 0.616313666678149 0.25477437240390866 0.6176922088230951 
66 0.052811253988125195 0.7055638255408472 -0.6732810427183054 0.7716967999949438 -0.6345572210206897 0.33876199242695487 0.3685186620704538 0.09726781223633957 -0.4730412170761044 0.22994220677571764 -0.867657734910975 0.287888764507154 0.5769807337859616 -0.9947175381365725 0.32720980365181274 0.6111301979650497 0.013364990338899308 0.9972699642970484 0.13399739976425326 0.3584130001116982 
67 0.5723776527784641 0.23170190395886708 -0.5230688384553192 0.7908739152399538 -0.3461423633959443 0.4720029915669231 0.5097766456459268 -0.6061517439255801 -0.5410831804646472 -0.13103612333985182 -1.30303450866905 1.1167973061099947 0.07105999499882956 -0.6504182078874313 0.22469357935643627 0.21804058160872283 -0.3609688514113375 0.9322214132797011 0.7476406770569062 0.14393467540472552 
68 0.2473451952249365 1.5553799199582874 -1.0974992648460011 0.4170120238730533 -1.1240529878116474 0.6355302659241622 0.035564894554817955 -0.4265025401327409 -0.2506989766654492 -0.3104154454460954 -0.7593780383184202 0.6849709045932479 0.5313822563390312 -0.48056092749734963 0.8045007852843197 0.21775320563392642 -0.19504122282912054 1.1107056880078914 1.1304057835729104 0.3428712278547493 
69 0.16390041526656596 1.0808618664062177 -0.6058104899723824 0.320771596997358 -0.8439083523607259 1.1355950476082879 0.3040904177226038 -0.8980426363945908 -0.6148506218531805 -0.24460838342844607 -0.2516997588744508 1.0311722919739126 0.6991492060166465 -1.0247352849867029 0.6775588716884399 -0.5110909754000093 -0.6660417517777726 0.8034170459623637 1.1279300172992133 0.00486139937970177 
70 -0.6590853015949524 0.3605403775806155 -0.2527457347967639 1.117647489016828 1.2275484948128161 0.1302104074886597 -0.4031242305179796 0.048278969945960516 -1.6167309487244048 -0.4097316970244912 -0.21113431405469163 1.2507428484060001 0.6692784231620763 0.3062931088820662 -0.8439956584933638 -1.2580930565440884 -0.05773716623521476 0.5865053090666973 0.4445286728938099 0.6665246812851954 
71 -0.9226911384851849 0.3816257837489817 -0.36327277214409454 1.1118682929050536 0.8224156297627683 0.2943403626437309 -0.05018483129722589 0.07901375599438501 -0.9819754965328441 -0.15239624100249877 -0.4240516183635589 0.3438625854156535 1.2125583346933475 0.6110639110477722 -0.7328126614177054 -0.5132495733261258 -0.10782069489972017 0.6247390784508643 0.06983237878003003 1.0656889727139782 
72 -0.6542938122081648 -0.19609019476414885 -0.15909369037276025 1.5582100073389762 1.0272260203197003 0.6144876233025213 -0.1780754546292696 -0.05663370110474282 -0.6011425000237058 -0.3427240543841528 -0.43564965342871725 0.0951100677651592 0.3636640858321176 0.12034587213905146 -0.5723616143252375 -0.4393826901426162 -0.08810299509573 0.9414652586254402 0.6089304190197675 0.8539359630221525 
73 -0.977693066807597 0.32212038748766797 -0.48518540414875 1.6528842044710705 0.334745976635708 -0.02621453035714297 0.05975325988058997 0.1242008027193081 0.06584307226598965 0.5110430474575535 -0.994755714011662 -0.13826675575856603 0.30524559474836965 0.15433069703233404 -0.5082715749402044 -0.18597502655398848 0.2830365405355607 0.5678933276372935 0.28040581368011996 1.1775939085618603 
74 -0.6667753776631918 -0.38790220724169816 -0.22370377000018066 1.957768421941864 0.09176275269842618 -0.2944151012683963 0.4833461652459288 -0.05669775479763231 -0.5611510248629187 -0.2939917951538114 -0.9591234887865058 0.4916951315078794 -0.356132962536642 -0.6022845800185113 -0.1695629220387042 -0.3210563215033385 -0.3880095202198897 0.544183666438598 0.5171904562759106 1.0623384983731714 
75 -0.28984883141999257 0.3409245172863175 -0.32437884645451875 1.133122144031892 -0.6295132412380622 0.24562763226438653 0.20448700283781376 -0.15871284774523856 -0.4400832481507688 -0.04559593665400734 -0.5909112485874527 0.10526754525104591 0.3334212189405082 -0.6575729133240457 -0.2508591069217401 0.5496038188441981 -0.3809097250583135 0.6763068288921523 0.07588809908144739 1.5994817308452831 
76 0.2739860127343596 0.3699175979040097 -0.4564966791196046 1.1002369636926685 -0.8128121489898251 0.37271962505997064 0.4207149336931746 -0.6553023050936264 -0.327591875718814 -0.6778389182095121 -0.9955944932893657 1.109648915590179 0.3592935801464855 -0.6638014818598778 -0.6924368858243605 0.37819501018963503 -0.4795949951545652 0.7152603233361153 1.0440450854669077 1.3041385077847636 
77 0.3272387730375895 0.559228630679377 -0.6167156541494757 0.6152610402109416 -1.2911075634087674 0.28639691504787734 -0.1941950982555288 -0.19666600922768263 0.29389260485652297 0.14102096038943665 -1.315940025489008 0.977382426086525 0.34047734720162176 -0.19181065124857244 -0.0322679906479109 0.517260873803497 -0.38247983377580486 1.1143389542617546 0.6887168162308833 1.0017882124009667 
78 0.5657553790171541 0.30063544142148996 -0.9991711204524727 0.4606107555171364 -0.993160521180193 0.5395045487072834 -0.07369281850495757 -0.48184612158123635 -0.5902994180985908 -0.5138765226094595 -0.7906294881303375 0.9807322094939128 0.2707125597052703 -1.113391946138347 0.5948223024177517 -0.37401558501746135 -0.5315179703974197 0.7553361874053349 1.355703390549894 0.6902273215355943 
79 0.6426627425839573 1.1862820772759983 -0.33803062573899 0.14015063617530146 -1.214732754212036 0.71084562486744 0.15352875341258224 -0.5227950349039964 -0.5362807979684373 0.03894497306554518 -0.7041853697562538 0.4336130624304433 0.8965813181944208 -0.683041092940818 1.1164402982161419 -0.056112832890286624 -0.40429662232062136 0.828459824408933 0.9313396451805522 0.39147322713276167 
80 -0.901843091742105 0.7693840714935869 -0.3854269008937766 1.1632063596704523 0.6965215933687042 -0.4236596324981026 -0.6393235566432227 0.47234267844284705 -0.9933986045368365 0.17527182502969668 0.208134466263116 1.0228983949204016 1.0130481132284064 0.6117490302424277 -0.7721721376775178 -1.1964165802295101 0.1767089923838051 0.9287881347843044 0.7709447062808801 0.9868993052360799 
81 -0.26222184323430114 0.5111558535362996 -0.009389263042778614 1.2288273597130932 1.4360810932151853 0.17772490315096695 0.3803134507624891 0.1339331324654997 -1.2189361810957047 0.04346693913212963 -0.39556896921214246 0.9433849189066797 0.5043542615203064 0.7273916586779771 -0.94645945541679 -1.1173055667680794 -0.3506702774355136 0.8891110194542563 0.4829019898625079 1.1434578544656275 
82 -1.3282204867376914 0.42079061458503325 -0.7202838621958153 1.0756040123464023 0.4697906167320946 0.5461827231935881 0.13535889587609592 0.008723993541891156 -0.2883705505452139 -0.010594772500732935 -0.6892357644896316 0.3808127085713252 0.26926061252897304 0.5342516671570549 -1.0030013302751817 -0.4480035291332116 -0.10252316744993614 1.196410830157331 0.32774138669809444 1.2614733912578275 
83 -0.8962414869595525 -0.10092149012685134 -0.2899710442271935 1.217413772813856 0.47355970637147715 0.28767016890479946 0.2722607444603172 -0.2814535323037938 -0.10660567431720448 0.3759933285634815 -1.3045742063646824 0.15618798264359796 0.20466414548976566 -0.008801611540631221 -0.9866315638787795 -0.8269799023264569 0.13442012925543356 0.5932774897054877 0.6914909732261386 1.3642026617543808 
84 -0.6102308242270511 0.20994511060566037 -1.017166364212462 0.9991639742261784 -0.09315548686278866 0.6613066284629889 -0.023875712790588897 -0.07663217482532395 0.10052681046947082 0.2900242746656338 -0.7947600016597255 0.179005310755316 0.5771097728677123 0.11259283807082615 -0.5638050362577837 -0.495042854780339 0.33785415311744754 0.7826220796193665 0.7806901785815659 1.8509145614711047 
85 -0.014830028809807612 -0.1628868222757672 -0.5552759907950481 0.7075589310773466 -0.4552441128143581 0.6299873665682764 -0.27473348465610176 -0.43707522289327444 -0.5132136229824189 0.010054878197235313 -0.9346984607313591 0.10206232208342635 -0.1398409428541197 -0.689616452777814 -0.3793115402687367 0.04054600915907315 -0.032889201800329754 0.5523394297351567 0.9263063983622285 1.8068796617857688 
86 -0.07989385889571649 0.06064617023107727 -0.7909933464898827 0.9896605995309617 -1.519611770240224 0.6127927191835065 -0.5139610769524005 -1.076643974699337 -0.6802943353401485 0.039480653155150446 -1.063996703293117 0.1840812595460452 0.4086653124141906 -0.042535784192196384 -0.34999966682992784 -0.07527371119438947 0.011560755642053566 0.9590875202973482 0.6689186051732258 1.8346265485132016 
87 0.7919420575027192 0.14241302753217033 -0.809772048352303 0.4367149266904219 -1.0261041775768467 0.41898934360110396 -0.3496751108960802 -0.9174220015483795 -0.1353320037276867 -0.26566572276126565 -1.071635929261584 0.4427444501459244 0.19117235400583854 -0.6857180987459295 -0.11112805797735925 -0.5241693075113302 -0.266868545972144 0.7780435730785186 1.0694838538828597 1.2149965404016159 
88 0.19911586299414494 0.7861868082342723 -0.7321008964310014 -0.2157951212188765 -1.5225971046749405 0.7798433408260574 -0.48069443142595447 -0.3875849738289499 -0.384096171928117 -0.41477967099345064 -1.0231299034008903 0.8810030669215878 0.8030353359189084 -0.7269182834624113 0.40247069203191443 -0.4064404399926427 -0.3225474212774196 1.158671095673986 0.6535281358316657 1.0107159754053605 
89 0.7568822098748968 0.3799359476682534 -0.17445144844449478 0.0031218680953045558 -0.8955502910612523 0.6511776776186656 0.35464631110981976 -0.8258709830369285 -0.604381629497788 -0.7442114811861048 -1.1793833503843039 0.7212290125462759 0.6242367864192512 -0.7432955639302181 0.9328507902314175 -0.5712591539165766 -0.49735642798463997 1.1613722757600649 1.1438933087911902 0.9581618037558183 
90 -0.6413930623713945 0.19500056525936904 -0.13860460450854586 1.163388976359509 0.7820047406296642 0.07114306120040875 0.3918075937245884 0.40426140619723994 -1.4165109914827243 -0.05361803170757312 0.2113377250444222 1.1626150192300961 0.6309250488616787 0.364687265260418 -0.5522698226017875 -1.6405353268565204 0.3213057053470827 1.2421826087782926 1.4433049282883879 0.9761332646411252 
91 -0.41629566359357056 1.176758413419804 -0.08696085668906951 1.4905912827607672 0.8659947535314889 -0.09104966893328259 0.38816964081758804 0.3251966745945758 -0.9403411170013305 0.621156265643443 0.2185623439220211 1.1124145046591263 0.9070869195811773 1.4481138752106384 -0.4840711927305212 -1.4126001284085157 0.5560153464998581 1.2174531344573707 1.0596740958212423 1.4046131984241592 
92 -1.2493009691719403 0.09019855483355012 -0.24430941478887994 0.9435620347233035 0.5546821374315977 1.174731123637154 0.5425545339033301 -0.4166033616584253 -0.5288997864378759 -0.25098504019952556 -0.8350913540113057 0.8277468353635874 -0.3310268357976648 0.4046023938839009 -1.272121911755462 -1.281051480989468 -0.27212568137639037 1.2098307386291085 0.9949107078953805 1.29285401552713 
93 -1.7797585850665538 0.20247658523192688 -0.14238622211775964 0.8744514348027983 -0.05618340610981594 0.5159390884267033 0.6398958743661054 -0.5097664901319563 0.23363293147549785 0.4790381095863359 -1.0060083220616993 0.5891020562948216 0.03637047133577708 0.4194142288212772 -1.1300362955016596 -1.2591136981285054 -0.021564350148765055 1.228799126166877 0.7697641343231304 1.5510726396697398 
94 0.10950369821796409 -0.783503498384968 -1.1678416633267177 0.8706246091090696 -0.1503242260230871 1.0528917444744508 0.17562850124496862 -0.6479889526943012 -0.09912882408912546 0.31684613180344123 -0.8754670591256395 0.3202946883936714 0.1027130763188773 0.001846569150655259 -0.4501217166707126 -0.5108756437129544 0.5822728441425704 0.4833759171644187 1.0870275459001935 2.1714729250724134 
95 -0.34581442697233855 0.10030823765377221 -0.6177076603217184 0.815741216877938 -0.5971688636763519 1.1906572106046127 -0.1964444327129359 -0.2616565298504517 0.13682282907680932 0.38813335052056436 -0.7170197713224243 0.14484698487464626 0.2063931125186132 -0.17102136423318093 -0.25011351926877873 0.07663098755832011 0.38086883534480825 0.6685288173622667 0.8548199433528162 2.440402897890425 
96 0.36858913759833456 -0.5167134397320686 -0.4073084590051184 0.8516968285110808 -1.1501262207235732 1.2974428292133748 -0.45847735516566407 -1.1630396225583381 -0.36971134713950854 0.2632504352470465 -1.063887421546464 0.0970985045035639 -0.0896949031197024 -0.2960827284369366 0.022333415449981027 -0.16310556363543638 -0.20712471844449432 0.886154211552281 0.779547080490797 1.6522061645291137 
97 0.6156700135101101 0.4915444013227759 -0.7020126936645353 0.34826676094443587 -1.0800493190499898 0.32652675984128 -0.7521384163133661 -1.0545943671315883 0.12385389636933483 0.08279785838327504 -1.1340602621354776 -0.0648042327864707 0.34033885433239247 -0.1536443024010985 -0.08721122680792548 -0.1836656873787469 0.18451757681187214 1.0220074909606172 0.8997873493815645 1.5095818899564384 
98 0.8066941783903625 -0.18570988570377533 -0.8084419661829194 -0.2584051305065611 -1.3188837694038 0.6328160643255971 -0.6789392392407374 -0.6926607641687453 -0.49250805607164116 -0.582264328466016 -1.6288731177595086 0.482916034872145 0.5186769832991653 -0.8253063638868379 0.08963378078652043 -0.7837589977957585 -0.11104681421451632 0.8109107102934031 1.233428342603358 1.3932790348611175 
99 1.1195783379531326 0.32481754973130456 -0.5539004161384631 -0.37064197648062686 -1.404326084306252 0.6160774099335827 -0.46792607130215585 -0.3844007671853296 -0.7472004731946229 -0.6757687553526747 -1.2013086835561457 0.33248706061151606 1.32025825870036 -0.1773359243308143 0.9144565451010183 -1.0366771820523026 0.21345151487766456 1.3819685335011624 0.47537718427752246 1.7891412433825655 
