100 15
0 -2.3151977883424326 -0.13993034299146492 -0.25138838880504044 -0.8158606873074512 0.003970268455213328 -0.6242509202853899 0.09092245132872817 -0.4408206291983417 -0.04475451375019293 -1.6114550960194471 0.2804877269314433 1.0588277078478703 0.984263442363853 1.576506249832276 0.026185139052714343 
1 -2.097168080590284 -0.5800124226044886 -0.057876812211395824 -0.8336661888716046 0.17915138888205076 0.030603528156732188 0.2948317346272539 0.2753958444519859 -0.2286944465598225 -1.4437039149368371 -0.12957817461209448 1.595695019569898 0.8024102433610609 1.4861442354936603 0.22507412739369853 
2 -1.814377226194302 -0.3940038701159187 0.19785971197917956 -0.9703094185354357 -0.25054485607616983 -0.8138969157896023 0.700227987118972 0.12278847429348287 0.3009465190879459 -1.3547132175924719 0.08312217233975305 0.9923958881043125 0.9757640246711852 1.545544302079573 -0.20339443380363867 
3 -1.7607663639762419 -0.8300614687076507 0.07493762689882676 -0.6753924909063587 -0.07148137612774177 -0.03176959351881769 0.7752842561689374 0.4196734596818481 -0.2767857562961535 -0.9502909470319134 -0.6410602393934717 1.0810219326654087 1.2116741009205962 1.3861042179089542 -0.5536003371943259 
4 -1.300914286549691 -0.26272083354873255 0.49806519395802523 -0.5989274065175837 -0.5816444127878059 -0.57697907117432 0.8531729981166751 0.2805520860792539 -0.21240087156495627 -1.076278228207443 -0.02221804174788678 0.5258828018513017 1.3784744622442995 1.7515692174884616 -0.5193476611953836 
5 -1.0207176766681816 -0.625063473270082 0.2648742091603929 -0.8870642985986545 -0.09836903918677657 0.2685398518303678 1.1639877416824245 -0.16641958529923442 -1.0062656321529182 -0.9796117061333129 -0.2778048189558245 0.3796833648744268 1.5960432574976702 1.7665937805089278 -0.7252314984458061 
6 -0.8926499375970965 -0.5371024577678344 0.6018323558181395 -1.317950330660493 -0.7161956452143806 -0.1656558741701913 0.9499402620368214 -0.3604708189327783 -0.7434528476990637 -1.148373614775903 0.5952499855250093 -0.03170748760840033 1.2494283000687942 2.0234618590262947 -0.9245414459489335 
7 0.1725234983473829 -0.7340402418027159 -0.007587179983636494 -0.43643530444171835 -0.3636203971001918 0.7647587594379547 0.7662772375370291 -0.5811086276326174 -0.14178446968500116 -0.8384049932492561 -0.16412384653979992 0.8155577244818796 1.09087390389611 2.8011671220155665 -1.8677786920866015 
8 0.11357462543678595 -0.4984619859696999 -0.0892077492480134 -0.47199579838036326 -0.5287513180995264 -0.07122689994231254 0.3002227659071527 -0.6117233058908194 -0.02355597787265293 -0.7760788048625281 0.9352940930822524 0.8612807661792256 1.313545126122847 2.517712777846599 -1.869063150579109 
9 0.1822084636208206 -0.9028287083750745 -0.9590943815525209 -0.4711819113519039 0.3320156688001627 0.39439095237457183 -0.12428915569715067 -0.726878208880229 -0.514789687794431 -0.6460095204630794 0.6549755959912127 0.9711058386450593 1.258166025869399 2.7429013132720037 -1.4808860632967094 
10 -2.325845746612091 -0.8903609151662127 -0.762324250462341 -0.8587415048827273 0.2849473626633273 0.144201387757075 0.4241683943597617 -0.5258180074752657 0.12800761808855626 -1.0810922926069453 -0.15237127289803135 1.4370299763450798 1.0074870336798203 1.2742711691086968 0.4725858117892132 
11 -1.9801956209495324 -0.2921664240378927 0.21157051346725775 -0.8296578648551309 -0.5151133681508951 -0.7571803364184935 0.47903883948865444 -0.25945081045781504 0.20123449896231255 -1.4463314563047203 0.20592369668682642 1.2857698352199831 0.8499781693437547 1.3820228775482104 0.18363326671958122 
12 -1.650176773190996 -1.0002734900106498 -0.15201173879231092 -0.9087896154646354 -0.05621136908746046 -0.5214183956016603 0.4282267374818207 0.6474328423183834 -0.23090273266757697 -1.1510962285445292 -0.3707160442358895 1.4360916548661669 0.8876374608075173 1.2252794403010352 0.18464944070348172 
13 -1.5113142641753914 -0.5073834060201284 0.37857121547480105 -0.6837245342392625 -0.585919078475272 -0.7872797148354728 0.5043821823176674 0.40164840807328844 -0.21864701415603224 -0.6883674476184369 0.02947682632456887 0.8698145029020999 1.3269667458926757 1.5210465308859749 -0.402963531782692 
14 -1.0766853830735568 -0.5993550836587205 0.3774511244798225 -0.6457346225986152 -0.2893648042163223 -0.07621149534597675 1.0513612648710102 0.5606069586430951 -0.5335767752616124 -0.6544059594225511 -0.3043034281101314 0.6226745286600334 1.2918552176485123 1.8210134077282267 -0.41199498241012317 
15 -1.1084317449214518 -0.18357540781721254 0.48527256932583096 -0.712797473735802 -0.4692154829865174 -0.49660955878372365 1.0252709832825149 -0.04597972745462168 -0.6614153293483077 -1.0202975981738893 0.05868404680486232 -0.02676328448936643 1.8222380115278818 1.8873536068520123 -0.6839024041732317 
16 -0.4296121032360604 -0.6526118125775261 0.27828264273312037 -1.0343253143861666 -0.16161991481800728 0.41717016676149893 1.2882422477462772 0.08243771710477249 -1.1589471307041201 -0.7244149645348789 -0.071032329949471 0.27353467845964247 0.75711105123894 2.024179271378778 -1.1041776297311627 
17 -0.21162527366513897 -0.3131481324053934 0.40323823880418347 -0.39026849904040556 -0.6413160752722481 -0.1461072364302512 0.8552415090292964 -0.5424443921729741 -0.21832901449768277 -1.3526967021256318 0.07334554335827767 0.04811741314262449 1.3006971031712355 2.635444024888904 -1.6106481388598355 
18 -0.07106931434931106 -0.5621746702192104 -0.7219978808253962 -0.8239503089301317 0.16177207779856395 0.7199751223104975 0.28705658102800125 -0.3701899844474036 -0.7297880659273485 0.02938296133295644 1.5344764939461608 1.3591545252018868 0.7585122131111699 2.389748831833071 -1.0769690065268374 
19 0.0942402608366195 -0.2223962540228034 -0.6840860488925743 -0.4610526059576386 -0.18831999501755245 -0.16326056582972442 -0.17156062513375425 -0.7927853719621559 -0.25016468525633107 -0.28609727757518166 1.1435304165453783 1.2257304964268827 0.984620153935489 2.6207397947909414 -1.8193983727667435 
20 -2.417034758612928 -0.4523744229091543 -0.7028469441762072 -0.23613885839703516 -0.11199120871187088 -0.39854339568173436 0.17022590995030462 -1.1680162006913333 0.7409095217246481 -1.3650324886738896 0.29988817009392676 1.0026395183479058 1.0509187794529027 1.4484550474240538 0.2545659575577867 
21 -1.8465522659387776 -0.9283758258453475 0.03939649913806161 -0.7178121238224462 -0.33845828982573095 -0.027840772743485797 0.5671638716735429 -0.1772258483215711 -0.04265321020326265 -0.9321603840841279 -0.06141213303081424 1.911358924208014 0.5086130412920576 1.1964024299577016 0.5247203345037276 
22 -1.5076686557239696 -1.178556407578785 -0.030093223937477917 -0.6633860512554697 -0.6270436000603472 -1.4354832228741998 0.4171974135886926 0.2588647146374259 -0.02066549055556784 -1.2121318851174625 0.11271368101781878 1.1595461745694196 0.7831958427411465 0.9463728402512768 -0.007753388615594947 
23 -1.4008490348408345 -0.8056332200849208 0.00883772064513328 -0.8051634741856152 -0.37150656663754206 -0.30767512670339686 0.8373864641757683 0.7357317309868301 -0.4349872243871079 -0.27041885304945273 -0.5096428928034376 1.0630982238159281 0.9439621910711855 1.4667810091810953 -0.22931095271621393 
24 -0.8510588957570613 -0.21753554089821006 0.280902889518419 -0.5710295888819393 -0.6890737370670766 -0.9379770151347984 0.8147673041513228 0.5397916476724548 -0.43481904202400057 -0.03352056119555847 0.03301161689937609 0.44473215746095723 0.9116201433706344 1.9079066598060146 0.18794507874141236 
25 -0.4927202497635792 -0.43085212785250854 -0.2326608095269446 -0.9014077212798146 -0.06254373010614385 -0.09800147454690383 1.474438996318294 0.5767375205384278 -0.598293178669102 -0.35744283058600185 0.5196030447348595 0.7502231774754965 0.6869075651028909 1.8237837571019733 -0.5421948539442115 
26 -0.6554877046831213 -0.18216705490723495 0.20266970316417052 -0.6881028976860956 -0.2581628485159873 -0.47858968170372534 1.215076974081324 -0.03203622624440439 -0.7450566101776941 -0.15031722567366546 0.6133855691321154 -0.114278520440057 0.3376808153789569 2.082879829323901 -0.9734186429221345 
27 -0.3161813924677918 -0.14114039817259447 -0.3802112082042154 -0.8429428125680254 0.24854326791095857 0.3862477420573152 1.1849309052086234 0.17915971442563805 -1.1895015290234034 0.024429772410007333 0.7994897727199549 0.4083497928550542 0.33981929716136033 2.060414317657175 -0.9830607395450177 
28 -0.34739190452600865 0.2950069951335795 -0.2725379055604352 -0.6847283515509038 -0.008202942492760238 -0.3261800920741497 0.5394965884433026 -0.4886610013956846 -0.9166246897517973 0.05309282657928076 1.8173729276332269 0.49624572588607585 0.48072062864788917 2.279511311234633 -0.7714779400348846 
29 -0.10817502589974066 -0.45682994618297956 -0.8086920804607592 -0.4661374306818586 0.5513781270076028 0.3915680064640453 -0.04570980590617857 -0.6208557423975901 -0.9129473946409443 -0.08669357641403588 1.1626065817967464 1.0272606447302801 0.6355325377169109 2.4349693272811512 -1.2287116497859072 
30 -2.0401172693748255 -1.085708145417908 -0.6551156182745729 0.025535953398261802 -0.1965802878406124 0.24582997516239324 0.26190719384227645 -0.7212130483616068 0.301499391647519 -1.0567911984029268 -0.6054652622776819 1.4906682570140388 0.46907948416252165 1.2083755375160041 0.41727742774045523 
31 -1.9497588995000492 -0.4733796194019733 0.06764082587451954 -0.6066040377722096 -0.9858328478642556 -0.5170435294650704 0.51688194104079 -0.592612857727078 0.713344181222197 -0.9185871033996711 0.4373919277218011 1.799056669724586 0.6506615068903386 1.3043263743115006 0.43815731741904396 
32 -1.285642374473071 -2.1503083522867383 -0.33694704350658955 -0.6886163566327154 -0.08516219349694426 -0.7860493466843752 0.5154841496435706 0.3004337719225489 -0.48194994818992776 -0.7189907697654347 -0.27108156655857973 0.8956851368544664 0.8374168414819622 1.03034085993507 0.03630802223394587 
33 -1.473999472988647 -0.8800169507875176 0.4050799297483786 -0.477636467394196 -0.6822155929592433 -1.2896686461192253 0.3794096571706229 0.6813828031380332 -0.032082463093874684 0.39445527082507387 -0.06277904729095368 0.569082649296892 0.9156655069042193 1.5940272784189573 -0.25461692224189353 
34 -0.8736507258487789 -1.0562131274228233 0.33384057974150066 -0.6123394356955351 -0.5099947381620105 -0.5919561792719418 0.38845019425928784 0.7756890605088068 -0.4194985601719026 0.2907341270682887 -0.506796217753978 0.2933101298226695 0.8175084677330836 1.9658556080051686 0.04744209651203081 
35 -0.9067109329886894 -1.0192902518035885 1.3255873378058798 -0.7773131296963952 -0.7640808284233809 -1.0797742371840608 0.025236618846179122 0.6639790169792334 -0.2995215522289769 -0.04603763237270721 -0.0143876459684605 0.021773639206169662 0.7161444968485849 2.3023012313776805 0.2645861675803127 
36 -0.5161039340710241 -0.6769931452689547 -0.32753674194714655 -1.0082941807952064 0.38492946822193835 0.13513657677281718 1.5309338020114613 -0.052829530819913574 -0.42689789670443296 0.2726292347942008 0.48745042942543315 0.2036003924657683 -0.2293967448675952 2.0250208904819287 -0.7338944460207327 
37 -0.7764769311924404 0.23993311384465757 -0.3754868323606719 -0.43521341419924564 0.0442068916407166 -0.39418724415806194 1.0189262583445726 0.07431493253553263 -0.5040478149456701 0.07720627046130964 1.210144532212058 -0.3129411300534741 0.015335466713720313 2.326346810662851 -1.0239242969019329 
38 -0.09660984111135917 -0.325901885106225 -0.4106697492987058 -0.6827332444450134 0.7242997312082711 0.6222747410921319 0.7490363092039639 -0.1335471642982781 -0.8205508069403573 0.28965699997148414 1.1874012943608825 0.5816813631135708 -0.17849809424400148 2.4655423079544243 -0.5705077159471519 
39 -0.36527235585474904 -0.15391644183345338 -0.09129263270012081 -0.06930870910494549 0.6145353752447177 -0.4776430479705891 0.15360513753497929 -0.5833935451245892 -0.5866235391481294 0.10806269174742579 1.3779591381001777 0.8718126982794169 0.4959301020002671 1.9129261463289973 -1.4842055408180108 
40 -1.840834826602115 -1.0750909965231839 -0.3864220289203667 0.24303132442421144 -0.8850949660141362 -0.6504600958475816 0.04723471866675557 -0.7638072699167932 0.7714674309813364 -0.604631778160359 0.5568152678814056 0.823631629670918 0.5396598373099183 1.4089882923294088 0.5129165867655586 
41 -1.4524767483977072 -1.8154535126237998 -0.7073114795475637 0.11269524925018845 -0.2640402109569435 -0.058482959209524024 -0.10987009733697421 -0.5156852589907583 0.4386376416904205 -0.4198160114251681 -0.21206423719995723 1.271482927784565 0.44670245915050383 1.3277915946167764 0.37436447498324593 
42 -1.2376330086936265 -1.8342296564325833 -0.30875806354113783 0.08603963490841551 -0.9445242986349766 -1.2293668343022284 -0.005727459206134114 0.02409731923675211 0.21431367404175622 -0.5940846058893611 -0.11809710045286195 0.3181348624112696 0.4475587705531298 0.8168239957545241 0.13596413919748737 
43 -1.2602922657383677 -1.6005251707185968 -0.2251865816604592 -0.5802953002957302 -0.1663877974765068 -0.30649447739757746 0.4141142365827324 0.7678832346151507 0.14644266408523565 0.6518859442341283 -0.4192976617693867 0.4563388465128252 0.7102728717259149 1.2779022354350684 0.2953943899729169 
44 -1.0888192764229547 -1.048292871078498 0.07634005854926927 -0.17598856444149152 -0.4422244523068038 -1.2524393258774893 0.36091197744730485 0.49462445200222166 0.35949953723647465 0.5397492435176044 -0.35159699563282676 -0.10000321028277975 0.6904309994888553 1.721777702126497 0.783867133038844 
45 -0.7514165377065226 -1.0681095450166713 1.0258574708803099 -0.5318598917654495 0.07423380854144043 -0.3880461622562837 -0.0161167344681279 1.0470038313817767 -0.5897191300411401 0.3622052247181001 -0.087498983574671 0.24058329205558954 0.037167154548114534 1.9182690094958 0.3909518362272512 
46 -0.37611783439488045 -0.5302610667903407 0.047886196039726145 -0.7006273087003468 0.0757345902517452 -1.0113501820916324 0.9235611766390037 -0.2904091310199067 -0.06394423745862368 0.1860522004588134 1.0141133438194465 -0.43621330414917564 -0.3420949233374889 2.055684346734344 -0.6925136498943919 
47 -0.7441634439041096 -0.27683991321905566 -0.5816343382211138 -0.5618969793105268 0.6507832914684123 0.33948112940102876 1.1004360002962734 -0.2790403622685699 -0.9218739900777461 0.5701492772603078 0.7741630686390899 -0.1383919392883162 -0.1972199061089493 2.2362640548873047 -0.774966826848002 
48 -0.29604073945666015 0.13933016933154693 -0.2642480235661483 -0.10155797388482164 0.7858276430392089 -0.3080119721363481 0.9438946769841421 -0.4194180943895229 -0.5960731562144429 -0.08961003211966283 1.894918446457747 0.1758025288563359 0.11635524836476119 2.2394870449264848 -0.7958063469421298 
49 -0.41072025025860087 -0.2808027491724729 -0.06632655696501367 -0.07743529609335731 1.2514468443261748 0.25027062201708117 0.2689903932227132 -0.317562504593662 -0.8485444644921922 0.0035178491936281447 1.2315739373431447 1.1619742712814072 0.4156101317446193 1.6827183940977501 -1.410220685923144 
50 -1.602691308988016 -1.6447426622026295 -0.8919706275340469 0.08693311241699278 -0.3404632308246352 0.7915475554427116 0.015127541363399473 -0.15318674926949005 0.5161179918475934 -0.6994986457433765 0.43147080418023986 0.8883420811220746 0.6115772420340847 0.9827752547371891 0.49408976595330084 
51 -1.5337823336067817 -1.4084542201944041 -0.5118545607426086 0.5900274754039699 -0.8817027259599265 -0.09407536858498301 -0.23611379526543305 -0.06572101382503977 0.7554554802441129 -0.41551115188449517 0.6137897236160434 0.7244416507008662 0.6289330461960532 1.192462207865842 0.06025666242396114 
52 -1.5002112684467872 -2.1406837917272044 -0.5357703765661053 0.0018726887906143936 -0.25145990729144463 0.0655894861914817 0.016405889609802438 0.30213054053171584 0.7619633974802509 -0.6241328667666695 -0.2896750638579746 0.5207059449536693 0.13082543647991846 0.6264294155571342 -0.5158672582033297 
53 -1.221818094147132 -1.7706944124171353 -0.15540946256939728 -0.6505817612856599 -0.21288127791737266 -1.2022351706000278 0.26758397435050274 -0.0058600158377812225 0.660953986061098 0.6186772214933028 0.30086262224028243 0.07320401119420161 1.3187593101981172 1.7057462176122669 0.8049500724149513 
54 -0.8001920006846078 -1.6476882483499953 -0.25435861410733773 -0.4778566353816261 0.49912874684495645 -0.819574982767973 0.19328316256713501 0.7951112691962529 0.21318808440431344 0.73929742040697 -0.3519487539813359 0.14272162407890698 0.49632149260221925 1.8233779582013125 0.8744455579130573 
55 -0.8347139695043443 -0.6233130985587705 0.37639195853531576 -0.5487039348200164 0.1021269291870871 -1.1119691817047435 0.016736517718294652 0.7276287372154474 0.37613105868700986 0.6392624908820781 0.2954853872470809 -0.19394711009252127 0.11030613784804974 1.8072022676692205 0.03362991875282419 
56 -0.39990072049470354 -1.0077042981520448 0.30095969984873816 -0.8897414320714014 0.5664506238093262 0.04826421247500095 0.5193758322017358 -0.1135796394983416 -0.3808524560176013 0.9662842628654523 0.3388081330492653 -0.43923317593549943 -0.16107383234440137 1.823274508167745 -0.3482956316032086 
57 -1.1287765330207273 -0.031819505606793266 -0.21855300572755257 -0.6598554242227844 0.4075251693384446 -0.44261807748207116 0.4118893799944157 -0.7823534150047904 -0.5348161995409417 0.6971944570162292 1.0861233311789114 -0.7806211255891219 -0.0710892762711432 2.230709259982439 -0.19850437327385226 
58 -0.824344320447626 -0.6684783430175483 -0.8705585634395848 0.08837288552474577 1.6661406579622022 0.3360356605801823 0.9783197497228451 -0.14046722207234355 -1.0829734008304588 -0.965584733740157 1.9869790871093067 0.3306433593594562 0.3388375818163882 2.5593165457365314 -0.2612386610193074 
59 -1.1001544490893242 0.2605210643684106 0.12278477729855312 0.09825264971100503 1.4446094151915534 -0.3973646362639382 0.3062080263748736 -0.5161725282260683 -0.5035706956693253 -0.21826942419423176 1.715729643077502 0.8830924573037909 0.1328798807781321 1.5295225455533707 -1.359028200486636 
60 -1.3644478995938005 -1.6852709575263338 -0.49000109401082387 0.46602406641106675 -0.8830925930614117 0.07059483098287125 -0.34210932178296344 -0.5949156553533309 0.6463373437642931 -0.6718786728121524 1.3834910339614508 0.32230994753039516 0.9103285856266331 1.0534754903646164 0.2910000120171247 
61 -1.333859337180652 -1.5646510259629984 -0.6759819513197545 0.7544482453802871 -0.43237738852306057 0.8212675539374908 -0.4176740846584969 0.45947595041520056 0.8173996844431062 -0.22364842502740587 0.6757610762411463 0.9376811641064948 0.7690849248733306 1.2095392979651223 -0.07461150236490312 
62 -1.4433277646129967 -1.4964018823683929 -0.4300463089293698 -0.07780360516044438 -0.6707226878374875 -0.4801437204464819 -0.32608709128692154 -0.062173600733938926 0.9150528082017992 -0.28018914927615357 0.22378820377404754 -2.6438651820473663E-4 -0.17711687573085677 0.46388041937968916 -0.9743530895422395 
63 -1.3107725480413803 -1.9850373594568476 -0.1346922441621293 -0.27307118195201874 0.07348476331002697 0.4898129611895422 -0.15389906856151203 0.0462180875531793 0.5917269700123889 -0.21034750475090677 0.08793055583234051 -0.2657378350904645 -0.72156681709196 1.2605529429208395 -0.4614099519097291 
64 -0.9146403887832286 -1.9328000618357373 0.37198794247589256 -0.3224408893324714 -0.15357952098766559 -0.5507218547422236 -0.23029609946743437 0.00990387601321315 1.2872425855371372 -0.22288230544809662 0.6925155436180035 -0.3972938304346143 -0.5886125426400822 1.282468394838988 -0.5835451196248418 
65 -0.5984871731413683 -1.171920072516782 0.2526988761452013 -0.5156725552311592 0.8044089839583367 0.10194765224032597 -0.04511329092958288 0.3123977327473181 0.44585351996234396 0.8106798384951859 0.27796137595034137 -0.4229319295909756 -0.7539160288690839 1.1873525391225035 -0.1940066107571041 
66 -0.5705902997302256 -0.6676225799046569 0.7307175643208678 -0.21605069765666582 0.7131761768301368 -0.5150309961444924 0.21709698712267972 -0.38363371391590795 0.5827673525710928 0.8431310162209649 0.6143849790396139 -0.4951001853087704 0.01502086779144009 1.4370256674974753 -0.5582349786822927 
67 -0.9585862588333023 -1.291101549456094 0.5629064904718649 -0.37870232029197176 1.371551561416286 0.2605924510630396 0.10950218615222894 -0.46023887633162 -0.22605985475271936 0.4885579366463608 0.367301974240901 -0.13401601849037362 0.04894861869617355 1.1642039932939552 -0.5087435024068033 
68 -1.0252852000114867 -0.5431059962631427 1.0902022325860434 0.13558548297199274 1.5136162037465357 -0.49678052175205917 0.041577032682185815 -0.953204628996629 0.36228162559706784 0.4047687836236318 0.988829481960928 0.043372351217995084 0.45036272832825336 1.446564753330019 -1.1126662015277868 
69 -1.135949320775866 -0.2575023289521269 0.45848924781832323 0.47929375291456555 1.997703573721436 0.03319781216987136 -0.0034142541305225184 -0.40648754462580616 -0.2500215797195333 0.3620312829524627 1.00636098668533 0.9250064562623982 0.06509074003264942 1.313600301781736 -1.0483669279843124 
70 -1.4731136418546662 -1.90702052695077 -0.33663675485358047 0.6044145545678351 -0.814059131653492 1.4183487791154525 -0.020736805400801313 -0.5396198268848761 0.14214463626245347 -0.7108948223293778 0.9066820810108575 0.15673223585517795 0.6052066966496076 0.7693479311917292 0.05913144426180566 
71 -1.4375535206073529 -1.2722301351531786 -0.5714703312765979 0.6386348552881768 -0.8320270374087013 0.5162094428465742 -0.5335154087656185 0.0320621156166294 1.003864504651695 -0.38913126109402185 1.073799636993502 0.11202085100476777 0.6707465591460195 0.7440694146074861 -0.23845377066570764 
72 -1.2353852772454041 -1.5974813867630555 -0.5206639820671564 -0.20048223470858462 -0.29674993685834505 1.0064018270094581 -0.8916910462506674 0.39520156062037554 0.5576378660495611 -0.3773568555853727 0.17065235744688761 -0.17428608122248299 0.32360825075627625 0.7143918752278176 -0.42748977919450987 
73 -0.7766887258591259 -1.0595069439305538 0.04944092577668506 -0.38013009691730126 -0.5283702266482793 0.22407578459969613 -1.3655100353666187 0.2868135856322224 0.975557123931628 -0.4843671813564644 0.7259541521734046 -0.9881093033702213 -0.10624667757239198 0.9523033146114499 -0.3252379254667267 
74 -0.5096209235364347 -2.108704069149803 0.2826346141414849 -0.2533625678160282 0.15475069278050407 0.83434826677237 -0.4656285259605692 0.6718636592446156 0.6781885035594925 -0.28549752423922753 0.37770550591312607 -0.3436984195122246 -0.7399102159563713 0.9046916873489022 -0.449290056659377 
75 -0.8652603358693666 -0.8453991946987957 0.783493298811647 -0.6909874559383261 0.4013652313648049 -0.08331448493465678 -0.2473658762306383 0.36014408255754876 1.470688714680556 0.4611748732432203 0.8672952520295518 -0.2271041380066661 -0.10665700907578299 0.9569417920837474 -0.30390877506715486 
76 -1.5588067056507364 -1.3680325327989458 0.9935547103225462 -0.8102320186253609 1.383567327184257 0.5574293741021054 -0.25432649953240466 0.07789532925084981 0.8785977193535411 0.10993478851179586 0.792829719871738 -0.1331245518633371 -0.22141797344982683 1.0168007237456216 -0.42439499786510426 
77 -1.0063315154006773 -0.7718146221870233 1.1302565671799458 -0.8550003408650377 1.3298998573814453 -0.4817502519557078 -0.6917598021750798 -0.6928578180477429 0.47755517663393876 0.16823502433348922 0.8486143579001056 -0.5222755493979178 -0.010147012727368471 0.7365208394300333 -0.6558097955655557 
78 -0.7204427609755919 -0.9625406211119679 1.1991621616445602 0.16361909397304245 2.0353361882980843 0.5263133351502796 -0.18143049178720944 -0.5418250069647489 0.28384618565579833 0.22186412591695143 0.46756886445175355 0.6171212523306189 0.001884242218394637 1.4172742889807057 -0.6169922115761207 
79 -0.9096979462494471 -0.16469646113615982 0.9222484419099117 0.21438549802335943 1.5990025382761366 -0.11954481779097605 0.1230439930338086 -0.681598523835336 0.015082233152588252 0.6675487222194979 1.3008019782856828 0.71875049166131 0.5222588064008485 1.2189154559369424 -0.7231643923409588 
80 -1.7247292203677829 -1.2336322155929755 0.2734788065422817 0.8006706658470667 -1.2472219897216168 0.7615575073037206 -0.32532406023986477 -0.6952463060757234 0.45247541895436283 -0.8984635389673024 1.2598203311854976 -0.30299298165761873 0.48437222342982694 0.7264972514249387 -0.09134380950332405 
81 -1.4070065819935826 -1.8556160328262818 -0.1321981339624183 0.41163913286750364 -0.9885890730048448 1.46990974023209 -0.7082917983240687 0.07574984374003085 0.06397545821535106 -0.12253254060208005 1.227100635111092 0.05803952664705453 0.4471507521939799 0.931522010996096 -0.23180771821167206 
82 -1.192199022630465 -1.444632538817847 -0.4743393619424881 -0.3497566263563272 -0.5406716960679714 0.5580919624708475 -0.7972879269292567 0.3218137256555222 0.8155345425692574 -0.631058297089752 1.265786232125828 -0.7900848422189983 0.6720386061993334 0.5694074039332248 -0.8514465393961361 
83 -0.724099609942276 -1.3582213320301102 -0.10347542715500845 -0.378528345980789 -0.05287062997990731 1.0627128376689112 -1.2477417696585156 0.4117271659472073 0.7698908154123871 -0.8977053603034959 0.7131456851472407 -0.7745482947465171 0.31924358271978237 0.8048905762433789 -0.1747486224349715 
84 -1.315235934181858 -0.2752093871039802 0.41093988215103777 -0.2770510217535183 0.192148332180621 0.8049849943387536 -0.9040106046557876 0.2535516042314985 1.539616662747984 -0.5354046141372262 0.9155363771207295 -0.6815366932467528 0.5639514585232838 1.0712076197527278 -0.8868358352588867 
85 -0.5552615029770382 -0.726018135768838 0.8549839513713069 -0.8037646257069111 0.894373339532628 0.8649048192643981 -0.6748129087099701 0.40092904568269555 1.2411022503222675 0.016265728547187122 0.5707648418824757 -0.1665795555271616 0.3123725990081704 0.8774414335930342 -0.3906596145116776 
86 -0.7513041644619736 -0.6798833362098771 1.2210201194802024 -1.4074724996018204 0.7984446800964904 0.4545600183737582 -0.8315355899942373 -0.3549781547344544 1.4204131402324753 -0.15723895661803675 1.1659499533294888 0.4410816582425512 0.5372715944394895 1.2527300956561707 -0.7056647940675077 
87 -0.42118395764294253 -0.5351712458472824 1.370852974493034 -0.8440883853359545 1.7586729960651666 0.7438385815454034 -0.6704174758366042 -0.3593088912351053 0.7533594831510237 -0.135515506382727 0.40968527707178815 0.06691724765882952 0.5968405747156554 0.7289670070221048 -0.483221906326878 
88 -0.6728608801524566 -0.5301150811508759 1.3196801899211685 -0.19219091627133605 1.765934569340186 -0.356153498071157 -0.20137870580435235 -0.7624974385975997 0.7337976886415785 -0.2278488618752454 1.0096399590574228 0.3513988499563144 0.4622263497833618 0.8783999729364954 -0.802991900044179 
89 -0.7531966582505069 -1.1526851820867796 1.3465274389429174 0.09308666527774546 2.219594533924277 0.3089923557259793 0.23701105796844724 -0.586402537740288 0.3411926230854534 0.3243651062499415 0.8623179596202751 0.9289538542742568 1.048047815676158 0.660398826539506 -0.5354732616099156 
90 -1.7278631693740323 -1.5971273937004875 0.24933388914664406 0.9496970604536756 -0.6613326094172199 1.671778205925582 -0.4047216337469201 0.1357766107176583 -0.20850362473311787 -0.7902849035195679 1.1003080006225692 -0.018979674743372806 0.7275031566585861 1.0243988476716936 -0.5534056594543074 
91 -1.9463381349731685 -1.0363747411433033 0.6834337759524789 0.9924937284021169 -1.6764671116866454 1.1638718584533765 -1.3549955131694578 -0.3643143490969814 -0.21186584167162814 -0.5304786046937869 1.5813542519039325 -0.10788739636027557 0.5656249822698411 1.1533492070254023 -0.8296168034041325 
92 -1.264902083239207 -1.7782111959230607 -0.5940255661646097 -0.6245411616575363 0.15314506755368007 1.4433654818461135 -0.8291760663184505 0.7136027467342292 0.2485974216246424 -1.0594638773240148 1.5521124817169079 -0.3033074443555127 0.6829021201085113 0.4580846523544827 -1.0402479356875693 
93 -1.0137247310912407 -1.3587884747290326 -0.013626596036514695 -0.42489729294549494 0.009881419973968528 0.5258494392147047 -1.3725225812649136 0.9434948175664993 0.460209300265941 -1.5842157450501444 1.8451936721419622 -0.8293450691526942 0.4947061138965195 0.65085473792224 -0.795893151919248 
94 -1.1908945501132584 -0.2897732036921552 0.6090790496400738 -0.9116070851803375 0.8602323591931881 1.6834261534908226 -0.7953241717715155 0.37195307685632006 1.2989667215208969 -0.7163931428493479 0.22585687253287173 -0.6841519659996013 0.7032744275212527 1.1235363294164142 -0.784750888879263 
95 -1.0821663184419936 -0.04322499647148589 0.8032824361071224 -0.7371231801975184 0.4690545233159436 0.5094684298466875 -0.82831858156847 0.3120683784859764 1.6849047966752635 0.08213547248152366 0.8566321702057987 -0.5014946734389178 0.4455921931468036 0.7820590784194931 -0.9980651031961827 
96 -0.5684534691392651 -0.5543216013840552 0.946254498990084 -1.6584047357577811 1.275331831961429 1.0552262571421966 -1.1650062457006618 -0.0700813099333341 1.0117954078052676 0.022320442718546198 0.5055667087558141 0.5907160568228746 0.6962981575630446 0.8756600881314994 -0.6220827568793095 
97 -0.6602546085800298 -0.1024694384861271 1.5770528741806369 -0.929917576250618 1.16765871817887 0.08113295725069956 -0.9616346799218873 -0.6869020956234015 0.9796706777876492 -0.21711252531740716 0.7632675966222587 0.08189985127002826 0.8288248352055886 0.8199883755861903 -0.5334466620181185 
98 -0.2888795864851857 -0.7017656036486637 1.611937734201463 -0.6076904482396142 2.1491345215850455 0.9847880736449184 -0.7634421279165443 -0.5704216209024068 0.9276736454614117 -0.6610758850965416 0.48283878773583044 0.48459542528170374 0.9601725057439418 0.7564625504131393 -0.16639078379897926 
99 -0.45026858714565804 -0.6400648662123235 1.8169747731639199 -0.23990510122022768 1.7877554029755902 0.3314458305613744 0.22393090682736863 -1.0193921801747359 1.1366765314411913 -0.5086991465378834 1.250733095654302 0.7270754489692065 2.0179257269819155 0.4949835999527811 -0.540948133397401 
