100 10
0 0.3887533434345436 1.7747357249436788 0.3670437032687349 2.248085533550676 0.21163890979094174 -0.2687303064741533 -0.6080101878560559 -0.5417738063728689 -1.469321249384775 -1.1968938472377464 
1 0.10768276311681817 1.3823997932556615 0.4766138797643917 1.7984965217206057 0.3307672288354612 -0.5430582418281524 -1.2309150379376508 0.20863548874865157 -1.5475859370624416 -1.7773489098707704 
2 0.7402489036516495 1.9341178893873898 0.243443076380972 2.0413193665867926 0.46724801633137464 -0.4097089198270256 -0.7093072225768068 -0.24573874375379026 -0.7680312806360532 -1.3844608521722501 
3 -0.017038696906374308 1.8814605300255445 -0.004688825979461224 1.2235843957974177 0.4917625507888515 -0.9616940356114226 -1.155241013655512 0.38928883868853453 -1.2831654754094652 -1.5381061337197215 
4 0.45042964965823235 2.0935444872462963 -0.2288737566217386 1.2884752505442931 1.1618771192509023 -0.18883576503516938 -0.4230939608241156 -0.32978526186013013 -0.7948273574093006 -1.2470504014681356 
5 -0.18323501652874483 1.9664087487109048 -0.6728432610485631 0.5477675047442893 1.2093608312754212 -0.21670912714310248 -0.7885786068655766 -0.20266132281901228 -1.0515229489779059 -1.8847830896599398 
6 0.2916472447920847 2.2653141657889013 -1.0745087048145363 0.8380758344871728 1.644437464338995 0.30393066676226205 -0.4998776183813896 -0.7416572812269001 -0.966686494015225 -1.376225620229905 
7 -0.5404721311583163 2.72755412904877 -1.590700858175218 0.10654169894632165 0.548438922451001 -0.6740177370735627 -0.9351038127640637 -0.9874879738808654 -1.7000735736540733 -0.7737495101516971 
8 -0.2949567861033289 2.5535603149253285 -1.0141314616482535 0.7553484402680409 0.5149307282748395 -0.33648541812391364 -0.3172457843492899 -1.9440327899026772 -1.5916167133075982 -0.2580850684051078 
9 -0.9358038673230539 2.1339326626837476 -0.927507318680594 0.3479106580702829 -0.011736480370925527 -0.8308277901136131 -1.152890109887577 -2.014463272022787 -1.9187362406444872 -0.3356070306804747 
10 -0.04195578002417593 1.5579916013647586 0.8196014792247903 1.719207796312352 -0.009977358162040414 -0.4567190844375443 -1.1899691737695846 0.3381175147477589 -2.069681427185274 -1.022472629534139 
11 0.6090334772346009 1.7902222192799329 0.5664307029942137 2.3650665175121994 0.5713245970969694 0.1101876234266325 -0.457198935273856 -0.2589319816595506 -0.9820387593026737 -1.4019627986179966 
12 0.28223879769412213 1.6917028752579124 0.4094090857924633 1.6104304242648546 0.29982113559293716 -0.5961046814529075 -1.3507119394492018 0.5984634289965012 -0.8579796067963226 -1.4090048399428123 
13 0.6799765233299293 2.035057697776515 0.28549132215870693 1.4143477408823295 0.8196552923677305 -0.36520910429942666 -0.7140660321236487 -0.21581582382674577 -0.7344956740936458 -1.0405076768295667 
14 0.10265932741795265 2.0136813923298376 -0.25537389815903144 0.6142139260612497 1.0198129656261588 -0.47211208809131383 -0.9245748841013458 -0.046220324167185516 -0.8985399630901842 -1.4368611256654273 
15 0.3046198884396874 2.3274907259483286 -0.4871846512763102 0.8158769251602801 1.4051120416681537 -0.02031883995731537 -0.18623455555245358 -0.6646835996096968 -0.8090714090567319 -1.3162123831860344 
16 -0.33166762333891087 1.9713529864814627 -0.9449900528216786 -0.11807547945630222 1.1323894263419254 -0.26232521390294916 -1.1574496209177216 -0.4368897767244338 -0.8525518246401697 -1.5492713954127582 
17 0.0026493287223300025 2.9446940205525065 -1.6173396237832058 0.5955354757142806 0.8540284907288871 -0.061399445390893474 -0.31454916202046157 -1.0763873571043527 -0.9731942681880744 -0.771611400439485 
18 -0.6201446201198251 1.0841768007802899 -0.3348718215883093 0.2184527527865714 0.768039899435971 -0.8984603858812028 -1.2500373349022784 -2.3713446301215457 -2.0228338553661884 -0.6987652969611916 
19 -0.48371406641896086 2.140312648377651 -0.7194208116182075 0.4849962543718294 0.2976266394003625 -0.5732598689330313 -0.5025708541701618 -2.5378139858760043 -1.8496449018399417 0.0032995226029555054 
20 0.38088528394865995 1.5415670323004498 0.9556992773227254 2.5259618687164296 0.20311207337603837 0.02501196559584871 -0.37450299829597766 -0.4270576394164898 -2.1550192095723197 -0.38457297976556715 
21 0.10316604357684081 1.2137774832701298 0.9712839174339608 1.6999692835739464 0.3285115492152781 -0.2812415434833893 -1.2984380460374028 0.40158516103129543 -1.5509652052962932 -1.3647118252611536 
22 0.5478360011381684 2.0023591249396215 0.439018534755834 2.0270547580827927 0.3027138787175354 -0.2380546040032704 -1.0725414355686351 0.19887680948551592 -0.2435346817171776 -0.7418690789049852 
23 0.3079795703075361 1.7885463483468718 0.31051160463639554 0.8794931190286994 0.7773279827451063 -0.5961418288171059 -1.3476908215670602 0.3450634294213911 -0.6159193652516914 -1.262161184315091 
24 0.6863197553877678 1.9684249097908686 0.6105890414613628 0.4113712915272539 1.378149137359474 -0.14960685330666149 -0.6068801074107479 -0.5838548829035949 -0.3130767589961906 -0.7748446972173492 
25 -0.17463538908651952 1.6220223007901329 -0.012552043684732379 0.28800330797253443 0.856368124243926 -0.1230264126503637 -1.384513581786574 -0.7278161814573955 -0.5899081600099957 -1.3587761920790962 
26 0.24841346704890516 1.8198715785426036 -0.5606992369404986 0.18996945772497884 0.9828799169056922 0.02875566502847635 -1.085169074782562 -1.4376730971417773 -0.1591599738651309 -0.9313840441325086 
27 -0.4737667078018161 1.2263020450311792 -0.42852307819178614 -0.25100013515655295 0.9864301538120791 -0.19039672091665766 -1.2906864213436773 -1.5947603095488456 -0.7730475667010903 -1.358496716059676 
28 -0.012957529829015829 1.1512743297666141 -0.26645004637186986 0.14891130043388337 0.9548748782521856 0.11843631605973742 -0.9188697292310946 -2.4127484409848354 -0.8456630778268485 -0.852472659801948 
29 -0.6250141052739088 1.3293511145945118 -0.40234116133190495 0.013373121023160739 0.33037738051496557 -0.32336475376515317 -1.1608930006088405 -1.9620012463080185 -1.987908051623258 -0.6759478341593911 
30 -0.3180878794607238 1.1504856347136032 1.236776264633024 1.695383991602795 -0.04590983609462385 -0.4645688834728142 -1.1751709960115138 0.4582905427482055 -1.9206327099813374 -0.3851451437761012 
31 0.4506549468854228 1.1699762915412641 1.0857395386425808 2.515342544045556 0.8087083526088654 0.3756728915374898 -0.7499707476830968 -0.22513341101271148 -1.3690096337253324 -1.0452523375853664 
32 0.20846385816396462 2.048382099064068 0.17778518015919464 1.2902507312193068 0.09221140112845753 -0.485676487735061 -1.7693483792805396 0.7314529406191324 -0.6853113711860599 -0.5362416168830877 
33 1.307618060564854 1.9460233566809202 0.6494712921810503 0.8922629367843805 1.013855232197384 0.03379658250221439 -1.3284141496788504 0.09128516421388558 -0.13118736163791725 -0.49208015034532454 
34 0.6928596994435245 1.836673860815242 0.4145805957386855 0.05839796776718963 1.1509385284320888 -0.6698295679790107 -1.3101322361939698 0.20524493920055228 -0.5705945793228168 -0.5531375838471433 
35 1.8573898514980003 2.026584681107497 0.4582538157957684 0.5069126879993626 1.3689773338319713 -0.9674566252772276 -0.8767739435510042 -0.43778467274534105 -0.5219415968542006 -0.4397142891040723 
36 -0.051048898452089035 1.2563452354513964 -0.8016281339924615 -0.30418332484830235 0.771876073498088 -0.3039808845440144 -1.9591499115742081 -1.2257435131679428 -0.34569725313269406 -1.0184431736186645 
37 0.33275784373136735 1.1288022728862226 -0.3559172301148045 0.22053397657005822 1.2334772594298866 0.2563958069969977 -1.29919647382194 -2.15737148838729 -0.29897058450869074 -0.6504366749753336 
38 -0.21207700737874643 0.8052895667330155 -0.5743008788584049 -0.4011100140110056 0.6318809970053096 -0.35109899231129305 -1.781178765458961 -2.073939028477285 -0.8515306845202196 -0.9544883713404808 
39 0.09840348556842185 1.4013942519475093 -0.37673844417737895 0.3613700662722326 0.09774294231298931 0.3244962833774656 -0.7684899464277177 -2.3111618009456705 -1.582008877429737 -0.3836353744986316 
40 0.3435738264733873 1.31535431432352 1.1861992500120606 1.8640517107008883 0.6153459221138732 0.3800080839201891 -0.9544371204602803 0.0032354769497486033 -1.4182565949402681 0.5384553712545145 
41 0.13562975877032368 1.2074813672433513 0.898097993374808 1.4426471315903164 0.15532890944765476 -0.17023926551632915 -1.6272245079157315 0.41518015786124907 -1.6434538396947278 0.10459320914783313 
42 0.427542656621531 1.7720734185359845 0.6420525299455837 1.5443376381761817 0.45469410689557044 -0.3254498287475979 -0.9784600262187472 0.3442781448721521 -0.3635828802082478 0.46621869709218605 
43 0.8601806415715156 1.2289306044797963 0.5776498847591212 0.39653217863785095 0.8845992553033815 -0.32302482207758826 -1.895667394985444 0.8342067066820487 -0.6426575649229502 -0.20132984043489652 
44 1.3000608198632837 1.5461788747666916 0.9180795043333178 0.2730699900826726 1.3242582711492898 0.0039152365549137425 -1.1775952400087881 0.25183390740837247 -0.26009376937348727 -0.04565953883354485 
45 1.2944126314069484 1.050166537322984 0.654916847239848 -0.35059602256928407 0.9573173167052812 -0.9684527774801939 -1.3350028211302183 -0.3503287737918468 -0.7566982674497916 -0.5558081815450425 
46 0.9665470757851387 1.3955693847859632 -0.6158170770139343 -0.10400064589647506 0.9780008559333702 0.1951918184896047 -1.4739354398828808 -1.5835643744836505 0.16673203667725348 -0.2161464432566787 
47 0.026313546688758082 0.9399770667055752 -0.5436838343685136 -0.7219056053677304 1.0571196448426954 0.10381634460308284 -2.042451350854447 -1.741876219088455 -0.7022127148488876 -0.7243465289487162 
48 0.11290414352470048 0.8171872727592641 -0.3891859958176844 0.1713162071988558 0.3269824100172035 0.6805986011358739 -1.4213898041100734 -2.725543605382418 -0.38553223001530523 -0.8990556590249972 
49 -0.11988418053538336 0.7924454821499908 -0.33627088585317527 -0.12816294068118336 -0.09509760576546664 0.4649307887220261 -0.8908752415037257 -2.020584789584717 -2.011068333707077 -0.838098054886406 
50 -0.4422554056486014 0.5635837159291547 0.6876857885109494 1.659598468450628 0.6946746947429142 -0.34235906330480476 -1.4391210336257767 0.28544010904805606 -2.1741466971572474 0.22196499010590676 
51 -0.08804940781847141 0.6699584028836703 0.6254032649979018 1.9805027902604804 1.0679009931887689 0.020364343648831953 -1.3843476964649974 -0.1266140267153541 -1.0432764063004787 0.48996000370040227 
52 0.11646985458799337 0.8362745387172029 0.052335219273952814 1.5974082844971915 -0.038613932206518965 -0.9624295773115317 -1.8519951155045402 0.61455229643809 -1.0045971626675814 0.5621629065475477 
53 1.5233705216594737 1.8075373943030664 0.8254289629137084 0.6551585611232404 1.099897425048646 0.4033615779468154 -1.5623653026260338 0.41627461242532454 -1.052030056795217 0.3598393452662645 
54 1.3210610490133579 1.186211789144047 0.9252449412317794 -0.15141993964411007 1.0200964611414098 -0.2538851250315577 -1.774739472822683 0.6376116757280619 -0.7661307050955598 6.830434849103044E-5 
55 1.504278335799079 1.0307478744911704 0.556141653678811 0.14859848309861215 1.0523269930097896 -0.18253083409839865 -1.234396659567772 -0.4889276580296217 -0.20728430054005081 -0.10150948104520473 
56 0.9471925753229157 0.88823528986545 -0.5798663048227389 -0.7883489432775622 0.646801759701313 -0.5127424809991558 -1.9030872743773148 -0.7896865888410234 -0.1838656486786076 -0.42359303683782734 
57 0.9386365394304125 0.988204896165053 -0.7518592494663913 -0.5827934051181318 1.6060921803759443 0.5185432004795967 -1.6811361747071547 -1.7769067062766042 -0.38060035552165417 -0.08009043388600989 
58 -0.36162891901473465 0.5438402311241469 -0.41157580544177147 0.5416748979440091 0.06400957551414602 0.3610492012135115 -2.7832484507045026 -2.28584561794308 -1.1682071906617362 -1.45350011036614 
59 0.4389619396103178 0.39725679675610637 -0.168273019727787 0.3257668132682978 0.03942228276225537 1.282250799023937 -0.8675599595164197 -2.4511127338513923 -1.6736759859447254 -0.9140023457028632 
60 -0.09223236396561221 0.8964918053582345 0.0526175680789695 1.922405411399899 0.9733953457034697 0.45296701386686483 -0.9607365120193629 -0.1231999446182925 -1.7031816349785418 1.094078228603632 
61 -0.40088976160510853 0.10985815918233253 0.3374901013800107 1.5944847336638608 1.1563749708348994 -0.30914703615756783 -1.6060199086213796 -0.05237759867011396 -1.6399624766910719 0.30791747124103663 
62 0.6125913306688191 0.7349792986675509 -0.1577774131698838 1.729714545634365 0.011913305920617696 -0.5781170925256659 -1.4258966308255772 -0.1445655078534521 -0.3059176575749022 1.0485457668581586 
63 0.6091056989861146 0.316760908345145 -0.365654979233974 0.7519224601654602 0.2936319992009157 -0.881254277007318 -2.225432406880774 -0.13276660153280262 -0.9748613980162598 0.890763563268123 
64 1.5454618609032624 0.3765852807781319 -0.464947420648155 1.1830258286794173 0.21965162223058562 -0.6391945530525848 -1.9863617636786133 -0.5024946119265195 -0.5913428607388553 1.134106882400763 
65 1.3459047022909545 -0.1955750912952378 -0.12552762340214052 -0.2948065160523158 0.39441690123652645 -0.4518356425562435 -1.8042352976942724 -0.3440103653621402 -0.5515903559734542 0.25409409458969345 
66 1.7584449278761083 0.5230958474678592 -0.6934285658995147 -0.13629762582901714 0.1150999638132926 0.22281900048253042 -1.4570817926400461 -0.9958731058413344 -0.18935301705552693 0.3141557517042703 
67 1.26028228427422 0.4559243830979764 -0.7465352791098625 -0.7592599247442946 0.006904139162626378 0.016906699678818735 -1.5704501050330946 -0.5041180289978363 -1.5535521130619336 -0.002133293319338977 
68 1.698761590000173 0.5176042451234607 -0.6211483589983515 0.1768307480585036 -0.6343555487556173 0.8738578615401993 -1.031802042316664 -1.5205304133135484 -1.3495244762853658 0.002436801119456159 
69 0.7612693401794857 0.3207727118964032 -0.31911657471365673 -0.12697530259919895 -0.5915081161809369 0.9669312311923085 -1.4108623287924105 -1.4625590104788122 -2.0413509046480423 -0.47214052987520694 
70 -0.8055917357971742 0.43944206951709236 -0.3901051688785661 1.424754491396503 0.7705022552263888 0.3291628804886011 -1.5795864354110316 0.482244107742173 -1.9233364682546568 0.8329024741537158 
71 -0.3372142753613113 -0.08331432561211864 0.05446063233662538 1.9731808017905346 1.0995085901408987 0.23253426269410196 -0.9707548708118754 -0.028641406166404183 -1.0560876531675762 1.0132338070687685 
72 -0.25902531252271904 -0.1640015542882434 -0.6423063006837421 1.1955636128638298 0.8789621607351714 -0.9405583680943226 -1.2233370122631544 0.6096365964429852 -1.307114651478341 0.8579175102308902 
73 0.7690559553254432 -0.27486270930639733 -0.8339218976052776 1.4390446779873083 1.2096212922508511 -0.6862966185398008 -0.7601557397423566 -0.15469747518817029 -0.5112984199057244 1.1460103052012642 
74 0.768861427351438 -0.3790106701686503 -0.599282257062834 0.42679455740707256 0.45216605359739304 -0.9613882960004615 -1.8443046862112313 0.16490508801703366 -0.9849847454118488 0.9213263037689149 
75 1.9194462658970228 -0.3651660270444205 -0.4311671395892145 0.7493513546883923 0.5377896806687135 -0.08851987447242707 -1.1851174219033076 -0.306934673938889 -0.5741808691682093 0.3338187708233258 
76 1.7315116357109948 -0.27746099259313667 -0.9516448546456004 0.3139891934315245 0.13224263262283517 -0.3124440131031531 -1.5937449721084438 -0.40521918804669205 -1.8746160298659897 0.29583649310198035 
77 2.1141299317093982 0.18921587135428505 -1.2074177261691024 -0.12794211583324494 0.16291087230540463 0.3245511505853215 -0.7329104674627471 -0.733455522467974 -1.3666276461814495 0.4325263695752092 
78 1.2796369004855597 0.06158942639780557 -0.5154486288424712 -0.16671763729436936 -0.77897183105348 0.04899234289735102 -1.621328675103902 -0.9755783784762152 -2.012942476762827 -0.3337569586004969 
79 1.3323151866135503 0.3550494934101388 -0.5444310579246265 0.10967232703504329 -0.6004081425200201 1.309209707589222 -1.0632769165670093 -1.4749308991457823 -1.6230866483945656 -0.5388749838179223 
80 -0.2906806760447284 0.5655175624714968 -0.7482959216849954 1.985634224596172 1.0370482271298083 1.0247474337705416 -0.9247220409965689 0.1829618005269231 -1.5272679317975442 1.1277685610020174 
81 -0.6761363058707391 0.08379155578217468 -0.9087967128811235 1.4173283651155382 1.4113063722803996 0.35828119511332857 -1.8679366666631276 0.1673329796204453 -1.5998987018211739 0.7384515854103237 
82 0.1447507274897104 0.164209778573131 -1.291785510140205 1.6253388183784143 1.1965016286557506 -0.6551237668981066 -0.806087907853064 -0.15217295819440546 -1.132177022526853 1.294807478927211 
83 0.19717926294319066 -0.32500750854618937 -1.2691190218043977 1.1690045391780095 1.1615613225977022 -0.9984164323864682 -0.6993333432387623 0.14153236086952786 -1.514694743495671 0.779669495389785 
84 0.9729449983393146 -0.5813644450305733 -1.490455287555738 1.701745197102481 0.66829611309759 -0.4408512976980743 -0.5850131556555288 -0.675194041745246 -1.0908484620008894 0.2253556565504922 
85 1.526633618736333 -0.7839774213348818 -1.1199950725712773 0.6049113477752557 0.4048089067097501 -0.44707750931360407 -0.7644360181035792 -0.015214639540737308 -1.189190663042178 -0.15221980081224992 
86 2.1486253859666062 -0.5706834955667405 -1.1038738219606556 1.257819097656655 0.589137481241609 0.10264316589116253 -0.6550247874311652 -0.5746010687441778 -1.9444301053074575 -0.5802302558300766 
87 1.906836740089614 -0.3080337262194587 -1.493483922181345 -0.006404315094885846 -0.22845835863622374 -0.19161547468769574 -0.33654870912295987 -0.2053423060286753 -1.896359392053546 -0.7145355927571458 
88 1.852182426288042 0.311589065575998 -1.0046994211080145 0.4074023944418846 -0.5765294197702505 0.6580591011069851 -0.3583112924578416 -0.8979994439471085 -1.7045681462788584 -0.4233018768536492 
89 1.3238631242895371 0.24699343644875704 -1.2107405533213196 -0.05603931603532446 -1.4267155457698877 0.938448656100319 -1.298036061656517 -0.1695339994827079 -2.098899427775629 -0.8155617568429728 
90 -1.0567963417030812 0.35782209076091226 -1.4127987891892042 1.5612585127671097 1.1320070939151596 0.7208328794549446 -1.5209635217151225 0.4729768155038357 -1.8344789045370011 0.7695129095938694 
91 -0.8135578385446302 0.2224496202661198 -1.8213745983286438 2.410969107031811 1.44897363363667 1.377079774570389 -1.4997094866543488 -0.22682575159543356 -1.1426799619126011 1.0333875043263059 
92 -0.18021643890909322 0.1692593310335392 -1.6067665225628687 1.3725778100921042 1.130107014504367 -1.192322648588526 -0.9790346915422169 0.12948079268025478 -2.1507037352141203 0.890122867902078 
93 0.6363269185021272 0.2266556835503464 -1.7306299414035056 1.5318311244312897 1.6388141660421862 -0.9813501938344588 -0.25296603906470827 -0.3846511136053094 -1.7170859474029434 1.5459470416153551 
94 0.720942683519966 -0.9977175848161425 -1.8503700240168295 1.411054792658018 0.5233231330209431 -1.2911007966588157 -0.8463944849709925 -0.22381777999685687 -1.4093828686859615 -0.571247684440703 
95 1.6249349547049747 -0.7680514851720612 -1.4770893871205955 1.460594936717079 0.2705009556859509 -0.2300946706190048 -0.4778907893267839 -0.5987559509211958 -0.7418818053811927 -0.10088507750350113 
96 1.6611444152906643 -0.9237098155629663 -1.2275506009761412 0.5590721484949537 0.5361952717885206 -0.5269114408525359 -0.5075202350341689 -0.11119049830723818 -2.0308058985848603 -1.1607522464880737 
97 2.153352726708159 -0.034902437457329426 -1.3277234006031313 0.6722505279319817 -0.08230706016484551 0.049693662445795546 -0.019880246955594212 -0.5776922810533602 -1.5532568004305387 -0.46600631272169174 
98 1.5966760740102581 -0.5446161998339072 -1.629657716602113 0.2830129695835361 -0.8004508793377924 -0.12150073364820096 -0.15729603058547792 0.06266025059369262 -2.399742849311515 -1.0372879765238316 
99 1.668268675679564 0.3480564225028295 -2.0380981338729156 1.045835782291524 -1.461087098204963 1.1686137510760648 -0.3291229073586449 -0.1565163294859248 -1.9627864031142328 -1.0986949570281792 
