100 100
0 0.553898 -0.040927 0.867405 -0.327378 -0.654143 0.919736 0.024144 0.479827 -0.539905 -0.248472 -0.208608 -0.020836 0.435795 -0.787618 -0.508477 0.114767 0.252285 -0.347957 -0.548975 -0.779377 -0.524113 -0.482327 -0.063827 -0.060673 -0.079871 -0.028776 0.002881 -0.464551 0.328717 -0.400968 -0.611273 -0.202662 0.155269 -0.365036 -0.029476 0.817827 0.520119 -0.113237 0.376678 0.528360 -0.170030 -0.508435 -0.509745 0.797398 -0.258671 -0.315989 -0.061865 0.301519 -0.274912 -0.140782 -0.336021 0.410528 -0.506644 0.644257 -0.759497 0.734221 -0.265229 0.618478 -0.346655 0.240636 -0.432195 -0.358371 -0.907211 0.058624 0.213730 0.268913 0.412293 -0.003430 0.214667 0.503628 -0.308796 0.069253 -0.207885 -1.028286 -0.195827 0.018989 0.149664 0.783465 -0.161298 0.021498 -0.238451 0.002785 -0.207002 -0.180036 -0.104180 -0.357736 -0.156438 0.167820 -0.707957 -0.135631 -0.601518 -0.271814 0.595102 0.112353 0.288443 -0.839541 -0.399058 0.144457 0.554761 -0.570882 
1 -0.042654 -0.273760 0.565906 0.526241 0.062814 0.577114 0.498288 -0.279546 0.327169 -0.589413 0.152926 -0.020053 0.129001 0.071753 0.179988 0.166229 0.911055 -0.128559 -0.476664 0.332126 -0.466336 -0.763132 0.600144 0.502472 0.195834 0.143977 -0.103965 0.020354 -0.182529 -0.486375 -0.567542 0.353502 0.314395 -0.796623 0.293474 0.813340 -0.112874 -0.851264 -0.131283 0.267742 -0.391061 0.088905 -0.521132 0.295165 -0.485484 -0.134512 0.358020 0.163656 -0.703762 0.096942 -0.686247 0.062190 -0.312373 -0.387253 -0.348095 0.614852 -0.241505 -0.179309 0.284693 0.082572 -0.428742 -0.712680 -0.240456 0.152221 -0.602211 -0.648277 -0.147567 -0.227798 0.760976 0.144293 0.699022 -0.457672 0.237240 -0.799644 -0.368199 -0.209069 -0.478433 0.441470 -0.218736 0.256055 -0.698855 0.354697 0.235148 0.419415 -0.260919 0.179528 -0.162836 0.311632 -0.511440 0.337982 0.512632 -0.353974 0.470728 -0.407941 -0.180958 -0.370558 -0.478234 -0.112356 0.255905 -0.477877 
2 0.443662 0.330567 0.722808 0.417456 -0.146978 0.849699 -0.243137 0.068191 0.395110 0.242001 -0.037671 -0.439324 0.495656 -0.736595 -0.064363 -0.180759 0.366752 0.015632 -0.248069 -0.354064 -0.098781 -0.646762 0.910612 -0.152540 -0.005772 -0.101533 -0.330019 -0.693209 -0.483749 -0.042908 -0.070997 0.599369 -0.049718 -0.777455 -0.267795 0.619034 -0.264175 0.197236 0.745009 0.485738 -0.580718 -0.179541 -0.712183 0.514498 0.012259 0.697986 0.588360 0.235097 -0.768692 0.657262 -0.253147 0.524947 -0.161694 -0.035167 -0.330595 0.010575 0.278903 0.259077 -0.385409 -0.032550 -0.276642 0.347539 0.312031 0.283764 -0.435896 -0.383858 0.080151 0.181166 0.361667 0.930500 0.019366 -0.287299 -0.170009 -0.304260 0.047448 -0.205795 0.586209 0.328953 0.325484 0.605202 -0.104934 0.289454 -0.557240 0.506025 0.222607 -0.457049 -0.840463 -0.368852 0.253041 0.293953 0.043737 0.000906 0.027863 0.247906 -0.306601 0.224031 -0.548507 -0.110066 0.655222 -0.113457 
3 0.580571 0.473359 0.538617 0.459664 -0.573114 0.648645 -0.061130 -0.538717 -0.433020 -0.426032 -0.193201 0.393197 0.363082 0.029543 -0.018125 -0.324470 -0.291599 -0.207686 0.095278 -0.542967 -0.616804 -0.552192 0.123409 0.187611 0.062522 -0.500309 -0.028642 -0.654350 -0.278323 -0.007219 -0.548858 0.872846 0.070138 -0.369096 0.760012 0.751441 -0.604708 -0.495074 0.161800 -0.288029 0.182345 -0.024680 0.089024 0.079744 0.289086 0.057043 -0.123844 0.251194 -0.901310 -0.000601 -0.161430 -0.024445 -0.471590 0.021044 -0.727635 -0.073914 -0.471063 0.341113 0.285035 0.109565 -0.210377 0.271345 -0.735663 -0.485015 -0.326572 0.366920 0.344521 -0.077586 0.485287 0.648234 0.138091 -0.403885 0.972454 -1.029159 -0.116569 0.052519 0.200146 -0.183869 0.427347 0.597721 -0.526873 -0.142572 -0.101541 0.281143 0.153874 -0.221353 -0.426229 -0.477237 -0.275863 -0.700179 -0.123306 -0.200763 0.471037 0.554083 -0.870925 -0.166033 -0.403793 0.093528 0.113023 -0.465178 
4 0.692038 -0.402179 0.636391 -0.310305 -0.127015 0.410542 -0.134606 0.198192 -0.204975 -0.094031 -0.456420 0.030802 0.422640 0.145238 -0.295793 0.318659 0.283170 0.280067 -0.377323 -0.329488 -0.332613 -0.065824 0.186526 -0.484256 0.421949 -0.269935 -0.208852 -0.652629 0.219251 0.465154 -0.285546 -0.053888 -0.024485 -0.077916 -0.098751 0.946919 -0.214237 -0.496786 0.078946 -0.445022 -0.620091 -0.054042 0.163698 0.165790 -0.463483 -0.116120 0.247239 -0.637520 -0.780874 0.368847 -0.079457 0.915513 -0.010306 0.266877 -0.575002 0.659849 -0.540979 0.434476 0.539657 -0.441766 0.200918 -0.298377 0.226032 -0.419466 0.409421 -0.275085 0.013553 0.080811 0.748397 -0.022562 0.743625 0.316742 0.914736 -0.558093 -0.264549 0.054454 0.266577 -0.387957 0.367511 0.856508 -0.675881 0.283480 0.039709 0.088301 0.608998 -0.261376 -0.176793 0.108182 -0.166697 -0.585698 0.013718 -0.384529 -0.445241 0.477381 -0.348593 -0.792567 -0.016257 -0.470248 0.584504 -0.488154 
5 0.031673 0.064797 0.477157 -0.041814 -0.446029 0.878823 -0.114106 -0.470186 -0.329011 -0.261537 -0.688042 0.242329 0.674529 -0.431398 0.160165 -0.237227 0.467087 0.565874 -0.066132 -0.597567 0.221102 -0.172516 0.696783 -0.173952 0.508067 -0.094391 0.328992 -0.184782 -0.339912 0.482424 -0.482800 0.466141 0.048776 -0.371933 0.087443 0.058549 -0.630016 -0.624135 0.514447 -0.391551 -0.332138 0.520666 0.412138 0.262864 -0.297633 -0.038078 0.324938 -0.086760 -0.990631 -0.570864 -0.685060 -0.045005 0.679603 0.661211 -0.019780 0.549117 -0.269900 0.303273 -0.561850 -0.562159 -0.978739 -0.599024 -0.723595 -0.634059 -0.282456 -0.661462 -0.080876 -0.096367 0.330375 0.617931 -0.109096 -0.250952 -0.104333 -0.304876 0.128387 -0.527058 0.068030 0.378772 0.605777 0.089523 0.022077 -0.111263 -0.215464 0.425426 0.137664 -0.409765 -0.120709 -0.283507 -0.139312 0.324192 0.153471 0.090798 -0.026266 -0.289168 -0.396730 -0.510755 0.270421 0.267562 0.191346 -0.656284 
6 0.065818 -0.000266 -0.087863 -0.410529 -0.444902 0.942097 -0.009683 -0.063984 0.373008 -0.424014 -0.541443 -0.470066 0.315626 -0.025286 -0.023266 -0.254700 0.583827 -0.344015 -0.353325 -0.337668 0.430731 0.257190 0.525773 -0.136916 0.092221 0.252848 0.258585 -0.699138 -0.432583 -0.288023 0.145216 0.465366 -0.354268 -0.348595 0.209135 0.796625 0.069427 -0.104443 0.231435 -0.014591 -0.414561 -0.336305 0.177713 -0.012803 0.443360 0.387319 -0.398869 -0.386721 -0.500806 0.154207 -0.463441 0.434075 -0.132249 0.672631 -0.527032 0.162460 -0.134087 0.657816 0.084058 0.389440 -0.891345 -0.675303 -0.342406 0.279654 0.107206 -0.747808 0.417797 -0.465132 0.728929 0.091217 0.224380 -0.181307 0.758610 -0.087867 0.001590 0.295608 0.421037 0.494800 0.465609 0.079438 -0.533720 0.072172 -0.564469 0.460652 -0.612164 0.177779 -0.552340 0.047431 -0.448460 -0.659078 0.386527 0.389460 -0.346292 -0.036489 -0.456143 -0.665844 -0.119341 0.330226 0.548239 0.205153 
7 0.577821 -0.031064 0.649101 -0.343899 0.160625 0.710958 -0.661750 -0.644689 -0.384777 -0.228605 -0.547745 -0.246198 0.082583 -0.108718 0.528953 0.326757 0.491097 0.163217 -0.702217 0.494712 -0.615516 -0.289336 0.617939 0.269514 0.742040 -0.108830 0.086094 -0.992555 -0.341530 -0.410642 -0.166012 0.388245 0.148949 -0.304512 0.190598 0.197610 -0.274880 -0.784481 0.393116 -0.107529 -0.524890 0.508987 -0.452430 0.218934 -0.109780 0.083361 0.452484 0.108066 -0.589988 -0.292779 0.502594 -0.149049 0.474244 0.040836 0.311465 0.625332 -0.039087 -0.044933 0.562119 0.270572 -0.851062 0.364079 -0.473621 -0.176166 -0.700960 -0.435327 0.317383 0.127400 0.392381 0.065806 0.019523 -0.328631 -0.257668 -0.786406 -0.788361 0.310777 -0.189061 0.600849 0.639532 0.575575 -0.665166 0.394679 -0.020350 0.350336 -0.353530 -0.149862 0.056911 0.501147 -0.172534 -0.649203 -0.204409 0.390940 -0.037491 0.137855 -0.597755 0.114097 0.581840 0.346890 -0.018903 -0.498962 
8 -0.062621 -0.082731 0.508894 0.264403 -0.235296 0.811097 -0.117616 -0.369718 0.376114 0.182359 0.048061 0.238660 -0.020858 0.246808 0.531803 0.099669 0.404525 -0.045890 -0.549978 -0.578647 -0.541213 -0.508797 0.012741 -0.016565 0.182920 -0.129425 0.141715 -0.638394 -0.103263 -0.439392 0.257936 0.665532 -0.184425 -0.124690 -0.235149 0.511101 -0.691870 -0.661191 0.710736 0.493972 0.410160 0.232746 -0.799415 0.064739 -0.531331 0.641288 -0.285946 -0.588671 -0.202240 -0.431930 0.162462 0.654045 -0.341548 0.658612 -0.634513 0.688370 0.259920 0.467243 0.310507 -0.463917 -0.755278 -0.081551 -0.080415 0.133865 -0.462478 -0.366868 0.478275 0.228258 0.700908 -0.193895 0.504076 -0.359938 0.470582 -0.994985 0.171158 -0.560499 -0.708026 -0.267810 -0.198292 0.674601 -0.449210 0.293511 -0.515455 0.012926 0.487283 -0.227526 -0.324410 -0.117211 0.009394 -0.755173 -0.516469 -0.269439 0.337793 -0.373625 -0.789350 -0.084819 -0.017641 -0.204237 -0.381755 0.069500 
9 -0.090196 -0.423600 -0.149414 0.118619 0.176712 0.997834 0.050839 -0.212118 -0.014099 0.415397 -0.711940 -0.463615 0.126049 -0.182898 -0.083288 0.183365 0.064484 0.103053 -0.068362 -0.090431 -0.426557 -0.345964 0.194012 -0.397471 0.042903 0.342879 -0.137451 -0.413959 -0.411037 0.307567 -0.149833 0.405063 0.186703 -1.004067 -0.222226 0.421503 0.004603 -0.104894 0.655734 -0.407199 -0.253143 -0.054892 -0.458515 0.288722 -0.562222 0.313447 0.522204 0.200383 -0.219495 -0.091840 0.147251 0.036037 0.195467 0.060984 0.036839 0.554588 0.104093 0.072633 0.309326 -0.026663 -0.753211 0.134312 -0.546399 -0.537403 -0.436125 -0.226388 -0.006571 -0.024290 0.441643 0.542440 0.351261 -0.448063 0.606490 -0.397452 -0.570754 -0.280162 0.320714 -0.011938 0.478344 0.149024 -0.509744 -0.364928 -0.157658 0.325116 0.270139 -0.501211 0.208127 -0.291562 -0.665461 -0.224738 -0.436467 -0.329744 0.132156 -0.099667 -0.541378 -0.981011 -0.361759 0.071118 0.054377 0.120181 
10 -0.031221 0.209633 0.371706 -0.213059 -0.343420 0.365248 0.067999 -0.225654 -0.464375 -0.380055 -0.789671 -0.205962 0.413921 -0.747285 0.167067 -0.175337 0.705955 0.163780 -0.383501 -0.535789 0.122831 -0.027230 0.776470 0.080240 -0.308469 0.389890 0.437551 -0.366048 -0.562508 0.399706 0.011590 0.025716 0.171706 -0.117464 0.494705 0.878176 0.115645 -0.611558 0.533995 -0.297508 -0.219359 -0.200209 -0.386585 0.131845 -0.056961 0.020118 0.505783 -0.633046 -0.933517 -0.322864 0.340434 0.698219 -0.522372 -0.218649 -0.693573 -0.114686 0.359839 -0.036235 0.092317 0.391089 -0.920517 -0.074043 0.176175 -0.064127 -0.544219 -0.579009 0.071430 0.332160 0.240435 0.628646 0.693668 -0.233476 -0.147202 -0.810326 -0.441129 0.236434 -0.128452 -0.145961 0.299492 0.498968 -0.434138 -0.317407 0.200513 -0.304071 0.219547 0.119324 -0.347667 -0.518148 -0.273049 -0.247971 -0.060661 -0.079100 0.353202 -0.034062 -0.256612 -0.651390 0.309134 -0.312091 -0.126160 -0.143155 
11 0.403015 -0.302719 0.238036 0.264109 -0.347171 1.200113 0.360692 -0.524321 0.242314 0.155912 -0.170519 0.068695 0.308338 -0.722183 0.097970 0.472433 -0.031074 0.184824 -0.173025 -0.752018 0.190206 -0.287841 0.515905 -0.291515 0.375471 -0.291992 0.473726 -0.671732 -0.521093 0.587920 0.021357 -0.060467 -0.190856 -0.569644 -0.011812 0.336797 0.169810 -0.017675 -0.170407 -0.504423 -0.538151 -0.168343 -0.778580 0.699837 0.171818 0.482949 0.591531 -0.588083 -0.230655 -0.566429 -0.119521 0.008383 0.185419 0.312957 -0.579076 0.687505 0.050810 -0.221015 0.435301 0.160356 -0.627304 -0.402900 -0.717648 0.080973 -0.205996 -0.354748 -0.266043 0.098447 0.058637 0.755459 0.276604 -0.209448 0.843415 -0.493001 -0.486862 0.278197 0.410780 0.656058 -0.088311 0.182317 0.050708 -0.187754 -0.183623 0.685517 -0.426043 0.119673 -0.333272 0.153402 -0.151987 0.081735 -0.223298 0.364835 0.011710 0.554183 -0.762212 0.082070 0.093561 -0.334785 0.487898 -0.702678 
12 0.165476 -0.125086 0.420243 -0.137217 -0.197518 0.739690 -0.335282 -0.048359 0.108501 0.312432 -0.697795 -0.284429 0.621843 0.068509 0.294611 0.329477 -0.273775 -0.147875 -0.103463 -0.729311 -0.660191 -0.725546 0.360752 0.150375 0.195527 0.613356 -0.007606 -0.045593 -0.694490 0.482730 -0.628507 -0.038025 -0.417804 -1.028768 -0.202673 0.113643 0.249169 0.136899 -0.200032 -0.027540 -0.337559 -0.438754 -0.100392 0.722363 -0.189379 -0.188885 0.102303 -0.332531 -1.021358 0.001766 -0.203504 0.566757 -0.126313 0.471467 -0.047120 -0.144792 -0.273979 -0.332637 0.390231 -0.412972 -0.463590 -0.295012 -0.403837 -0.709587 0.101447 -0.759607 0.655538 -0.533270 0.064150 -0.445262 -0.346721 -0.647364 0.688044 -0.702802 -0.047528 -0.360678 0.100448 0.204588 -0.509011 0.586790 0.091359 0.571303 -0.192245 0.181974 -0.033204 -0.833108 -0.606673 -0.466161 -0.468380 -0.346336 0.314180 0.320696 -0.227064 0.103615 -0.622744 -0.073131 -0.293980 0.506110 0.334116 0.316281 
13 0.369049 -0.315323 -0.020341 -0.271360 -0.199866 1.221045 -0.024976 -0.531617 -0.467512 0.360462 -0.553259 -0.624194 0.391848 -0.428305 0.316549 0.151355 0.487763 0.190579 -0.406276 -0.041726 0.297248 -0.268884 0.455217 -0.161087 0.712380 -0.570254 -0.500955 -0.078422 0.312486 -0.063759 -0.377973 0.520058 -0.051490 -0.807949 0.633484 0.066457 -0.567948 0.052207 0.461651 0.139033 -0.569258 -0.502446 0.273767 0.078055 -0.026214 0.441973 0.484499 -0.299546 -0.631002 0.195363 -0.484871 0.306107 0.334685 -0.222862 -0.877770 0.468397 -0.681773 0.137829 -0.418793 0.204167 -0.183686 -0.066607 -0.632581 -0.526156 -0.316802 -0.597907 -0.130635 -0.441163 0.503196 -0.122361 -0.241811 -0.565962 0.242617 -0.274236 -0.152650 0.142779 0.088156 -0.313046 -0.438288 0.430362 -0.074113 -0.018899 -0.071625 0.159179 0.289959 -0.411401 -0.265623 0.325506 0.326417 -0.800365 0.177673 -0.192016 0.225267 -0.210518 -0.771829 0.017686 -0.190701 -0.418623 0.280642 -0.006380 
14 0.876825 -0.396675 0.638003 -0.460934 -0.599491 0.647187 0.211481 0.231531 0.581936 -0.427690 -0.429569 0.048072 0.219544 -0.091921 0.518487 -0.332492 0.363801 0.526654 0.091763 -0.581095 0.105075 -0.992529 0.200972 -0.572105 -0.217518 0.467507 0.341049 -0.871317 -0.636484 -0.137301 -0.789788 0.796718 0.564262 -0.754736 0.683164 0.578987 -0.383557 -0.144130 0.009654 -0.189593 0.204621 -0.232048 0.130958 0.709905 -0.300931 0.452640 0.423275 0.238970 -0.000708 -0.245270 0.215085 0.263520 0.245718 0.651794 -0.556122 0.134040 0.309542 0.300976 -0.336312 -0.020360 -0.679159 -0.220300 -0.411278 0.226472 0.269163 -0.440902 0.314737 -0.490573 0.194394 0.010132 0.600099 -0.087019 0.503410 -0.516146 -0.065605 -0.106114 -0.339552 0.277898 0.198696 0.677174 -0.198916 0.068638 -0.251065 0.673178 0.509585 0.066501 0.225745 -0.198026 -0.034766 -0.260298 0.218088 -0.576268 0.613148 0.454698 -0.022163 -0.139817 0.260659 0.306302 -0.022084 0.308591 
15 0.783638 -0.322817 0.130745 0.197352 0.099006 0.770795 -0.627467 0.341236 0.536444 -0.180600 -0.437854 0.295127 -0.253585 0.098900 -0.323781 0.327641 0.058294 0.544537 -0.545948 -0.759875 -0.209807 0.005771 0.528642 0.172678 0.721244 0.443717 -0.185116 -0.158134 -0.548185 0.534606 -0.546650 0.517886 0.311099 -0.032037 -0.298835 0.290208 -0.541732 -0.058187 -0.159973 -0.219002 -0.067768 -0.116135 -0.228879 0.753487 0.386614 0.344138 -0.096693 -0.019637 -1.162536 -0.499816 -0.353499 0.462994 -0.151578 0.805820 -0.111927 0.328203 -0.286923 0.425230 0.087542 -0.293641 -0.259998 -0.502430 0.076892 -0.089214 -0.481676 0.164760 -0.199634 -0.090410 0.283489 0.494455 0.042328 -0.159436 0.127118 -0.942537 -0.753471 0.122117 -0.434385 -0.115474 -0.177838 0.424442 -0.773500 -0.035675 -0.320302 0.701221 -0.292886 -0.168532 0.042188 -0.416404 -0.011508 -0.603318 -0.101095 -0.405763 0.773488 0.051826 -1.094219 -0.892019 -0.043672 0.317425 -0.052782 -0.095840 
16 0.377014 0.048245 0.126428 0.283597 -0.891581 1.280696 -0.187326 -0.616269 -0.320259 0.062429 -0.457068 -0.526532 0.746098 0.147034 0.009305 -0.105065 0.623047 0.328821 -0.026950 -0.430144 -0.437061 -0.648310 0.399464 -0.288801 0.037087 0.326958 -0.324406 -1.022001 -0.674422 -0.245847 0.112498 0.464413 0.321527 -0.370570 0.032711 -0.062820 0.331318 -0.507001 -0.283199 0.038325 0.076633 0.069383 -0.073041 -0.026466 0.333133 -0.133643 -0.455242 0.179341 -0.641450 0.356837 -0.370959 0.768457 -0.104712 -0.237854 0.197569 -0.233880 -0.589507 -0.173505 -0.350325 -0.472586 -0.824175 0.249117 -0.045135 0.213448 -0.105658 0.029502 -0.249686 0.167053 0.637252 0.408397 0.666700 -0.303321 0.303490 -0.556469 -0.748217 -0.198307 0.040076 0.529043 0.405164 0.678252 -0.330091 0.381918 0.173915 0.326986 0.513567 -0.151567 0.282956 0.133700 0.059090 -0.577827 0.399721 0.079029 0.385618 -0.398683 -0.003860 -0.872674 -0.583186 0.387548 -0.262624 0.315465 
17 0.474813 -0.082319 -0.005778 -0.485491 -0.765689 0.882794 -0.331779 0.479634 0.259630 0.137006 -0.611301 0.228534 -0.099082 -0.182146 -0.069119 -0.183497 0.720888 0.193685 0.287814 -0.450894 0.010932 -0.533714 0.790694 0.238709 0.112684 -0.464194 -0.016463 -0.504150 -0.308504 -0.443372 0.384812 0.361219 -0.119717 -0.102748 0.518687 0.272990 -0.015200 0.104869 0.420046 -0.265349 -0.220657 -0.140563 -0.651121 0.753520 -0.574486 0.591759 -0.057223 0.399895 -0.424214 0.185930 0.523296 0.164495 0.280101 0.133315 0.196972 0.546790 -0.601397 0.052749 -0.432886 -0.365601 -1.012323 -0.413124 -0.024813 -0.576927 -0.669595 -0.409032 0.501159 -0.402555 0.413202 0.060719 -0.186391 -0.628933 0.442430 -0.613490 -0.666399 -0.109325 -0.645665 0.140163 -0.112840 -0.426626 -0.307557 -0.396840 0.050257 -0.433348 0.046923 -0.150218 -0.522738 -0.132653 -0.758799 -0.398524 0.208575 -0.728649 0.348359 0.257888 -0.355083 0.003933 -0.102665 0.403315 0.252283 -0.697939 
18 -0.177553 -0.489225 -0.271510 0.125706 0.276994 1.069135 0.100095 -0.222105 -0.007251 0.516374 -0.803033 -0.578001 0.123750 -0.126982 -0.102237 0.239616 0.002349 0.062009 -0.028917 -0.049860 -0.491969 -0.311542 0.135201 -0.495038 0.005941 0.441065 -0.156729 -0.378390 -0.433950 0.379695 -0.152736 0.407237 0.215820 -1.123756 -0.278753 0.415183 0.004961 -0.071885 0.739278 -0.494234 -0.285506 -0.062024 -0.525183 0.274555 -0.679798 0.313141 0.585459 0.275714 -0.111629 -0.148586 0.227526 -0.036522 0.227065 -0.013029 0.156127 0.638016 0.176717 0.103886 0.367060 0.011495 -0.808145 0.219555 -0.626684 -0.639563 -0.450941 -0.222309 -0.034958 -0.003430 0.462732 0.595717 0.377270 -0.474554 0.640592 -0.344852 -0.651190 -0.311884 0.414123 -0.081292 0.573899 0.128657 -0.557172 -0.447953 -0.133989 0.329754 0.362516 -0.523458 0.350412 -0.366053 -0.767975 -0.252936 -0.512388 -0.411300 0.107621 -0.120122 -0.552478 -1.102518 -0.378418 0.067535 0.077654 0.197974 
19 0.748025 0.252352 0.320391 -0.079945 -0.301518 0.984355 -0.552208 0.013042 -0.392172 0.060221 -0.112097 -0.248134 0.178056 -0.584097 0.207587 0.194366 0.157380 0.588569 -0.616058 -0.473175 0.163279 0.108696 0.189884 0.059526 0.007620 0.435745 -0.413235 -0.685397 -0.024558 0.096802 -0.239856 0.394838 0.612029 -0.377541 0.022017 0.808826 -0.026190 -0.678292 0.352708 0.143857 -0.131444 0.386690 -0.182044 -0.006372 -0.227456 0.063895 0.036920 -0.358212 -0.851685 0.411965 -0.350796 0.163200 -0.214131 0.480665 -0.234259 0.084911 0.071437 0.217849 -0.321598 0.214188 -0.011307 -0.014940 -0.507978 0.317724 -0.602405 -0.146091 0.053974 -0.115118 0.059771 -0.130484 0.763592 -0.469067 0.873784 -0.347266 -0.150750 0.072748 0.119295 0.298687 -0.368517 -0.076858 -0.510101 0.032936 -0.180773 0.045563 -0.072424 -0.530723 -0.129326 0.024925 -0.412383 -0.324343 -0.167855 0.345827 0.228224 -0.037941 -0.749781 -0.012870 -0.206044 0.117377 -0.140696 -0.137832 
20 -0.233796 -0.398160 -0.250386 0.473108 -0.247953 1.194832 0.030213 0.128479 0.281598 0.255001 0.286476 -0.505964 0.389347 -0.509403 -0.235762 0.692739 -0.176780 -0.558589 0.125966 0.184920 0.307996 -1.071226 0.839773 -0.067062 -0.157719 0.666506 -0.228259 -0.756882 0.391811 -0.204695 -0.491257 0.646891 0.211633 -1.069348 -0.349207 0.185534 -0.607839 -0.860693 0.897061 -0.675673 -0.480388 -0.392827 -0.196659 0.078947 0.392211 -0.508935 -0.342256 -0.103923 -0.202146 0.239289 0.109132 0.937465 -0.412442 0.219771 -0.443962 0.165453 0.198543 0.261860 0.073091 0.043491 -0.719473 -0.093257 0.377246 -0.257404 0.196465 0.170649 0.471095 -0.315325 0.032474 0.351017 0.556331 0.246017 0.434909 -0.431508 -0.913262 -0.142048 -0.607786 -0.275737 0.674707 0.765856 -0.247234 -0.082301 -0.017814 0.675523 -0.080408 -0.128909 0.169546 0.137800 -0.626641 0.074767 0.653867 0.092869 0.713126 0.611967 -1.169498 0.029864 0.481189 -0.482072 -0.068439 -0.676717 
21 0.071291 -0.286783 0.472300 0.163230 -0.594875 1.281220 -0.031996 -0.509589 -0.232555 0.076924 0.203868 0.369852 0.233863 0.129547 0.608827 -0.227007 -0.180760 -0.163471 -0.027735 0.001807 -0.422682 -0.837879 0.610576 0.455994 -0.008000 -0.086338 -0.151040 -0.349781 0.126911 0.177441 0.180339 0.428486 -0.204194 -0.985120 0.306156 -0.087154 0.531227 -0.774552 0.434967 -0.254291 0.374502 0.740751 0.079602 0.259660 0.062620 0.739272 -0.089336 0.077050 -0.572653 0.018821 -0.203041 0.283661 0.056081 0.895918 0.094652 0.224676 0.378724 0.495434 0.378727 -0.028339 0.134345 -0.003805 -0.387324 -0.564825 -0.104169 -0.469087 -0.335466 0.240201 0.196594 0.511684 -0.147325 -0.314229 -0.331166 -0.888027 -0.543998 -0.562991 -0.127764 0.406889 -0.452084 0.009408 -0.272409 -0.303799 -0.170282 0.823090 -0.355527 -0.632678 -0.432279 0.058143 -0.129721 -0.499952 -0.140563 -0.238770 -0.434080 0.344133 -0.545672 -0.929740 -0.056975 -0.498333 0.554689 0.195289 
22 -0.082852 -0.081844 0.389528 -0.331550 0.129688 0.941474 -0.557574 0.000224 0.154719 0.205860 -0.362649 0.059773 0.503011 -0.533520 -0.448301 -0.526963 -0.025427 0.241732 -0.569165 0.267237 -0.365526 -0.721776 0.676722 0.438244 -0.181433 0.333961 -0.499638 -0.650039 -0.414216 0.274512 -0.234443 0.629623 -0.486952 -0.353998 0.069238 -0.174360 -0.210463 -0.564213 0.124410 -0.294656 -0.756666 -0.011764 0.062757 0.563925 0.347509 0.327234 0.408359 -0.249915 -0.313235 0.317864 -0.038811 0.687843 0.282963 0.181265 -0.639511 0.280549 -0.499197 0.528748 -0.421699 -0.472075 -0.328487 0.019646 -0.475477 0.075302 -0.507373 0.068506 0.080844 0.372370 0.423867 0.569299 0.615189 -0.133534 0.210395 -0.508451 0.132399 0.112458 -0.613671 -0.395705 -0.223391 0.460148 -0.132153 0.102057 -0.456341 -0.022646 0.042104 -0.564727 0.237064 0.300954 -0.625627 -0.644687 -0.552952 0.452124 -0.331183 0.118828 -0.339540 -0.693641 0.068228 0.469260 0.443738 -0.136320 
23 0.489684 0.168692 0.809145 -0.248082 -0.427818 0.500124 -0.079017 -0.080028 -0.449570 0.371006 -0.708968 0.298816 0.097289 -0.400244 -0.138287 -0.047477 0.006242 -0.165923 -0.491350 -0.139449 0.245383 -0.443736 -0.115433 -0.107636 0.326572 -0.339443 -0.111117 -0.290710 -0.687213 0.213915 -0.747365 0.176470 0.402555 0.171190 0.376262 -0.106033 -0.302867 -0.503681 -0.137527 0.249463 0.255101 -0.022972 -0.012828 0.705870 0.144087 0.425341 0.024451 -0.022489 -1.115987 0.315803 0.114115 0.146115 0.413595 0.719422 -0.551683 0.731324 0.057933 -0.413348 0.358713 0.355902 -0.642383 -0.331175 -0.202182 0.327572 -0.121076 -0.500635 0.453790 -0.454729 0.467803 0.783702 0.680400 0.160880 0.070051 -0.744066 0.147414 -0.091435 0.220551 -0.525528 0.170698 0.041120 -1.028885 0.455185 -0.501298 0.285420 -0.397237 -0.576931 -0.610695 0.470401 -0.631538 0.102049 0.080597 0.214539 -0.295702 0.372511 -0.720534 -0.358278 0.012185 0.131805 -0.107480 0.036976 
24 -0.085142 0.581541 -0.070882 -0.092411 -0.386404 1.133032 -0.087133 0.273556 -0.484092 0.471780 -0.485242 -0.433470 0.512192 -0.761479 0.223136 0.399052 0.696258 0.558987 -0.025941 -0.174337 -0.156965 0.155950 0.475667 -0.079903 0.392809 0.577738 -0.284086 -0.858337 -0.320901 0.174363 -0.169098 0.117908 0.318781 -0.304295 0.038360 0.545593 -0.023762 -0.595048 -0.244720 -0.511950 -0.202795 0.368732 0.031139 0.724319 -0.402254 0.497250 0.238880 0.162104 -0.902541 -0.319461 0.152436 0.042081 -0.566326 0.340585 -0.669102 0.171941 -0.149867 -0.527138 0.361367 -0.476027 -0.393282 -0.619588 -0.195170 -0.688721 0.398786 -0.098307 0.350243 -0.121794 -0.277723 0.541492 0.539033 0.135535 0.386413 -0.244068 -0.427050 -0.575916 -0.038902 -0.302497 0.176653 0.603123 -0.224410 -0.201914 0.301779 0.551840 -0.453556 -1.094194 0.618114 -0.553291 -0.195999 -0.853381 0.170223 0.193266 0.505297 0.716789 -0.307239 0.147348 0.285451 -0.429088 0.220180 -0.711162 
25 -0.051996 0.453038 0.116841 -0.568877 0.209037 0.683881 -0.430091 0.438825 -0.028170 -0.571101 -0.488531 -0.013648 -0.271656 0.279247 0.091540 0.225908 -0.187655 -0.280757 0.103617 -0.123334 -0.336740 0.053739 0.925072 -0.112010 0.675441 0.579045 0.221770 -0.719522 0.113289 0.512403 0.397624 0.757289 0.559009 -0.685359 0.476179 0.598442 0.429057 -0.336948 0.126572 0.107667 -0.221153 -0.068505 -0.015081 0.748772 -0.503864 0.050937 0.352374 -0.271626 -0.025793 -0.330514 0.498035 0.212202 -0.266200 0.790263 0.058991 0.389417 -0.643946 -0.059597 -0.107413 -0.041515 -0.018011 -0.449653 -0.424894 0.330155 0.171288 -0.674195 0.658097 0.017282 0.442853 0.228618 0.732751 -0.720792 0.181115 -0.592254 0.321479 -0.112174 -0.287343 0.232090 0.263071 0.366383 -0.829759 -0.443699 0.070056 0.834810 -0.225345 -0.618497 -0.182176 0.584427 -0.075274 0.045600 -0.375511 0.239684 0.698944 0.468080 -0.692032 -0.972598 -0.692601 -0.303777 -0.054445 -0.344211 
26 -0.021483 0.091939 0.535656 -0.293379 -0.458615 0.985471 -0.715018 -0.092934 -0.489776 0.130704 -0.375056 -0.548571 0.404923 -0.249737 0.547338 -0.124219 0.340928 0.483749 -0.339748 0.232398 -0.501589 -0.598852 0.274762 -0.588672 -0.445420 -0.634713 0.000840 -0.158515 -0.719647 -0.396094 0.208500 0.858296 -0.391608 -0.668607 -0.190239 0.728536 0.469623 -0.186652 0.132001 -0.341412 0.081114 -0.258114 -0.080500 0.547015 -0.230492 0.305213 0.411652 -0.266206 -0.838613 0.028491 -0.170963 0.086588 -0.085150 0.509543 -0.355808 0.237140 0.158295 0.562439 -0.028888 -0.296306 -1.083358 -0.355665 0.118226 0.247063 -0.269663 0.124357 0.028181 -0.336461 -0.116676 0.008168 -0.116181 0.285354 0.684930 0.006370 0.126213 -0.037220 -0.051416 -0.176759 0.114412 -0.186509 -0.252110 0.296618 0.157897 0.661075 -0.014741 -0.646316 -0.462690 -0.428779 -0.387849 -0.510069 -0.313874 -0.137649 0.492320 -0.501647 -0.237081 -0.380730 0.191204 -0.089492 -0.121146 -0.524153 
27 -0.270069 -0.124165 -0.047598 -0.183225 0.024626 0.968925 -0.206323 -0.062383 0.112095 0.105838 0.167598 0.108276 -0.181138 -0.725590 0.414113 -0.102290 0.424805 0.721093 0.304596 -0.384731 -0.786405 -0.332377 0.882789 -0.004747 0.238310 -0.004413 -0.050628 -0.957620 -0.226312 -0.244936 -0.829656 0.686996 0.129816 -0.169104 0.041108 0.603860 0.649502 -0.020603 0.521874 0.135214 0.237160 0.035298 -0.098677 -0.117433 0.329788 0.555274 0.662542 -0.101872 -0.978378 0.268733 -0.339591 0.945690 0.234057 0.301481 -0.600589 0.271443 -0.103241 -0.307291 0.612200 0.183028 -0.507302 -0.505926 -0.484396 -0.662442 -0.322868 0.466120 -0.040870 -0.401837 0.184517 0.827822 0.238619 -0.599966 0.161058 -0.228736 0.357018 0.355371 -0.439950 -0.280582 -0.351074 -0.030427 -0.375098 -0.376347 -0.467312 0.285053 -0.063056 0.129862 0.047738 -0.241550 -0.662588 -0.342336 0.019968 -0.399323 0.503124 -0.089183 -0.597899 -0.017930 -0.263203 -0.602154 0.520734 0.208150 
28 0.820126 0.315460 0.274696 -0.069207 -0.287919 1.007821 -0.620265 0.018065 -0.453839 0.056788 -0.059013 -0.279593 0.186133 -0.601078 0.227564 0.222323 0.103759 0.631191 -0.671164 -0.503504 0.191746 0.169671 0.136415 0.071119 -0.019024 0.506339 -0.464315 -0.699408 0.025703 0.107854 -0.234199 0.369316 0.722990 -0.327720 -0.005985 0.864417 -0.014836 -0.708671 0.345061 0.160831 -0.099130 0.433046 -0.190850 -0.074795 -0.250733 0.024567 -0.006833 -0.372791 -0.842863 0.469157 -0.398114 0.123358 -0.240177 0.510042 -0.197596 0.018827 0.130942 0.256771 -0.368774 0.279188 0.084174 0.050957 -0.516001 0.404990 -0.660409 -0.111713 0.040932 -0.126284 -0.020590 -0.211674 0.840486 -0.510840 0.943530 -0.295090 -0.134058 0.100195 0.147051 0.304398 -0.445918 -0.128833 -0.516786 0.043113 -0.181148 0.004126 -0.063901 -0.541618 -0.088641 0.028000 -0.424800 -0.332855 -0.201659 0.401656 0.213443 -0.037371 -0.781505 0.079942 -0.193665 0.111503 -0.212567 -0.109535 
29 0.035303 -0.322277 0.615419 0.119053 -0.762626 0.653562 0.054253 -0.199076 -0.379429 0.200409 -0.628439 -0.411853 -0.036858 -0.531972 -0.178390 0.287379 0.132064 0.137808 -0.237923 0.188171 -0.400581 0.282117 0.629596 -0.066239 0.389384 0.099103 -0.015587 -0.620535 -0.151853 -0.108669 -0.426604 0.603798 0.116376 -0.751803 -0.016346 -0.057396 0.313701 -0.652084 0.488993 -0.182514 -0.191512 -0.247173 -0.145776 0.662367 0.065182 0.592671 -0.164865 -0.357399 -0.601357 0.001445 -0.412535 0.074795 -0.052091 0.677429 -0.256877 0.581273 -0.422459 0.333757 0.224566 -0.368169 -0.481551 -0.214085 0.177112 -0.238439 -0.081911 -0.273590 0.272020 -0.569809 0.568721 0.422472 0.473419 -0.117393 0.238038 -0.606718 0.010578 0.121042 0.043499 0.398972 -0.389879 0.381805 -0.534255 -0.135153 0.069407 0.240765 0.055617 -0.121597 -0.005658 -0.252770 0.166667 0.158681 0.420332 -0.213096 0.118628 0.005593 -0.494583 -0.439901 0.083788 0.120932 0.446394 -0.507495 
30 0.259095 -0.370258 0.736877 0.419452 -0.517719 0.421577 0.055330 -0.276185 0.021784 -0.165921 -0.160867 0.046978 0.525975 -0.570502 0.274812 -0.067692 -0.274212 0.613192 -0.690766 0.103919 0.313637 0.182252 0.381620 0.169368 0.304085 -0.419955 -0.141368 -0.844833 0.082461 -0.108208 0.031169 -0.134420 0.162694 -0.512326 0.679106 -0.045923 -0.222587 0.047726 0.671523 0.019479 0.105297 0.478038 -0.641351 0.958049 -0.468061 0.309557 -0.174899 0.191502 -0.347914 0.157459 -0.121466 0.929878 -0.256989 -0.148200 -0.638452 0.541945 -0.463627 -0.018929 -0.363511 -0.536091 -0.827010 -0.515767 0.178055 -0.347826 -0.639708 0.016145 0.651213 0.000812 0.516999 0.098584 0.769412 -0.532921 0.131748 -0.777869 0.179254 -0.424250 0.378640 0.682352 0.587561 0.115053 -0.362835 0.010223 0.420295 0.100778 -0.629023 -0.715128 -0.456549 0.374057 0.450629 -0.066285 -0.106233 -0.222526 -0.410218 -0.072036 -0.750584 -0.663729 -0.309130 -0.457738 -0.385939 0.206255 
31 0.663683 -0.295920 0.258823 0.159036 0.023217 0.754654 0.247923 0.093428 -0.430041 -0.391185 -0.776956 0.386476 0.069338 -0.462946 0.069640 -0.196771 0.718595 0.600646 -0.507555 -0.192750 0.039457 -0.719997 0.468340 -0.491322 0.252410 -0.066929 0.026737 -0.162191 -0.166585 0.324633 -0.086221 -0.284776 0.030262 -0.846462 0.576490 0.822677 -0.111656 0.089540 0.048246 0.306681 0.284584 0.521736 -0.020991 -0.103832 0.113208 0.237308 0.372988 0.392411 -0.082073 -0.268303 -0.077989 0.833601 -0.093898 0.235742 -0.040512 -0.005213 -0.592699 0.293867 -0.128807 -0.155767 -0.396723 -0.330203 -0.648094 0.298234 0.161302 -0.218218 -0.292182 -0.441826 0.466522 0.684202 -0.362350 -0.740547 0.880962 -0.265448 -0.475004 -0.078016 -0.469596 0.185891 -0.157467 0.300582 -0.161555 0.621047 0.388487 -0.012663 -0.464825 -0.262858 -0.715303 -0.385590 -0.485819 -0.504866 -0.075129 0.402269 -0.095209 0.460580 -0.946929 -0.875358 0.179473 -0.285159 -0.298868 -0.136026 
32 0.376956 0.053715 0.196428 0.315942 -0.251228 0.684018 0.375125 -0.139542 0.160330 0.485345 -0.446820 0.002521 0.082551 -0.925991 -0.160806 -0.441614 0.802242 -0.062433 0.419238 -0.413700 0.098913 0.257383 0.878592 0.017121 -0.322740 0.519991 0.316945 -0.124742 -0.068965 -0.049650 -0.203868 0.729170 0.057957 -0.818117 0.484426 0.623721 0.110234 -0.987782 0.481815 0.193022 0.420137 0.468077 -0.186054 -0.191719 -0.344863 -0.070963 0.374953 -0.016921 -0.129971 0.005009 -0.025416 -0.233613 0.379754 0.816163 -0.842517 -0.037743 -0.094668 -0.445642 0.514611 -0.496167 -0.613330 0.274678 -0.006331 0.296518 0.041411 0.060562 -0.140575 0.331674 0.151797 0.025605 0.446219 -0.237517 1.091348 -0.225147 0.368951 -0.587473 0.038134 0.672122 0.030839 1.005975 -0.804542 0.116972 0.343700 0.223806 -0.194453 -0.236009 -0.167623 0.020592 -0.198664 -0.116706 0.481185 -0.306490 -0.266038 -0.022659 -0.492938 -0.746469 -0.635203 -0.046642 0.243796 0.070652 
33 0.127223 -0.341719 0.571734 0.344540 0.130666 0.420775 0.394979 -0.497513 0.030351 -0.319917 -0.680019 -0.173234 0.438506 -0.500711 0.450526 0.427004 0.599885 -0.095008 0.007338 -0.812097 -0.426018 -0.612003 0.284665 0.404444 0.816185 0.349732 -0.081993 -0.772672 -0.556465 0.576520 -0.450446 0.917981 -0.528976 -0.542753 0.610870 0.705231 0.099710 -0.028074 0.579093 -0.020439 -0.057535 -0.161665 -0.411989 0.636821 0.300549 0.233435 -0.177790 -0.244279 -0.337721 -0.058507 0.169435 0.449357 0.339448 0.147461 -0.122346 0.131200 -0.450661 -0.173956 -0.159060 0.073961 -0.199887 -0.562673 -0.079604 -0.612936 -0.215552 0.227102 -0.286142 -0.248193 0.442932 0.110555 0.178468 -0.157739 0.168715 -0.530210 -0.371423 -0.088272 0.184291 0.435745 0.159866 0.177211 -0.625744 -0.209775 -0.592451 -0.004807 0.423936 -0.654115 -0.280245 0.557474 0.034075 -0.125918 0.347989 -0.390293 0.109684 0.645500 -0.219371 -0.725100 -0.009702 -0.165216 -0.278182 -0.488157 
34 0.326592 -0.472145 0.376510 -0.072971 -0.397631 0.922472 -0.397170 0.365744 -0.246234 -0.252024 -0.361982 0.195012 -0.179802 0.002031 0.497499 0.071548 0.667126 -0.210749 -0.566567 -0.096560 0.038872 -0.260745 -0.006790 0.258746 0.413642 -0.050772 0.332245 -0.214929 -0.430388 -0.310367 -0.186438 0.772471 -0.514249 -0.029979 0.471872 0.710534 -0.130298 -0.694282 0.410256 -0.218760 -0.216550 0.026352 -0.518796 0.428621 0.024415 -0.168885 0.550929 0.111370 -0.967100 0.260211 0.350514 0.809230 -0.002462 0.389117 -0.043564 0.200819 -0.237586 0.227661 -0.280141 -0.429846 -0.562192 -0.475250 -0.604202 -0.612927 -0.629028 -0.333082 -0.334191 0.359921 0.074069 0.536363 0.314976 -0.469569 0.635770 -0.247369 0.164379 0.544479 0.459317 0.158018 -0.168804 0.209660 0.182780 -0.284071 -0.352279 0.748010 -0.546970 -0.831499 -0.152236 0.004563 0.142460 -0.185479 0.168510 -0.266348 -0.048742 0.449880 -1.016887 -0.078788 -0.480841 0.428802 0.296866 -0.099904 
35 0.199514 0.192028 -0.221743 -0.229234 -0.474034 1.059287 -0.276837 -0.153734 0.400561 -0.105667 0.108817 0.221598 -0.293710 -0.011005 -0.213467 -0.395841 0.226755 0.632331 -0.765540 0.255359 -0.500159 -0.319132 0.254929 0.025768 0.386322 -0.362776 0.016780 -0.838480 -0.095740 -0.217254 0.083026 -0.035061 -0.409240 -0.137346 0.627174 0.214470 0.577960 -0.798632 -0.182189 -0.275444 -0.578729 -0.331410 -0.438980 0.436899 -0.203995 0.154179 -0.301672 0.000536 -0.793766 -0.229236 -0.705874 0.740890 -0.213933 0.286472 -0.330073 -0.325166 -0.087329 -0.351157 0.431684 -0.270395 -0.520696 -0.255395 -0.018727 0.299834 -0.271932 -0.425716 0.507674 -0.021007 -0.080993 0.051798 0.380282 -0.322402 0.865305 -0.731414 -0.227469 -0.022490 -0.206951 -0.267748 -0.291453 0.681958 -0.747075 0.036467 0.067300 0.530546 -0.060061 0.107116 -0.517000 -0.443641 -0.469510 -0.003304 0.006775 0.156602 -0.117271 0.645787 -0.899895 -0.281589 -0.068100 0.331184 0.006647 -0.800236 
36 0.210350 -0.492208 0.102063 -0.239300 -0.566533 1.187376 -0.234426 -0.452106 0.336578 0.029666 -0.661818 -0.183939 0.473029 0.045786 -0.163748 -0.157165 0.206043 -0.518800 -0.429684 -0.606175 0.485218 0.352247 -0.128637 -0.183285 0.681260 0.041446 -0.342217 -0.831632 -0.149777 0.244704 0.106281 0.556810 0.213798 -0.834869 0.218093 -0.215860 0.176244 -0.770104 0.197665 0.203997 -0.575234 0.680192 -0.410627 -0.237612 -0.415917 -0.500289 0.507763 0.250623 -0.085765 0.068989 0.257592 0.571290 0.080109 0.187758 -0.148237 0.927951 -0.209837 0.628707 -0.126707 0.307991 -0.910100 -0.116064 0.387701 -0.581635 0.109451 -0.706779 0.102823 0.437871 0.558985 -0.299336 0.432841 -0.723623 0.102121 -0.585362 -0.690821 -0.068197 -0.288889 -0.135422 -0.177238 0.878850 0.280411 -0.045344 -0.050594 0.555360 0.010290 -0.039438 -0.844597 -0.512882 -0.371568 -0.234912 -0.097776 0.184513 0.374190 0.625629 -0.739327 -0.268059 -0.262154 -0.186771 0.340302 -0.509127 
37 0.808369 0.321112 0.335167 0.108180 0.008124 0.675964 0.059170 -0.183107 -0.494975 -0.108247 0.231066 0.279250 0.675690 -0.140664 0.068081 0.565532 0.602664 -0.321561 -0.153805 -0.617660 0.072010 -0.404236 0.669054 -0.528052 0.148387 -0.341821 -0.211360 -0.922066 -0.312584 -0.097070 -0.250343 0.556238 -0.518308 -0.671495 -0.194949 0.633921 -0.543937 -0.909049 -0.163834 0.109381 0.230051 0.409116 -0.706627 0.597650 0.036551 0.679788 -0.017859 0.172952 -0.732520 0.027274 0.461313 0.204572 0.337299 0.101863 -0.881403 0.910516 0.447578 0.247614 0.339901 -0.546099 -0.306421 -0.198010 0.197593 -0.720343 0.203351 0.010731 0.598442 -0.581350 0.013051 -0.307252 -0.245351 0.116706 0.454377 -0.307119 -0.358252 0.260348 0.355272 0.308218 -0.362794 0.650702 -0.161480 0.005056 -0.189841 0.507733 -0.462690 0.238865 -0.020389 0.502747 -0.366796 -0.193286 0.210856 -0.377474 -0.134749 -0.251785 -0.544827 -0.857443 -0.099076 0.502753 -0.025412 0.042416 
38 -0.065795 -0.351145 0.653339 0.144933 -0.864863 0.649156 0.106487 -0.231517 -0.479174 0.261045 -0.683566 -0.504803 -0.038225 -0.576313 -0.239690 0.365287 0.050029 0.073239 -0.256744 0.278620 -0.481838 0.444434 0.679094 -0.094348 0.433279 0.135122 -0.019343 -0.654877 -0.077587 -0.117330 -0.499893 0.657046 0.123222 -0.831402 -0.037491 -0.182549 0.408875 -0.729008 0.536750 -0.218516 -0.205666 -0.341087 -0.175673 0.767651 0.103509 0.687272 -0.272073 -0.396972 -0.578543 -0.021445 -0.467903 -0.006273 -0.073160 0.743878 -0.224734 0.673423 -0.449261 0.403249 0.270812 -0.416562 -0.493589 -0.212917 0.269742 -0.299007 -0.035284 -0.256583 0.290269 -0.675086 0.627951 0.475329 0.533367 -0.057048 0.182447 -0.618947 0.050444 0.169292 0.095920 0.440520 -0.506085 0.407619 -0.567200 -0.186107 0.164780 0.215500 0.110868 -0.084906 0.133733 -0.362964 0.225875 0.207612 0.500197 -0.248505 0.126580 0.023025 -0.501121 -0.461725 0.165227 0.115219 0.496053 -0.578597 
39 -0.009875 0.229748 0.199147 -0.224361 -0.195876 1.021881 0.390969 -0.355515 -0.522171 -0.240430 -0.582679 -0.172895 0.475145 0.181686 -0.403031 -0.036182 0.463329 0.590493 0.195689 -0.002404 -0.602591 -0.149400 0.112251 -0.369000 0.313494 0.394848 0.046687 -0.564392 -0.261160 -0.216415 -0.349986 -0.055153 -0.132937 -0.761132 0.299439 0.460076 -0.215332 -0.032777 0.431484 -0.270475 -0.306650 0.109500 -0.573550 -0.173775 -0.115120 0.173689 0.587412 0.330140 -0.449054 0.109907 -0.194529 0.593897 0.554809 0.620494 -0.707136 0.548437 -0.379256 0.084802 -0.255638 0.180786 -0.803151 -0.611118 -0.031016 0.193902 -0.328165 -0.396709 0.243267 0.018431 -0.146958 -0.411922 0.477746 -0.024818 0.124481 -0.950274 0.050422 0.028793 -0.087853 0.111419 -0.320894 -0.045733 -0.256776 -0.312589 -0.459475 0.567257 -0.528026 -0.284925 -0.064577 0.483849 -0.457119 -0.331343 -0.336777 -0.463857 -0.231008 0.243868 -0.904762 -0.273625 0.103740 -0.030519 -0.135244 -0.491487 
40 0.395773 -0.416335 0.485945 -0.404179 0.139619 0.863062 -0.457341 -0.034289 -0.158824 -0.238976 -0.500739 -0.467344 -0.255230 0.194643 0.478569 -0.375466 0.232279 0.234204 -0.354194 -0.166446 -0.106856 -0.235333 0.827450 0.074190 0.341897 -0.193845 -0.504188 -0.764537 0.023886 0.599569 -0.589071 0.659000 0.459510 -0.429459 0.614465 0.072885 0.197739 -0.436026 0.007537 0.057998 -0.277534 -0.596605 -0.621448 0.162031 0.206135 0.515264 -0.386132 -0.586312 -0.089740 -0.202491 0.025116 -0.154093 -0.012921 -0.467371 -0.857516 0.483007 0.054058 0.567517 0.065155 -0.785103 -0.624715 -0.406021 -0.508352 -0.311890 -0.333289 -0.293689 -0.005607 0.508948 -0.337710 0.562128 -0.138434 0.241619 0.549133 -0.259867 0.245001 -0.657450 0.119595 0.411121 0.243390 -0.082935 -0.718500 0.586347 0.160790 -0.158889 0.286021 -0.445514 -0.677702 -0.288429 -0.717141 0.258831 0.282321 -0.204449 0.008783 0.367834 -0.699765 -0.735389 -0.825848 -0.315777 0.472088 -0.447650 
41 0.481920 0.331371 0.406159 -0.445657 0.072075 0.827375 -0.299521 -0.047292 -0.314281 0.433995 -0.499446 -0.305058 -0.262826 -0.556597 0.517742 -0.064600 0.793166 0.530058 0.057868 -0.663264 0.029744 -0.196913 0.673275 0.457522 0.706510 0.021279 -0.322092 -0.296289 -0.597373 0.047364 0.099927 -0.176097 -0.343678 -0.046439 -0.249855 -0.141157 -0.006664 -0.459421 0.499317 0.149442 0.183020 -0.306197 -0.093667 0.050196 -0.398298 0.125645 0.520192 -0.442222 -0.442980 0.327991 -0.638457 0.974083 -0.333503 0.596659 0.024502 0.973877 -0.539121 -0.098126 -0.122859 -0.693605 -0.251348 0.210944 0.146496 -0.801531 0.082152 0.005009 -0.172972 0.124362 0.074461 0.221328 0.627934 -0.443805 0.270286 -0.905250 0.039316 -0.225197 -0.520652 0.762759 0.420479 0.338743 -0.381278 -0.241821 -0.038470 0.328200 -0.166725 -0.443845 -0.492325 -0.260642 -0.265212 -0.457985 -0.320413 0.305421 -0.003529 0.684534 0.013993 -0.526290 0.032546 0.225304 -0.593490 -0.197316 
42 -0.004128 -0.614781 0.232174 -0.332576 -0.584247 0.505320 0.498194 -0.195319 -0.190432 0.064413 -0.232253 0.287570 -0.492023 0.138784 0.215913 0.281849 -0.038827 0.414441 -0.764451 -0.346387 0.206484 -0.357570 0.817540 -0.606465 -0.473707 0.388881 -0.410888 -0.040369 -0.591760 0.294858 -0.130526 0.297555 -0.279530 -0.666835 0.753774 0.129193 -0.080918 -0.214575 0.431551 -0.029501 -0.314526 0.401779 -0.356913 0.099006 -0.631918 0.456478 0.388969 -0.470856 -0.640289 0.133234 0.419064 0.799789 0.007842 0.590110 0.040102 0.092224 -0.656845 -0.362121 0.538877 0.291509 -0.203046 -0.392406 -0.051118 0.042780 -0.631100 0.095136 0.048085 -0.367131 0.737282 -0.020468 0.662368 0.325074 0.767856 -1.007937 -0.472386 -0.118726 -0.328044 0.111066 0.625573 0.023937 -0.475444 -0.034322 -0.631656 0.704194 -0.262757 -0.544438 -0.054118 -0.345204 -0.187018 -0.066710 0.247578 0.392269 0.148234 0.367574 0.119075 -0.627502 -0.093975 0.419575 0.107165 -0.775546 
43 0.759376 0.086499 0.006750 0.107907 -0.422232 0.467118 -0.200281 -0.399801 -0.362078 -0.382467 -0.272856 -0.060370 -0.158878 -0.247527 0.039120 -0.501797 0.230050 0.386780 -0.718721 -0.153381 0.005928 -0.079923 0.456759 -0.115622 0.592209 -0.040752 -0.118190 -1.006520 0.201028 0.258177 -0.477780 0.942959 0.592495 -0.591752 -0.209775 0.579405 -0.132365 -0.364970 0.130712 -0.298594 -0.145840 -0.256932 0.026162 0.291091 -0.419735 -0.266658 0.264271 -0.058578 0.033143 0.432543 0.236800 0.712618 0.324968 0.706096 0.063622 0.732233 -0.396419 -0.590759 -0.255649 -0.253376 -0.889367 0.291384 -0.197985 -0.233656 -0.539135 -0.338035 -0.178448 -0.522340 0.230019 0.610065 0.023707 0.251080 0.294532 -1.037027 -0.332984 -0.242221 -0.292921 -0.176134 0.157033 -0.122643 0.143694 0.409398 -0.458391 0.434185 -0.281811 -0.401037 -0.315978 -0.019110 -0.281418 -0.519995 0.121596 -0.339734 0.207163 -0.267623 -0.282691 -0.793664 -0.379101 -0.360143 0.430668 -0.487721 
44 0.034761 -0.341087 0.581203 -0.197964 -0.544651 0.790551 0.477871 0.015415 -0.190363 0.549376 -0.241077 -0.282490 0.338852 -0.156651 0.036604 -0.450202 0.586761 -0.202040 -0.475894 0.208286 -0.081693 -0.607872 0.126143 -0.298831 0.666966 0.234624 -0.130083 -0.181479 -0.690236 0.534561 0.409099 0.549698 0.005564 -0.062852 -0.351634 0.001730 -0.039239 -0.532383 0.411243 -0.280184 0.249102 -0.142761 -0.002651 0.491544 0.445838 -0.181051 0.425973 -0.129507 -0.192397 0.263927 -0.626349 0.399247 -0.342322 0.583597 -0.987590 0.537266 -0.511590 -0.488989 0.093008 0.203547 -0.329155 -0.166277 -0.816142 -0.512822 0.472641 0.078344 -0.134643 0.402367 0.050541 0.485379 -0.212644 -0.342085 0.736283 -0.241146 -0.288954 -0.296203 0.093766 -0.080430 0.328537 0.145881 -0.538897 0.357745 -0.511085 0.570826 -0.274806 -0.110766 -0.158306 -0.384043 -0.232342 -0.250065 0.449623 -0.327146 0.606104 -0.299045 -0.830612 -0.576135 -0.647250 0.195247 0.275277 -0.587445 
45 0.084135 -0.254996 -0.151553 -0.191291 -0.373149 0.149055 0.294585 -0.229149 -0.020836 0.292406 0.239264 0.117760 0.175567 -0.403642 0.186349 -0.430515 0.766174 0.006779 0.187580 -0.133525 -0.052749 -0.227937 0.242871 -0.446180 -0.100756 0.425463 -0.559749 -1.030533 -0.419595 0.674769 -0.221404 0.094976 -0.279643 -0.423003 0.671672 -0.117976 0.157361 -0.968157 0.581419 -0.493241 -0.581222 -0.228515 -0.893597 0.112696 -0.214244 0.116705 -0.104126 0.377739 -0.904280 0.233703 0.039954 0.153165 -0.480718 0.248500 -0.782050 0.802528 -0.612714 0.400804 -0.144494 -0.015696 -0.957020 0.189321 -0.579618 -0.079119 -0.342709 -0.692540 -0.371310 -0.391636 0.065547 0.183528 0.449030 -0.082477 0.440031 -0.416901 0.032452 -0.725478 -0.066825 0.834630 0.407365 -0.160772 0.077828 -0.450616 0.047986 0.625176 -0.036647 -0.858888 -0.012830 0.125822 -0.855367 -0.708965 0.067326 0.451051 0.017887 0.548466 -0.332817 0.102037 -0.180048 0.063747 0.392698 0.229222 
46 0.577065 0.269749 0.507288 -0.218603 -0.550109 0.826466 -0.163391 -0.359423 -0.466415 -0.222300 0.293386 -0.035846 -0.169513 -0.329484 0.070760 0.435889 0.490423 0.349315 -0.553121 0.170589 0.223602 -0.421092 -0.090856 -0.507934 0.505790 -0.334763 0.384190 -0.010169 -0.665326 0.371437 -0.319280 0.303526 0.345684 -0.573564 -0.412819 -0.058100 -0.104226 -0.432890 0.194151 -0.048745 -0.531474 0.042848 -0.424694 0.165341 -0.617710 0.383895 0.340066 -0.391461 -1.015222 0.419903 -0.527494 0.240123 -0.404757 0.548420 -0.099526 0.028454 -0.219688 0.412766 0.451162 -0.103152 -1.102286 -0.729043 -0.467448 -0.774228 -0.178495 -0.238303 0.084065 0.108360 0.521394 0.501795 0.230478 -0.243696 0.643555 -0.881878 -0.231252 0.392047 -0.110273 0.024541 -0.408670 0.354762 0.224738 -0.107314 -0.132601 0.026428 0.099575 0.290326 -0.708445 0.162617 -0.553400 -0.162749 0.374101 -0.315043 0.317795 0.372153 -0.090418 -0.759542 0.124556 0.479990 -0.234459 0.035123 
47 0.745565 0.118320 -0.249624 -0.449146 -0.318865 0.598290 -0.395675 0.255327 0.148064 -0.228639 -0.754320 -0.031622 0.307615 -0.175772 0.812229 0.067140 0.127160 0.462446 0.278170 -0.577760 -0.023670 -0.605108 0.851901 0.163403 -0.088366 -0.103643 0.193495 -0.227104 -0.589822 -0.493890 0.149186 0.175148 -0.385891 -0.362199 0.026145 0.147194 -0.300467 -0.298616 0.523678 0.179382 0.133945 0.304824 -0.565445 0.871979 0.443578 -0.149401 0.443295 -0.459069 -0.828283 0.160218 -0.257054 0.336791 0.288082 0.804764 -0.839577 0.641100 -0.530358 -0.096874 0.022233 0.354678 0.050596 -0.235100 -0.016493 0.363596 -0.017698 -0.053199 -0.144058 0.110669 0.923042 0.123856 0.648030 0.205508 0.028446 -0.472164 -0.460698 0.019457 -0.200377 0.640563 0.271682 0.029798 0.213507 0.204690 0.562851 -0.010853 -0.396734 -0.595645 0.049958 0.251535 -0.307178 -0.237358 0.522550 0.412815 0.447956 -0.179967 -0.998501 -0.477097 -0.643352 0.119432 0.704058 -0.648916 
48 0.028049 0.204705 0.244164 -0.200247 -0.239169 1.047321 0.357525 -0.345688 -0.472079 -0.211460 -0.600923 -0.170570 0.459009 0.114981 -0.364484 -0.043650 0.486057 0.608165 0.115074 -0.031158 -0.549465 -0.161244 0.150149 -0.369483 0.314058 0.352172 0.055103 -0.590310 -0.255346 -0.207885 -0.318466 0.038587 -0.100707 -0.770096 0.324733 0.482357 -0.203636 -0.108422 0.435539 -0.250181 -0.287516 0.123926 -0.553274 -0.140238 -0.120582 0.202800 0.562013 0.259743 -0.503621 0.110042 -0.195676 0.601772 0.507538 0.605159 -0.738862 0.524578 -0.382756 0.095314 -0.228767 0.136274 -0.824537 -0.600341 -0.049333 0.150634 -0.349061 -0.397978 0.242694 0.003144 -0.077214 -0.352824 0.486122 -0.046315 0.181959 -0.962914 0.033541 0.014910 -0.089820 0.124207 -0.307330 -0.007821 -0.294571 -0.278692 -0.430925 0.567247 -0.510891 -0.297231 -0.094992 0.461065 -0.475937 -0.337643 -0.315453 -0.448727 -0.225164 0.226025 -0.883045 -0.334539 0.094901 -0.034320 -0.118443 -0.495598 
49 0.330398 0.041373 0.512662 0.065761 -0.340293 0.453073 -0.127319 -0.208995 0.073898 -0.080574 -0.800423 0.255102 -0.028700 -0.791221 0.093277 -0.317989 0.372365 0.539494 0.098178 -0.471294 -0.005705 -0.559624 0.655245 -0.158700 0.368034 -0.283399 0.249688 -0.638812 -0.428359 0.340850 -0.564791 0.452468 0.358177 -0.122191 -0.304393 0.286341 0.042235 -0.390613 0.591637 -0.282565 0.115313 -0.308236 -0.006434 -0.133335 -0.478013 0.491694 0.118241 0.115984 -0.402007 0.077458 -0.125459 0.053282 -0.331760 -0.014818 -0.627347 0.140408 -0.577942 0.000611 0.389399 -0.195047 -0.498510 -0.549674 -0.109718 0.101954 -0.270851 0.091408 0.673893 -0.363810 -0.137849 -0.154593 0.022826 -0.311146 0.057050 -0.148413 -0.567297 -0.161482 -0.054520 0.188380 0.439185 0.208647 -0.116839 -0.398058 -0.447555 0.314148 -0.126483 -0.198083 -0.931120 0.334930 -0.185391 -0.053272 -0.194112 0.058002 0.305132 -0.272181 -0.787372 -0.826625 -0.636099 0.415116 -0.249384 -0.304440 
50 0.315371 0.199079 0.445801 0.026380 -0.105448 0.250141 0.442148 -0.720371 -0.261525 0.143329 0.188910 -0.551051 0.485525 0.137905 -0.097461 -0.292506 0.366836 0.051816 -0.320411 -0.704294 0.151322 -0.114488 0.876004 -0.209608 0.932539 -0.315452 -0.650730 -0.902222 -0.127834 0.369385 -0.537747 0.403181 -0.508548 -0.219440 0.395925 -0.014686 0.464011 -0.763487 0.581515 -0.020033 -0.275970 -0.407394 -0.721672 -0.035639 -0.577683 0.059244 0.520329 -0.341275 -0.798162 -0.200603 -0.318363 -0.195695 -0.624265 0.446606 0.021667 0.384907 -0.002203 0.231067 0.163420 -0.134572 -0.408823 0.113401 -0.421632 -0.066238 -0.222388 0.463277 0.279975 0.254807 0.961832 0.074006 0.281550 0.332580 -0.350881 -0.255506 -0.245958 0.556481 -0.531312 0.166239 -0.205423 0.384504 -0.299669 0.322983 -0.300736 0.266479 -0.572966 -1.036643 0.453098 -0.414234 -0.014762 -0.026225 -0.153768 0.445343 0.784748 -0.325581 -1.134848 -0.987001 -0.442088 -0.199258 0.278859 0.274421 
51 -0.077387 0.478399 0.562171 -0.344793 -0.917183 0.823195 0.072921 0.371451 0.495551 -0.558108 0.100602 0.095436 0.378563 -0.687727 -0.290858 -0.145907 -0.212385 0.811708 -0.232630 -0.080625 0.153515 0.059401 -0.064515 -0.178609 0.404694 0.333529 -0.616439 -0.201184 -0.043101 -0.293734 0.077489 0.599597 -0.413027 -1.069161 0.458241 -0.129523 -0.014334 0.154152 0.255108 -0.106063 -0.008215 0.234748 -0.090818 0.412710 -0.297368 -0.039809 0.636581 -0.446575 -0.678451 -0.346880 -0.545692 0.628886 -0.486125 -0.141556 -0.391011 0.814994 -0.587776 -0.305241 0.506285 0.047440 -0.405927 0.126156 -0.112069 -0.608461 -0.648863 -0.779146 0.156348 0.156876 0.123332 0.335429 0.289750 -0.219066 0.760141 -0.432610 0.014180 -0.456224 0.241881 0.197825 0.255003 -0.145228 0.069139 0.219104 0.267683 0.370763 0.035860 -0.434113 0.066110 -0.016372 -0.562182 -0.629870 -0.557916 -0.023068 1.087314 -0.066200 -0.832265 -0.464096 0.296097 0.080321 0.536204 -0.595041 
52 -0.106047 -0.499613 0.283283 0.184798 -0.458371 0.533399 0.181362 0.144485 0.412513 0.401057 -0.762514 0.019978 -0.022095 -0.806886 0.464117 0.299474 0.700280 0.717301 -0.454638 -0.381359 -0.586680 -0.636303 0.137504 -0.273774 0.352335 0.121920 0.233992 -0.797310 -0.198085 -0.331429 -0.055122 0.560778 0.113366 -0.374383 -0.242773 0.734911 0.425780 -0.839874 -0.120648 0.125070 -0.144945 0.421020 -0.256424 -0.169910 0.519878 -0.133131 0.300764 0.036839 -0.677967 0.103789 -0.267814 -0.127517 -0.114823 0.636329 -0.414856 0.266162 -0.652002 -0.193517 -0.366136 0.015655 -0.616535 0.047205 0.073978 -0.251183 -0.532240 -0.577624 0.450589 0.143321 0.540881 0.047363 0.221167 -0.387183 0.279649 -0.865251 0.292887 -0.196833 0.230174 -0.084616 0.546966 -0.008689 -0.167024 0.210367 -0.289301 0.519658 0.024504 -0.230802 -0.355636 -0.276625 0.179492 -0.421720 -0.253452 0.321738 -0.218754 0.556240 -0.457439 -0.681880 0.008334 -0.051277 0.263905 -0.357022 
53 0.502755 -0.388107 -0.142597 0.136282 -0.511893 0.169250 0.288988 -0.016816 0.167627 -0.034800 -0.501237 0.011170 0.268449 -0.919619 0.267546 -0.279971 0.609868 0.757554 -0.181178 -0.686105 0.058419 0.081499 0.561741 -0.276692 0.018432 -0.472768 -0.476732 -0.215293 0.142008 0.087617 0.015552 0.214367 -0.434245 -0.868976 -0.346546 0.074939 -0.398546 -0.681573 0.015384 0.128687 -0.311597 -0.189326 -0.014226 0.809890 -0.602816 -0.197021 0.114808 -0.038306 -0.232340 -0.298637 0.094405 0.874410 0.339190 0.027213 -0.846255 -0.183764 0.414734 0.335681 0.210193 0.050534 -0.832984 0.011287 -0.018041 -0.345200 0.222609 -0.101440 0.571659 0.008715 0.283250 0.189782 0.070856 -0.080502 0.424424 -0.900420 -0.325571 0.216691 -0.257571 0.375386 -0.103448 -0.096718 -0.996828 -0.451166 0.016779 0.792218 0.418339 -0.710488 0.314110 0.340965 -0.029434 0.026498 -0.009857 0.443523 0.719710 0.515227 -0.689170 -0.610070 -0.690358 -0.153243 -0.119914 -0.445611 
54 0.778714 0.087377 0.500062 -0.120163 -0.579805 1.008569 -0.619969 -0.270349 0.404402 0.498456 -0.635351 -0.031168 -0.274787 -0.101599 0.182706 0.485422 -0.108327 -0.255100 0.121970 -0.577805 0.124872 -0.649336 0.006836 0.252310 0.077529 -0.544953 0.059428 -0.537712 -0.107695 0.496515 0.096883 0.736257 -0.617807 -0.831994 0.291235 0.047933 0.166595 -0.771057 0.431012 -0.564127 -0.071762 -0.495517 -0.159061 0.241873 -0.447004 -0.372391 -0.261020 0.241094 -0.768625 -0.512434 -0.032805 0.730961 -0.526612 -0.137009 -0.250636 0.696775 0.067282 -0.293093 0.070228 -0.011075 -1.165141 -0.734996 -0.670967 -0.411222 -0.003785 -0.309542 -0.163061 0.286440 0.706100 0.202674 0.209988 -0.248716 -0.103664 0.014392 -0.003303 0.126140 0.151774 0.251598 -0.089530 0.217426 -0.864704 0.112815 0.489518 -0.223633 -0.100118 -0.192818 0.181646 0.023012 -0.313146 -0.813685 0.307547 -0.232281 -0.278686 -0.279836 -0.465295 -0.904078 -0.040797 -0.369621 -0.346173 0.000687 
55 0.032547 -0.330454 0.415467 -0.417739 0.019563 0.468715 -0.376966 -0.078210 0.530620 0.192158 -0.528257 0.363834 -0.237537 -0.717410 0.185436 0.257115 0.718649 0.541551 0.207657 0.372007 0.142985 0.241336 0.686597 0.283065 0.147413 0.330241 -0.250445 -0.686321 -0.046471 0.070043 -0.319410 0.740551 -0.203231 -0.670485 0.350447 0.341078 -0.246044 -0.350236 0.175548 0.265826 -0.760743 0.223158 -0.703909 -0.169911 -0.331785 0.681605 0.006933 -0.326471 -0.788028 0.481969 -0.571911 0.129496 -0.124866 0.157261 -0.120586 0.840905 -0.035159 -0.192154 0.356473 0.078279 -0.210089 0.237793 -0.280115 -0.022434 0.405103 -0.030883 0.141144 -0.404479 0.571148 -0.113767 -0.233617 -0.616558 0.608389 0.022101 -0.623532 -0.218390 -0.172600 0.153419 0.285820 -0.142538 -0.516179 0.640177 -0.442380 0.504643 0.259470 -0.225908 -0.280075 -0.170991 -0.222979 -0.360619 0.566760 -0.323204 0.461178 0.463189 -0.914030 -0.721514 0.079809 0.304306 -0.218471 -0.237202 
56 0.024267 -0.522270 0.609461 0.305863 -0.629232 0.872173 -0.435883 -0.111386 -0.483021 -0.030673 -0.069739 -0.361142 0.313471 -0.049463 0.690059 0.348071 0.708740 0.744787 -0.400358 -0.217995 -0.436919 -0.059568 0.562879 0.334545 -0.117105 0.420449 0.472597 -0.259793 -0.072896 -0.080193 -0.308192 0.017619 -0.396054 -0.498964 0.447742 -0.110289 -0.416015 -0.100393 0.572851 -0.187455 -0.687557 0.521531 -0.281393 0.403830 -0.262851 0.354241 -0.224096 0.096334 -0.489084 0.030798 0.037416 0.146101 -0.446488 -0.089620 -0.151171 0.515817 0.309800 -0.117948 -0.280771 -0.408763 -0.979091 0.152129 -0.561294 -0.058994 -0.187904 0.177241 0.439548 -0.438141 0.018263 0.721032 0.086589 0.037034 0.711356 -0.621579 -0.317456 -0.283413 -0.065144 -0.087538 -0.341667 0.658141 -0.767059 -0.305746 -0.483438 0.462743 -0.287472 -0.310606 -0.554713 0.288400 -0.466638 -0.257148 0.186119 0.044906 0.600371 0.302455 -0.095801 -0.385969 -0.604506 0.206228 0.287178 0.046279 
57 -0.179994 -0.321874 0.058558 0.175512 -0.202450 0.569040 -0.374124 0.101606 -0.558767 -0.082951 -0.213243 0.351575 0.306740 -0.500854 0.115869 -0.283081 0.555992 0.276054 -0.585888 -0.610904 0.306171 -0.308041 0.333422 0.468835 0.134177 -0.435450 -0.210825 -0.704083 -0.227324 -0.345271 -0.255246 0.520326 -0.346962 -0.330131 0.418648 -0.001466 0.198683 0.067811 -0.103693 -0.326553 -0.101239 -0.155486 0.264150 0.692450 -0.109725 0.488710 0.476005 -0.250798 -0.219956 0.165295 -0.321796 -0.217045 0.086121 0.736731 -0.529834 0.153395 -0.173518 -0.263748 0.694071 -0.744161 -0.757133 -0.084445 -0.554830 -0.337941 -0.654047 -0.617146 0.219005 0.397359 0.955876 0.657656 0.552776 -0.221965 0.712970 -0.193102 -0.059376 -0.322378 -0.524087 0.658982 -0.211443 0.022436 -0.280339 -0.138798 -0.222611 0.519905 0.401217 -0.008010 -0.764574 0.028824 0.154500 -0.396807 0.264822 0.202609 0.609503 -0.159353 -0.689583 -0.480599 -0.305573 0.232804 -0.185481 0.274111 
58 0.353104 0.039639 0.530929 0.064707 -0.307825 0.407082 -0.122857 -0.226737 0.075884 -0.090781 -0.806800 0.266278 -0.047951 -0.810896 0.089749 -0.342980 0.344940 0.554782 0.108328 -0.495457 -0.030136 -0.601978 0.661579 -0.195547 0.379271 -0.310481 0.291918 -0.625872 -0.441061 0.367345 -0.624736 0.495538 0.380060 -0.103764 -0.394721 0.281743 0.054954 -0.377537 0.606056 -0.270593 0.143525 -0.355226 0.046766 -0.140108 -0.471338 0.518387 0.134208 0.126622 -0.381462 0.099371 -0.137481 0.041444 -0.340965 0.003527 -0.646581 0.101001 -0.571021 0.012774 0.431417 -0.174105 -0.475431 -0.551079 -0.102405 0.158272 -0.266630 0.102120 0.695240 -0.372202 -0.208111 -0.202031 -0.013676 -0.304504 0.035222 -0.110861 -0.566503 -0.146781 -0.052519 0.192189 0.460584 0.234550 -0.056360 -0.428749 -0.478513 0.328321 -0.135212 -0.185427 -1.009183 0.355530 -0.170526 -0.052188 -0.233190 0.096514 0.323639 -0.321952 -0.782164 -0.885618 -0.697682 0.443696 -0.281744 -0.287163 
59 0.196893 0.495618 0.309810 0.262051 -0.126750 0.544597 0.310180 -0.219238 0.254814 0.333570 -0.569562 -0.380085 0.362480 0.009669 0.060276 0.294940 0.550228 0.524683 -0.236798 -0.473271 0.039546 -0.159808 0.327645 -0.188410 -0.031181 0.420255 -0.489270 -0.114406 -0.212264 -0.321963 -0.260975 0.445706 0.191525 -0.406373 0.198027 0.332796 -0.131806 0.190198 0.217102 0.045245 0.007511 0.150581 0.213345 0.435570 0.175746 0.537264 -0.114404 -0.068133 -0.698992 0.146806 -0.274892 0.612104 -0.106807 0.433571 -0.622182 0.429742 0.373519 0.426504 0.320497 -0.576725 -0.447091 0.185471 -0.468818 -0.474679 -0.321621 -0.487316 -0.159318 0.173656 0.137983 -0.274658 0.550185 -0.558232 0.235453 -0.713397 -0.425722 -0.249408 -0.495913 -0.001185 0.554661 0.304698 -0.477688 -0.092834 -0.437697 -0.215265 -0.280575 -0.706335 -0.437919 0.300639 -0.282401 0.125692 0.356400 -0.120279 0.090667 -0.361368 -0.386766 -0.647096 -0.238339 -0.077788 0.600604 -0.596325 
60 -0.064099 0.056701 0.787627 -0.078112 0.043474 0.209325 -0.547915 -0.457357 0.415077 -0.229587 -0.346699 0.253035 0.437937 0.059911 -0.451215 0.365526 0.651681 0.372597 -0.716496 -0.028883 -0.236456 -0.385456 0.310062 -0.092811 0.670887 -0.309283 -0.198685 -0.417776 0.056671 -0.145630 0.366489 0.853489 0.464696 -0.206188 0.417348 0.838212 0.299509 0.232772 -0.083041 -0.121465 -0.619412 0.129189 -0.268049 -0.014476 0.218410 0.557353 0.703693 -0.610697 -0.635339 0.046154 0.113087 0.473510 -0.356657 0.548471 -0.814307 0.477735 -0.162069 -0.421432 -0.467354 0.268000 -0.705497 -0.019813 -0.210795 -0.530395 0.015137 0.303840 0.123157 -0.100228 0.213991 0.232574 0.128577 0.039794 0.227940 -0.485866 -0.346972 -0.718787 -0.010884 0.610059 -0.424940 0.384016 0.051611 -0.474190 -0.016253 0.237260 -0.411518 -0.481676 -0.385084 -0.262293 -0.824731 0.374420 0.329699 0.461147 -0.241115 -0.018368 -0.501214 -0.367746 -0.375249 0.439396 -0.286532 0.092665 
61 0.712480 0.317628 0.532296 -0.257920 0.030805 0.642613 -0.324535 0.026384 -0.382129 0.170464 -0.212245 -0.463865 -0.199482 -0.266165 -0.496050 0.207213 0.319809 0.443725 0.069801 -0.718267 0.028091 -0.643120 0.135170 0.440415 0.184045 -0.319516 -0.468286 -0.224699 -0.588156 -0.410784 0.128210 0.676644 0.105547 -0.994959 0.642278 0.233932 0.180945 -0.541414 0.689723 0.606238 -0.444163 0.613018 0.271882 -0.117644 -0.169574 0.187012 0.420555 0.125977 -0.916008 -0.509629 0.392564 0.242583 0.219980 -0.196780 -0.835808 -0.018691 -0.256989 0.491292 0.470982 0.173780 -0.463015 -0.510292 -0.139107 0.219397 0.000310 -0.434397 0.548051 0.393738 0.695311 0.346058 0.141105 -0.014706 0.194646 -0.138123 0.179954 -0.122621 -0.087074 0.330244 0.037602 0.149090 -0.508806 -0.166670 -0.448642 0.467579 -0.113483 -0.102662 -0.345706 -0.064925 -0.339344 -0.314612 0.328714 0.181656 0.404376 0.111621 -0.339712 -0.528799 -0.192055 0.422180 -0.055458 -0.754209 
62 0.657753 -0.552146 0.508158 0.328343 -0.130864 0.238381 0.486906 0.370276 -0.264875 -0.161848 -0.330380 -0.416915 0.642584 -0.493899 -0.319916 -0.351876 -0.192171 0.508219 -0.150756 -0.140945 -0.466469 -0.012640 0.703856 -0.011133 -0.146409 -0.186641 0.180105 -1.129021 0.004064 0.037938 -0.132047 0.853858 0.088428 -0.544286 -0.164639 -0.191980 0.396200 -0.210611 0.519222 0.152944 -0.560787 0.066975 -0.443248 0.258262 0.019034 0.494524 -0.245060 0.265422 -0.448556 0.062028 -0.395679 0.376030 0.437222 0.106954 -0.814208 -0.056195 0.059370 0.223158 0.314707 -0.033248 -0.500913 -0.586266 -0.473242 -0.566147 -0.445326 -0.691856 0.044994 0.334022 0.675675 -0.235225 0.028764 -0.539984 0.842127 -0.184010 -0.513525 -0.205231 -0.101288 -0.239289 0.140980 0.384595 0.095623 0.295778 -0.072199 0.392837 -0.725348 0.164212 -0.324821 -0.024572 -0.730478 -0.562008 -0.146957 -0.560775 0.622529 0.466732 -0.023845 -0.554265 -0.000353 0.023608 -0.152919 -0.085155 
63 0.580804 -0.321646 -0.143381 -0.250682 -0.423088 1.031273 -0.473522 0.009777 0.028231 -0.236632 0.101668 -0.343524 0.065732 0.047316 -0.119442 -0.499628 0.598937 0.725419 0.401911 0.317977 -0.325788 -0.600516 0.263664 0.405095 -0.299978 -0.401926 -0.495967 -0.580169 -0.673456 0.427805 -0.199226 0.680192 -0.058947 0.021106 0.015825 0.420085 -0.226448 0.027383 0.742105 -0.471098 -0.656424 0.053478 0.197605 0.382095 -0.626665 -0.297558 0.446584 -0.014535 -0.799470 -0.428239 -0.374384 0.613338 -0.427498 0.629619 -0.720421 0.820956 0.469328 -0.170556 0.522700 0.328709 -0.217691 -0.142697 -0.688133 0.276403 -0.296052 -0.066900 0.395652 -0.235010 0.701771 0.557505 -0.094817 -0.657075 0.330038 -0.608291 -0.460162 -0.568786 -0.364971 0.519453 0.182868 0.533076 0.118748 0.286587 -0.164143 -0.267595 0.150114 0.128155 -0.619122 0.579766 -0.036004 -0.199140 0.325741 -0.309912 -0.285886 0.363008 -0.063497 -0.239070 -0.247863 -0.140963 0.380448 -0.095582 
64 -0.005078 0.419799 0.306196 -0.314718 -0.060941 0.608310 -0.403433 -0.039816 0.090289 0.376338 -0.339641 0.095977 0.509506 -0.286076 -0.391267 -0.022515 0.205591 0.561611 0.186609 -0.656929 0.017178 -0.552966 0.612996 0.248277 0.153699 -0.585554 0.382615 -0.050475 -0.561496 -0.397325 0.307570 0.926822 0.124814 -0.389223 0.400378 0.191786 -0.264932 -0.775013 0.611482 -0.365927 -0.304709 0.509277 -0.376744 0.705667 -0.382750 -0.366531 0.540330 -0.495694 -0.204219 0.400670 0.055875 0.609804 -0.059891 0.288919 -0.057615 0.028769 -0.151204 -0.270752 -0.115796 -0.104039 -0.608207 -0.079706 -0.555629 -0.560798 0.194222 -0.485809 -0.391544 -0.598133 0.015088 -0.319232 0.466635 -0.775478 0.828655 -0.683187 -0.405869 0.553473 -0.269547 -0.157995 -0.248695 0.756825 -0.432940 0.390297 -0.323329 0.582239 -0.245602 0.089773 -0.055225 0.141552 -0.158063 0.190690 0.022277 0.279096 -0.142469 -0.406859 -0.694846 -0.600295 0.205742 -0.432585 -0.055965 -0.466782 
65 0.262558 -0.365009 -0.233912 -0.218635 -0.676518 0.792319 -0.542966 0.097735 0.099272 -0.014339 -0.421874 -0.452244 0.506951 -0.345061 -0.530165 0.310973 -0.048436 0.163904 0.212463 -0.497781 0.401019 -0.635556 0.733043 -0.136101 0.632899 0.167468 -0.120181 -0.126398 -0.604164 0.437649 -0.517671 0.847617 0.076257 -0.482255 -0.326032 0.797111 -0.284861 0.071687 0.113154 0.525344 0.050399 0.643118 0.126255 0.553678 -0.536300 0.661615 -0.450476 -0.167098 -0.191226 -0.145019 -0.308697 0.150247 -0.183682 0.661807 -0.733248 0.187334 -0.569135 -0.068642 0.495075 0.440887 -1.014103 -0.238124 -0.115486 -0.580699 -0.287501 0.022236 0.003671 0.269781 -0.125834 0.564944 0.493350 -0.372157 0.391026 -0.433893 0.385458 -0.111517 -0.421945 0.485698 0.245509 -0.162703 0.174779 0.272005 0.193404 0.000771 -0.377593 -0.474473 -0.108597 0.300314 -0.585377 -0.103870 -0.429952 -0.271388 -0.436413 0.215307 -0.753878 -0.662139 0.046951 -0.107824 0.190982 -0.071849 
66 0.079145 0.462800 -0.022335 0.422896 -0.335646 0.820512 -0.038121 0.603498 0.003252 -0.119925 0.140969 -0.411443 0.263920 0.105475 0.074141 -0.382946 -0.272392 0.402918 -0.827691 0.206510 -0.580425 -0.227777 0.473484 0.026952 0.669023 0.025534 0.585231 -0.156674 -0.100717 0.791316 -0.802296 1.046536 0.019254 -0.458708 0.178073 -0.021598 -0.410594 -0.825191 0.770641 -0.461115 -0.174048 -0.047857 -0.564437 -0.086731 -0.138238 0.361232 0.515654 -0.506588 -0.652828 -0.021475 -0.194828 0.773122 0.412584 0.219721 -0.039575 0.742560 -0.078806 -0.134651 0.404351 -0.503559 -0.976948 0.181788 0.082165 0.367421 0.329356 0.252928 0.262551 0.075856 0.837041 -0.186242 0.376663 0.031015 0.354163 -0.386658 0.072673 0.350440 -0.010522 0.894896 0.269435 0.243702 0.230755 -0.240130 0.249700 0.632190 0.428585 0.017791 -0.559715 -0.461455 -0.951525 -0.822286 -0.234139 0.316023 0.101726 0.317228 -1.065764 -0.738398 0.236868 -0.322312 -0.286166 -0.134409 
67 0.630706 -0.371805 0.700167 -0.043865 0.073435 0.590644 -0.105091 0.123594 -0.022757 -0.416132 0.014398 -0.587450 0.214179 -0.432159 -0.101484 0.312122 0.661646 0.595384 -0.732046 -0.400224 0.116651 -0.713174 0.772470 -0.542227 0.061163 -0.123352 -0.259359 -0.884192 0.008233 0.235948 0.008454 0.425865 -0.416260 -0.047305 0.035505 0.287779 0.371214 -0.566729 0.159954 0.462249 -0.225159 0.457267 -0.307952 0.835762 -0.362118 -0.085819 0.222905 -0.693679 -0.465976 -0.184395 -0.114711 0.456269 -0.397887 0.835107 -0.338113 0.041446 -0.690947 -0.260184 0.041800 -0.280492 -0.729027 -0.747959 -0.436703 -0.294702 -0.426998 -0.516061 0.167955 0.303969 -0.281824 -0.289437 0.121320 -0.628841 -0.016398 -0.068812 -0.602823 -0.011736 0.039599 -0.002549 0.267073 0.744924 -0.382790 -0.385776 0.221943 0.256662 0.221986 -0.223110 -0.146304 0.368204 0.070976 -0.381496 0.544792 -0.032011 0.547144 -0.364336 -0.407558 0.083601 -0.244841 0.117389 0.606295 -0.216945 
68 0.184615 0.528391 0.295473 0.300740 -0.146645 0.554918 0.352464 -0.209106 0.263147 0.362355 -0.607342 -0.400108 0.391827 0.057273 0.057341 0.303755 0.586716 0.554201 -0.258851 -0.505436 0.068436 -0.152612 0.346834 -0.189351 -0.033156 0.464676 -0.554720 -0.090843 -0.210796 -0.337711 -0.277824 0.448923 0.230394 -0.381490 0.235212 0.313174 -0.135408 0.239562 0.204841 0.019812 0.012752 0.161521 0.260666 0.444556 0.197128 0.557917 -0.126799 -0.056123 -0.707345 0.140764 -0.282990 0.642249 -0.134589 0.422759 -0.649336 0.425971 0.422173 0.470445 0.340126 -0.626544 -0.428224 0.219845 -0.480055 -0.511216 -0.333532 -0.500779 -0.207717 0.187944 0.115057 -0.318238 0.588894 -0.577977 0.239274 -0.726664 -0.467900 -0.280459 -0.542375 -0.039798 0.607963 0.318517 -0.484661 -0.097384 -0.477438 -0.259906 -0.300424 -0.764215 -0.445271 0.318753 -0.278759 0.133481 0.393773 -0.113090 0.114631 -0.373296 -0.377002 -0.683994 -0.254035 -0.103607 0.634432 -0.636384 
69 0.371814 0.092406 0.105649 0.394047 -0.628261 0.964968 -0.139700 -0.167330 0.140469 -0.437020 -0.534772 -0.156365 0.285267 -0.409258 -0.131921 -0.249263 0.227160 0.353068 -0.578785 0.280070 -0.263577 -0.114143 0.191875 -0.066646 0.363151 0.144925 0.119879 -0.539845 -0.363935 0.234763 -0.230436 0.678729 0.130584 -0.870606 0.137295 0.589089 0.010509 -0.058443 0.409173 -0.112777 -0.234102 0.114217 -0.288627 -0.216041 -0.551601 0.141858 0.006485 -0.314147 -0.554589 -0.184554 0.363484 0.716411 -0.265572 0.490943 -0.597006 0.009945 -0.172914 -0.372989 0.430415 -0.703003 0.004217 -0.829054 -0.435863 -0.197879 -0.004042 -0.255506 0.316889 0.325556 0.403365 0.407405 0.084436 0.175181 0.200207 -0.112072 -0.369615 0.251583 -0.552245 0.527363 -0.086695 -0.091627 -1.019581 0.004382 -0.182372 0.144729 0.042929 -0.526668 -0.025547 -0.196806 -0.115101 -0.400254 -0.289502 -0.563957 -0.283807 -0.087147 -0.116577 0.068935 -0.359311 0.650604 0.231518 0.162823 
70 0.354708 0.506429 -0.283285 0.376542 -0.243606 0.306148 -0.009075 -0.467180 0.561790 -0.174229 -0.196608 -0.482721 -0.594544 0.028503 0.147736 0.093135 0.768058 -0.221209 -0.127458 0.004677 0.110518 -0.748124 0.256845 -0.675991 0.357258 0.567831 -0.206035 -0.484174 0.103869 0.060488 -0.547725 0.125411 -0.206183 -0.272587 0.557273 -0.073731 0.241388 -0.073868 0.726277 -0.167491 -0.377703 0.042818 0.002600 0.430597 0.177982 -0.343239 0.095257 0.293042 -1.136290 0.547260 0.356593 -0.075265 0.480545 -0.029915 -0.901549 -0.257732 -0.181378 -0.516120 0.293250 -0.269000 -0.206654 -0.600638 -0.121306 -0.852300 -0.450366 -0.085524 0.462527 0.154911 0.872639 0.384529 0.582051 0.007027 0.161894 -0.830863 -0.579489 -0.490852 0.442233 0.622968 -0.222499 0.536278 0.060051 -0.069071 -0.032718 0.476345 -0.231730 0.211053 -0.726347 -0.354600 -0.147780 -0.853656 -0.198077 -0.216072 -0.275458 -0.396951 -1.060548 -0.798859 -0.227559 -0.256584 0.228292 -0.359529 
71 -0.182793 -0.396403 0.134051 -0.518111 -0.388890 0.337398 -0.495433 -0.482895 -0.283043 -0.384578 -0.564825 -0.161531 -0.263843 -0.246297 -0.109756 -0.360371 0.103356 0.017839 0.152413 -0.092513 -0.499489 -0.524096 0.449176 -0.481875 0.612960 -0.114490 -0.439829 -0.937267 -0.377122 -0.508062 -0.206136 0.138780 -0.049331 -0.172643 -0.094315 -0.131121 -0.546510 -0.353633 0.594634 -0.315901 0.228198 0.352141 0.129468 0.071534 -0.363772 0.423960 0.119268 -0.066781 -0.999925 0.500795 0.084665 0.717151 0.248685 0.504826 -0.608467 0.227460 0.118728 0.408251 -0.178302 -0.342754 -0.886490 -0.438786 -0.147848 -0.127805 0.052673 -0.141992 0.315169 0.261292 0.378061 0.547344 -0.119942 -0.737196 0.904857 -0.011351 -0.439099 -0.198935 0.178018 0.644692 0.253127 0.918333 -0.358850 -0.162649 0.377320 0.147143 -0.421191 -0.393635 -0.009051 -0.419151 -0.295411 0.046148 -0.074758 0.328257 0.543819 0.471981 -0.329803 -0.374403 -0.415053 -0.001367 0.525000 -0.332611 
72 0.238726 -0.650293 0.348346 -0.174095 -0.428160 0.785138 -0.049302 -0.687865 0.180499 -0.492787 -0.551997 0.197102 -0.117183 -0.484531 -0.063545 0.205443 -0.064083 0.143012 -0.609987 0.167143 -0.465279 -0.614940 0.070125 0.357677 0.341613 0.283611 0.195744 -0.129542 -0.184234 0.745414 0.160997 0.833834 -0.236630 -0.285789 0.616956 -0.183663 0.300287 -0.066418 0.137872 -0.247068 -0.056210 0.421409 -0.207426 0.345848 -0.195366 0.610689 0.603898 -0.117150 -0.881763 -0.617224 0.049063 0.754896 -0.046137 -0.365798 -0.663314 0.643225 0.289850 0.229937 0.328050 -0.295181 -0.542071 0.545777 -0.095059 -0.181919 -0.334474 -0.624963 -0.166453 -0.237226 0.107822 0.007919 0.026364 0.147301 0.864360 -0.844431 0.340720 0.557508 -0.487402 0.486934 0.284217 0.800536 0.149442 0.564818 -0.222876 0.273645 -0.508643 -0.220822 -0.038654 -0.031224 -0.267215 -0.461595 0.120076 -0.684050 0.161549 -0.475074 -0.405259 -0.969549 -0.793961 0.070312 -0.462359 -0.396731 
73 0.648444 0.284735 0.409417 -0.537091 -0.073858 0.854971 -0.026980 -0.170136 -0.085448 0.525528 0.130350 -0.521988 -0.437725 -0.268898 -0.244497 -0.219154 0.035306 0.623238 -0.036732 -0.603725 -0.298282 -0.148554 0.170297 -0.539861 0.464928 0.232985 0.043860 -0.603112 0.354929 -0.484750 0.144959 0.568763 -0.035801 -0.261088 0.654054 0.549345 -0.532190 -0.724758 0.333294 0.427106 -0.075252 -0.030437 0.181984 0.701892 0.356284 0.664968 -0.220989 -0.590663 -0.952072 0.069471 -0.049979 -0.079444 -0.049477 -0.305718 0.042597 0.491261 0.015205 -0.364621 0.118635 -0.190248 -0.716094 -0.212928 -0.494157 -0.046250 -0.203585 -0.508881 -0.225464 0.326455 0.727849 0.667830 0.279936 -0.157713 0.064532 -0.693193 -0.437245 0.040764 -0.349934 0.166821 -0.194321 0.860441 0.309664 0.410649 0.007352 0.406305 0.224792 -0.870256 0.144029 0.086033 -0.789343 0.008880 -0.485711 -0.427131 0.106896 0.680202 -0.061096 -0.709194 0.290241 -0.539459 -0.337504 -0.260670 
74 0.748713 -0.121199 0.502619 0.375430 -0.010523 0.439179 -0.110125 -0.434522 -0.277076 -0.119734 0.211262 -0.687235 -0.179461 -0.843207 0.544566 -0.603918 0.414639 -0.409148 0.475649 -0.215944 -0.205474 0.187513 -0.214152 -0.017256 0.587582 0.267548 0.111053 -0.970048 -0.422891 0.504022 0.151398 0.059359 -0.118069 -0.764345 0.149482 0.547290 -0.037757 -0.037242 -0.022781 -0.509766 0.074188 0.426111 -0.044099 0.367030 -0.236066 0.479179 0.359852 -0.444891 -0.871204 0.280657 -0.102562 0.383584 0.217673 0.097982 -0.578021 0.151907 0.096593 0.373003 0.035357 -0.326956 -0.638478 -0.520503 -0.572590 0.365594 0.260996 -0.600343 0.367427 0.098561 0.544686 0.476365 -0.021308 -0.673312 0.306668 -1.086961 -0.103192 -0.137866 -0.682145 -0.348557 -0.061008 0.718663 -0.360652 -0.066366 -0.594074 0.765135 -0.225153 -0.276931 -0.636301 0.194751 0.345289 0.271712 0.409784 0.340314 -0.036002 -0.544581 -0.537014 -0.490314 0.039945 0.073596 0.025883 -0.287120 
75 0.400439 -0.395773 0.006764 0.311863 -0.138488 0.422466 -0.189726 0.215113 -0.453557 0.564786 -0.690127 -0.549671 -0.370584 -0.672235 -0.608683 0.386540 0.770722 0.277162 -0.376288 0.240194 0.085811 -0.715225 0.407365 -0.389468 0.058167 -0.131338 -0.440853 -0.386864 -0.361056 0.464482 0.218943 0.495001 0.077878 -0.496925 -0.368463 0.141673 -0.324784 -0.930631 0.745773 -0.113868 -0.222540 0.561541 0.266865 -0.066065 -0.374618 -0.359881 0.159775 -0.749488 -1.073710 0.151127 0.099156 0.243974 0.095485 -0.468728 -0.584184 0.302362 -0.580444 0.374500 -0.177829 -0.605469 -1.112510 -0.085108 -0.150656 -0.110708 -0.361553 0.328550 0.025456 -0.395438 0.163633 -0.134758 0.008609 -0.403073 0.718931 -0.969023 -0.366330 -0.292104 0.338652 0.535071 -0.019622 -0.256924 -0.682429 0.509705 -0.211731 0.012661 -0.361587 -0.573265 -0.419753 0.409728 0.186853 -0.017109 -0.069579 -0.504795 -0.014369 -0.154388 -0.124018 -0.548531 -0.345197 -0.116761 0.418432 -0.115198 
76 0.131170 -0.291094 0.657638 -0.246168 -0.537317 0.863308 -0.450052 0.300386 0.208764 0.151305 0.310464 0.086445 0.182271 0.156914 0.468883 -0.024126 -0.171209 -0.025404 -0.347367 -0.088075 0.458717 -0.249759 0.523214 -0.331583 0.728575 -0.003255 0.202612 -0.733018 -0.496161 -0.248007 -0.349417 -0.367375 0.325759 -0.844348 0.638342 0.819978 0.403780 -0.794577 0.014589 -0.647992 -0.004136 0.031871 0.138356 -0.190551 -0.264231 0.198806 0.261718 0.394201 -0.753139 -0.329162 -0.435559 0.185569 0.271511 0.342406 -0.751411 0.303234 0.116041 -0.429801 0.336750 -0.696789 -0.570230 -0.463956 -0.293874 -0.411851 0.018350 -0.468661 -0.146761 -0.576471 0.038047 0.111719 -0.026522 -0.465047 0.621772 -0.185403 -0.655731 0.178804 0.140559 -0.096267 0.612478 -0.253128 -0.028456 0.481321 -0.464641 0.247820 -0.378049 -0.905367 -0.323472 0.608766 -0.635458 -0.125257 0.031993 -0.248083 0.632429 0.356521 -0.402764 -0.666402 -0.115964 0.063391 0.438878 -0.312682 
77 0.337300 -0.324438 -0.130211 -0.532584 -0.787207 1.066264 0.551713 -0.209124 -0.075752 0.220456 0.219273 0.142528 0.207640 -0.179865 -0.088148 0.535749 -0.030222 0.312053 -0.689557 -0.535736 -0.242156 -0.275207 -0.203436 0.322752 0.330002 0.499283 0.004324 -1.104168 -0.376726 0.206194 -0.466125 0.701320 -0.550840 -0.084848 0.075289 0.738765 0.482689 -0.524152 0.429252 0.248835 0.274003 -0.384964 0.590244 0.645611 -0.063761 0.158773 0.354251 -0.373331 -0.740142 0.110991 0.183736 -0.321584 0.604101 -0.289278 -0.868359 0.373194 -0.484261 0.341720 -0.204894 -0.741976 -0.713852 -0.252852 -0.117346 0.408204 -0.420095 -0.206940 -0.278458 -0.180285 0.313153 -0.004770 0.537461 -0.123632 -0.211914 -0.524874 -0.596868 -0.115151 -0.140629 -0.060954 0.275343 0.230608 -0.353020 0.255754 -0.069849 -0.146040 -0.657036 0.079592 -0.689521 -0.529217 -0.388053 -0.342144 0.319650 -0.161462 0.755789 0.221277 -0.719728 0.033757 -0.224752 0.086671 0.250669 -0.416676 
78 0.368368 0.084284 0.124023 0.399913 -0.632130 0.980745 -0.113003 -0.136599 0.123722 -0.461273 -0.540432 -0.163206 0.291782 -0.438350 -0.156358 -0.273490 0.240660 0.340221 -0.620211 0.296043 -0.257156 -0.124853 0.211733 -0.048789 0.375277 0.172606 0.111552 -0.566234 -0.379147 0.233718 -0.245577 0.685770 0.133019 -0.880753 0.146089 0.605754 0.045626 -0.027889 0.396823 -0.091003 -0.248571 0.103517 -0.273845 -0.196254 -0.573832 0.140911 -0.027090 -0.323358 -0.563232 -0.182707 0.407118 0.716358 -0.253834 0.464314 -0.633569 -0.022678 -0.208186 -0.363001 0.448965 -0.763672 -0.000892 -0.829820 -0.432528 -0.186478 -0.051269 -0.285093 0.327789 0.341299 0.394862 0.405001 0.091893 0.204977 0.221587 -0.127987 -0.346578 0.264042 -0.548998 0.543671 -0.103916 -0.109532 -1.012021 0.025257 -0.202299 0.154597 0.034520 -0.534324 -0.039242 -0.208081 -0.152338 -0.402481 -0.297871 -0.580033 -0.237621 -0.092019 -0.117464 0.077584 -0.383875 0.661995 0.269644 0.138166 
79 0.106943 -0.043812 0.491293 -0.239379 -0.034391 0.509296 -0.380036 -0.411055 0.336485 -0.148702 -0.081792 -0.493874 0.125524 -0.630866 -0.032620 -0.157026 0.001291 0.482169 -0.044331 -0.172541 -0.345914 -0.307802 0.485666 -0.215058 -0.322155 -0.255516 -0.141194 -0.492336 -0.083728 0.052151 -0.050896 -0.050623 -0.053845 -0.297182 0.125920 0.636858 -0.506813 -0.752448 -0.078539 0.377959 -0.015993 -0.481890 -0.779777 0.023228 0.457775 0.706709 0.037180 0.128152 -0.301729 0.202773 0.019282 0.303040 0.240847 0.559196 -0.293002 0.042962 -0.394825 -0.390689 -0.068016 -0.301774 -0.542386 -0.531656 -0.235116 -0.525707 0.121663 -0.545007 0.081040 -0.305236 0.197831 0.359764 0.520464 -0.286479 0.538515 -0.683618 -0.628535 -0.567147 0.079976 0.360646 -0.245921 -0.249062 -0.812567 -0.036742 -0.074411 -0.003657 -0.322417 -0.350573 0.080095 0.060756 -0.001097 -0.317780 -0.228488 0.150910 0.508002 -0.432409 -0.511069 -0.796326 0.242449 -0.015105 0.271433 -0.249788 
80 0.474917 -0.207877 0.645923 -0.479036 -0.754864 0.530036 -0.461750 -0.470799 0.465263 0.624043 0.077879 -0.465029 -0.204830 -0.271362 0.011238 0.060497 0.348450 0.093330 0.071561 0.000307 -0.245650 -0.358155 0.591465 -0.825191 -0.346461 -0.322314 -0.745100 -0.117729 0.188669 0.661555 -0.593251 0.886801 0.088153 -0.850851 0.530311 0.547940 0.432439 -0.719952 -0.154124 -0.559610 -0.133034 1.065368 0.026903 0.354598 0.180957 0.232348 -0.204321 -0.285467 0.089750 0.222095 0.045935 0.468111 0.241713 -0.369033 0.074161 0.805763 -0.217536 -0.377609 0.145868 -0.586052 -0.392321 -0.089574 -0.631341 -0.547526 0.452805 -0.310325 0.676769 0.086847 0.671050 0.576724 0.703682 -0.283894 0.327827 -0.763946 0.200111 0.359963 0.481427 -0.128510 0.238198 0.281793 0.009671 -0.319874 0.255110 -0.188366 -0.184650 -0.794303 -0.675385 0.249181 0.071801 -0.418581 0.376876 0.371771 0.742820 0.409651 -0.660864 0.258576 0.004783 0.772088 -0.136987 -0.005210 
81 -0.062459 -0.039114 -0.371712 -0.000293 -0.321614 1.494442 -0.143047 -0.219770 0.297387 0.258159 -0.786719 -0.073510 0.148358 -0.260125 0.058702 0.210149 0.830925 0.371300 -0.482064 -0.649161 0.452567 -0.674210 0.174018 -0.464527 0.582433 0.647670 0.308906 -0.580232 -0.768836 -0.025090 0.090656 0.250826 0.465044 -0.284884 0.777663 -0.240433 0.203183 -0.194277 0.411064 0.337855 0.129171 0.079557 -0.314310 0.276211 -0.428535 0.263038 0.546606 -0.066627 -0.500146 0.382238 -0.491449 -0.195430 -0.186078 0.415853 -0.864400 0.505501 0.177229 0.585558 -0.031941 -0.141422 -0.662718 -0.043413 0.042918 -0.545438 -0.624105 -0.086305 -0.142012 -0.162611 0.193784 0.745094 -0.341195 0.262252 0.171484 -0.698741 0.163704 0.345608 -0.164284 0.151409 -0.131338 0.911824 -0.565346 0.574574 0.457571 0.851331 0.204857 -0.427879 0.283527 0.062476 -0.849107 -0.020167 0.441472 0.542459 -0.175687 0.069554 -0.303492 -0.052634 -0.081218 -0.238577 -0.062260 -0.189880 
82 0.031660 0.021834 0.708631 0.490739 0.016406 1.423569 0.171707 0.292257 0.171118 -0.478503 0.023474 0.377163 -0.078974 0.286709 -0.459940 -0.403134 0.780156 -0.175858 -0.272345 -0.453178 0.346065 0.212138 0.698113 0.355372 -0.028633 -0.407102 -0.086943 -0.517134 -0.393678 0.184822 -0.520018 0.431773 0.159429 -0.688813 -0.090157 0.299791 0.290011 -0.883397 -0.011731 0.124230 0.090577 0.217449 0.063464 0.700614 -0.117949 -0.114482 -0.181328 -0.476606 -0.678745 -0.304653 0.046576 0.571698 0.526638 0.391775 -0.288202 0.021973 -0.783358 0.214002 0.304086 0.244772 -0.846454 -0.382076 -0.288800 -0.582092 0.321722 -0.113349 -0.041994 -0.331320 0.373221 0.003900 0.488254 -0.304636 0.498665 -0.543617 0.214206 -0.349632 -0.600340 -0.147079 0.303722 -0.069009 -0.414243 0.420967 -0.475101 -0.474123 0.103143 -0.805326 0.145075 -0.317646 -0.238714 -0.511388 0.276702 0.360595 0.493508 0.187315 -0.292247 -0.259102 -0.421717 -0.089025 -0.104048 0.014078 
83 0.729683 -0.098468 0.054012 0.242045 -0.217015 1.114182 0.157608 -0.624505 0.253579 0.504958 0.066084 0.448727 0.302613 -0.325071 -0.052956 -0.118978 -0.080892 -0.119267 -0.432299 0.251345 0.022871 -0.105740 0.909848 0.004261 0.451135 0.473276 0.181697 -0.077915 -0.601353 -0.496674 0.117311 0.511546 0.547273 -0.230307 -0.383674 0.263020 0.185857 -0.651180 0.105425 0.382286 -0.623094 0.435488 0.396255 0.421262 0.351986 0.578067 0.425874 -0.521935 -0.864971 -0.031270 0.332812 0.550384 -0.331364 -0.211663 -0.358624 0.045036 -0.206427 0.141931 0.412407 0.186723 -0.804178 -0.392813 -0.706072 -0.058576 -0.758843 -0.239743 0.210277 -0.358432 0.133508 -0.240996 -0.171183 0.081484 0.810700 -0.415786 0.100083 -0.330622 0.027960 0.090411 0.134306 0.554561 -0.540732 -0.422062 0.460696 0.793543 0.494388 -0.210447 -0.174612 -0.339029 -0.045721 -0.208663 -0.426895 0.086902 0.556923 0.235477 -0.022892 -0.617181 -0.284139 0.092175 0.649969 0.177241 
84 0.522046 0.235383 -0.303401 -0.343246 -0.792113 1.006679 -0.385561 -0.566949 -0.045061 -0.417049 -0.082438 -0.542987 -0.467966 -0.325576 0.512475 -0.300387 0.523627 0.253849 -0.582058 -0.457089 -0.050170 -0.780867 0.841396 0.186336 0.646948 -0.330579 0.407127 -0.638199 -0.623093 0.526618 -0.156812 0.514284 0.392702 0.029964 -0.252123 0.087234 0.268855 -0.688170 0.728851 -0.120271 -0.583179 0.433406 -0.648988 0.267591 -0.163030 0.601286 -0.186577 0.496906 -0.421426 -0.366842 0.299634 0.850752 -0.267550 -0.325554 -0.679298 0.608271 0.090657 0.408301 -0.382376 -0.322566 0.039084 -0.134141 -0.170447 -0.169055 0.297750 -0.405872 -0.312097 -0.586778 0.608189 -0.029672 0.337640 -0.220086 0.642087 -0.538159 -0.188998 -0.029871 0.082309 -0.278044 0.225268 -0.173121 -0.168719 0.660860 -0.188939 0.348322 -0.062111 -0.157382 0.239827 0.093692 0.400892 -0.256035 -0.135793 0.453971 0.631797 0.254390 -0.674866 -0.467294 0.174350 0.009618 0.387701 0.232411 
85 0.076027 -0.488754 0.149018 -0.019735 -0.706876 0.675688 0.498590 -0.328561 0.205821 0.717948 -0.840686 -0.140727 0.030446 0.167048 0.311408 -0.648877 -0.164943 -0.078635 -0.134749 -0.382960 0.093214 -0.854184 0.718975 -0.104127 0.267187 -0.415930 -0.528987 -0.653924 0.266110 0.046871 -0.622362 0.260602 -0.105999 -0.449286 0.610359 0.604049 -0.058881 -0.401176 0.781102 0.276001 -0.026591 0.498552 -0.592982 0.101526 -0.130162 -0.299912 0.159079 -0.532689 -0.937486 -0.312712 -0.147442 0.379074 -0.501088 0.567410 -0.285026 -0.498283 0.086015 0.306962 0.021079 -0.319730 -0.793039 -0.173591 0.175182 -0.344304 -0.189527 -0.793396 0.238800 -0.468844 0.153194 0.570747 -0.211574 0.304836 0.586790 -0.406102 -0.165042 0.292500 0.243585 0.751142 -0.299994 0.459801 -0.210223 -0.105306 -0.515633 -0.264208 -0.412015 0.066688 -0.115890 0.530044 -0.603135 -0.477520 -0.020053 -0.538497 0.470547 0.324615 -0.507367 -0.220552 0.034284 0.216445 -0.386800 -0.195021 
86 -0.080568 -0.001216 0.903088 0.290912 -0.435900 0.565916 -0.568049 0.078203 0.097736 0.121414 -0.677310 0.149098 0.318852 -0.171820 -0.473561 -0.285176 0.979213 -0.266175 0.300623 0.128879 -0.514662 -0.318504 0.673759 -0.361996 -0.305570 0.298158 -0.508132 -0.767230 0.121177 0.227011 0.140318 0.390122 -0.116877 -0.131879 0.444589 0.153514 -0.494078 -0.283540 0.495786 0.085930 -0.619576 0.057552 0.334516 0.366975 -0.525453 0.429438 -0.175033 -0.078987 -0.547016 -0.458994 -0.559450 0.053418 -0.018663 0.460588 -0.607665 -0.024974 0.180256 0.104907 0.335789 0.225163 -0.158215 -0.819741 -0.504152 -0.675622 -0.627766 -0.496865 -0.243985 -0.239943 -0.090386 0.030221 0.293584 0.115654 0.808919 -0.726442 0.296290 0.297087 0.403445 0.529186 -0.321654 0.612966 -0.491185 0.417111 -0.461533 0.384259 0.210990 -0.565891 -0.570495 -0.022809 0.144644 0.032146 -0.504444 0.457830 0.391879 -0.024917 -0.126307 -0.454604 -0.489477 -0.083862 -0.326082 -0.406724 
87 0.712135 0.228078 0.861683 -0.457982 -0.554901 0.734583 -0.004296 -0.044387 0.081804 0.166423 -0.483332 0.025796 0.544822 -0.437664 0.486917 -0.479082 0.485543 0.066659 -0.034118 0.190804 0.233747 0.010726 0.319928 0.001961 -0.097298 -0.534021 0.422624 -0.979908 0.074927 -0.173494 -0.763745 0.582622 -0.756035 -0.598156 -0.428256 0.063689 0.421067 0.124409 0.319120 0.185604 -0.583464 0.437737 -0.192106 -0.105407 0.161038 0.023128 -0.022408 0.237633 -0.802704 -0.117716 -0.035648 -0.012552 -0.371231 -0.001354 -0.645242 0.093250 -0.037387 -0.646147 -0.097412 -0.205319 -0.146782 -0.263662 -0.176815 0.176709 -0.070947 -0.508072 -0.403587 -0.456314 0.828932 0.154593 0.450479 -0.421808 0.532347 -1.136166 0.165380 0.062991 -0.493028 0.415889 0.290576 0.022839 -0.166586 -0.390231 0.107735 0.266417 0.318278 -0.810273 -0.439841 -0.318056 -0.607444 0.484565 -0.444568 -0.017745 0.335295 -0.232863 -0.898339 -0.165556 0.185060 -0.191781 -0.233175 -0.048894 
88 0.109428 -0.056714 0.500721 -0.241626 -0.105111 0.599875 -0.352151 -0.412331 0.314785 -0.140122 -0.103388 -0.460120 0.132151 -0.630273 -0.018315 -0.171165 -0.001324 0.464851 -0.068542 -0.211883 -0.338914 -0.328245 0.509392 -0.187673 -0.287194 -0.237526 -0.135151 -0.541140 -0.129672 0.065184 -0.076698 -0.000772 -0.038439 -0.313158 0.175744 0.641054 -0.504156 -0.795871 -0.051720 0.348724 -0.040142 -0.479966 -0.787280 0.057170 0.423782 0.698315 0.054808 0.087988 -0.371462 0.201973 -0.005750 0.340782 0.241408 0.604570 -0.281845 0.050578 -0.410729 -0.382507 -0.046524 -0.292480 -0.583255 -0.537570 -0.248720 -0.528936 0.084506 -0.564014 0.082119 -0.284957 0.242442 0.393941 0.553755 -0.281610 0.578504 -0.717925 -0.640307 -0.555328 0.091652 0.369832 -0.194410 -0.222834 -0.836120 -0.035975 -0.110521 0.027459 -0.312751 -0.351164 0.057502 0.044785 -0.041986 -0.343540 -0.230813 0.149499 0.490264 -0.397678 -0.503634 -0.832289 0.219178 0.001076 0.294786 -0.266825 
89 0.557736 0.602575 0.457826 0.099254 -0.476885 1.159207 0.170715 0.258231 -0.436112 -0.085550 0.120628 -0.273272 0.549656 0.035757 -0.242268 -0.275036 0.052170 -0.019419 -0.164637 -0.355003 -0.091806 -0.096824 0.665037 0.103117 0.033573 0.262417 -0.557042 -0.142876 -0.496004 0.114832 -0.226176 0.518581 -0.068320 0.023924 0.896875 0.136466 -0.090980 -0.422593 0.703088 0.510665 -0.446091 0.102992 -0.718002 0.580658 -0.298213 0.285384 -0.040559 -0.402336 -0.419067 -0.288986 -0.169633 0.094045 -0.128328 0.138756 0.014692 0.137918 -0.067716 0.087161 -0.296928 0.205558 -0.599015 -0.427129 -0.650593 -0.342219 -0.038607 0.049009 -0.089823 -0.154306 0.249547 0.215634 0.247843 -0.207874 0.429159 0.106752 -0.801376 -0.619840 0.195647 0.152434 0.034291 0.353713 -0.682513 -0.272970 -0.494003 0.674497 -0.121713 -0.010472 -0.180772 -0.578106 -0.489386 -0.065308 0.233311 -0.285930 -0.353941 0.249078 -0.835209 -0.780616 0.255594 0.370326 -0.033408 -0.254751 
90 0.915275 0.186195 -0.229697 -0.428320 -0.681902 1.204684 -0.002944 0.251730 0.318254 0.530414 -0.185591 0.142260 -0.060518 -0.111313 -0.071196 0.314993 0.508415 -0.217654 -0.831598 0.201638 -0.001677 -0.618064 0.686405 0.269186 0.150030 0.461944 0.251741 -0.558322 0.488761 -0.100953 -0.627893 0.621207 -0.368067 -0.462490 0.183899 0.320841 -0.346636 0.015411 -0.085176 0.201753 -0.210578 0.158870 -0.698001 0.208327 -0.102913 0.207671 0.507568 -0.004855 -0.896943 0.239083 -0.356849 0.752068 0.176827 0.710191 -0.084192 0.045850 -0.206877 -0.252397 0.267329 0.146099 -0.404853 -0.792155 0.086479 -0.394622 0.529935 0.094120 -0.124028 0.487516 -0.238881 0.206519 -0.217789 -0.411070 0.205442 -0.902678 -0.168381 0.073427 -0.301499 -0.000935 0.791876 0.200506 -0.928920 0.501932 -0.244222 0.296509 0.197075 -0.291411 -0.569468 0.176035 0.117673 -0.619671 -0.679048 0.488841 0.045883 -0.443994 0.044673 -1.010733 -0.149714 -0.438968 -0.367766 0.071917 
91 0.241854 0.329874 0.617057 0.061530 -0.361872 0.420643 -0.379335 -0.372393 0.043519 0.231409 -1.016525 0.342064 -0.193997 -0.161774 -0.130758 -0.703513 0.756975 0.367757 -0.128577 -0.424346 0.253158 0.074483 -0.198935 0.162194 -0.343963 -0.010158 0.336750 -0.122982 -0.743249 0.410091 0.145515 -0.021320 -0.004939 -0.566093 -0.131203 0.868416 0.523665 -0.822079 0.066963 -0.123402 -0.785615 0.434316 -0.440782 0.536102 0.148199 0.524829 -0.034998 -0.164190 -0.742310 0.073790 -0.277067 0.403340 0.403806 0.391584 -0.120434 0.695281 -0.067414 -0.488911 -0.077450 -0.552288 -0.412319 -0.091388 -0.636514 -0.205799 -0.171638 -0.677468 0.647470 0.194562 0.703601 -0.126512 0.035438 0.235962 0.147436 0.098242 -0.353485 -0.333640 -0.175055 0.269226 -0.021408 0.657057 -0.202959 0.416068 -0.558168 0.457842 -0.127290 -0.006218 -0.364514 0.204681 -0.850541 -0.191565 -0.531739 0.151658 0.706144 -0.111259 -0.094882 -0.328536 -0.664796 -0.416540 0.658997 -0.542281 
92 0.373533 0.294406 0.092939 0.376662 -0.106534 1.269383 0.320600 -0.112737 -0.345736 -0.190992 -0.073601 0.033918 -0.311066 -0.808196 0.215682 0.518044 -0.097856 0.276743 0.044301 -0.423080 -0.334911 -0.598201 0.931475 0.019207 -0.008373 -0.511817 -0.330942 -0.947808 -0.601985 0.247413 0.057540 0.156088 0.518386 -0.347593 0.557423 -0.131985 -0.514728 -0.431154 0.551026 0.081920 -0.546689 -0.427714 -0.085605 0.774476 0.098251 -0.111145 -0.199869 -0.533008 -1.074681 -0.513111 -0.373568 0.624138 0.161719 0.528266 -0.224444 0.648623 -0.342038 -0.193592 -0.105627 -0.602996 -0.353343 0.041978 -0.074964 0.221258 -0.018015 -0.514935 0.608664 -0.109105 0.053787 -0.128059 -0.036691 -0.165617 0.570133 -0.234191 0.312856 0.103210 0.417082 0.690190 0.150839 0.405616 -0.265738 0.076453 0.371438 0.415705 0.020470 -0.536111 -0.519501 0.246297 -0.822044 0.033809 -0.375210 -0.609667 0.692236 -0.368344 -0.182411 -0.093406 -0.055461 0.302581 0.041435 -0.023900 
93 0.494033 0.035162 0.513752 -0.659687 0.054950 1.350978 0.262391 0.114946 -0.494726 -0.442795 -0.418391 -0.430837 -0.238302 0.279862 0.071206 0.370269 0.663603 0.510407 0.350255 -0.198348 0.188663 0.399324 0.156558 -0.230958 0.254390 -0.524515 -0.073453 -0.552801 0.076153 0.305959 -0.249549 0.460060 -0.099065 0.028908 0.353446 0.404421 -0.342221 -0.254681 0.923338 -0.468824 0.311700 0.421551 -0.261125 0.531198 0.573516 -0.192989 0.668924 -0.016567 -0.076715 -0.316631 -0.107435 0.399529 -0.005782 -0.008295 0.132772 -0.018299 -0.561553 0.540163 0.439904 -0.242465 -0.888881 -0.565595 -0.662021 -0.429106 -0.511926 0.390740 0.173625 0.000751 0.636765 0.445846 -0.006928 -0.131171 0.606158 -1.070243 0.328476 -0.504183 0.098517 0.293878 -0.174471 0.903959 -0.825058 -0.003135 0.440797 0.778482 0.267096 -0.079084 -0.021374 0.459604 0.184218 -0.422562 -0.198693 0.164962 -0.063098 -0.521548 -0.013696 -0.472012 -0.577917 0.323370 -0.179896 -0.412338 
94 0.207361 -0.518144 0.811370 -0.469978 -0.157542 0.339814 -0.378767 0.502007 -0.391553 0.267603 0.077474 -0.315635 0.333790 -0.399300 0.269055 -0.432510 0.289543 0.306305 0.218555 -0.738973 0.197071 0.236429 0.299656 0.193493 -0.156939 0.068596 -0.333153 -0.818575 -0.665866 -0.219189 -0.769550 0.820923 0.417204 -0.724281 0.084473 0.427297 -0.420435 -0.502655 -0.155646 0.188161 -0.523738 -0.231802 -0.370990 0.204425 0.057036 0.694773 0.622303 -0.183898 -0.744704 -0.189425 -0.014196 0.203508 -0.571078 0.352294 0.185558 0.547100 -0.012424 -0.394641 -0.019055 0.464501 -0.567834 0.057356 -0.521007 -0.556852 0.059638 -0.065516 0.318881 0.703388 0.271757 -0.356261 0.016192 0.257603 0.606755 -0.952272 0.152202 0.013274 -0.032408 -0.018989 0.471102 0.310687 -0.124668 -0.139119 0.164278 0.464182 0.176021 -0.155198 -0.625594 0.251171 -0.092054 -0.649131 0.107264 -0.041006 -0.384754 -0.685142 -0.332875 -0.356114 -0.303918 0.152692 0.591914 -0.203955 
95 0.750851 0.242848 0.786112 -0.590404 -0.657109 0.704270 -0.663237 -0.597041 0.207026 -0.484163 -0.458957 -0.167537 -0.458155 -0.151212 0.367337 0.046192 0.148545 0.040021 -0.368725 -0.386507 0.233919 -0.337918 0.677154 -0.102259 0.645225 -0.451646 -0.513607 -0.020152 -0.139321 0.466912 -0.001213 0.030697 0.041196 -0.706921 0.329909 0.408645 -0.183413 -0.547015 0.328678 0.402556 0.022087 0.609864 -0.051163 0.629981 0.357608 -0.023459 0.498155 -0.332046 -0.079526 0.212143 -0.802047 0.349252 0.572244 0.161438 -0.366645 -0.073389 0.455975 0.044955 0.160271 -0.101648 -0.944286 -0.528094 0.288405 0.397738 -0.210049 -0.218597 0.730344 -0.249716 -0.102689 -0.207347 0.580453 0.032343 0.579980 -0.797226 -0.779806 0.053516 -0.407332 0.769539 0.300207 0.235830 -0.005680 -0.257067 -0.591422 0.144656 0.290122 -0.619888 -0.763060 -0.271467 -0.379479 -0.243177 0.281816 0.104952 -0.079333 -0.115630 0.102208 -0.823550 -0.031540 -0.580944 0.325848 0.201259 
96 0.271353 0.203527 0.529289 -0.099911 -0.034084 1.380728 0.480460 0.449593 0.333909 0.582945 -0.488686 -0.106229 -0.303490 -0.456351 -0.107595 0.152438 0.643006 0.148595 -0.050083 -0.357478 0.034260 -0.072258 0.202577 0.254907 0.037115 0.415496 0.271761 -1.117590 0.469034 0.172224 -0.138471 0.639709 -0.413101 -0.335409 0.578996 -0.066333 0.050054 -0.437013 -0.274178 -0.433292 -0.331034 0.540674 -0.507145 0.607742 -0.510612 0.087779 0.596719 -0.113854 -0.458071 -0.402179 0.180345 0.677010 -0.275318 0.050039 -0.808273 0.228821 -0.331390 -0.116201 0.200772 -0.602928 -0.705598 0.155357 -0.277519 -0.238319 0.242836 -0.495424 0.622484 -0.058995 0.410487 0.486477 -0.135578 -0.088956 -0.257813 -0.870560 0.245171 0.068117 0.269279 -0.193115 -0.321092 -0.129133 -0.319208 -0.294801 -0.043238 0.820058 0.337853 0.126585 -0.049202 0.085475 -0.742281 0.109820 0.033028 -0.689396 -0.130414 0.298646 -0.465436 -0.486354 0.144423 -0.106518 0.810915 0.200374 
97 0.651925 0.445372 -0.205473 0.301858 -0.860424 1.298015 0.228759 0.181573 0.365863 -0.133115 0.085683 -0.523562 -0.089825 -0.755531 -0.483866 -0.177102 0.343352 -0.083809 0.177561 -0.520455 0.275208 -0.422341 -0.095775 -0.452770 0.822550 -0.124315 0.313735 -0.045505 0.129179 0.088361 -0.804613 0.890489 -0.334158 -0.313057 -0.237589 0.286099 0.017603 -0.689098 0.095341 0.227624 -0.578983 0.329912 -0.519274 0.267824 -0.659691 0.378522 0.655796 -0.252984 -0.490280 -0.548104 0.390809 0.108348 0.106478 0.661287 -0.245033 0.716922 -0.378356 0.467982 -0.204150 -0.519851 -0.512794 0.296377 0.387756 -0.597338 -0.271732 -0.401538 -0.210831 0.086844 0.671949 -0.227433 0.040510 -0.228597 0.198704 -0.468146 -0.599924 -0.513267 0.541789 0.298073 0.035219 0.082247 -0.357436 0.325160 -0.058687 0.288186 0.426795 -0.659782 0.046164 0.336542 -0.176290 -0.843663 0.629997 0.129227 0.354924 0.450565 -0.435904 -0.327303 -0.356290 0.473657 -0.426249 -0.425263 
98 0.582835 0.723427 0.414619 0.111257 -0.546094 1.329338 0.221906 0.320892 -0.505947 -0.072100 0.158242 -0.396248 0.603153 0.100506 -0.286067 -0.291229 -0.019566 -0.067348 -0.167579 -0.379953 -0.117574 -0.073809 0.723764 0.061642 0.052094 0.331714 -0.646397 -0.113769 -0.533280 0.204062 -0.273422 0.549280 -0.045707 0.084639 1.001731 0.052533 -0.117819 -0.488226 0.800973 0.515916 -0.499939 0.109940 -0.857805 0.613046 -0.375515 0.257591 -0.044469 -0.447207 -0.414467 -0.391713 -0.175017 0.085865 -0.165209 0.085936 0.056264 0.218074 -0.042560 0.128420 -0.345215 0.193715 -0.678077 -0.438338 -0.661406 -0.420310 0.011455 0.099963 -0.131089 -0.136652 0.228263 0.220252 0.279291 -0.176243 0.455386 0.171050 -0.882078 -0.715884 0.295535 0.180678 0.078614 0.396994 -0.712669 -0.303111 -0.464425 0.743066 -0.083690 0.011186 -0.103091 -0.712241 -0.589297 -0.085873 0.251930 -0.320705 -0.454036 0.306538 -0.911437 -0.853970 0.331803 0.375811 -0.038823 -0.314470 
99 0.004110 0.003310 0.000480 -0.000574 0.000035 -0.002424 0.001819 0.004226 0.001667 0.000325 0.001241 0.000865 0.004895 0.002923 -0.003804 0.000326 0.004820 -0.002146 -0.001745 0.001777 -0.002172 0.002065 0.003524 -0.002992 0.002447 0.003830 -0.004122 -0.002784 -0.003074 0.001145 -0.002598 -0.004141 0.001853 -0.001570 -0.000834 -0.002246 0.004194 -0.001146 0.004873 0.004369 -0.001802 0.000441 0.003869 -0.001242 0.001867 -0.002790 -0.002468 -0.000413 0.002828 -0.002448 0.004699 0.000528 -0.000227 0.003392 -0.003133 0.001344 -0.003247 -0.002516 -0.001201 -0.000141 0.003667 0.000695 -0.003209 0.002463 0.001476 0.001066 -0.002803 -0.003914 -0.000088 0.001091 -0.003335 0.004897 -0.000697 0.002461 -0.002690 0.002287 0.004151 0.002669 -0.001972 0.003265 -0.002333 0.002532 0.002920 -0.000297 -0.003672 0.002018 0.000233 0.002133 -0.000760 0.003174 -0.002364 -0.000216 0.003046 0.003039 -0.001697 0.003272 -0.004513 -0.000787 0.002414 0.003888 
