100 20
0 0.453765 0.180809 0.498014 -0.184324 0.811736 0.167166 0.673366 -0.775814 -0.332045 0.700675 -0.760406 0.195044 0.340878 0.013700 0.091052 -0.199122 -0.195375 -0.086616 -0.876292 -0.054970 
1 -0.529480 0.445909 0.136207 0.449017 -0.123078 0.023783 0.056459 -0.521573 -0.348450 -0.132642 -0.826960 -1.031405 -0.370238 0.123789 0.040941 0.483287 0.104871 -0.767606 -0.483190 0.093870 
2 -0.082814 0.088421 0.187253 -0.077174 0.628017 0.178984 -0.550349 0.274436 -0.062841 -0.044242 0.230746 0.357848 -0.401039 0.223663 0.044995 0.158307 -0.459522 -0.450483 0.385519 0.427244 
3 0.279142 0.336107 0.413969 -0.209120 0.072155 0.287926 -0.275601 0.090849 0.388059 0.428093 0.282690 -0.612791 0.162812 -0.044195 0.055635 -0.077605 0.067316 0.373942 0.666883 -0.057024 
4 0.036662 0.049261 0.031622 -0.214362 0.019614 -0.074628 -0.358119 0.040792 0.427566 0.115780 -0.330195 0.193813 -0.080287 0.090592 0.675426 0.509377 0.263009 0.537144 -0.231655 0.581201 
5 3.146886 -2.268791 0.304816 -0.562158 -1.119961 -1.558491 1.758242 0.616220 1.388021 0.150768 -3.962384 -1.274145 -1.992570 -2.326786 -0.959933 -0.585311 -0.533481 -3.266526 -3.692085 -1.751183 
6 3.962901 0.221232 0.261780 0.210668 -2.524806 -1.498778 1.890319 0.990715 1.500939 0.212741 -2.943641 -1.236916 -2.926575 -1.870673 -1.924872 -1.773220 -0.535804 -2.921061 -3.388813 -1.667044 
7 2.847812 -1.487703 0.604664 -0.485378 -1.340984 -0.298163 0.505799 0.555009 0.463706 -0.472721 -1.474126 -0.990176 -1.477296 -0.947960 -2.252666 -0.601415 -0.453720 -1.990353 -3.398469 -0.236491 
8 2.064156 -1.799726 0.998155 -0.316717 -1.120385 -1.735905 0.820438 0.823752 1.493529 -0.056810 -3.476813 -1.048840 -2.180317 -1.795321 -1.943393 -1.150365 0.069770 -2.235856 -2.817716 -1.918742 
9 2.821472 -1.661639 0.893061 -0.499658 -2.309409 -0.456373 1.800321 0.304821 1.974300 -0.528886 -3.534391 -1.307770 -2.255067 -3.333419 -2.925462 -0.787755 -0.397870 -4.468438 -2.574438 -2.373173 
10 -0.223086 0.182838 -0.146563 0.270870 0.382674 0.847578 0.296976 0.372826 -0.325712 -0.463881 -0.282617 -0.321885 -0.442570 0.122420 0.055907 0.013960 0.471223 0.308488 0.302442 0.701851 
11 -0.552396 0.108350 0.043972 0.003152 -0.246023 0.316976 0.478056 0.191804 0.523339 0.096985 -0.015514 0.135076 0.310752 1.135849 0.040756 0.007081 -0.284020 -0.253698 0.170465 0.139283 
12 1.125179 -1.540339 -0.098600 0.675443 -1.049784 -0.689194 1.320612 -0.219158 -0.190091 -1.406075 -2.648176 0.582654 -1.414513 -0.999063 -0.598690 -0.563339 -0.690779 -2.065596 -3.353760 -0.853782 
13 -0.079337 -0.306871 -0.299336 0.783114 0.056428 0.481835 -0.469801 -0.303032 0.989715 0.455429 0.042876 -0.011755 -0.361026 -0.065931 0.640410 -0.327243 0.325296 -0.304644 -0.907918 -0.003844 
14 0.158125 0.107581 0.489412 0.238344 -0.154775 0.109400 -0.084160 -0.195291 -0.547938 0.132345 -0.061987 0.338783 0.363781 1.163670 0.477920 -0.160802 0.702044 -0.266934 0.110947 -0.332204 
15 2.007456 -1.270877 0.097898 0.178502 -1.916284 -0.510199 1.739662 -0.372441 1.239771 -0.903697 -2.948024 -1.268103 -0.553367 -1.650317 -1.261981 -1.013122 0.414182 -1.674994 -2.980644 -1.606902 
16 -0.447604 0.418917 0.297261 -0.097711 -0.534750 -0.323142 -0.480475 -0.426286 0.167272 0.058302 0.488226 0.254859 0.570920 0.294866 0.416450 0.346053 -0.387851 -0.495734 -0.172257 -0.480654 
17 1.533543 -1.155301 0.202960 -0.197766 -2.146518 -0.430898 0.475913 0.719069 0.960852 -1.526420 -2.462149 -0.700066 -1.589389 -1.399686 -0.311344 -0.645628 -0.049397 -2.533438 -2.067825 -0.549021 
18 3.190504 -1.890525 1.145839 -0.564505 -2.804351 -0.396650 2.153592 0.390645 2.273879 -0.774919 -4.075577 -1.474010 -2.566448 -3.957633 -3.588187 -0.936583 -0.476200 -5.386853 -2.958304 -2.887676 
19 0.455865 0.178289 0.486669 -0.168221 0.505212 0.049600 0.205051 -0.525554 0.153960 0.984071 -0.346909 -0.185143 0.180456 0.033571 -0.084933 -0.238504 0.112774 0.007380 -0.237263 -0.209445 
20 -0.515608 0.417248 0.084007 0.619235 0.132263 0.005676 -0.284725 -0.222723 -0.494306 0.257752 -0.195213 -0.850530 -0.229378 0.145069 -0.132425 0.559747 -0.136064 -0.061739 0.127188 0.370653 
21 2.990501 -2.104466 1.396075 -0.229407 -0.762442 -1.946517 2.005509 -0.246220 1.707866 -1.697617 -2.258200 -2.138550 -2.773608 -1.056616 -0.904023 -1.196832 -0.355412 -2.383774 -3.004751 -2.084302 
22 0.212306 0.032619 0.423070 -0.453748 -0.557093 -0.349754 -0.387475 -0.431843 0.391751 -0.275034 -1.096272 -0.209769 -0.315944 -0.192398 0.289053 -0.896845 0.072604 -0.281130 -0.690712 0.849512 
23 0.262270 -0.015094 0.063395 0.216702 -0.164478 -0.744321 0.176178 0.006356 0.330791 0.107795 0.010368 0.035497 0.457496 -0.169868 0.433154 0.268291 0.469249 -0.160699 0.283412 1.082397 
24 3.749622 -0.991500 -0.353409 -0.092428 -1.247767 0.138910 1.863945 -0.930982 1.422343 -1.250560 -2.912290 -1.263324 -1.687619 -2.020141 -1.083136 -1.069791 -1.415054 -3.577529 -2.360707 -1.435471 
25 4.137805 -0.986411 -0.598133 -0.045047 -1.721329 0.611138 2.329957 -1.102233 1.762588 -1.570868 -2.720300 -1.594510 -2.163083 -2.548981 -2.009045 -0.919831 -1.483729 -4.319155 -2.184488 -2.256615 
26 12.309534 -3.118239 0.913050 1.911932 -7.968431 -2.271578 2.155707 1.465194 6.296534 -2.606754 -8.984275 -5.211417 -5.644330 -7.809369 -13.969693 -4.155622 -0.866821 -14.726342 -2.932479 -10.069675 
27 2.579139 -2.874893 0.951968 -0.174490 -0.329612 -0.547992 0.772648 -0.094886 2.015364 -1.474016 -4.137650 -1.095435 -1.032907 -2.272280 -1.967750 -0.604372 -0.654265 -3.537936 -2.239648 -1.922025 
28 3.927874 -1.326550 1.199995 -0.170834 -0.406013 -0.816121 2.174253 -1.002317 1.573114 1.143438 -3.858259 -1.302173 -1.772834 -2.174096 -3.154000 -1.486980 -0.424926 -3.342299 -2.951486 -2.906163 
29 0.982407 -1.279496 0.952845 -0.477698 -0.816351 -1.344024 0.386769 1.155555 0.996828 -0.190060 -2.899216 -0.642671 -1.065495 -1.435405 -1.374772 -0.868938 0.474734 -1.733442 -2.634492 -1.108910 
30 0.019426 0.191726 0.056145 -0.081266 0.582496 0.135817 0.292618 -0.168138 -0.006050 0.288291 0.111200 0.054003 0.316817 -0.026091 0.749573 -0.018194 -0.131837 0.268455 -0.587542 0.522848 
31 0.622067 -0.905528 0.263751 -0.233409 -0.611958 -0.427061 -0.010438 -0.195825 -0.383530 0.191579 -0.776273 -0.377387 -0.426174 0.691677 1.090362 -0.061685 0.059522 -0.147349 -0.380246 -0.039311 
32 3.838525 -1.599586 0.595363 -0.598911 -1.286651 -1.793334 1.728644 0.058377 2.340687 -1.900985 -3.710763 -2.523987 -2.551323 -2.627693 -3.053665 -1.281854 -0.777754 -4.411161 -3.476580 -2.730691 
33 0.204194 0.004146 -0.043552 0.210153 0.016713 -0.747137 0.277104 -0.109355 0.249488 0.153355 0.190506 0.119735 0.466653 -0.157864 0.176938 0.306315 0.439869 -0.189436 0.409097 0.984076 
34 2.803755 -1.773055 1.743656 -0.083543 -0.639508 -1.801670 1.965982 -0.168562 1.520999 -1.769192 -2.563558 -1.920354 -2.482747 -0.846945 -0.826153 -1.121289 -0.230938 -2.765830 -3.323122 -2.039839 
35 0.636949 0.162288 0.193191 0.055165 -0.003921 -0.003357 -0.654069 -0.150128 -0.724551 -0.433460 -0.073835 0.020547 -0.179443 -1.073014 0.649832 0.094884 0.396421 -0.024340 -0.351483 -0.209490 
36 2.393895 -1.087236 0.345293 0.289981 -1.927501 -0.314495 1.692807 -0.545214 1.209190 -0.966912 -3.308181 -1.420017 -0.246382 -1.700498 -1.353901 -0.957757 0.282889 -1.867893 -3.203714 -1.617209 
37 -0.195470 0.584064 0.397167 -0.227023 -0.404307 -0.476397 -0.567940 -0.428077 0.084576 0.303876 0.616707 0.328615 0.389180 -0.005852 0.305070 0.289670 -0.465126 -0.333932 -0.104409 -0.480682 
38 -0.712697 -0.098490 0.564651 -0.076635 0.086472 -0.386086 -0.550143 0.839033 -0.072651 0.252632 -0.380027 0.062423 0.376536 0.058001 -0.004626 -0.072016 0.449288 0.334687 -0.418236 0.120721 
39 0.378169 0.393275 -0.437646 0.293596 0.372890 -0.328927 -0.370595 0.055449 0.032241 -0.306403 -0.260730 -0.135384 0.295535 0.507055 0.024726 -0.293435 0.075267 0.000549 -0.131845 -0.201301 
40 0.402679 0.273428 0.286227 0.057052 0.130326 -0.017525 -0.773900 -0.055145 -0.617976 -0.112067 0.168989 -0.098671 0.071342 -0.855300 0.603135 0.222191 0.348274 0.332895 -0.043524 -0.013140 
41 0.828600 0.074609 -0.218100 -0.007515 -0.043131 0.588919 0.509813 -0.806675 -0.132915 -0.358930 -0.064357 -0.152903 0.124159 0.064499 1.066962 -0.153998 -0.618431 -0.293032 -0.349998 0.557742 
42 2.466940 -1.087825 0.001778 0.190326 -0.556675 -2.174507 1.342261 -0.044718 1.978949 -0.670603 -5.048641 -0.482207 -1.782323 -2.342427 -0.836710 -1.988914 -0.512356 -2.722337 -2.132852 -1.917708 
43 0.350877 0.419676 0.700405 -0.944279 -0.223052 -0.256882 0.607822 0.337454 -0.832462 -0.555277 -1.037584 -0.088632 0.404947 0.168213 -0.036795 -0.077094 -0.030059 -0.348895 -0.102780 -0.069433 
44 0.194040 -0.343566 0.005708 0.220757 -0.321306 -0.148436 -0.360520 -0.165247 0.813625 0.392142 -0.658138 -0.360848 -0.322448 -0.141345 0.808723 -0.481401 0.343002 -0.384915 -1.013765 0.581501 
45 -0.095219 -0.595408 0.494491 0.074593 0.453986 0.326323 -0.520424 -0.178780 0.229422 -0.204268 -0.058528 -0.122112 0.572392 -0.019784 0.007738 0.206023 -0.177539 0.120269 0.487792 0.080377 
46 1.854763 -0.603016 0.090472 0.045654 -0.977681 -1.108408 2.028236 -0.359850 1.618741 -0.811737 -3.832706 -0.895215 -2.107066 -2.218363 -0.454204 -1.433969 -0.275947 -2.868691 -1.520602 -2.667166 
47 -0.353947 0.178035 0.043610 -0.148865 -0.105965 0.340890 0.521001 0.218495 0.415544 0.256075 -0.062312 0.117288 0.419799 1.152728 -0.098543 0.003862 -0.566622 -0.222907 -0.048202 0.350609 
48 0.420460 0.542866 -0.659317 0.415057 0.525078 -0.381058 -0.569304 0.062151 -0.055793 -0.376445 -0.120465 -0.147037 0.479669 0.736170 0.055136 -0.335085 0.105179 0.156050 -0.007084 -0.218413 
49 0.002468 -0.137023 -0.245040 0.026269 -0.176160 0.212463 -0.318972 0.116082 -0.048938 0.314454 -0.270432 0.034842 0.175763 0.046019 0.232933 0.343051 -0.464974 0.302413 0.454021 0.108656 
50 1.815375 -0.997214 0.447966 -0.680164 -1.116609 0.527599 0.331743 0.429843 0.699219 -0.485222 -2.811254 -1.384398 -1.929604 -1.321883 -0.927973 -1.524361 -0.820115 -1.971718 -2.699986 -2.169295 
51 0.181321 0.477355 0.562699 -0.659364 -0.043697 -0.021070 0.469090 0.191288 -0.868916 -0.408033 -0.423451 0.037742 0.565374 0.267898 0.213197 0.126489 -0.140967 0.091021 0.257585 0.255271 
52 -0.353278 -0.150258 0.242436 0.397042 0.046115 -0.305959 0.017416 0.378257 -0.231754 0.221344 0.279531 -0.244827 0.519872 -0.252310 0.344541 -0.658338 -0.092867 -0.045468 0.109894 0.510995 
53 3.802492 -2.348256 0.517680 -0.589958 -1.463137 -0.546251 0.939306 0.629356 1.501290 -0.654890 -2.838256 -1.426539 -1.779788 -1.994734 -2.984706 -0.657679 -0.679953 -3.629203 -3.959143 -1.198354 
54 5.141533 -2.451753 0.399569 -0.893171 -2.103338 -1.421934 1.642045 1.146484 3.157288 -0.997339 -3.932266 -0.250413 -1.921374 -3.223047 -2.860197 -2.457817 -0.432511 -4.072490 -3.015776 -3.201386 
55 0.179120 0.351919 -0.024104 -0.338903 0.056601 0.118980 -0.325581 -0.044841 0.412228 -0.034173 -0.216081 0.325952 -0.347835 0.225982 0.345082 0.837350 0.315803 0.610051 -0.139051 0.312432 
56 2.426382 -0.833380 1.636812 0.178274 -1.773548 -0.727349 0.159897 -1.331392 1.471659 -1.436128 -3.375877 -0.299263 -1.972210 -1.174098 -2.455809 -2.347975 -0.747748 -1.998667 -1.738424 -0.637803 
57 2.551383 -1.653094 0.416480 -0.659171 -0.707114 -0.624126 0.507170 -0.041867 0.384868 -0.431346 -2.370134 -0.899833 -1.492411 -0.928320 -0.919490 -1.388708 0.753610 -3.211442 -2.552079 -0.955887 
58 0.185774 -0.163795 -0.234658 -0.174430 -0.442281 0.104042 -0.514680 0.104628 -0.017290 0.488483 -0.465326 -0.286839 0.273970 -0.003860 0.586165 0.176750 -0.332686 0.319619 0.435181 0.389075 
59 0.070859 0.355862 -0.279462 0.264096 -0.282238 0.672032 -0.170038 0.187492 0.010513 0.434673 -0.580837 0.550228 0.352943 -0.269442 -0.053137 -0.062029 -0.013673 -0.394072 0.033481 0.116391 
60 0.615133 -0.095751 0.275022 -0.700506 -0.050435 0.517314 0.349458 0.366233 0.279775 -0.495214 0.034263 1.001254 0.352932 0.041413 0.815829 -0.743492 0.112512 0.056693 -0.436835 -0.139143 
61 -0.341188 0.104870 -0.131075 -0.007270 -1.151251 0.320206 -0.220499 0.612283 0.383871 -1.446147 -0.078243 -0.309331 -0.297925 0.035299 0.629724 -0.056007 0.286415 -0.814976 -0.057144 -0.136247 
62 4.881319 -1.030416 0.008996 0.443845 -3.065421 -1.951186 1.648339 1.267555 4.324383 -1.673903 -5.731804 -2.576974 -2.628287 -5.579095 -6.305925 -1.176844 -2.513479 -5.240637 -2.602242 -4.147836 
63 -0.035160 0.417493 0.327034 -0.098262 -0.326980 -0.321798 -0.323003 -0.569361 0.226617 0.095794 0.117873 0.089346 0.615434 0.141625 0.436947 0.119512 -0.502126 -0.792438 -0.783079 -0.388338 
64 0.174712 0.202651 -0.118126 0.010270 -0.461549 0.660538 -0.328058 0.148247 -0.090329 0.655727 -1.150018 0.588841 0.418634 -0.239374 0.147626 -0.280606 0.397202 -0.674048 -0.355903 0.182952 
65 1.380314 -1.520259 1.201539 -0.750638 -1.561754 0.049390 1.557767 -0.163884 0.805883 -0.004545 -2.225328 -0.697485 -1.998756 -1.903448 -0.637780 -0.460215 -0.250766 -2.282095 -2.370307 -0.722309 
66 1.509030 -1.463855 0.049435 0.709339 -1.227337 -0.588707 1.432216 -0.127833 0.142740 -1.272800 -2.829557 0.202104 -1.424985 -1.132096 -0.785424 -0.672256 -0.632811 -2.464958 -3.210108 -1.263527 
67 1.907926 -0.787200 0.743542 -0.652492 0.377185 -0.918604 0.570965 0.593314 0.767734 -0.456907 -2.232518 -0.233271 -2.804897 -0.866930 -0.577226 -0.927116 -1.068934 -3.658566 -1.911898 -1.072916 
68 2.558964 -0.577043 -0.732527 0.294709 -1.864739 0.710346 0.807584 0.488335 1.229065 0.583550 -3.828278 0.290829 -0.949287 -2.644742 -2.231281 -1.151858 -0.455352 -3.490484 -1.868568 -1.563782 
69 3.301214 -0.005622 -0.164951 -0.241370 -2.365262 -1.128584 1.687522 0.861392 1.340849 -0.153150 -2.812400 -1.512169 -2.516198 -2.311021 -2.507610 -1.478417 -0.339774 -3.386198 -2.983090 -1.941659 
70 0.215705 -0.162470 -0.234957 -0.287383 -1.180352 -0.148986 -0.326164 0.729725 0.517436 -1.093076 -0.539828 -0.474178 -0.292384 -0.217257 0.753348 -0.233211 0.243859 -0.792582 -0.412991 0.290192 
71 -0.488698 0.581915 0.103671 0.377858 -0.252015 0.204623 0.388402 -0.213524 0.053303 -0.167123 -1.056465 0.149485 -0.203666 -0.060433 0.671803 -0.210094 0.417347 -0.594936 0.256889 -0.511303 
72 -0.568813 0.816885 0.402871 0.183366 0.498980 0.522935 0.212291 -0.070692 0.347899 -0.568397 0.493888 0.274296 0.077275 -0.119105 -0.129978 -0.183196 0.513943 -0.278126 -0.296992 0.152137 
73 1.503763 -2.220919 0.511155 -0.311707 -0.533792 -0.128407 0.684490 -0.525030 1.455644 -1.269064 -3.142553 -0.614906 -0.720692 -1.420026 -0.736433 -0.626322 -0.035994 -2.607700 -1.658938 -1.643735 
74 3.757031 -2.290262 0.164362 0.603468 -0.783820 -0.331468 2.133397 1.012549 1.396378 -0.824072 -4.364610 -1.490763 -2.970731 -2.012460 -2.317133 -1.735127 0.363732 -2.405995 -2.225678 -1.179904 
75 1.929471 -1.013396 0.488963 -0.366900 -1.030578 1.043408 0.721387 0.126053 0.483860 -0.872764 -3.408140 -1.344795 -2.045895 -1.111207 -0.993755 -1.691567 -1.278327 -2.541464 -3.309412 -3.221427 
76 -0.123803 -0.030496 -0.232519 0.305752 0.454475 0.197841 0.414930 0.878728 -0.068576 0.319164 0.310892 -0.039815 0.249421 0.053857 0.611234 0.850541 -0.078727 -0.132725 -0.031880 -0.448198 
77 0.259171 0.522171 0.130384 -0.493602 -0.163424 0.439001 0.009151 -0.331938 0.531271 -0.524264 -0.656545 0.444835 -0.392336 0.554039 0.105673 1.005234 0.657276 -0.076836 -0.499980 -0.326444 
78 2.633199 0.055167 -0.026645 -0.371517 -1.867669 -1.118076 1.486014 0.657016 0.675219 0.109471 -2.317555 -1.099302 -2.285208 -1.621850 -1.162063 -1.429277 -0.216000 -2.231337 -3.053508 -0.900004 
79 8.880953 -2.973130 -0.507183 1.054816 -4.942762 -2.022942 3.006848 3.225171 4.724732 -1.167412 -7.076495 -4.413829 -3.597369 -6.655456 -9.629663 -1.243322 -0.411570 -11.843760 -3.705216 -9.118913 
80 0.582964 0.237629 0.395295 -0.807532 -0.186080 0.088805 -0.110155 0.105278 1.002307 0.301375 -0.523772 -1.136798 0.014694 -0.220719 0.482040 -0.422113 0.478047 -0.385345 0.049505 0.032284 
81 -0.455045 0.578739 0.432848 0.259764 0.617912 0.310550 0.197208 0.142626 0.196499 -0.268054 0.438360 0.304734 0.087465 -0.158145 -0.120772 -0.216624 0.274142 -0.022268 -0.273872 0.181658 
82 0.380970 0.376986 -0.656559 0.387418 0.449741 -0.219700 -0.476004 0.069086 -0.004166 -0.340341 -0.018925 -0.117452 0.552952 0.763336 0.194736 -0.364588 -0.006770 0.147841 -0.110894 -0.130978 
83 2.265160 -1.016122 0.039974 -0.514226 -1.307521 0.162680 0.703812 -0.066811 0.421365 0.031138 -2.317244 -0.928560 -1.182949 -0.861068 -0.878893 -1.036387 0.926743 -3.388994 -2.079673 -1.192607 
84 2.608116 -1.372925 0.654174 -0.360610 -1.079719 -1.371220 2.127619 0.611180 2.780208 -1.148681 -3.730424 -1.369356 -2.410650 -3.287631 -1.929741 -0.726693 -2.051684 -1.994501 -3.544943 -2.065885 
85 0.093550 -0.373449 0.321350 -0.109447 -0.015859 0.355070 -0.594263 0.180536 -0.063196 -0.037604 0.347063 -0.286675 0.623237 0.275147 -0.210072 0.277159 -0.110831 0.101616 -0.466289 0.516850 
86 0.033288 -0.011614 0.103753 0.456150 -0.443159 0.284910 0.151163 -0.092210 0.053725 -0.030776 0.349963 -0.113468 0.560078 -0.046940 -0.404716 0.272902 0.099537 0.874608 0.130938 -0.187193 
87 -0.386662 -0.323209 0.204324 0.622365 -0.009811 0.104191 0.139752 0.176299 -0.530541 0.145056 0.487882 -0.361188 0.551821 -0.155404 0.303154 -0.908144 -0.398488 -0.275333 0.372575 0.031908 
88 2.477125 -1.337031 -0.212962 -0.050033 -0.678207 -0.479233 1.718533 1.236446 0.929599 0.079767 -1.859127 -1.343576 -1.054541 -1.593178 -0.688686 0.043364 -0.091257 -2.765329 -2.235016 -2.188548 
89 -0.331932 0.472229 0.211513 0.191033 0.467346 0.364442 0.111380 0.126082 0.175589 -0.251299 0.412790 0.306668 0.031097 -0.067018 -0.084338 -0.015378 0.154827 0.007815 -0.046407 0.134729 
90 0.154072 -0.482318 0.331524 0.007269 -0.456358 -0.473319 0.043619 0.324825 0.052568 0.123419 -0.615512 -0.537669 0.147576 -0.543277 0.705964 -0.836507 -0.092393 -0.494174 -0.608498 0.585589 
91 8.863393 -2.911075 0.919807 1.029048 -6.322264 -3.978397 1.084324 3.371203 5.507537 -1.468258 -9.784412 -4.391487 -3.946019 -6.948589 -12.315958 -3.206343 0.635199 -12.838776 -4.660592 -9.263762 
92 -0.271284 -0.288826 0.827425 -0.154692 -0.361164 0.295179 0.249697 -0.133442 0.069269 0.537048 0.130400 0.078440 -0.128127 -0.425686 0.736094 0.183886 0.047977 0.227084 0.210005 0.548416 
93 0.096654 -0.125944 0.289639 -0.282429 -0.309542 0.200689 -0.546592 0.532344 0.209062 0.075733 -0.719778 -0.450287 -0.297119 -0.083824 0.868275 -0.713311 -0.410861 0.513064 -0.757811 -0.048892 
94 -0.097164 0.238043 0.192627 0.295126 -0.070151 -0.361389 0.128537 0.084390 0.336931 -0.154117 0.035304 0.013051 -0.109860 -0.176158 0.276449 0.111558 -0.792118 0.990176 0.090047 0.255806 
95 2.919430 -1.821059 0.235284 2.281785 -2.245758 -1.229324 1.527207 0.558443 0.292106 -1.291272 -3.317305 1.280003 -1.988165 -1.746215 -2.977148 -0.379650 -1.220064 -3.565847 -2.771384 -2.327935 
96 2.635769 -1.189309 0.566349 -0.564186 -0.192824 -1.082828 0.436152 0.837022 1.133850 -0.174787 -2.769015 -0.442985 -2.707633 -1.515172 -1.115968 -0.985265 -1.033852 -3.578744 -1.678866 -0.993877 
97 1.814605 -0.784348 0.973317 -0.121200 -1.626796 -0.623468 0.305854 -1.274617 0.848071 -0.612860 -2.284777 -0.354495 -1.939305 -0.765460 -1.224242 -1.966572 0.108804 -1.497845 -1.461206 -0.359765 
98 -0.355431 0.838553 0.442431 0.201337 0.565223 0.555672 0.308520 0.085445 0.451019 -0.622432 0.247844 0.327608 -0.001498 -0.258100 -0.073494 -0.305300 0.407449 -0.490848 -0.625900 0.119617 
99 0.020549 0.016552 0.002402 -0.002872 0.000173 -0.012121 0.009096 0.021129 0.008335 0.001626 0.006203 0.004327 0.024477 0.014616 -0.019021 0.001632 0.024099 -0.010732 -0.008724 0.008883 
