100 20
0 -0.587970 -0.879933 -1.187373 -0.443521 -0.126529 0.274154 -0.008519 -0.253119 -0.255256 -0.463124 -0.429144 0.557054 -0.289927 0.290329 0.133493 -0.684894 -0.000180 0.461869 -0.153974 -0.241445 
1 0.925674 -2.511870 -0.931953 -1.804243 -0.614795 -1.522392 2.355697 0.557070 -1.296297 1.663796 -1.782495 -1.124646 0.622776 -1.200552 -0.667880 -0.665397 3.912306 -0.880520 0.933591 1.312625 
2 0.488563 -3.561683 -2.088048 -1.858627 -1.112819 -0.771140 1.303254 -0.108933 -1.401450 1.314886 -2.402302 -0.530196 0.249092 -1.117013 -0.716416 -1.478955 3.702302 -0.617383 1.041351 1.508062 
3 -0.074265 -0.510738 -0.660479 -0.219803 -0.317551 -0.209120 0.344379 0.487025 -1.378780 0.299804 -0.370448 0.729441 -0.165376 0.828766 -0.087399 0.326267 1.042865 -0.817271 0.162045 0.305347 
4 -0.242634 -0.745713 -0.267023 -0.163442 -0.358551 -0.172151 1.166204 0.665284 -0.742815 0.681107 -0.708690 0.276726 -0.426849 -0.165311 0.214260 -0.241767 0.688591 0.182774 -0.781159 0.242708 
5 0.277997 -3.202249 -2.510450 -1.845663 -1.338688 -1.585705 1.808245 -0.149044 -1.405919 1.144923 -3.054405 0.522901 0.868770 -1.606626 -0.468780 -0.472238 4.239535 -0.344668 1.428923 1.196366 
6 -0.467105 -3.558616 -1.778071 -2.021972 -2.148943 -1.130532 1.825601 -0.957837 -1.662143 1.681240 -2.933015 -1.001768 1.390225 -0.698494 0.530907 -1.217128 3.756468 -0.852449 1.592256 1.442608 
7 -0.045842 -0.698742 -0.372528 -1.015271 -0.161399 -0.354486 0.494824 0.359535 -0.817002 0.174448 -0.453886 -0.006368 -0.093760 -0.011941 -0.150568 -0.017818 0.499469 -0.610397 -0.156870 -1.007426 
8 1.591350 -2.997563 -1.820834 -1.986781 -1.401344 -1.274166 2.161042 -0.701321 -1.656228 0.724032 -2.319325 -0.189003 0.651399 -0.935551 -0.106325 -1.543775 3.336718 -0.180694 1.086632 1.148929 
9 0.267039 -2.823211 -2.358857 -0.854039 -1.325856 -1.768419 1.738789 0.357408 -2.257909 0.665170 -2.837603 -0.130523 1.072930 -0.374021 -1.356322 -1.049535 3.469376 0.007839 0.997908 0.938747 
10 0.299057 -0.437649 0.039038 -0.355242 0.630639 -0.063756 0.073285 0.577779 -0.643406 -0.425708 -0.078433 0.392150 -0.625747 -0.344991 -0.880377 0.154996 0.595219 0.274268 -0.202793 0.018807 
11 -0.680120 -0.895811 -1.143431 -0.649193 0.038049 0.320502 0.038104 -0.074475 -0.306833 -0.515312 -0.446271 0.403029 -0.191848 0.169121 0.210587 -0.873435 -0.071435 0.463634 -0.095726 -0.112976 
12 0.522181 -0.167247 0.318896 0.018351 0.072525 -0.288089 0.818396 0.929527 -0.065786 0.369718 0.038260 -1.249693 -0.099212 -0.107217 -0.274392 0.413100 0.470441 -0.646435 0.181093 0.315652 
13 -0.805851 -3.039270 -1.094355 -1.856957 -0.682118 -1.282062 2.473960 -0.993207 -1.874500 0.049521 -1.700075 0.255052 1.233237 -1.403804 -1.312671 -1.564001 3.291141 -1.573853 0.834928 1.909019 
14 -0.468910 -0.034121 0.335094 0.096277 -0.011943 0.382809 0.791205 0.831179 -0.130363 0.460600 -0.201015 0.193918 -0.238746 -0.256789 0.376816 -0.346681 0.023709 0.411244 -0.969153 0.099972 
15 -0.135889 0.135571 -0.782068 -0.390795 0.157715 0.528657 0.691996 0.844710 -0.227049 -0.850108 -0.107591 -0.797500 -0.236779 -0.134574 0.280086 0.135627 0.484694 -0.353059 -0.127455 0.440328 
16 -0.641528 -0.510197 -0.495004 -0.287150 0.185930 0.374643 -0.126852 -0.010020 -0.126860 -0.607410 -0.190732 0.357676 -0.166425 0.229980 0.251647 -0.741286 -0.342206 0.364260 -0.092325 -0.092557 
17 -0.180845 -0.457918 -0.566145 -0.242871 -0.328934 -0.279075 0.444437 0.477500 -1.510484 0.241931 -0.496859 0.779096 -0.138247 0.853410 -0.050466 0.046777 1.171690 -0.824879 -0.021862 0.322535 
18 -0.046888 0.361088 -0.338408 0.735070 -0.028790 -0.402117 -0.105560 0.575413 -0.350811 -0.079180 -0.475762 0.039860 0.369033 0.468297 -0.574789 0.099928 -0.521026 0.203620 -0.100461 -0.316564 
19 -0.251877 0.573978 0.127274 -0.667735 0.238856 0.033933 -0.007287 -0.195983 -0.123402 0.194698 -0.393310 0.057514 0.420728 0.130083 -0.272831 -0.312558 0.774007 0.039203 -0.528108 0.400848 
20 0.254273 0.501136 -0.512391 -0.148727 0.443155 -0.492914 -0.505987 0.051187 0.167759 -0.407416 0.055638 -0.072271 -0.035034 0.432605 -0.237359 0.172747 -0.587253 -0.539645 0.505311 -0.203452 
21 0.664898 -2.979921 -1.982248 -2.212715 -0.043108 -1.361836 0.785846 -1.066337 -1.184035 0.126562 -2.011130 -0.899253 1.243076 -0.455908 -1.016027 -0.883939 3.648545 -1.006696 2.482956 1.059747 
22 0.277153 -3.193710 -0.786972 -2.312314 -0.733543 -1.375616 1.903824 0.456564 0.188161 0.129640 -2.452170 0.427071 0.725390 0.077679 -0.359460 -1.086302 3.977165 -0.266022 0.754973 1.121839 
23 -0.379873 0.057128 0.650497 -0.073012 -0.176482 -0.126649 -0.407448 0.182404 -0.319494 -0.168145 -0.490286 0.158017 -0.278369 -0.089614 -0.361690 0.381676 -0.368200 -0.148611 -0.086727 -0.534009 
24 -0.167203 -2.020705 -1.410989 -1.498074 -0.431684 -1.869209 2.148087 -0.055829 -1.564286 0.014765 -0.911208 -0.385674 0.247903 -0.548148 0.308176 -0.064677 2.737639 0.384955 0.601073 0.271694 
25 0.226926 -1.391126 -1.106466 -1.686662 -0.458194 -0.171103 0.799426 0.676532 -0.730325 0.441792 -0.420990 -0.848093 0.161299 -0.421885 -0.035273 -0.472396 1.706542 -0.422694 0.175112 -1.025364 
26 0.763260 -16.276459 -3.859308 -6.379385 -0.671005 2.365470 6.377273 -3.685630 -5.805588 2.628865 -8.451554 -3.631594 6.310202 -9.083318 1.389389 -4.819803 17.561495 2.372488 4.107146 6.766511 
27 0.868543 -0.796940 -0.068279 -0.821601 0.075280 -1.066678 1.906338 0.816892 -0.906980 1.269904 -0.814873 -1.131865 0.455733 -0.713211 -0.568809 0.138513 2.426267 -1.073008 0.365971 0.816040 
28 0.086228 -1.650140 -1.919586 -2.427256 -0.819663 -1.542955 1.305512 -0.812760 -1.763933 1.120630 -2.630375 -0.125066 0.680811 -0.438074 -0.721562 -1.121743 4.530777 -0.197311 -0.132672 1.446746 
29 -0.163197 0.393058 0.082904 0.382278 0.346658 0.228261 -0.318362 -0.264269 -0.593799 0.163044 0.181484 -0.307882 0.053379 -0.384656 0.032859 0.003385 -0.524586 0.019408 -0.000341 -0.010057 
30 -0.532330 0.070134 -0.392831 0.137343 0.024040 -0.588954 0.159599 0.392753 0.341778 0.029647 -0.007978 -0.763996 -0.778426 0.242115 -0.040763 -0.305302 -0.167862 -0.050156 0.085226 -0.006435 
31 0.193690 -3.111986 -2.047197 -1.165687 -0.761820 -0.580375 2.124373 0.676179 -1.754217 0.735793 -2.155177 -0.840212 2.015159 -0.586690 -1.454196 -1.570957 3.756407 0.585113 0.940499 0.758668 
32 0.040373 0.453181 -0.361984 0.245395 0.613385 -0.526918 -0.023062 0.435200 -0.021555 0.572850 0.334505 0.563468 -0.030171 0.343291 0.364534 -0.203973 -0.408604 -0.130554 -0.052421 -0.073233 
33 -0.285670 0.071487 -0.019623 0.053311 0.674047 0.262432 0.279617 0.378673 0.054229 0.260625 -0.631882 0.537632 0.468856 -0.651681 -0.124978 0.208373 -0.115866 -0.406513 0.186675 -0.093888 
34 0.280617 -2.764078 -1.235797 -0.336365 -0.567266 -0.729380 1.529871 0.635419 -1.137235 0.266087 -1.167963 -0.104854 -0.032229 -0.433921 -0.079883 -0.505879 1.512329 -0.646695 1.175578 0.565954 
35 0.698819 -9.374884 -2.889136 -4.448644 -1.196000 1.283683 3.430276 -1.508573 -5.099921 2.252006 -4.650481 -0.365006 2.416131 -3.550542 0.910367 -1.854646 11.348225 -0.668964 2.663677 3.433632 
36 0.217582 -2.063493 -1.355585 -0.838845 0.451808 -0.426467 1.265503 -0.277956 -0.621472 0.439301 -0.889379 -0.809916 0.395759 0.220182 -0.192880 0.371568 1.217672 -0.458553 -0.849183 0.108835 
37 -0.155917 0.058609 -0.273760 -0.505625 -0.886450 -0.811518 0.358381 0.647665 -0.942121 0.059537 -0.752805 0.374058 -0.836286 -0.309330 -0.314590 -0.700432 0.753045 -0.247567 0.917028 0.241570 
38 -0.231332 0.064460 -0.462506 0.315933 0.392828 0.213668 0.053142 -0.275621 -1.222764 0.455764 0.134720 -0.575393 -0.187295 -0.645009 -0.031073 -0.089133 -0.423380 -0.175613 -0.092184 0.094190 
39 -1.321812 -2.301731 -1.407496 -0.946698 -0.166798 -0.824927 0.556530 0.462867 -0.781043 0.967380 -1.185052 -0.486037 -0.031234 -0.636133 -0.799215 -0.312036 3.184436 -0.266269 0.697269 0.951141 
40 -0.283156 0.485522 -0.069965 0.781346 0.179597 -0.143046 0.304837 -0.219467 0.172508 -0.105321 -0.563413 0.099660 -0.740748 0.291798 -0.145422 0.000894 -0.102420 -0.497697 -0.111494 -0.743386 
41 0.795415 0.523130 0.236460 -0.032481 -0.019334 0.109744 0.447006 -0.001201 -0.112692 -0.255849 -0.224633 0.411152 0.252280 0.033546 0.255726 -0.206781 -0.632473 0.016120 -0.256995 -0.136974 
42 -0.145494 -0.213101 -0.160851 0.259608 0.425259 -0.154050 -0.241445 -0.320568 -0.140370 0.085323 -0.293703 0.145551 -0.071771 0.261757 0.021733 0.745966 -0.680492 -0.427304 -0.775104 -0.008714 
43 -0.343919 -1.637455 -0.998054 -0.939928 -0.459634 -0.561650 1.808602 0.343883 -0.808069 -0.189823 -0.033988 -0.242663 0.391568 -0.495345 -0.806299 -0.780325 1.275467 -1.027393 -0.164499 0.526194 
44 0.173603 -1.663087 -1.460250 -0.010365 -0.328267 -1.353440 1.313791 -0.090861 -0.956494 0.430129 -1.887691 0.119537 -0.238521 -0.060424 -0.438676 -0.621720 1.808152 -0.141159 0.572674 2.083423 
45 0.238008 0.200766 0.159246 0.184991 0.713574 0.239789 -0.322276 0.236318 0.306982 -0.391067 -0.028729 0.070147 -0.559232 -0.616571 -0.282484 0.032355 -0.105847 0.258289 -0.019717 -0.074495 
46 -0.176458 -1.319553 -1.458496 -0.845807 0.909451 -1.132273 1.222842 0.411740 -0.565265 1.118120 -0.439658 0.100521 0.259461 -0.078779 0.237125 -1.342452 2.217375 -0.374979 0.546283 0.097327 
47 -0.039814 -1.218594 -0.733896 -0.046575 0.383873 -0.490724 0.370138 -0.316828 -0.462622 0.350438 -0.678983 -0.006940 0.141701 0.391925 -0.061557 0.885047 0.235450 -0.503811 -0.880513 0.125747 
48 -1.384483 -0.353388 -0.185151 0.050784 0.576855 0.124811 -0.319653 0.832407 0.325033 0.290223 0.129368 -0.407324 -0.306596 -0.119949 -0.395641 0.142439 0.443088 -0.106391 -0.020339 0.245631 
49 -0.135602 0.197744 0.553899 0.153020 -0.343217 0.345544 -0.412100 -0.102863 0.161039 -0.455678 -0.344375 -0.289330 0.126021 -0.047205 -0.039949 0.303405 -0.349897 -0.010369 0.097952 0.117692 
50 0.180021 -0.875628 0.228402 -0.585698 -0.027380 -0.203407 0.735926 0.952529 0.940914 -0.584099 -0.346528 0.064775 -0.003657 0.773392 -0.122248 -0.070003 0.826845 -0.100929 -0.032459 0.128682 
51 0.362429 -0.012655 -0.251886 0.139331 0.440487 0.012521 -0.337592 0.326064 -0.125477 0.415615 -0.707628 -0.313928 -0.390061 0.457171 0.500634 0.266482 0.230340 0.465964 0.184980 -0.147795 
52 0.577383 -4.967688 -0.994907 -2.811999 -2.053657 0.387690 2.008378 -0.712094 -2.669500 0.167721 -4.071343 -1.227511 0.802327 -2.094736 -0.801043 -0.675985 5.279831 -0.085940 1.069390 2.273382 
53 0.346669 -3.307168 -2.696633 -2.587953 -0.752385 -1.528841 1.883807 0.459454 -1.972811 1.782487 -1.942351 0.282677 0.291479 -1.344834 0.076106 -1.816383 4.136427 -0.757421 0.955287 1.075362 
54 -0.587979 0.535849 0.041775 0.067397 -0.415759 0.012174 0.142602 0.257292 0.391259 0.227096 -0.081555 -0.386787 0.377450 0.312713 0.563017 -0.030443 -0.518239 -0.252760 -0.136702 -0.084292 
55 0.177912 -4.250403 -2.436348 -2.894760 -0.425353 -0.303683 2.277647 -0.296334 -1.631334 1.790257 -4.231403 1.004372 1.978331 -3.439162 0.166298 -0.455657 5.484233 -0.468635 1.958610 1.600222 
56 -0.145237 -3.141213 -1.600481 -1.678650 -1.220958 -2.210032 2.079607 -0.651575 -2.108503 0.397815 -2.074825 -0.131625 0.642261 -0.939682 -0.157095 -0.308005 4.317367 0.438781 1.382600 0.952547 
57 -0.087744 -0.581376 0.089632 -0.690145 0.603970 -0.781230 0.585670 0.365373 -0.009518 0.908137 0.058001 -0.200970 -0.002674 0.082270 -0.341297 -0.904277 -0.233309 0.141902 -0.191070 -0.538999 
58 0.049342 -0.349940 -0.194553 -0.224155 -0.987859 -0.034658 0.139740 0.165841 -0.387636 -0.627431 -1.012433 -0.633644 -0.570418 0.062242 -0.454081 0.600068 -0.044334 -0.240728 -0.107354 0.211395 
59 0.056298 -1.813289 -1.696489 -2.652419 -0.657575 -1.219864 0.979964 -1.024150 -1.748772 1.141499 -2.716886 -0.590087 0.742816 -1.069908 -0.785418 -1.364144 4.631854 0.064542 -0.002610 1.331633 
60 -0.233619 -0.194372 -0.535293 -1.265189 0.214354 0.725632 1.417644 0.212182 -0.279112 0.593839 -0.331823 -0.306502 -0.615994 0.538252 -0.706082 0.366156 -0.150664 0.468016 0.600468 0.301550 
61 0.016935 -0.449126 -0.087525 -0.494960 0.286584 -0.669133 0.593944 0.223592 0.597148 0.002918 -0.617217 -0.805647 0.000343 -0.809511 -0.323725 -0.571215 -0.306711 0.412781 -0.197654 0.118220 
62 0.377206 -7.376250 -0.699088 -3.188521 -0.397328 -1.345246 2.250845 -2.036543 -3.231534 3.145690 -4.138415 0.266524 1.678902 -2.427369 -0.629525 -2.237278 6.878575 0.451938 2.251485 2.047835 
63 0.468610 -0.637695 -0.490741 -0.265472 -0.041332 0.884526 -0.069033 0.653028 0.194823 0.696533 -0.491764 -0.332765 -0.286099 0.165582 -0.694691 -0.923826 0.029610 -0.822205 -0.227461 0.388685 
64 0.190373 -4.591201 -2.183024 -1.811007 -0.946145 -0.560137 2.979675 -1.684983 -1.915084 1.198069 -3.879898 -0.624391 -0.440883 -1.894574 -0.500843 -1.907600 6.361704 -0.914485 1.732850 0.702543 
65 0.092773 -0.530906 -0.473393 -1.206004 -0.154828 0.179022 0.249179 0.819547 -0.382041 0.204026 0.145739 -0.722075 0.003126 -0.224822 0.062608 -0.179195 0.459249 -0.382722 -0.161192 -1.321911 
66 0.035285 -0.022563 0.717199 0.108381 0.292740 0.098382 -0.161675 -0.004804 -0.242363 -0.268740 0.558203 -0.793426 -0.360274 0.811619 -0.123097 -0.689883 -0.313030 0.055412 -0.337496 0.134324 
67 0.899546 0.354671 0.106552 0.051418 -0.086549 0.044760 0.437251 -0.135546 -0.172032 -0.389356 -0.175839 0.141993 0.057990 0.232152 0.246711 -0.102628 -0.702018 -0.038866 -0.210031 -0.316565 
68 0.003678 -0.012029 -0.994230 -1.680674 -0.071346 -0.650406 0.479716 -0.379047 -0.687952 0.494880 -1.128705 -0.715411 0.255526 -0.249013 -0.695194 -0.786470 2.345578 0.157405 -0.853581 0.496047 
69 0.219949 -2.166633 -1.577624 -0.477191 -0.658745 -1.508725 1.505713 -0.399024 -1.383866 0.560315 -2.188591 0.280492 0.064972 -0.227826 -0.462395 -0.597091 2.721272 -0.149262 0.797033 2.231846 
70 0.060619 -0.756233 -0.643199 -1.111959 -0.169926 -0.688860 -0.133692 0.984664 -0.671164 0.359483 0.031342 -0.032531 0.111638 -0.031960 0.051223 0.153294 -0.095750 0.129791 -0.076877 0.934096 
71 0.213852 -2.711210 -0.649783 -0.031908 0.060196 -0.040587 1.617853 1.002356 -0.628654 0.044327 -0.267848 -0.371997 0.063526 -0.379206 0.251901 -0.442556 0.675293 -0.440747 1.305544 0.219694 
72 -0.235639 0.453245 -0.720851 -0.344562 0.146074 0.558646 0.328642 0.948773 0.136477 -0.642348 0.014837 -0.618120 -0.087645 -0.229208 0.363193 0.099845 0.081261 -0.334491 -0.195519 0.268051 
73 -0.591284 -0.453413 -0.048211 -0.313970 0.375595 -0.936300 1.070579 -0.288596 -0.995240 -0.506867 -0.140574 -0.147045 0.153385 -0.304036 0.350690 0.432046 0.767515 0.260885 0.286707 0.011256 
74 0.157811 0.133542 0.091983 0.807098 -0.004669 -0.576258 -0.830831 0.316469 0.141120 -0.515688 0.055570 0.065162 0.189499 -0.312743 0.373247 -0.214809 -0.078418 -0.400671 -0.662265 -0.225216 
75 0.542060 -5.367132 -1.411384 -2.844419 -1.095562 -0.739191 2.262194 -0.886580 -2.872792 1.058543 -2.015370 -1.534109 0.309646 -0.936523 -0.522031 -2.450111 5.865429 0.113451 1.131595 2.168509 
76 0.800872 -2.058206 -1.137904 -1.221156 0.927201 -0.458288 1.594454 0.338230 -1.475419 -0.234970 -1.202134 0.460922 0.117424 -0.908604 -1.025509 -0.851355 2.984764 0.054690 0.216234 0.618386 
77 -0.310023 -0.214873 -0.443847 -1.214893 0.319833 0.468335 1.284599 0.377245 -0.265433 0.619643 -0.332841 -0.250436 -0.560408 0.403796 -0.577574 0.109133 -0.221693 0.366896 0.368215 0.246740 
78 -0.062434 -0.172861 -0.481966 0.591508 -0.009557 -0.582780 0.542731 -0.023658 -0.125144 -0.018931 -0.720150 0.284463 -0.464279 0.418946 -0.296534 0.054770 0.193987 0.080238 0.035489 1.615202 
79 0.843853 -12.619811 -2.565043 -6.960479 -0.490000 1.149099 4.201438 -3.721416 -4.265512 2.747326 -5.922241 -1.815635 1.868151 -7.321071 2.702314 -2.995479 13.299819 -0.024380 3.151904 5.307791 
80 0.110297 0.226280 0.281302 -0.348746 0.142110 -0.202208 -0.243067 -0.280398 0.220664 0.066408 0.114131 0.457493 -0.990643 -0.099992 0.701512 0.282832 -0.360763 -0.564459 -0.158282 0.226659 
81 0.199702 0.176579 0.367735 0.263757 0.563788 0.333198 -0.457096 0.251594 0.201796 0.089230 -0.337705 -0.351704 0.042835 0.232067 0.492854 0.071957 0.027411 0.505578 0.258686 -0.148977 
82 -0.678852 -1.458440 -1.078519 -0.908386 -1.150259 -0.931418 1.265749 -0.033669 -0.765071 0.965248 -1.438555 -0.769325 0.763916 0.395646 0.442703 -0.594729 1.524538 -0.805776 0.636213 0.516542 
83 -0.376731 -0.560639 0.125109 0.143442 -0.488322 0.419155 0.867243 0.888757 -0.221050 0.555145 -0.358014 -0.036870 -0.553103 -0.477474 0.353722 -0.157020 0.316257 0.607927 -0.945159 0.206973 
84 0.528243 -3.266225 -1.434792 -0.701414 -0.981403 -2.027554 0.609065 0.098998 -1.383180 0.197568 -2.096170 -0.452300 1.043348 -1.454692 0.361120 -1.730301 4.082638 -1.014370 0.175296 0.815276 
85 -0.937506 -0.119367 -0.111954 -0.019565 0.201659 -0.307646 -0.413644 0.599204 -0.054812 0.157242 -0.291395 -0.011220 -0.764580 0.018742 -0.453284 0.336689 0.135351 -0.190914 -0.035501 0.059432 
86 -0.644419 0.169968 -0.227231 -0.458427 -0.111217 -0.220315 0.672103 0.497633 0.154581 -0.258285 0.236488 0.151089 0.016932 -0.369030 -0.606358 -0.279448 -0.479904 -0.607071 -0.416244 0.141148 
87 -0.015379 -0.018677 -0.274813 -0.288005 0.310281 -0.580090 0.466713 0.182615 0.711627 -0.065804 -0.544224 -0.671705 -0.337713 -0.658034 -0.353966 -0.360035 -0.714486 0.423319 -0.094707 -0.022990 
88 -0.006967 -0.049528 0.514364 -0.431575 0.437533 0.222880 -0.146679 -0.556036 0.457059 0.051558 0.263641 0.081390 -0.751623 -0.323481 0.737608 0.135464 -0.172009 -0.590188 -0.135525 0.235577 
89 0.224493 -1.889692 -2.059888 -1.620780 -0.498406 0.263446 1.660917 0.361303 -1.121654 -0.374734 -1.549987 -1.068728 0.310166 -1.071768 0.353799 -0.655467 3.424806 -0.477105 0.661469 1.380955 
90 -0.013466 0.049965 0.524093 -0.245270 0.050440 -0.325789 -0.764759 0.186767 -0.348658 -0.082905 -0.054206 0.278512 0.287732 -0.084069 0.194434 0.400078 -0.705516 0.017421 -0.148518 0.370843 
91 0.979938 -14.792084 -3.488600 -7.870260 -0.390694 0.607942 5.539964 -3.347092 -3.846567 2.872323 -7.657954 -3.744038 3.485733 -9.635070 1.550453 -4.685697 14.290112 2.281472 3.511120 5.489580 
92 -0.149982 -0.774331 0.264697 0.491690 0.255504 0.123789 0.144012 0.388101 -0.203835 -0.116810 -0.041645 0.077071 -0.280565 -0.247693 0.297799 0.165424 -0.675801 -0.421473 0.566585 -0.117640 
93 0.237177 -1.447820 -0.566245 -0.637103 -0.340716 -0.894940 0.777907 0.023871 -1.348516 0.106307 -0.543545 -0.920626 -0.730420 0.639044 -0.338811 -1.050781 1.234716 -0.354740 -0.117604 0.538335 
94 -0.217691 -0.032147 0.810435 0.249853 -0.078502 -0.286746 -0.493409 -0.272163 -0.041500 0.386153 -0.190876 0.369988 -0.015411 0.068630 -0.339376 0.103739 -0.458361 0.057705 0.105229 -0.403876 
95 0.150131 -1.485267 -0.522708 -1.834206 -1.241275 -0.593641 1.150128 0.722248 -1.597699 0.575937 -1.614702 0.071559 -0.074754 -1.572723 -0.065961 -2.606360 3.621317 0.143737 2.612156 1.292357 
96 0.112799 -2.428154 -1.971193 -0.985910 -0.389495 -0.588783 1.059305 -1.045238 -3.421579 1.516994 -1.949967 -0.866559 0.399226 -2.184292 -0.272398 -1.036621 2.703734 -0.331111 1.137285 1.061488 
97 0.211086 -0.042398 0.056615 -0.039629 0.289043 0.897473 -0.287249 0.151960 0.148105 0.416684 -0.597998 0.013536 0.119342 -0.181586 -0.446998 -0.596358 -0.203571 -0.786784 -0.186935 0.339214 
98 0.250164 -0.944878 -2.028813 -1.115453 -0.281962 0.316156 1.438439 0.692045 -0.704437 -0.763390 -0.992417 -1.085790 0.051827 -0.654366 0.469569 -0.362525 2.380502 -0.475971 0.329113 1.073980 
99 0.020549 0.016552 0.002402 -0.002872 0.000173 -0.012121 0.009096 0.021129 0.008335 0.001626 0.006203 0.004327 0.024477 0.014616 -0.019021 0.001632 0.024099 -0.010732 -0.008724 0.008883 
