100 20
0 -4.033210 -0.269019 4.344593 -1.277988 -4.837769 8.289123 -3.874041 1.132445 -3.360978 -5.847785 -3.078661 1.794247 2.502781 -5.406251 -5.504972 -1.675141 2.303070 0.064421 -2.047485 -1.541158 
1 -0.366706 0.260536 0.681500 0.574476 0.845941 1.082055 0.855814 -1.089904 -0.259273 -0.121358 -0.065599 -0.102370 -0.252212 -1.100389 -1.581408 0.155097 -0.458624 0.023795 -0.095316 -0.319298 
2 0.051318 -0.095730 -0.218037 0.671085 0.043390 0.296981 -0.353271 -0.096485 0.189336 0.110776 -0.126976 -0.649335 -0.570828 -0.610693 0.490001 0.279174 0.176303 -0.143681 -0.052502 0.081503 
3 0.331096 0.108336 0.391999 0.497838 -0.106850 -0.161429 0.572502 0.030292 0.064538 0.361236 -0.410049 -0.177947 -0.389042 -1.040771 -0.215175 0.160072 0.142560 0.132096 0.443592 -0.303146 
4 0.544663 0.636014 0.280353 0.189485 -0.202871 0.528865 0.404215 0.349195 -0.269732 0.963550 -0.213399 -0.617757 -0.217316 -0.004646 -0.527609 0.031967 -0.324755 0.755813 -0.141795 -0.337915 
5 -0.351825 -0.198264 0.179408 -0.431620 -0.215773 1.424677 0.014130 -0.680881 -0.876869 1.226953 -0.728389 -0.115445 0.563193 -0.583513 -0.944316 0.040743 0.026663 0.343311 -0.101227 0.251717 
8 -4.729064 -0.130505 3.739081 -1.338787 -4.836547 8.602045 -3.507453 1.751102 -1.612488 -5.058109 -2.135335 0.133665 3.383047 -5.616228 -4.117512 -1.736217 3.855658 0.192635 -0.958836 -3.108653 
7 -2.539530 -0.782923 3.387734 -0.586323 -2.455309 7.558196 -4.085029 2.033745 -2.183891 -5.527825 -3.733896 1.915765 2.525749 -3.936129 -5.018886 -1.794713 3.239789 1.492517 -2.230367 -1.093892 
9 -0.434726 0.986916 -0.006463 -0.058019 0.742894 0.820498 0.153424 -0.420168 -0.354261 0.816718 -0.465567 -0.187417 -0.025226 -0.354930 -0.111501 0.191036 -0.476817 0.516539 -0.679652 -0.547183 
10 -0.874319 0.993628 0.157220 -0.406849 -0.725744 1.555207 0.018664 -1.387997 -0.754453 0.283736 -0.283952 -0.046719 0.297893 -1.022209 -1.087314 0.157287 -0.358670 -0.072930 0.905827 -0.740915 
11 -0.227541 0.532004 -0.511097 -0.519430 0.459456 0.006882 0.241187 -0.265774 -0.527395 0.253550 -0.029769 -0.313821 -0.000080 -0.426158 0.394393 -0.922448 0.161546 0.268929 -0.376527 -0.344799 
12 0.074805 0.133780 -0.564147 -0.266184 -0.431545 0.318776 0.243368 -0.126322 0.711230 -0.111587 0.360895 0.383826 0.214285 -0.256412 0.129334 0.471581 0.023766 0.962705 -0.159427 -0.078299 
13 0.373693 0.014322 -0.345660 -0.730959 0.436909 0.213444 -0.658705 -0.156531 0.452498 0.299105 -1.004964 -0.804128 1.173205 -0.064203 -0.374972 0.276629 -0.032507 -0.229196 0.249504 -1.134527 
14 -0.184712 -0.030744 0.171170 -0.259418 -0.021826 1.087527 0.429882 -0.839545 -0.732266 1.361595 -0.715492 -0.009810 0.300297 -0.846026 -0.683377 0.071991 -0.083689 0.415309 -0.349563 0.127449 
15 0.796460 0.224459 0.391394 -0.797969 -0.448809 0.692027 0.310317 0.056540 0.131768 -0.047020 -0.369291 0.026274 0.809544 0.397897 -1.386147 -0.047982 0.430826 0.083863 1.337657 -0.125787 
16 0.495813 0.045099 0.091736 0.150850 0.989575 0.308593 0.125900 0.469385 0.150062 0.259523 -0.894707 0.069103 -0.095334 0.036430 -0.453395 -0.100056 0.384162 0.660146 -0.698318 0.028816 
17 -2.441348 0.468373 2.818291 -0.389832 -4.360912 7.068113 -5.648133 0.077963 -3.588476 -4.679844 -3.140540 0.176410 3.306031 -2.908642 -4.849160 -2.190216 2.653891 -0.040684 0.340258 -2.031559 
18 -0.187826 0.611757 -0.578301 -0.903597 -0.827507 1.280377 -1.214024 0.291188 -0.523490 0.610456 -1.469412 0.555040 0.108611 0.114497 0.464740 -0.086239 0.910494 0.631849 0.791222 0.052843 
19 -2.774794 -0.837472 3.366127 -0.726061 -4.367440 7.148768 -4.077803 -0.152726 -4.618652 -6.706329 -4.516408 1.889170 2.309637 -4.571402 -6.285626 -1.584346 1.731072 -0.859888 -1.373679 -1.300546 
21 -0.311007 0.496824 -0.404650 -0.315859 -0.680567 0.605882 -0.122573 -1.204270 -0.352795 0.477279 0.362682 -0.695335 0.060132 -0.150769 -0.057822 0.274879 -0.455450 -0.144600 0.881965 -0.492833 
22 -3.644816 -2.387599 3.472157 -0.776497 -4.786085 8.515604 -4.648927 1.363062 -2.444247 -6.643499 -2.255612 0.085069 2.672673 -4.440634 -5.710216 0.879325 2.128839 1.012314 -0.704516 -0.246777 
25 -3.803798 -0.878941 3.738414 0.118920 -5.118196 9.403762 -3.262110 0.934013 -3.907416 -5.092314 -1.140509 2.109371 0.927209 -3.275653 -4.810026 -3.186959 3.867090 0.943091 0.119911 0.272139 
24 -3.494224 -0.463732 3.649833 -1.063308 -3.688524 8.481806 -4.467273 -0.613068 -2.278552 -5.618680 -2.746645 2.582488 3.546977 -4.340287 -5.452261 -3.346362 3.126200 0.336176 -1.323042 -1.917625 
26 0.657229 -0.256054 -0.140248 -0.689996 0.112653 -0.631057 0.014008 0.065307 -0.339748 -0.175033 -0.030717 0.178184 -0.176632 0.392179 0.196080 0.093391 -0.526872 0.032911 -0.044971 0.371897 
27 -3.894481 1.031305 2.533014 -0.614883 -5.017028 7.773490 -4.494667 2.372712 -4.844751 -5.490091 -2.847450 0.820859 2.603481 -5.722506 -4.754890 0.663241 3.249625 1.410099 -1.265286 -0.739238 
28 -3.295568 0.246702 2.419479 -0.836242 -2.958974 7.570812 -4.888127 0.307694 -3.023008 -5.959222 -3.225919 1.543669 2.237645 -3.669531 -4.701946 -1.222235 2.655384 -0.237768 -0.389689 -0.512520 
29 -3.045686 -0.111575 2.649061 -1.634459 -4.990806 7.289570 -4.925649 1.166405 -2.429349 -4.395775 -3.708047 2.365247 1.955984 -4.346534 -3.079770 -1.772320 3.518640 1.491560 -0.299756 -0.937956 
30 0.012937 0.188824 -0.514103 0.297585 0.262754 0.735465 0.495243 0.047525 -0.403736 0.522712 0.046994 0.194933 -0.490176 -0.541344 0.171221 0.019747 -0.413663 0.654603 0.392045 -0.148520 
31 -0.452766 0.385028 0.246846 -0.204811 0.281830 0.388296 -0.214614 -0.416675 -0.024736 0.164841 -0.563726 -0.495226 -0.106737 -0.229934 -0.548269 -0.271679 -0.251499 0.966589 0.297687 0.044144 
34 0.158631 -0.592136 -0.015302 0.311997 -0.101059 0.599767 -0.396135 -0.344883 -0.137683 0.914063 -0.982550 -0.785845 0.450918 -0.509017 -0.270757 -0.306375 0.314797 -0.215264 0.134157 -0.524900 
35 0.274847 0.839514 -0.128048 0.460582 -0.314476 0.058935 0.075127 -0.612196 0.167376 0.711561 -0.488458 0.584862 0.576052 -0.590814 -0.886980 -0.236411 0.330067 0.425670 -0.101792 -0.249409 
37 -0.322447 1.274032 0.362384 -0.423698 0.722036 1.671027 0.131577 -0.830045 -0.996974 0.285318 -0.689005 1.235739 0.305001 -0.698497 -1.688039 -0.004090 0.532544 1.033368 0.070047 0.034461 
36 -0.020021 0.002667 -0.709007 0.697526 0.104752 1.157404 -0.583992 -0.090044 0.542204 0.431346 -0.053092 -1.038699 0.767601 0.063587 -0.034880 -0.164629 0.506705 0.325181 0.430631 -0.480234 
39 -0.409457 0.711352 0.104498 -0.278255 0.496160 0.774458 -0.314389 0.241800 -1.273973 -1.071801 -0.706160 -0.119744 0.550948 -0.858522 -0.854491 0.931197 -0.230982 -0.096298 0.163487 -1.408469 
38 -0.720557 1.328011 -0.106734 -0.257112 -0.738992 1.433452 -0.612070 0.304555 -1.178923 0.461137 -1.438487 0.338528 0.285559 -0.995655 -0.741836 0.696512 0.665947 0.735114 0.349383 -0.187185 
41 -3.578290 0.825713 1.913141 -1.438764 -5.715884 8.869208 -4.111843 -0.329078 -2.366943 -5.625469 -1.851370 2.583663 2.789790 -2.942173 -5.553743 -1.547899 1.810078 1.952287 -2.232719 -0.081152 
40 0.214918 0.372135 -0.431990 0.113301 -0.014562 1.307116 0.343238 -0.339007 -0.549626 0.497926 -0.438561 0.733435 0.452337 -0.311260 -0.599310 0.214462 0.467999 -0.615371 -0.139919 -0.585296 
42 0.497305 0.409731 -0.435510 0.157613 0.170048 1.055131 0.722820 -0.418411 -0.485960 0.729355 -0.449664 0.753380 0.375855 -0.439258 -0.367301 0.127058 0.455040 -0.723374 -0.286670 -0.585109 
43 0.297219 0.209278 -0.385591 -0.482027 -0.525244 0.700240 0.501381 -0.184792 0.382484 0.237307 -0.697934 -0.600232 -0.238513 -0.139433 -0.817687 -0.460670 -0.016707 -0.271023 -0.030194 0.749751 
46 -0.609593 0.779686 0.101633 -0.063958 -0.188488 2.495844 0.579056 0.018215 -0.180715 0.163810 -0.994045 -0.032985 -0.426942 0.020890 -0.892360 0.371754 -0.831765 -0.205491 -0.527562 -0.666392 
47 -0.758194 -0.101371 0.370165 -1.340087 0.737349 1.980088 -0.123118 -0.407608 -0.976648 -0.246919 -0.806828 -0.469666 -0.048779 0.112783 -0.441724 -0.291801 -0.012497 -0.090590 0.666829 -0.460564 
48 0.232383 -0.401455 0.806131 0.017650 -0.313331 -0.557300 -0.016747 0.154265 -0.344440 0.161716 0.381825 -0.404162 -0.250163 0.507982 0.513767 -0.359653 0.399324 -0.128403 -0.222308 -0.228080 
49 -0.672748 0.527454 -0.006340 -0.650054 0.414783 0.506101 0.670043 -0.365894 -0.431866 0.116217 -1.031109 0.577530 -0.131595 -1.095297 -0.557145 0.265895 -0.045678 0.034912 -0.180058 -0.284508 
51 0.425019 0.222587 -0.669411 0.614268 -0.105006 0.154667 -0.035198 -0.801355 -0.630350 0.296000 -0.950542 0.217703 -0.233930 -0.355041 -0.332679 -0.618976 -0.643484 0.778376 -0.166680 -0.352884 
50 0.039092 0.539918 0.280525 -0.445881 0.075722 -0.126513 -0.364392 -0.674549 0.272282 0.191059 -0.529007 -0.218920 0.142814 -0.246634 -0.177602 0.431557 0.098541 0.001689 -0.494754 0.000681 
52 -0.027868 0.605399 -0.725065 -0.416155 -0.062926 -0.155034 0.354182 -0.107265 -0.097523 0.044390 -0.049693 -0.821978 0.138931 -0.414812 -0.296603 -0.453950 0.339726 0.015689 -0.356236 0.327727 
53 0.169457 -0.363428 -0.382814 0.057066 0.530279 -0.020722 -0.055815 -0.684269 -0.778290 -0.226928 0.322917 -0.111087 -0.310956 -0.301632 -0.004629 0.464452 -0.076067 0.230667 -0.160273 1.099274 
54 0.572341 -0.250900 -0.219817 -0.292542 0.039648 -0.295396 0.617308 0.144239 0.198280 -0.154900 -0.338553 0.066035 -0.035963 -0.614668 0.437618 0.192192 -0.552317 0.287622 0.046059 -0.209677 
55 -0.798995 0.049837 -0.143161 0.317971 -0.082836 -0.112947 0.938563 -0.534505 -0.213997 0.064584 -0.976587 -0.189007 0.425165 0.339710 -0.105730 0.251902 0.318068 0.481001 0.229457 -0.151929 
56 -2.685694 0.181652 3.097312 0.293277 -4.128886 7.161662 -4.807544 0.809380 -1.781272 -5.411491 -2.060578 1.805493 3.031321 -4.614864 -5.221074 -0.569857 2.699502 1.184686 -0.276359 -1.613283 
57 -4.229843 -0.577281 2.008239 -0.428435 -3.335793 5.088053 -2.052748 -0.157879 -2.285989 -5.053348 -3.126876 1.147285 3.273945 -1.956436 -3.416555 -0.821945 2.891587 1.205256 -0.110639 -1.255379 
63 -3.970395 0.151221 2.500111 -2.377663 -3.204664 7.381410 -3.921705 0.373114 -2.427648 -6.281884 -1.785091 2.081597 3.132110 -4.460072 -4.541011 -1.277090 2.853597 0.970444 -0.317478 -1.295588 
64 -1.535824 0.464330 0.176547 0.134977 -0.286976 1.270790 0.794499 -0.624593 -0.846321 -0.266462 -1.451923 0.491925 0.928612 0.150379 -0.962818 0.292364 0.701987 0.498482 0.251321 -0.431502 
65 -3.067037 -1.330776 2.120731 -0.362850 -3.810713 8.119060 -3.390649 1.241563 -3.388193 -5.516129 -2.295243 1.256180 3.276144 -5.029465 -5.330603 -2.175433 2.378712 1.073860 -0.513351 -1.141146 
66 0.555719 -0.172029 0.229487 0.212916 0.046581 0.740418 -0.404666 -0.833263 0.367833 0.231973 -0.566686 0.148545 -0.473046 0.649568 -0.058556 0.509788 -0.439666 0.330268 0.610989 -0.160694 
67 0.080658 -0.371462 0.077961 0.360402 0.456380 -0.681974 -0.037806 -0.444712 0.149277 -0.343686 0.009804 0.062900 -0.359023 -0.648831 0.496410 -0.046932 0.497217 -0.237741 0.499625 0.443469 
68 0.124745 0.188806 0.371278 0.101583 0.033262 1.668786 -0.502818 -0.893830 0.001886 0.200491 -0.959828 0.521597 -0.191755 0.257060 -0.750610 0.392522 -0.301525 0.420831 0.811940 -0.433163 
69 -4.417626 -1.822833 3.770827 -0.047623 -3.075985 8.607705 -6.077824 0.158608 -4.178383 -5.897991 -2.499876 2.276310 3.745112 -5.363357 -3.824376 -0.921247 2.940959 1.505377 -1.575149 -3.148365 
71 -0.395698 2.075180 0.854341 -0.169424 -0.012781 0.756036 0.006044 -0.628778 -0.442681 0.011209 -0.595118 0.908135 -0.730597 -0.346330 -0.638178 -0.356011 0.319082 0.286522 0.406090 -0.822870 
70 -3.180736 0.728356 1.134246 -0.331362 -2.531103 7.189921 -5.030664 0.328804 -1.449241 -7.610103 -2.777775 1.892590 2.891559 -4.629351 -4.034317 -0.644699 2.703407 0.551525 0.070780 -2.596324 
72 -0.019744 0.794895 0.414153 -0.544376 0.019329 -0.063604 -0.709585 -1.086168 0.413918 0.430269 -0.716106 -0.144373 0.283286 -0.251187 -0.259920 0.755946 0.027913 -0.047340 -0.651254 0.071088 
73 0.260218 1.103794 0.173479 -0.254639 0.456309 0.886188 -0.471404 -0.218881 -1.053030 0.085196 0.276911 0.187846 0.914416 -0.057477 -1.337459 0.392906 0.727540 1.016446 1.175476 -0.058826 
74 -2.742092 -1.576586 1.563264 -0.401889 -3.491681 7.442533 -3.181306 1.407051 -3.302298 -5.225075 -1.979886 0.914923 3.202933 -4.529340 -4.858105 -1.986587 2.336814 0.935869 -0.343150 -0.949805 
75 -2.881301 -0.785266 0.290687 -1.695259 -1.977789 7.460529 -5.185348 -0.482680 -1.923645 -5.718354 -1.688528 1.266788 3.533831 -2.561485 -3.483977 -1.358820 2.539423 1.007973 -0.161610 -0.270781 
76 -0.011667 0.025000 0.001622 -0.012784 0.007294 0.003686 -0.016959 0.001552 0.006920 0.012472 0.003166 0.006895 0.021636 0.001903 -0.022487 0.004002 -0.004499 0.014839 0.010626 -0.021297 
77 -0.055573 0.067490 -0.720387 -0.411344 0.505851 0.990406 -0.500539 -0.439411 -0.166833 -0.087085 -0.148133 -0.403224 0.598826 0.253425 -0.171048 0.004507 0.283398 0.311715 0.445069 0.153462 
79 -0.071018 0.777001 0.092891 0.285367 -0.016844 0.849687 0.207226 -0.715822 -0.607481 0.185303 -0.211169 -0.584598 1.067795 -0.274137 -1.721984 0.365557 -0.511287 0.615579 -0.485458 -0.826628 
78 -0.058043 0.109012 0.063427 -0.479130 0.062722 0.598803 0.520764 -0.430256 0.294054 0.285837 -0.181621 0.275351 0.069637 -0.717107 -0.051029 -0.109356 -0.025368 0.852120 -0.053213 -0.443472 
81 -0.563806 1.002535 -0.177556 0.802560 0.006805 1.845440 -0.500605 -0.590345 0.190197 0.539565 -0.161775 -0.428365 0.554870 -0.171969 -0.906726 -0.176129 0.797450 0.733240 0.464377 -0.190904 
82 -0.984930 -0.082973 3.424811 -1.669460 -3.724492 8.979957 -6.691115 1.318925 -2.640679 -5.657136 -0.869557 1.312288 1.516964 -6.127096 -5.154468 -2.302035 1.836356 0.262512 -1.502798 -1.394015 
83 0.033840 1.434625 -0.844012 -0.373365 -0.173706 1.061487 0.229396 0.136269 0.280769 -0.734398 -0.748227 -0.272780 -0.086319 -0.395512 -1.272475 0.191921 0.094211 0.085374 0.607288 0.108496 
84 -3.306450 -0.896666 1.532925 -1.323867 -3.270836 6.252481 -4.125373 0.467236 -2.334647 -4.202753 -1.907273 1.345330 1.129865 -3.343935 -5.362692 -0.990633 2.835309 0.819736 -0.901908 -2.116985 
85 0.079311 -0.460419 -0.684700 0.007238 0.084076 0.823348 0.269281 0.199168 -0.705945 0.283849 -0.143926 -0.477315 0.621919 -0.504275 -0.673766 -0.363862 0.120106 0.324397 0.396459 0.145280 
86 -0.751531 0.210040 -0.631582 -0.503011 -0.099794 1.303041 -0.537242 -0.441874 -0.531555 0.518563 -0.470646 0.253365 -0.619330 -0.203230 -2.151659 0.296700 0.821860 0.520493 0.092497 -1.101596 
87 -3.620751 -1.118917 2.138348 -0.620233 -2.393317 6.484045 -5.355084 -0.463837 -2.476814 -7.284044 -3.059784 2.165754 2.562339 -5.758155 -4.050776 -1.550429 4.531371 -0.470565 1.513721 -0.477900 
88 -0.569146 0.073207 -0.625498 -0.435810 -0.086493 0.996073 -0.453774 -0.349217 -0.339070 0.397890 -0.431725 0.101756 -0.611386 -0.154898 -1.657450 0.229336 0.639216 0.432628 0.192357 -0.885977 
89 -0.184884 -0.020952 0.170588 -0.631854 0.093684 0.523433 0.676078 -0.393671 0.834334 0.323179 0.220547 0.555631 0.092086 -0.806581 0.197358 -0.144582 0.005636 1.182796 -0.081912 -0.473513 
90 -3.977536 -2.294783 2.594539 -1.907011 -4.563791 8.614532 -3.828274 -0.458152 -0.767238 -6.341610 -3.719496 2.350075 1.821164 -5.380459 -4.227295 -2.783227 2.378295 0.041193 -1.365085 -1.221862 
91 -0.472468 0.254735 -0.642759 0.358825 -0.083409 1.667265 -0.375834 -0.463006 0.051294 -0.454623 -1.251509 0.297852 0.543958 -0.911370 -1.260115 0.573152 -0.215309 0.188883 -0.289741 0.149832 
92 -4.933764 1.462637 3.510182 0.389964 -3.093347 8.932319 -4.975378 0.368243 -2.653875 -8.536288 -0.996499 1.472450 2.915598 -4.221201 -5.167825 -1.858711 4.065840 0.698135 -1.899424 -2.092134 
93 0.669882 0.038691 0.050291 0.018260 0.004015 0.217271 -0.717410 -0.127717 -0.109220 -0.063147 0.362076 -0.436360 -0.429020 -0.360125 0.035623 -0.136492 -0.100729 0.093613 -0.173810 -0.001335 
95 -0.593868 0.116969 -0.796518 -0.420204 0.108999 0.840222 -0.304319 -0.475435 -0.305913 0.787208 -0.441723 0.049170 -0.754192 -0.131552 -1.685891 0.308834 0.590060 0.479404 0.193489 -1.008800 
96 0.374321 -0.166139 -0.112329 0.321933 0.128408 -0.286095 0.224851 0.281518 0.308128 -0.663022 0.143262 -0.239112 -0.344989 0.535712 0.459040 -0.497891 0.075229 -0.072960 0.177333 -0.458680 
97 0.224753 0.065107 -0.842177 0.492719 0.291127 0.502321 -0.528051 -0.319553 0.575876 0.301715 0.223761 -0.766825 0.522324 0.385062 0.378307 -0.060445 0.481532 0.428602 0.200680 0.142547 
98 -3.068814 -0.407507 3.720802 -0.792647 -5.995676 7.495989 -4.041259 0.944360 -1.177780 -5.229074 -3.199305 1.082589 2.619600 -3.223836 -4.425548 -2.721844 2.041596 0.497480 -2.496865 -3.535580 
99 -0.641651 0.375990 -0.305160 0.494692 0.125637 0.777724 0.305125 -0.637187 0.000413 0.150046 -1.037503 -0.034665 -0.791503 -0.339378 0.264532 -0.004191 -0.285458 0.063543 -0.627174 -0.012268 
6 -2.022814 -0.622606 3.895609 -1.962742 -4.427506 7.475024 -3.493494 1.124803 -1.962827 -5.330841 -2.560447 1.838533 3.560380 -3.608867 -5.813954 -1.520881 3.239130 0.613782 0.752928 -1.416789 
23 0.462349 0.899468 0.382219 0.352670 0.095380 0.746966 0.320092 -0.367056 -0.117588 -0.041977 -0.542049 -0.341170 1.021829 -0.336038 0.708480 -0.112435 -0.537645 0.158285 0.247128 0.653955 
20 -0.036419 -0.115828 0.357165 -0.018246 0.080638 -0.555061 -0.131412 -0.209671 0.240171 -0.329547 0.128168 -0.590424 -0.273505 0.217906 0.316912 -0.278041 -0.112506 0.654053 -0.099397 0.349766 
32 -2.965756 0.432683 2.775239 -1.391623 -4.037438 7.873577 -4.577504 1.332497 -3.151519 -5.067992 -1.853757 1.613099 3.316957 -3.019856 -4.415236 -2.091018 2.154042 1.561546 -0.945237 -2.428553 
33 -1.607007 -0.109192 1.566639 -0.445547 -2.922307 6.369368 -2.905372 0.204771 -2.395402 -4.044590 -1.536069 2.692064 2.974912 -3.034221 -3.396539 -1.061097 2.985350 -1.094632 -1.081450 -1.908627 
44 -0.200311 0.905099 0.175750 0.025954 -0.119714 1.872226 -0.068405 -0.943853 -0.427235 0.334409 -0.694415 1.308148 0.812846 -0.602430 -1.469348 -0.469775 0.690762 -0.267776 -0.098553 -0.806388 
45 0.397809 -0.531896 -0.057412 -0.095194 -0.285274 -0.636782 0.172644 0.314311 0.219894 -0.487702 0.281171 0.023147 -0.043845 -0.015751 0.559490 0.178324 -0.090082 -0.017078 -0.206067 -0.060041 
58 -3.670455 -1.223484 3.466203 -2.841744 -2.190441 7.876965 -3.718197 0.824868 -3.300759 -5.704334 -2.381366 0.364620 1.666391 -2.713495 -3.398153 -1.645741 2.084963 -0.201538 -0.414106 -1.410187 
59 -3.077492 -1.460577 4.546298 -2.402766 -4.208623 6.129039 -4.208405 -0.017386 -4.029352 -5.916735 -1.996032 1.784851 3.621083 -5.227245 -5.572511 -2.671720 2.625880 1.859494 -0.561571 -2.085781 
61 -3.553350 0.477920 4.109538 -2.157366 -3.969939 6.668726 -5.682179 -0.767530 -1.812221 -5.367840 -3.123732 1.503944 3.157556 -4.414893 -4.935120 -0.080390 3.054663 -0.030589 -2.426170 -0.911490 
62 0.042089 -0.142957 0.426621 -0.287365 0.509395 -0.050566 0.299834 0.309203 0.464721 0.199887 0.313666 -0.365515 -0.301374 -0.196009 0.424225 0.414819 0.428084 -0.201964 0.153775 0.301676 
60 0.201426 0.343830 0.443765 0.123457 0.063544 -0.688772 0.084797 -0.021994 0.191133 -0.265600 0.162404 0.083218 -0.585096 0.033577 0.559944 -0.259980 0.058252 -0.101823 -0.014406 -0.029732 
80 -0.070622 0.758849 0.032460 0.369458 0.569373 0.767183 -0.097317 -0.299914 -0.980836 0.379644 -1.002087 -0.327825 -0.042366 -0.087718 -0.868679 -0.038041 0.019048 -0.252491 0.445549 -0.081462 
94 0.359115 0.553944 -0.636895 -0.379635 -0.571681 0.173974 0.305469 -0.231525 0.417561 -0.003032 -0.495438 -0.757206 -0.160329 0.124231 -0.958056 -0.503911 0.342231 -0.452282 0.121492 0.962227 
