94 20
0 1.622330 1.511565 0.769457 0.110579 -0.084827 2.054011 0.866967 -3.083936 -0.844637 1.218438 0.088386 0.369698 -2.370924 -3.592386 0.347691 -0.064559 -0.287245 3.748270 -1.668991 -1.984345 
1 0.179206 0.694267 0.380363 0.262641 0.189301 0.045437 0.104336 -1.020276 0.385300 0.686170 -0.036870 -0.163692 -0.601115 0.022337 1.215921 0.053847 0.823199 0.166595 0.091182 0.109910 
2 0.139317 0.437238 0.788346 0.470359 -0.220516 0.438804 -0.170831 -0.165323 -0.393238 0.967288 -0.294695 -0.073913 -0.588685 -1.120910 0.095589 -0.599181 -0.388221 0.256451 0.356886 -0.361527 
3 1.176549 2.597076 0.212711 0.302384 0.441420 2.338798 0.884322 -3.230210 -0.590928 2.128776 0.317895 1.936805 -2.423989 -4.422920 0.732015 -0.308730 0.326458 3.174644 -1.894659 -1.481342 
4 0.020582 0.009211 0.012390 0.022932 -0.022542 0.015095 -0.001132 0.022346 0.001342 -0.020791 0.015289 -0.017034 0.002289 0.010265 -0.006006 0.021659 0.004532 0.003975 0.024853 -0.017776 
5 0.499430 1.065712 0.944554 -0.208926 -0.062644 1.358566 0.652358 -1.798511 -0.290853 1.684476 0.962179 0.733338 -1.069362 -2.829209 0.145041 -0.429771 0.159679 1.756855 -0.100788 -1.150506 
8 -0.008239 -0.000875 -0.023229 0.013244 0.024323 -0.017356 -0.022064 -0.016959 -0.012489 0.014297 -0.005061 -0.009341 0.017841 0.004856 -0.007984 -0.003761 0.002381 -0.005912 -0.007225 -0.000212 
9 1.221084 2.623459 1.323956 0.252165 -0.522717 3.142934 1.406222 -3.678395 -1.577025 2.860444 0.868170 1.758617 -2.763498 -5.662392 1.250197 -0.635164 0.164784 3.752535 -1.720798 -2.940284 
11 0.427049 0.521815 0.972151 -0.156804 -0.134516 1.065399 -0.145230 -0.749027 -1.136563 1.216883 -0.291471 -0.081580 -1.316874 -1.015436 0.636118 -0.596157 -0.350467 2.008506 -1.980787 -0.246483 
12 0.836568 -0.214942 0.820771 -0.019430 0.105126 -0.046511 0.178153 -0.184799 -0.225623 -0.571957 -0.508960 -0.275976 -0.093325 -0.547430 -0.583962 0.418872 -0.284429 0.591167 -0.396444 -0.128552 
13 0.168694 0.225525 -0.228386 -0.395352 -0.283665 -0.226565 -0.468108 0.405497 -0.262018 -0.154078 -0.254001 0.412310 0.981947 -0.507725 0.156545 -0.364958 -0.291780 0.251675 0.483566 -0.253880 
14 1.246386 3.558561 -0.474018 -0.028680 -1.346263 3.932320 1.729981 -2.744634 -2.078134 3.804010 0.868892 3.952363 -3.221223 -6.287732 2.350982 0.429429 1.375610 2.854057 -3.013380 -4.414017 
15 1.160360 0.959584 0.909874 -0.116477 -0.065969 0.250949 -0.357426 -0.435255 -1.003124 -0.110207 0.270324 -0.238971 -0.705216 -1.388049 0.063599 -0.554145 -1.135260 2.225783 -0.674535 -1.032269 
16 0.000670 -0.003402 0.012191 0.020814 -0.005855 0.003392 0.021176 -0.021472 0.016067 -0.016143 -0.003390 -0.020574 -0.006992 -0.016638 -0.008142 -0.010390 -0.008610 -0.015179 0.020227 -0.010732 
17 0.351854 -0.015688 0.839182 0.406835 -0.810955 0.029128 0.663103 -0.997320 -1.276622 0.391194 -0.487949 -0.945515 -0.174670 -0.837848 0.388033 0.372215 -1.039050 1.276981 -0.572195 -1.182590 
18 0.020810 -0.010947 0.024180 -0.014823 0.007856 -0.024715 -0.001857 -0.000178 0.011837 -0.019524 0.008742 -0.022346 0.006394 0.021276 -0.008795 -0.001297 0.008831 0.015316 0.001488 -0.012246 
21 1.718544 5.671731 -0.078310 0.941586 -0.350278 4.497148 2.055168 -4.445113 -2.100417 4.544785 1.049377 4.534101 -3.342902 -8.029499 2.133041 -1.658443 2.331240 3.929772 -3.681064 -3.843263 
22 0.010865 -0.009627 -0.000137 0.002402 -0.018415 -0.011921 0.017529 -0.010341 -0.007003 0.004810 -0.001418 0.019976 0.005775 -0.010428 -0.012166 0.015232 -0.011041 -0.013466 -0.007636 0.013651 
24 0.046285 -0.151495 1.090477 -0.190739 -0.750754 0.115916 0.519200 -1.385847 -1.093191 0.083558 -0.621431 -1.184274 -0.360474 -0.494520 0.557160 0.657458 -0.902744 0.911094 -0.451159 -0.786647 
26 0.072995 5.086771 0.258919 0.513515 -1.574961 3.670123 2.553166 -4.357931 -1.094932 4.364007 -0.544317 3.493854 -2.914648 -8.093791 3.680959 -1.686864 1.645406 3.706298 -4.646821 -4.427299 
27 -0.223706 -0.446675 -0.114357 -0.141439 -0.639110 -0.131534 0.317051 0.134074 -0.294345 -0.182360 -0.309516 -0.146319 0.693034 0.240467 0.257989 0.247970 -0.049176 -0.539032 0.159434 -0.050390 
29 -0.012856 -0.011188 -0.021150 0.018699 0.014043 -0.007932 0.013351 -0.015465 -0.000637 -0.004669 0.003836 -0.014007 0.009705 -0.019392 -0.000618 0.002244 0.006934 -0.020482 -0.003193 -0.010696 
30 0.491765 -0.047028 1.528331 -0.436097 -0.079118 -0.024101 -0.795573 -0.966694 -0.289752 0.737723 -0.696971 -0.222065 -0.874551 -0.193402 -0.120678 0.068200 0.617968 0.915513 0.374365 -0.476674 
31 1.160793 5.258302 -0.726929 1.091588 -0.427000 4.683028 2.457321 -4.736409 -1.964558 4.059937 0.771880 2.862019 -2.630485 -7.947435 3.091222 -0.846170 0.271699 3.372824 -3.903095 -4.014048 
35 0.731071 1.182523 0.096019 -0.700039 0.405470 0.153275 0.103938 -0.971234 0.643375 -0.377094 -0.070413 -0.457045 0.251075 -0.529330 -0.107808 -0.081442 0.443349 0.141982 -0.151370 -0.445721 
37 0.383447 0.971835 1.132101 -0.170331 0.421561 0.231050 0.610179 -1.476254 -0.823177 -0.010834 0.214601 0.168387 -1.192176 -1.810776 0.731961 -0.028903 0.250332 1.921948 -1.692695 -0.196581 
39 0.036922 0.412528 0.580986 0.398350 -0.646421 -0.160716 0.891768 -1.325323 -0.302314 0.638478 0.321213 0.439605 -0.437465 -0.122818 -0.305342 -0.434796 1.690055 0.945600 -0.481631 0.288396 
38 0.718595 6.163327 -0.711454 0.634445 -0.006161 2.435004 1.848553 -3.994004 -3.581771 3.658937 -0.370519 3.012150 -3.761662 -6.180305 1.647607 -0.578330 1.232364 2.702201 -3.315722 -4.470987 
40 0.999347 -0.029796 0.717871 -0.174050 -0.214592 0.403380 0.061938 -0.595951 -0.085554 -0.996462 0.229484 -0.230090 -0.435603 -0.742542 -0.091082 -0.073016 -0.802651 1.175607 -0.524954 0.359569 
42 0.590255 0.469125 -0.530642 0.445450 -0.484432 0.109836 0.320029 -0.020488 -0.361731 -1.127681 0.056859 -0.057045 -0.314541 -0.134089 0.378010 0.088776 -0.066157 0.478567 -0.809331 0.655246 
43 0.000647 0.024238 -0.021292 -0.000201 -0.009786 0.016448 -0.015812 -0.014953 0.021169 0.015398 -0.010341 0.003166 0.011199 -0.009701 -0.006251 0.014628 0.008944 -0.003615 -0.001897 0.007275 
47 1.121937 0.937126 1.065255 -0.593474 1.368842 1.243156 -0.237624 -0.568577 -0.141976 -0.051689 -0.755016 -0.571886 -1.359571 -1.042340 1.357500 0.443102 -1.317783 1.081716 -1.202905 -0.416941 
48 1.493727 5.414111 -0.682889 -0.673319 -0.583598 5.433493 3.055279 -5.779642 -3.847778 6.554309 0.752539 4.789844 -3.608124 -9.544444 4.654401 -1.640095 1.889250 2.686212 -3.439377 -4.113142 
49 -0.010198 -0.005841 0.007557 0.009209 -0.016509 -0.015444 0.013322 -0.008619 -0.012757 0.021709 0.020039 0.008628 -0.016167 -0.020494 -0.021627 -0.002861 0.022235 0.018146 -0.020376 0.002582 
50 0.557368 0.710125 0.894653 -0.036272 0.424478 -0.331726 -0.045554 -0.450556 0.628263 0.091567 0.748730 -1.819227 -1.841326 -1.013043 0.135484 0.173293 -0.510694 1.608513 -0.416168 0.335213 
52 0.001214 -0.006567 0.023573 -0.018047 0.001287 0.010303 -0.012121 0.007336 0.005562 0.016573 0.015431 0.023128 -0.008299 0.017972 -0.013966 0.002311 0.016295 0.012980 0.021385 0.009537 
53 0.553174 -0.101690 -0.448438 0.074416 0.241510 0.365213 0.157346 0.164438 -0.495927 0.266972 0.004696 0.263553 0.469837 0.376248 -0.689198 0.435841 -0.031512 -0.162706 0.466215 0.572902 
54 2.168890 6.080618 -0.049416 0.236583 -0.506128 4.598629 3.601828 -4.632436 -1.659260 4.222585 0.620726 3.482181 -2.419221 -7.534710 2.424980 -0.924465 1.728932 2.845958 -2.447799 -5.596529 
55 0.304973 0.776657 0.610233 0.815427 -0.486380 0.711946 -0.168521 0.585312 0.015569 -0.536348 -0.266337 -0.215646 -0.326354 0.497137 0.448570 0.037125 0.462445 0.585295 0.297576 0.104704 
57 1.084292 0.105479 0.318424 0.416645 0.009672 -0.094167 -0.321769 0.238442 -0.186182 -0.304952 -0.619741 -0.189975 0.041433 -0.808661 -0.574422 -0.145855 -0.135227 0.645840 -0.424838 -0.460164 
56 0.476853 0.378551 0.876819 -0.075391 -0.593389 -0.526253 0.096365 -1.156132 0.448171 -0.873457 -0.566807 -0.049322 -0.779659 -0.715290 0.014800 0.073805 0.255786 1.165238 -0.368936 -0.417166 
64 0.083906 -0.038081 0.394088 -0.537311 -0.112829 -0.024449 0.382028 0.902836 -0.040252 -0.135818 -0.367605 0.488353 0.302514 0.481578 0.025623 -0.423914 0.507665 -0.551548 -0.054644 0.229321 
66 -0.005336 -0.083685 -0.070522 0.220852 0.318678 0.024160 0.275739 -0.127893 0.224908 0.153961 -0.565185 -0.105628 -0.090949 0.270973 -0.097703 0.517669 0.876696 -0.047260 -0.441837 0.298859 
67 0.568567 -0.627681 -0.247259 0.019647 -0.461785 0.030626 -0.170444 0.438524 0.069153 0.028002 0.048826 0.114606 0.790293 0.166087 0.259812 -0.095440 0.472993 0.073298 0.359900 -0.085332 
69 1.499505 5.964670 -0.297435 -0.408605 -0.772304 4.417500 2.547202 -4.609976 -2.789508 5.450309 0.193583 3.421120 -2.629236 -7.511896 3.008904 -1.631862 2.154568 3.226921 -4.342079 -5.286228 
71 -0.314149 1.407745 1.588080 -0.522094 0.030278 0.186961 -0.257274 -1.308588 0.405698 0.191161 0.032585 0.368832 -0.483719 -0.234746 -0.026043 1.030373 -0.193268 1.632358 -0.389118 0.156381 
70 0.015386 -0.021274 -0.003274 -0.008760 0.016338 0.021956 0.007694 0.015469 0.012186 -0.018050 0.001806 0.021434 -0.024342 0.020348 -0.006954 0.024656 -0.009889 0.008423 -0.014135 0.022183 
73 0.020951 0.022505 -0.024838 0.021595 -0.010459 0.014982 0.020826 -0.015547 0.021129 -0.017803 0.008395 -0.020517 -0.017753 -0.019290 0.011990 -0.001308 -0.010843 0.021838 -0.011427 0.013632 
74 0.352242 -0.414004 0.355665 0.619512 -0.269186 -0.198423 -0.631472 -0.299026 -0.345038 -0.175401 -0.241866 -0.127475 -0.853627 -0.513147 -0.056041 0.414447 -0.485917 1.325634 -0.580706 0.819966 
75 0.827036 -0.204250 0.755700 -0.620836 0.642041 -0.000451 -0.058052 -1.369191 -0.058209 0.181137 -0.300593 -0.418760 -0.923049 -1.159185 -0.174355 0.300041 -0.492399 1.146724 -0.654142 -0.426132 
76 0.196061 -0.578604 1.423301 -0.106879 0.251033 1.285721 0.322916 -0.746291 0.857856 0.170218 0.086085 0.045326 0.038279 -1.237583 0.656656 0.106083 -0.551897 0.821151 -0.147820 0.871727 
77 -0.020697 -0.012997 -0.013305 0.015906 0.015745 0.024765 -0.019511 -0.017136 -0.019926 0.011766 0.010595 -0.024764 -0.012651 -0.023417 -0.014686 -0.018802 0.011445 0.020813 0.010572 0.002705 
79 0.381398 -0.033523 0.948679 0.383226 1.381164 1.065096 0.668873 -1.986814 -0.878750 -0.030521 -0.137416 0.259100 -2.067858 -1.400043 1.053991 -0.666060 -0.540933 2.631743 -0.676024 -1.503781 
78 -0.176587 0.602857 -0.093950 -0.769892 -0.111393 0.876027 -0.292653 -0.623620 0.148032 -0.371003 -0.496181 -0.809416 -0.566586 -0.513641 -0.423003 -0.180337 0.415548 0.827990 -0.042712 0.268879 
82 -0.025130 0.171818 -0.630096 -0.664050 0.175560 -0.310035 0.307084 -0.246479 0.560986 0.167900 -0.212959 0.230937 0.425861 0.959692 -0.016410 0.170193 -0.002140 0.622377 -0.367474 -0.002262 
84 0.103698 2.282892 1.015330 0.508288 1.097034 0.371667 0.284668 -2.884121 -0.483610 0.969046 -0.884587 -0.753928 0.102219 -0.703341 0.808277 -1.825881 0.173602 1.278323 -0.649565 0.590375 
85 -0.021791 0.006973 0.010604 0.005444 0.006298 0.006889 0.008828 0.019478 0.012337 0.019422 0.008682 0.012434 -0.013228 0.010660 -0.005345 -0.001027 0.012989 -0.015475 0.021381 -0.024072 
87 -0.377398 0.532668 -0.193034 -0.879581 -0.249291 0.959861 -0.498902 -0.620478 0.231282 -0.591327 -0.575476 -1.012222 -0.649592 -0.579916 -0.545861 -0.147697 0.424505 0.870875 0.159676 0.382290 
88 -0.002115 -0.020326 0.006091 -0.017439 -0.009592 0.013771 -0.022057 -0.022199 -0.016335 -0.001011 -0.007640 0.011091 0.011973 -0.011643 -0.020780 0.002926 -0.016749 0.017974 -0.008391 -0.014791 
89 -0.437594 0.971104 0.044801 -0.928960 -0.045044 1.241836 -0.448681 -1.242949 0.166245 -0.321481 -0.710767 -1.025400 -1.039618 -0.852979 -0.345704 -0.393750 0.440281 1.232605 -0.051741 0.214651 
91 0.392041 0.039768 -0.150647 -0.601056 -0.129902 -0.625637 0.030815 -0.008403 -0.323284 -0.150680 -0.442792 0.601967 -0.367233 0.122768 0.505451 0.077124 0.455249 -0.521292 0.391228 0.549195 
92 0.896441 0.286940 0.920042 0.357023 0.573486 0.494088 -0.186692 -1.182425 -0.538081 -0.008975 -0.174404 -0.419464 -1.553264 -0.973412 0.632790 -0.189810 0.557684 0.865167 -0.379732 -0.133580 
95 0.181933 -0.112054 -0.875665 0.071542 -0.112650 -0.255885 -0.660616 -0.130801 0.643498 0.386886 -0.503606 0.327767 0.366263 0.077229 0.480155 -0.016877 0.028207 -0.051401 0.167287 0.151675 
96 0.017546 -0.014767 0.006882 -0.010587 0.008730 -0.016652 -0.007808 -0.016558 0.017264 0.022350 -0.001997 0.008763 0.019036 -0.001591 0.013440 -0.014177 0.015765 0.007521 0.015760 0.009666 
97 0.469691 0.801022 0.693278 -0.275915 0.870548 0.115186 -1.145600 -0.772799 -0.859747 -0.231888 0.486979 -0.871964 -0.359572 -0.659046 0.991985 0.793472 0.652090 1.356453 -0.228215 -0.508572 
98 0.500944 -0.198693 -0.149665 0.125344 -0.517627 0.045740 0.158020 -0.084274 0.342399 -0.083030 -0.779107 0.445407 -0.101885 0.217604 -0.258528 -0.021794 -0.263797 -0.119029 0.116201 0.478511 
99 -0.129470 1.313726 -0.198302 0.674083 -0.494470 0.822155 -0.440396 -1.571211 -0.693921 1.032540 0.233183 0.057473 -0.893046 -0.984164 0.654711 -0.421337 -0.199589 1.311585 -0.029364 0.055564 
6 1.681209 5.460133 0.254539 -0.832987 -1.554045 3.350808 0.657921 -3.275121 -2.776719 3.573165 1.239437 3.431205 -1.761940 -6.945525 2.318326 -2.341122 -0.752420 4.100340 -2.758643 -3.925897 
23 0.000627 -0.022403 0.011536 0.004179 -0.009217 -0.004376 0.019360 0.001326 0.007701 -0.017894 0.009669 -0.024572 -0.002579 -0.012676 -0.003040 -0.022613 0.007805 -0.019094 0.011546 0.013819 
19 -0.450603 -0.293203 -0.147107 -0.319712 -0.303622 -0.019329 0.303340 0.024908 -0.365263 0.010970 -0.427556 -0.043836 0.717972 0.132801 0.552757 0.313275 0.002341 -0.704858 0.069272 -0.120603 
20 0.001580 0.025000 0.012022 0.007937 -0.013450 0.004845 -0.016347 0.011470 0.005025 0.003050 -0.013182 -0.006814 -0.009871 -0.018613 0.003988 -0.007192 -0.020057 0.024246 0.005690 -0.004704 
32 1.280507 4.038077 -0.124823 -0.892663 -1.013126 2.234536 0.333767 -2.344980 -1.769844 2.892870 0.606050 2.285169 -1.032439 -4.915288 1.999298 -1.787017 -0.490634 2.812695 -1.405325 -2.512124 
34 -0.285020 0.066032 0.395808 -0.309650 0.235649 -0.221355 -0.036752 0.577960 0.080086 -0.179720 -0.454884 0.313080 0.887726 -0.518128 -0.484508 -0.262438 0.662873 0.138760 -0.253152 0.146614 
33 1.369615 5.227827 -1.743942 0.681832 -1.307216 3.887668 2.779811 -3.436610 -2.654071 3.056529 0.622869 3.429504 -2.257725 -5.678486 2.895613 -1.011596 1.336432 2.686940 -4.020481 -2.911286 
36 1.379986 0.357057 0.470062 -0.006886 -0.013750 0.394100 0.637353 -0.471801 0.270575 -0.716545 -0.121591 -0.244119 0.205813 -0.389492 -0.236407 0.211290 0.006222 0.179869 0.577805 -0.852384 
46 0.011048 -0.022297 -0.012137 0.006283 -0.024271 -0.023352 0.023284 -0.024167 0.007994 0.006468 -0.003679 -0.010447 0.007688 -0.017886 0.007384 0.012807 0.016968 -0.016765 0.017276 0.021994 
45 -0.010785 0.018527 0.001622 0.000886 -0.005989 0.010046 -0.017233 0.021576 -0.019277 0.016628 -0.007824 -0.015699 0.007226 0.013454 -0.023484 -0.022416 0.003711 0.008501 0.016183 0.017376 
51 0.513616 0.235531 0.369958 -0.180322 0.040527 0.466910 0.288654 -0.277499 0.483916 -0.012576 0.632711 -0.019198 0.745913 0.312827 0.675046 0.015981 0.776770 0.592990 -0.623131 0.623209 
61 0.121944 0.200069 -0.031920 0.538821 1.014524 0.834255 0.639792 -1.128620 0.282736 1.144034 -1.340331 -0.388059 -0.709583 -0.376782 0.316253 0.781584 1.245791 0.316332 -1.379421 -0.294110 
62 0.639357 1.510717 1.479888 1.105906 -0.267974 1.515143 0.226840 -0.752582 -0.672570 0.153341 -0.351766 0.099078 -1.857935 -0.617387 1.129005 -0.117036 -0.189630 1.908737 -0.739709 -0.902689 
60 0.729271 0.934236 1.478217 1.085592 0.769484 0.400934 -0.412616 -1.149706 0.435800 0.555916 -1.040435 0.455327 -1.119913 -1.970170 0.495266 0.032134 -0.910134 1.470696 -0.494571 -1.347408 
72 0.004243 0.109362 0.515033 -0.407449 1.268067 0.505773 0.697547 -1.715875 -0.243922 -0.182420 -0.141302 0.420113 -1.165029 0.021176 0.774035 -0.629662 -0.357892 2.378284 -0.722105 -0.998073 
65 -0.002995 -0.016843 -0.019436 -0.012784 0.002616 0.000517 -0.001210 0.008995 -0.009383 0.013188 0.001063 -0.024416 0.006833 0.015039 0.013733 0.010134 -0.014368 -0.013278 -0.024869 -0.000230 
83 0.390260 6.492823 0.784477 -0.008105 -1.120939 4.106563 2.103294 -4.659784 -1.876474 5.039711 0.900373 4.398892 -2.501658 -7.012399 2.389593 0.224558 1.217758 3.822581 -3.492093 -3.981389 
90 0.819568 -0.066734 -0.204696 0.688476 -0.482940 -0.162540 -0.109622 0.147256 0.085955 -0.417398 -0.238196 -0.201707 0.303838 -0.060727 -0.525395 0.290859 0.037960 0.698177 -0.449234 -0.246768 
93 0.590285 0.497322 0.071322 0.519974 0.095105 0.104477 0.066911 -1.571716 0.259174 -0.948178 0.148691 -0.215065 -0.454402 -0.872287 0.399877 1.105434 -0.181404 0.497582 0.725604 0.242887 
41 0.318480 5.808580 0.597718 0.991000 0.108737 5.795718 3.232341 -3.772810 -3.228937 5.133526 1.403027 2.561488 -2.292307 -8.134985 2.653567 -0.974011 2.060462 4.353402 -4.462595 -4.646667 
44 0.928868 0.289464 0.255255 -0.039297 0.379993 0.624157 0.078098 -0.633809 -0.577244 0.297276 0.119694 -0.214110 -0.185118 -0.086937 -0.917667 0.325220 -0.194676 0.632839 0.017964 0.428137 
81 0.147213 0.139558 0.094984 -0.189696 0.392836 -0.445167 0.371292 -0.223366 0.106092 -0.807869 -0.043523 -0.232052 0.444211 -1.153452 -0.599559 0.289098 0.438123 0.269193 -0.541962 0.559321 
80 0.009333 -0.002371 -0.010581 -0.018196 -0.024700 -0.004346 0.021227 0.012960 -0.014422 -0.007011 0.014309 0.018503 -0.008812 -0.017122 -0.004313 -0.019021 0.020008 -0.002228 0.011786 -0.011621 
86 0.022823 0.009369 -0.008518 -0.004461 0.001648 -0.012648 -0.015797 -0.012094 -0.002368 -0.002848 -0.005685 -0.011206 0.003824 0.012362 0.003158 0.011307 -0.022962 -0.024305 -0.021219 -0.004746 
10 0.334608 2.361763 0.250145 -0.279311 -0.213542 1.915936 0.585635 -1.757292 -1.564160 2.853826 0.011289 1.390125 -1.365001 -2.753917 1.410782 -1.114852 0.893208 1.868811 -2.625932 -1.307342 
28 0.195795 0.408767 0.663064 -0.494843 -0.565990 0.468237 0.733059 -1.275770 -0.622697 0.506377 -0.379326 -0.727119 -0.385192 -0.622132 1.067202 0.310495 -0.357360 0.590991 -0.903111 -0.602742 
68 0.088212 -0.429621 -0.004361 0.077368 0.612158 0.105740 0.201662 -0.373443 0.008124 -0.467741 -0.034495 -0.157511 -0.411037 -0.025900 0.131466 -0.402509 0.122998 0.636917 0.165644 -0.097398 
