100 10
0 -0.8485086667024574 -0.17273499276756205 1.5096168989701808 1.1274294726865541 -1.1500567148971659 -0.12198627028294481 1.9059748528563278 0.36973115385886074 0.8363837164244501 -0.9261213197963566 
1 -0.981575497533374 -0.19474856761169743 1.1727370450353114 0.15015601963329353 -0.9022241062840483 -0.4578817515528835 1.3216132139677395 1.1729717190560158 1.089361629543416 -1.6091496305619148 
2 -0.3737098145338963 0.466176025501545 0.9271414662376312 0.6705670354228336 -0.6075662615981233 -0.041519573104272595 1.6962720199634962 0.6643883936750234 1.401678635237535 -0.8778585802469381 
3 -0.9042892921374884 0.5012646940567556 0.4716750112724083 -0.3301120548873073 -0.09294408235455995 -0.326758463726941 1.401251004485904 0.8462026665429753 1.134930236120931 -1.3223844938074891 
4 -0.5849424787571473 0.5452455897477163 0.3181418374926898 -0.37200444866758425 0.31050618071057606 0.213563886066105 1.712460571274059 0.710330399919927 1.26547948231837 -0.9034627130635953 
5 -1.288392688830364 0.39538450217120613 -0.14832397449134854 -0.9703662433674839 0.12174967891676633 0.042047644748820744 1.2623292164959659 1.0272458415144257 1.1379532447217 -1.2807692339183863 
6 -0.8114805859101245 0.5861057906811264 -0.10067375626927354 -0.6381881223439052 0.24289363089804053 0.03749816842670874 1.7680280102089212 0.3586234505768043 1.5643531644689288 -0.6841714711751009 
7 -1.778314481419134 0.9407573139140795 -0.5497690366105763 -1.5673131722517042 -0.7879863878146233 -0.5179913100596724 1.4841595240434526 -0.07712974436855903 0.8153517011354221 0.07241433815756422 
8 -1.4121925096104735 0.8411368969618028 -0.2674416485023346 -1.100340771000188 -0.6523261341843748 -0.08842664503735824 1.852462361288126 -0.916815421479124 1.0156981428367442 0.6930143051715152 
9 -1.8221596489766299 0.11664582649360863 0.04635683996298397 -1.5238671171175833 -0.9272210477929969 -0.7378923738265053 1.0793533289427346 -0.7142750906890031 0.6063290330852213 0.27796084666697074 
10 -1.123076891370657 -0.31932132085935866 1.6414019948818586 0.09918620386302447 -1.2428622383996828 -0.28370301356326333 0.8987939780344276 1.1145056345686684 0.09889959962947745 -0.29751941805755566 
11 -0.42773529454797915 -0.13119098668667759 1.2605209430563626 0.49399518056357666 -0.865974538548044 0.20958882376612545 1.1757954547966711 0.7667238232043765 1.4807651821139436 -0.8958717409562925 
12 -0.6984276886922405 -0.019370923013478477 0.9375546825122965 -0.018170927229298243 -0.7606726095612166 -0.41392926453268214 0.682452379686022 1.2590551889541837 1.3520487530139722 -0.8703925206146592 
13 -0.28621550539071666 0.6024393425097887 0.748301434281458 -0.17038328853675846 -0.006366763298219599 -0.09017102053510709 1.386140622873358 0.7531489749838228 1.5717382537215214 -0.7023786702243328 
14 -0.7950924904111751 0.5051751342875406 0.6714677219391164 -0.9318635372136814 0.08772793326120369 -0.4379731795163433 0.996206978974482 1.1171282627617785 0.9644231396240779 -0.7170520120465586 
15 -0.3790772409073684 0.509427654014649 0.14468344040433512 -0.6874180863359213 0.39100658802582083 0.38568248593953125 1.3843589311640783 0.2608406157659897 1.2638368502983108 -0.501957459962056 
16 -1.1868098103517581 0.4856058743512308 -0.23018124921486377 -1.3772460504684958 0.23996245227580593 -0.10884157348760869 0.6678030478274966 0.34408538884652273 1.0673955159990554 -0.7268405485247996 
17 -0.9102932092123049 0.705353544325285 -0.4261028829296678 -0.8393996906794776 -0.17349908356216157 0.18932091168378287 1.5447725382681448 -0.4257060823461721 1.4348984298201757 -0.07308417666889308 
18 -1.7305038091137588 -0.7726825043687102 0.6888532792689046 -1.585076491640678 -0.34488319641529547 -0.8653033031129242 0.9168723035520988 -1.2975809523572897 0.4510459598533225 0.05833503299383745 
19 -1.3376845156495556 -0.0680279280032895 0.269470658561614 -0.8975104112038846 -0.8333062196379799 -0.021535832935500952 1.2621988451864996 -1.4451788298006938 0.958374462114543 0.5113682669589416 
20 -0.6674747267320632 -0.02069616329285185 1.9615881259352788 0.596760110054792 -0.9810454245264926 0.3743745073806487 1.5059889857602946 0.7032451274334287 0.36725694367239897 0.18761394067993142 
21 -0.7888223336591645 -0.45978832136415976 1.5836515068590384 0.054948015900943926 -0.6094512402976153 -0.08206052736911333 0.2557916484871165 1.4481412768118278 0.7939342387336634 -0.8313234640382419 
22 -0.3622458882658674 0.49844548657065724 0.9229322839594364 0.3599182080786692 -0.34766863943153775 -0.23125977373135723 0.4968662342320073 1.0232953912197122 1.562900078477044 -0.11577411732386832 
23 -0.38952537817073773 0.2099523697113403 0.8676904944876941 -0.8427873181780492 0.0520339146530972 -0.2990795425523388 0.18369961303355672 1.1050858077522487 1.2860866328829164 -0.36637635672771757 
24 0.15289977266949406 0.3347541168463361 0.8800673671083113 -0.7831414419902891 0.4866859640795645 0.07584067190873096 0.7983751357921225 0.0250379907589834 1.5996027272770663 -0.3349637837435102 
25 -0.6428102560052499 0.2740600877671154 0.49517357170012216 -1.3358233963955757 0.2663983564807347 -0.08457121023229627 -0.005973635931904912 0.2872517165511729 1.3759162457246505 -0.6601576266288541 
26 -0.6121838452781924 0.07230999715920011 0.10309754799900755 -0.9119738492894653 0.41331747315665324 0.3609801250846405 0.8841735602007816 -0.5736861547559416 1.6398565263655396 -0.3964859778426512 
27 -1.203299353848655 -0.24362515704229948 0.2120841015946921 -1.6508017553579517 0.053111020224722444 0.12277976579564792 0.4747600898023641 -0.7915669147871279 0.6706801521377855 -0.45545691742170885 
28 -0.773073507988672 -0.5860715723804822 0.5852524913814936 -1.0430880935972926 -0.08457141145499422 0.4769900263967717 1.0827379157794488 -1.484069366109883 0.8300139662226351 0.12086293124002179 
29 -1.567700016925681 -0.4603600629108239 0.20741832241045283 -1.6474293166631337 -0.9633075798012262 0.14466457807066654 0.48190988795054335 -0.6922054429635698 0.31361406218311233 0.02907410829819732 
30 -0.8838445090716763 -0.7202897365616863 1.9860893763869871 0.2761833335381849 -0.7401333516339933 0.1786584406858422 0.9919042447414685 1.1579330313040994 0.11532582918157094 0.1018768934222859 
31 -0.4957824274310425 -0.2453818574588907 1.6390678923043196 0.80335474530085 -0.3321243104003807 0.5698897218752877 1.041988010412718 0.820201451328417 0.6144388285480958 0.27678791841150424 
32 -0.6897794740186018 0.2536358470865495 0.9521418623796751 -0.07241161484418791 -1.0739937786848017 -0.37052392046805444 0.06818128997127904 1.79496466896744 1.2151917996059118 0.4732772403986274 
33 0.7122177716670826 0.2816223784218719 1.164643147991101 -0.360050671689138 0.21110668738153623 0.07992305680731608 0.6233983012008396 0.7971197440670028 1.647033323341606 0.3199543268511087 
34 0.22324530006739052 0.5749024905527405 0.8589864897233133 -1.5587628153230084 0.5654914643268347 -0.6833696944198343 0.4190656838488584 0.9276419607891333 1.0909983312590257 0.17413182811369307 
35 0.6840488904449693 0.09564958266131945 1.0586276436785047 -0.8899942456589387 0.22650219994581028 -0.46309891615673066 0.7317854242327587 0.3203842570903599 1.5238848590272942 0.6124249930856023 
36 -0.5531840555463283 -0.27322143131803317 -0.3646255936926597 -1.6041669275539068 -0.2013141953159354 -0.12504848477726271 -0.24989545317694634 -0.013211528120091659 1.5618363617011972 -0.6426566965043087 
37 -0.6091605488042622 -0.6491976359184696 0.24302632818031059 -1.1646231296139433 0.4273710082643528 0.6349704821985562 0.4648749189872846 -1.07614635743256 1.6041949403628641 -0.25034308244980125 
38 -1.119698601700171 -0.5442321583673131 0.34051670619767477 -1.5409448146232283 -0.47489490916597094 0.2838467774031068 0.07085482967688775 -0.9993323548089916 1.0677127908969346 -0.4664596944937653 
39 -0.5675208945452654 -0.346993621699245 0.5091250227653221 -1.0806087837924716 -0.5398608951654131 0.7350742440999076 0.9643229411730943 -1.2792012470281973 1.016777049820079 0.3548629935497029 
40 -0.5472093136202951 -0.12104205943367702 1.8035598939940012 0.32343682736322377 -0.33726986309162527 0.5566680430379003 0.8494069084133273 0.8573711900595665 0.49537748381051927 1.0996079824295393 
41 -0.6670412648007497 0.037282085279812846 1.6143626849407182 -0.5196076879828638 -0.8104989975092717 0.11572499563601484 -0.008304028120046887 1.5509485536026553 0.5930935070197807 0.4862857702013143 
42 -0.17979379845219381 0.15819191348934367 0.9767742861717396 0.16393965393637858 -0.5185035542027655 -0.02568306150163173 0.21087761000192717 1.139605632664078 1.3235931045610416 1.0814541612849813 
43 0.0015372639411756813 -0.16154504593067143 1.1051297061345269 -0.8022496666715102 0.05031895196740295 -0.19090070449285068 -0.1644234473828975 1.4414028735218498 1.0331110147697358 0.1423631709727773 
44 0.8039183174943513 0.017171567600387922 0.980496104800535 -0.7078940501181342 0.19572636099146495 0.13727247381494045 0.4545338454928468 0.7136430940983551 1.4682128154289098 0.7574648275802794 
45 0.7312898820954116 -0.26813691886867796 0.8413805496399913 -1.37656567627098 -0.03917651967700825 -0.7980220337418611 0.25404436791085105 0.7761666052119031 1.064140561279198 0.2439311119057109 
46 -0.22117180591745192 -0.2798451182525936 -0.24555796801954194 -0.9927807722685386 -0.10467683868341181 0.7080509736939468 -0.014793366018704776 -0.8472840128652829 1.9393929460166754 0.14905777428694092 
47 -0.7429672837623004 -1.0998860241284816 0.2822210563514483 -1.840973385872079 -0.06925603279703918 0.46859699434031765 -0.08963838755474501 -0.3918910015200177 1.3026009636884912 -0.06177028898022808 
48 -0.3601305114184869 -0.6923182004015223 0.5375895769194247 -1.0827172148436481 -0.340226237641407 0.7450671539299096 0.36187408726632486 -1.1078906866258975 1.5786926788242364 -0.03502164165892174 
49 -0.53524990735292 -0.7776264053333518 0.3337451714577523 -1.637007486372428 -1.1301274680100222 0.6535273409715482 0.42764214642517573 -0.6901572126861713 0.3072321998624411 -0.028901067692501205 
50 -1.309783048529561 -1.160590901458308 1.2963722657048211 -0.021276463123125804 -0.28929257572268763 0.06752464980761515 0.216462585132214 1.056682772564724 0.12829649230729898 1.1678947519813274 
51 -0.9556571550101979 -1.0306615808917874 0.8731552657506467 0.5746926372554475 -0.1902571867963788 0.23822679821934276 0.34544613526443807 0.5780598551638414 1.0438919186599658 1.4124169882361681 
52 -0.6753169785027265 -0.5558968212759741 0.6572505890729347 -0.16595650644354448 -0.6633837258253964 -0.4486456153760896 -0.11873441852594263 1.121732357625471 0.8922313496089749 1.1939407489569505 
53 0.6432333572167617 0.21230971227338288 1.0856271590845943 -0.9833011638188409 0.313372742605616 0.6443253302777111 0.4434099726287286 1.032436005853042 1.331305902336374 0.7399968888860822 
54 0.45486566508457993 -0.502473515386353 0.7551722279969817 -1.1981628086887963 0.0824424345565508 0.004671149483020845 -0.1336014858309838 0.9650269296497903 0.7439060587197953 0.5119319849280922 
55 0.8825835125690401 -0.6041120331675539 0.6327752146414218 -0.8284972020475856 0.17227321177809574 -0.22672676426787328 0.16221238822982742 0.008261838486945568 1.5639705829448667 0.686520913541727 
56 0.3191734430678692 -0.6163995609922025 -0.07385616120584754 -1.603552191832719 -0.29985007442093103 -0.36977034130962233 -0.481328949428899 0.30204214140655083 0.9609481316333924 0.40599370984601135 
57 0.10182864758799925 -0.7634764824773331 -0.02607438236125072 -1.3900263684136767 0.3177667503967275 0.5599072754382576 0.061855333575745276 -0.7553209943060931 1.4752359552837646 0.40771612014586395 
58 -0.8358424193681151 -1.1382023132125678 0.1716631960328442 -1.1604789004176153 -0.8499714105138666 0.44321448239445377 -0.13790321875246858 -0.706301723197945 0.9117337161758517 -0.585013076177185 
59 -0.050090748746045466 -0.8226839652381946 0.3322990023122309 -0.8110564156129644 -1.2048345343700868 1.3664867792360882 1.215590386996277 -1.1431437100281936 0.2910944702917487 0.16076976524679765 
60 -1.008020451920795 -0.9038149518307039 0.7233594952109705 0.7488049509924285 0.2389131092973967 0.840821745642256 1.3080813266540974 0.6363306372802516 0.37274013265442146 1.364856576499653 
61 -1.3976749399671051 -1.2519688030589564 0.7699802483331668 0.3099087583136999 0.06229524120786793 0.12948425218980317 -0.031120383632423258 1.086739982370584 0.5748150066586007 0.9532475997884058 
62 -0.14836600861882557 -0.5607006214859126 0.09475073529859954 0.4576026721291034 -0.6234540485767646 -0.4964168656578912 0.2561578555160899 0.5226860440249154 1.1248863939194118 1.4993262380108694 
63 -0.2248159172805715 -1.3343368119679946 -0.02651637534298093 -0.5071125457815554 -0.7978479586775284 -0.8474466848504456 -0.682557932371422 0.703270034844009 0.9929571346129242 1.4062686647964677 
64 0.7740615524506806 -1.0086453064986687 0.06928366934735522 -0.28892713311455104 -0.505035967704883 -0.5445095713043167 -0.09372619621121653 0.2195444204783836 1.2801324573733721 1.3371889888109254 
65 0.5154348688490563 -1.08442677849024 0.37180056811534207 -1.3340731405655808 0.025025010037965454 -0.3516184098339784 -0.1134363260803805 0.6388212495358748 0.844815930401283 0.3164595984869675 
66 0.7126364165197243 -0.5611777208154152 -0.33523854004010034 -0.9866131803723434 -0.3526315085239475 0.21759828603735856 0.5266076690401946 -0.2558302182408389 1.4451453152346205 0.6453151064990468 
67 0.49427173119752416 -0.923058834830981 -0.001741033674347442 -1.707191944555382 -0.6332948347954842 0.3175122289646035 0.15367790995559566 0.36197750688973807 0.10717671373061348 0.6210673530452273 
68 0.7761304221793144 -0.992867441084686 0.221732800051778 -0.8278264398684478 -1.1355050043833197 0.9193996979488667 0.9320409004726651 -0.6203692214034341 0.5156848708284315 0.5723461279523203 
69 -0.011492903682939638 -1.3783148949564108 0.2150022588083506 -1.5577246905118904 -1.3016446131752852 0.8827946760937414 0.6468287378219719 -0.059774646254864006 -0.19491780420261304 -0.44558763109653243 
70 -1.5227613395607462 -1.3073151779482848 0.015041380608011627 -0.12278707209756518 0.022593967634533536 0.27425133043647526 0.8197211044862864 1.4481620467376208 -0.039793695176677024 1.3112152539914763 
71 -1.0280237322637131 -1.1616167784003142 0.17004588544400495 0.5577972074650247 0.38128736768606253 0.4325912891318825 0.8583178637386305 0.7054978581394544 0.8031566486046426 1.3736341687914024 
72 -0.7731282235970066 -1.4586871043769258 -0.2712335274802907 0.06851423463964913 -0.16277856535847998 -0.6519035813243645 0.35494352504194 1.070989382288482 0.625189141776072 1.0654656453752622 
73 0.2528756546631965 -1.2385777065045425 -0.3717253105411823 0.24440223853224424 0.17545731255735633 -0.43825007218360224 0.9179113057037489 0.48339604108767037 1.031165773290037 1.3624579601606712 
74 0.21944594479197035 -1.416436859990444 -0.07599605946227658 -0.5832197351150247 -0.32681095457541887 -0.43551535462689517 0.0700947893090601 0.6463156172416983 0.7277817442227297 1.0456936815476539 
75 0.9998223026457822 -1.2546717547017243 -0.13199361208505567 -0.578330467571806 0.009360618511538944 -0.07363239305872071 0.5555641417073366 0.33037529111638647 0.7513768339419622 0.39744387428970607 
76 0.6209335987980715 -1.3231818871608287 -0.20786511719465345 -1.2788817179747205 -0.7326300818486867 -0.20879671681004 0.4897293161133708 0.5557575244620804 0.14909194955948987 0.2835579409968341 
77 0.884666693973982 -0.6401517493619016 -0.5677465142495008 -0.8582693154253935 -1.1979374286075501 0.6459315172176834 1.2445409257778883 0.0750709257880944 0.6369653163605721 0.5983504803118822 
78 0.5312660651511427 -1.3295045410451256 -0.1818218825671652 -1.1019096545560063 -1.408393912145423 0.1738846697439601 0.703328138343811 0.4307958894986766 0.056494113869186596 -0.07082663833829372 
79 0.5904026977839345 -0.9986359388496228 -0.21418326311683045 -0.7131483215461396 -1.1054513095414191 1.3444368708510572 1.0608862887365398 -0.24535225215163983 0.6040745954383429 -0.0034431638617244444 
80 -1.3142084587167981 -0.6879086820004133 -0.36152408623531607 0.27451891846436344 0.0688682640537228 1.2128104708554652 1.1574255222373944 0.9732552338958446 0.8708337404963015 1.3655200865190997 
81 -1.3965510822540645 -1.7727553464143162 -0.5244011807758535 -0.014572376296335149 0.4691485197453925 0.09362150504697862 0.6582058559894307 0.9999844133579876 0.5272674653584108 0.827004538563285 
82 -0.565160915856707 -1.0254143504685567 -0.6630728763354058 0.265734836423002 0.3263205293206728 -0.429898865147296 1.3666940893429715 0.5288808662479884 0.5819259272913682 1.0132511841162521 
83 -0.5425554903253147 -1.6759125686607708 -0.8397076738722046 -0.1527537816525404 -0.07853803214791663 -0.7885221175798365 1.0760601902561084 0.7955978307137186 0.1738849114173013 0.7070505229256098 
84 0.3196780506851503 -1.7630250026767251 -0.6094336871822875 0.23873688376203459 -0.20848718995212692 -0.12942122995512007 1.597709974060174 0.1898747769188695 1.0574057242852895 0.2003328098166114 
85 0.5098080537743893 -1.9988428307410988 -0.4649668445985435 -0.47735591315829373 -0.3652043549304497 -0.4697944348020749 0.8669309853293483 0.8599821602462238 0.4289029198877725 -0.20788664609049146 
86 0.9899008522828796 -1.4255953083805417 -0.17031960927409523 -0.40078787975442837 -0.5892260821094203 0.3557361560927557 1.451507718520571 0.3569724931755774 0.28563725681693747 -0.12264113779581706 
87 0.36104436414083585 -1.3795766918485275 -0.43175751638196536 -1.4251474546052392 -0.882491853144462 -0.031516580808385944 1.230642874402164 0.6414037070715853 -0.27731048041995066 -0.15506757543948085 
88 0.7105092825608281 -1.1148493321993498 -0.5211529120514131 -0.6409437359671385 -1.4114799340588415 0.6644539761571918 1.425793107310879 0.19173177088649979 0.36388660502527587 -0.02951262388559544 
89 0.2843495234634315 -1.13152976613096 -0.5488374896494003 -0.9348235203445375 -2.1202319043053284 0.8301620847775542 0.8674235975407635 0.7526098739956752 0.06323673483832791 -0.35437416551697093 
90 -1.840951193458958 -1.0355207412051297 -0.6236738732085334 0.0712076388509186 -0.09385162899075984 0.9426396284399186 0.56124962781648 1.114191745551102 0.45995384430451774 1.1235202955289767 
91 -1.3858195806308689 -1.2238414975296548 -0.6545362422552458 0.38433050019972886 0.24181987121673243 0.8106861358940919 0.6373337839149289 0.7445182827845882 0.9827471843990732 1.2566300142890021 
92 -1.0089657440793511 -1.1312186690764843 -0.5451041971988231 -0.46565681034103307 0.061281820455192995 -1.0467066216409013 1.0842997613767338 1.0188709406079826 0.45580754822330793 1.316336847255061 
93 -0.34357370557400374 -1.1973618949586529 -0.7103685077933929 0.03694952956018277 0.3144817044304424 -0.4482888530599583 1.599794567623553 0.3556322642235876 0.7191544700348108 1.3239498587425373 
94 -0.062190163230573886 -2.01726620221286 -0.5603870166535339 -0.23408003250080922 -0.4844767162005853 -0.9895212584675466 0.8938185028161255 0.5485249823148781 0.7527261992973344 -0.31525871771382075 
95 0.5017613773385706 -1.7041287041006654 -0.5231086498982169 -0.0838112352807838 -0.25922473911447924 -0.010451742017534184 1.3069707229615521 0.44780791911851797 0.7445422048325011 -0.03096005271450171 
96 0.26721114117938205 -1.6099088013680491 -0.26748071674354545 -0.9473485785134053 -0.5293910308036575 -0.312068139970433 1.3133541656857113 0.8946346266258373 -0.015542118029799955 -0.41528692119836164 
97 0.8627208352900402 -1.1583479320835517 -0.3832114916866766 -0.5244799518427483 -1.1040438047374683 0.3094339686408619 1.332936791450931 0.2055658363465559 0.42685256831858615 0.16732547843046192 
98 0.26023415743974426 -1.0232556928525713 -0.8172413207283153 -0.8540110226827775 -1.5108944785927947 0.42394038681163654 1.172528475975082 0.7179542238576766 -0.04226306143049949 -0.44984007932136455 
99 0.5082548705132993 -0.7591338370673656 -0.512058004155297 -0.7200004540685491 -1.7371546433901826 1.0884963357062916 1.3097331600637652 0.4519010769537386 0.5748567734363405 -0.19573556003477216 
