100 10
0 0.0230967787376657 -0.025946358432851414 0.013741742535010825 0.005043700511763394 0.00975452777972018 -0.016678160052335023 -0.011481081525928149 0.04848415401998089 0.03791825178724802 0.04412491794821144 
1 -0.022504603396451515 -0.037110284912622325 -0.03533983423534818 -0.04767618775161105 0.004673975719846557 0.046448686067685006 -0.03955093137490283 0.012514636346555929 -0.008920380450893828 0.027631229127493252 
2 0.0490722785714783 -0.0012767152969857198 0.024624140532233052 0.023315207019499386 0.03172970714093244 0.03388903500470183 0.0026699434604866125 0.039933501161149354 -0.03660601594131078 -0.04169376017750851 
3 0.047857434014784025 0.02223571191888487 0.021503101385047442 -0.035677961469940324 -0.0037042181577577105 -0.04955143978171148 -0.04285016851201059 -0.015157977020833546 -0.016123034646424637 0.035935655135464796 
4 0.04715469888517128 0.03657458802140383 0.011258110470986816 -0.03210120154711828 -0.0282429587790314 0.03544871670422907 -0.04903265026990257 0.019229300695293328 0.02713129661706796 0.02126874281456893 
5 -0.02887646250701038 0.028309248976717938 0.044533323895962894 -0.048576364489633206 -0.01057964472226689 0.03537907753080728 0.02860424508145526 0.0493471955005814 0.0383104405981479 -0.032970846975229604 
6 0.04620689182075386 0.022429503357886883 0.017735416124987448 0.03043954172246357 -0.005857322632420825 -0.0037912009714005544 0.035282746659946074 1.8348502057350392E-4 0.04919429804102169 0.04692699099404161 
7 -0.014689392782088185 -0.04527341308038706 -0.04283763765821994 -0.047089248727836416 -0.001632980989489985 0.04719501209537452 0.04891171507514055 0.026744210301548988 1.3973510122299303E-4 -0.024447468910355652 
8 -0.019084181275181234 0.03482805002723425 -0.04479154618260167 -0.04898245454637708 -0.014614703029128807 -0.04132621448342725 0.03503115152643057 -0.04963230976442996 -0.019210683236552728 0.0031608556248797657 
9 0.04188142018385732 -0.022278997393128865 0.03742622102831944 0.010988151351276353 0.04086392096967358 -0.04555093798432049 0.014672390103888955 -3.196236377343897E-4 6.70159595285269E-4 0.002068881989294946 
10 -0.013363925548600396 -0.0022363088243078644 0.02039697053426346 -0.017723220175677866 -0.04883451617234522 0.02010389381824046 0.024535286039155092 0.010728824856261776 -0.026491827413583392 -0.011095681644637145 
11 0.041146836184298576 -0.033261091141559306 -0.04960864693827791 -0.023510417254752836 0.039281695715618514 -0.020243173508921852 -0.007109552067026248 0.018755163818386378 -0.009150356529897407 -0.01469475005567803 
12 0.01717585674995369 0.024041718016938274 0.039443522450634316 0.00799577832686672 0.001075547994825976 -0.01880302630662085 0.004022940417141985 0.04731076511749595 0.011363760252725874 -0.04728309381311134 
13 0.018901751454134197 0.013028927595620455 0.03178375060850521 0.024111834643447426 0.013143008073187901 -0.01851076514910447 0.025035163794494764 -0.030978026374137747 -0.03774986724952485 0.02132889960353932 
14 0.04330431321065385 -0.018889122323660423 0.002953277561248813 -0.032102205548179184 -0.03861179753623367 0.018394133146806137 -0.01207499680159827 0.009242904262425865 0.044060926521711986 0.0034145534689526856 
15 -0.028580530552715856 -0.016627032281541564 -0.024946382351135953 0.023554036498112874 -0.04088534380740729 -0.023545261551367602 -0.031133174223040815 -0.020223861817994813 0.025847087995515772 -0.04534119709180913 
16 -0.041393143210169646 0.03922236965205332 0.0034638761596543 -0.041435768103631906 0.0031352545694726896 -0.04266094390247362 -0.03232309525320096 0.038347777537219886 -0.01495671729659539 0.048590582622701495 
17 0.007589253843834664 0.010424745961684778 -0.022689136506733053 0.0013186847604970465 0.04447402599490898 -0.028224954973757533 0.040982173948329294 -0.04806358851468827 -0.022579062506717297 0.016879348377033664 
18 -0.021212320208410428 -0.0436007613569532 -0.027373789366299705 -0.03599330060254169 0.010365077371359933 0.02277478060617948 -0.019613597585486607 0.012536303880092104 -0.04642072286270327 -0.0022636365150703885 
19 -0.040732976735758306 0.02106264668386636 -0.006585806443827702 0.03193475095058459 0.010451906671889532 0.017224488190533536 -0.004993221975007622 -0.015543921693123386 -0.023060522140987715 0.0245147167878201 
20 -0.02938360866672899 -0.0350468967770934 0.042037220615188664 0.01876936745361386 0.041670273943429 -0.046459336277065166 -0.030484224501287616 0.007600658839037444 0.04649847470362273 -0.016824792449592497 
21 -0.03618071018357372 -0.04026985608127517 0.03196935615755725 0.01699216111553905 -0.007111219697094784 -0.0020053812286938257 0.032959342292543437 0.003953781130758771 0.008440422824294514 0.00973873157847135 
22 -0.012561686788542536 -0.04983593732702583 0.01895084228544839 0.021374736952674157 -0.04307534550907556 3.361848097499842E-4 0.01913665065140029 0.030081142419855898 0.022161661904508644 -0.01584814538219902 
23 -0.043624404390287544 -0.015071501884021676 0.0020896327541071956 0.04563085926419765 0.01930188442039097 -0.03783806565286032 5.356341621952198E-4 0.040133007782005826 -0.0332816254978419 -0.015063560612995186 
24 0.019515627822175474 -0.04675645494903071 -0.02399651693357723 -0.003507647163030003 -0.009358776776028222 -0.03145291990737868 -0.02064915524811133 0.007574859833005066 -0.033153940274708735 -0.012826103117104248 
25 -0.026535141732882184 0.0038427644862212063 -0.014505574274310418 -0.018993494992989125 0.03374548634922726 0.017078151484963788 -0.039092625466518725 0.04356312223638416 0.037530745633800766 0.03520002717912566 
26 -0.01056068188326631 -0.012171262832913055 0.002625569149360474 -0.04959863678115336 -0.046539365129396035 0.028683279238420133 -0.022869216508736266 0.02217042409140645 -0.008050423577773668 -0.020919652061893022 
27 -0.02550378237397909 -0.03747635349351194 -0.03513062798443162 -0.016241159159028195 0.03375698134119287 0.03446875782921442 -0.023895937855773996 0.012023726455097838 -9.277822228786036E-4 -0.008466815264407679 
28 0.03544932182594116 0.0320111624656587 -0.04502925160623035 -0.023865716670412585 0.034002106409077935 -0.007143030843201881 0.024118157031906663 0.03763425138421781 -0.020734329928161134 0.048316478753149275 
29 0.03295508288903154 0.02711404676296971 -0.013615872179167644 -0.03436237390384428 -0.022783431152013055 -0.024782994545259694 -0.049856575800164574 -0.023131955006533544 -0.025872446895571867 -0.03814571254217375 
30 0.02872317663980898 0.046280905633721905 -0.029020339818167963 0.042130656786678114 -0.045343432337837386 0.04723305110683933 -0.00917031060339113 0.0015405304375921247 -0.048946921255814735 -0.03547703666533025 
31 0.0352202748946391 -0.02469937023005745 -0.02813843161760866 -0.03580504868157157 0.031108423389284746 -0.018373027799246388 0.0037987503870030915 0.001739905733042435 0.0045977152355779925 -0.013169659058438744 
32 -0.03545907344986378 -0.028228199111282316 -0.012394808579973982 0.041295804470636834 0.006874347520716684 0.0375131310586691 0.015254030505902027 -2.7177877738824294E-4 -0.008277667429086777 0.01680125719900394 
33 -0.048431672818032456 -0.033512895377267905 0.02431486764033407 0.042831645785992335 -0.011043580367156126 -0.012599383095135353 -0.042760893792410645 -0.03751715674070064 0.0030043703590382775 0.04313988312689184 
34 -0.0482931879620794 -0.017178067838412848 0.008261360482074842 -0.013948830403506807 -0.04590250406480671 0.02726812572267141 -0.04701607561367467 0.0022849651410041137 -0.011316446013335068 0.016896083800712038 
35 0.011216086560615134 -0.02587267660754835 -0.01058348374895184 0.049489409198625836 -0.020882337432958874 -0.03636971756262377 -0.006248977017549973 0.009208724159968883 -0.04088694849387856 0.037954575125098686 
36 -2.9409878306257964E-4 0.003117581813222148 0.020218144734967948 0.0092792341719792 0.04370934236549127 -0.012686568318065106 -0.044187018102127995 -0.03230089670531895 -0.008752184532579876 0.015039736905326817 
37 0.021163042948790768 0.04422272471528414 0.04493603566539038 0.011909221436572337 0.022152184862407644 -0.04720063007142996 -0.03465203570905849 -0.040752802388945145 0.0439753944487669 0.025245512467925103 
38 -0.031203569203471358 0.045567755646272835 -0.046050325498696365 -0.028992642954101845 0.013221703039662035 0.028324564010398935 -0.013863454817805421 -0.0351125198849061 0.008446885642786783 0.03333189475916117 
39 0.017129809691063314 -0.009819950887176165 -0.00971921476052342 0.007630414803502805 -0.027852634379715822 0.04210047290888839 -0.020703539566775196 0.03307619514734793 -0.041523984521753 0.026961773246181563 
40 0.004586366792482199 0.0025602705245912905 0.00935339099702318 -0.0237586838224223 0.010392668643347692 -0.041479986476470075 0.035531238151517416 0.03149804207835803 -0.020766098081923968 -0.005717517701489793 
41 0.024049499730135294 0.04604162810362551 -0.0010030853127451778 0.02278381148664055 -0.005839245357510692 -0.0076784852335580415 -0.026564459970696997 0.024337619620275707 0.018879759057924717 -0.03980491707213961 
42 0.025615262801286266 -0.004620693866153947 0.04729296175014841 -0.01944930203831171 -0.027934338574190996 0.03349203084834128 0.01754805984774501 0.011202720505066665 -0.04824984940013003 0.010524071325460682 
43 0.03335376509566942 -0.022457977661088 -0.02156482037352907 0.005236152127156035 -0.012144831135174828 -0.030883073178995534 0.047638673077731654 -0.010328756264284766 -0.04208980297231165 -0.04486409616413456 
44 -0.02993978679466982 -0.010681742943826057 -0.040922174327401126 -0.003175250803584295 0.022243058734810105 -0.03385506842957028 0.04703889605084603 0.0026374348879689147 0.0021907855012816115 0.005704180352578326 
45 -0.025294504683065776 -0.006488885091329832 -0.0472410118150445 0.02477195847784066 -0.03406494758925784 0.019672314063390504 -0.03113486058107472 -0.045646254177157654 0.04655042706220969 -0.00205738229833321 
46 0.035907329986095846 -0.005599425938753478 -0.018722534925896504 0.019058645227741745 -0.04374467207379289 -0.01879557779536506 0.0012466087249499603 0.008212495303882317 0.008274976090445718 -0.043803237225336175 
47 -0.029134675576939294 0.008835230289604302 0.0480696860927073 -0.024247087392723077 0.035153286989534814 -4.126038849847191E-4 0.007970361338197018 -0.0443912538976877 0.009042354726466329 0.04758697995063188 
48 -0.03222219272375839 6.252555014952144E-4 0.018678630585707946 0.047096588728497944 -0.025140699035507773 0.030890332899921723 -0.0185760804687226 -0.007791925292918977 -0.03257634462133361 -0.021473930774067996 
49 0.016039200006876163 -0.015495777863921168 0.011646789402706503 -0.00392625963417309 0.007442748623851458 -0.01775650915923973 -0.002207556025808821 -0.013042402317631064 0.011470825235841942 -0.043694720894122255 
50 -0.04692963917377354 0.04128248017014047 -0.02577111402111102 0.029949516940728848 0.01969689113428985 0.03609911840660775 -0.04209346793984011 0.044385820894360994 0.015470645025997076 0.03827498808932467 
51 0.010339486798490427 0.010213894320185924 0.04114848447780448 0.030237413155276803 -0.010862882301298116 -0.02401183049107103 0.02400475706398577 -0.03589043738281265 -0.047145898942977715 -0.030523796855408868 
52 -0.009820604182286674 0.03813886592079511 -0.038529954621113915 0.04462165026848003 0.03976812226233849 -0.019178711335550734 -0.013648951442539825 -0.0022108880107618023 -0.04191936551538457 0.022753841576105528 
53 0.015902225058541664 5.595162917265472E-4 0.03409038167389931 0.03400153193447518 -0.04271945398829661 0.03316112828854175 -0.027177905655377442 0.005643968920995679 -0.023177647832961355 -0.007437327554779149 
54 -0.017729012210492934 -0.0418293459897157 -0.007749845357316054 -0.007678542290495749 -0.012579879900444213 -0.03347705219599467 0.028258415518080292 -0.03252916844326218 -0.02597986660743352 0.0018345762087415229 
55 -0.026261760631855046 0.04704762108749398 -0.006981809482332913 0.003301500366448562 0.03368598144873621 -0.040698257967344595 -0.037129389349679943 0.010115783377458488 -0.04824899715149482 -0.009803569748721352 
56 -0.008553626759952693 0.003027110669465516 -0.009587093684693048 0.024499075726554555 0.0018262634688860024 0.02784942921791862 -0.005061224227070604 -0.039421041290541636 -0.012974834052723738 -8.90856306632426E-4 
57 0.034556086635772296 0.004969639784595669 0.03751261306515299 0.011035160387387066 0.009687125920963791 0.02082014503308758 -0.01762065946648441 0.015220020007687463 0.037625871442265944 0.02555050653029949 
58 -0.03990466606129987 -0.04046473938658285 -0.019301508039228265 0.007343610517391408 -0.01197258375152931 0.021263008043933773 -0.03926623076987136 -0.042453289041813703 0.031232147530846167 0.00890977901217176 
59 0.011579869503600404 -0.0033776151632797903 -0.019487585037732624 -0.04820268600524837 -0.04256092518795954 0.004980121074772514 0.03732381447928616 0.044279223727803865 -0.031047733448615424 -0.04316390778161618 
60 -0.031160520934872028 -0.03768893073054995 0.04125002685710051 -0.004809871578795888 0.04032980244117483 0.024105491789636925 -0.041402506144921046 -0.020924723796710277 -0.04601399409804937 0.02373282772931441 
61 -0.04120485696996139 -0.01957325163019318 0.023414294746895426 0.02678161406921543 -0.012842066440122379 0.007233463947800734 -0.008750079768130359 -0.019427759567052172 0.034680330844440235 -0.017923197884251497 
62 -0.04631186749640759 -0.042079017491324124 -0.012095082034920846 0.01072759374549801 -0.00979829342459585 0.023080474666518337 -0.020952558738263394 0.03416375878022265 0.00931232933367504 -0.018763345851272283 
63 0.014091329737259416 -0.030812555278774155 0.01200582070409889 0.0488210621254911 -0.02615017335800336 0.007761895390245477 0.043228802776375995 -0.039098632909802034 0.02840406509026554 -0.036745317309650416 
64 0.04887711778148335 0.014041754198593225 -0.02113940384469539 0.02296538667908803 -0.019216101792362873 0.028278903895622452 0.04203196456517028 -0.009367854510616369 -0.004562093275501477 2.380252621650647E-4 
65 0.023429153356559873 -0.019947042114480017 -0.026489618656096912 0.01091741297792127 -0.018135149311473676 -0.04847598917181469 0.04674127797997226 0.0462988756963935 -0.024998369198613413 -0.033511298679984494 
66 -0.04366650022798914 -0.013304696633926204 -0.010660693800676014 -0.027392560577508895 -0.0172737058312753 0.021625503260949197 4.209025184793047E-4 0.021399717443246168 -0.019533270778946822 -0.04898961029500173 
67 -0.020553216305782173 -0.036323649386905854 0.023870721339265478 0.04061352210867151 -0.03897828007432732 -0.0358288210101629 0.01926286536810644 0.009902826138571075 0.013419713909038632 0.0260979448371232 
68 -0.03219314175383261 0.043889325641971476 0.00753668553267417 0.018799457276027488 -0.030713962594375643 0.03700254840130007 -0.03638879725890196 -0.04277742274140021 0.04166616449187812 -0.003308778918409816 
69 -0.034171408608703754 -0.009356079599917144 -0.006129693602438225 -0.04280823201700632 -0.02591603141591715 0.019887646842623785 0.029918233771183977 -0.020214027069423733 0.029464843341649494 -0.02278195231049378 
70 -0.018569526919196132 0.04487320714455946 0.045424127216382004 -0.02884390897573923 -0.03753018619785492 -0.02668863989367981 1.4952409216553164E-4 0.019660473829186065 0.015790675437520652 0.04973465515711889 
71 -0.0027045502623889604 -0.030569868369969732 -0.02721056666118088 -0.04106461086108475 0.04202876030255624 0.026526585417844684 -0.01920353448492699 -0.012099509415853383 -0.012750256737513732 0.004080880829519451 
72 -0.03917669716813551 -0.00927720124393645 0.04088499811658457 0.026541302013375935 0.04647594954438074 -0.03863920755286985 -0.010691070052076345 0.01673445202996333 0.020468099051229795 0.010099427472281031 
73 -0.01576417823362696 0.03195366664961032 0.009015607072630504 -0.006431335022109197 -0.039165487939524304 0.008355186726490516 0.016366251808246544 0.005305145812787371 0.0033529472622731427 0.019133860748761312 
74 -0.01818353966697237 -0.005903593006299601 -0.04880001251588976 -0.048733383856156956 0.019789372148596617 0.04072591510407991 0.043216987792061054 -0.041946717431806516 -0.040103823960143295 -0.009758878458929754 
75 0.030781890709457683 -0.04974918884942099 0.03837544536887755 0.006495624542687373 -0.04857634362890473 0.04728830485082477 0.004902729853361531 -0.01152955472687911 0.043785052761794695 0.0218667042638378 
76 -5.146097697238949E-4 -0.036241657765149406 0.0020569911913307926 0.03618834113204857 0.023005295423922045 -0.04640103436073924 0.013417705190000984 -0.013871953088568867 -0.028055346829384886 -0.01401842247061249 
77 -0.004454734514464753 0.04084882966696547 0.032927926420219675 0.01858598374539856 -0.047067916586423765 -0.010318397094324716 0.035935409831019484 0.02171119257166395 5.151666095433383E-4 -0.014470193100880413 
78 0.04639171058720404 -0.03715475166711181 -0.03895388642823973 0.004626218198927823 0.03580505685456949 0.029158604359352924 0.028659914354533845 0.026160617594710577 0.0082309709440751 0.021957264345192594 
79 0.005261847857598589 -0.027886625419233223 -0.024443446392799606 -0.04198912873052161 -0.04136310202324097 0.03757147752190171 -0.03155080757696436 0.01667481717668463 0.021596230245821958 -0.015130128887934214 
80 0.04178630944420331 -0.02114568795705114 -0.04998950027846348 -0.02890757090632764 -0.016519757646494514 0.014112348110067851 -0.015760143147675675 0.027783246171309617 -0.03616482308235534 -0.014397719746659043 
81 0.013255692524572205 0.01416037977680359 -0.031079434672273275 -0.04099022341170623 0.023659338911139628 0.0206905652819522 0.0459182249413753 0.021317696797596864 0.026838067001437215 0.008574810624102591 
82 -0.049002076912374626 0.0379614145132132 -0.0033411083714914524 0.03251121665342569 0.03099887838597847 0.002821005903705087 0.01738588509402227 0.009042787362984328 -0.010957640776199273 -0.03549939974566525 
83 0.03691676807580687 -0.03913569541312587 -0.018826913055542627 0.044474141546809065 0.04396981771996654 -0.011346081233013538 -0.03377503992843408 -0.002069337457800591 0.03951218745795828 -0.0036886927348640077 
84 -0.01567089100404707 0.006531142201665152 -0.047494041421521874 0.02292585823549125 -0.029169912130379415 0.03379285161549896 -0.04204164319746415 0.015364589823107334 0.021848575543466798 0.018446056702248727 
85 -0.008702242697560014 0.009060992563172332 0.015326661291569588 0.02886185152173748 0.0172572197599557 -0.028597583878789957 -0.042885577811945255 -0.04747127078245996 0.00373249912794722 0.002054927980543131 
86 -0.03449584281930572 0.04855952211643462 -0.028508430442071797 -0.022368911883942133 0.02959133558901339 0.04833912921108839 0.03914794372378923 -0.025702575847352527 -0.02306108916663536 0.04967745560340543 
87 -0.04052987521715858 0.0012348122926191252 -0.03575565217893247 0.013210819608792746 0.04788476450812564 0.030306376531514367 -0.038943613573675415 0.03629902074803171 0.036941226637925664 0.012853949619117167 
88 0.03106116174814576 0.0492942029654652 -0.04845961008100128 0.03323547614273362 0.028055004618993372 -0.04818853455004386 -0.011109256315112781 -0.03946774927585837 0.014443893723873901 -0.017489829107888065 
89 0.004439896161569734 0.024796174768922707 -0.021042831621364798 -0.005101238017014731 -0.04956014312503709 -0.0377262828890079 -0.022764201888077575 -0.006195217621604942 -0.012660435925407009 0.04523460323689292 
90 0.04405311950808133 -0.02759422472561255 -0.010141709240483899 0.036349705754946685 0.02914865323081488 -0.02190442831470605 -6.212719676687573E-4 -0.014995988088301571 -0.0099967621334073 0.026964393082829975 
91 0.032208685292809645 0.013496893311561153 0.034356382902088256 -0.01869983565844825 0.03929553473983251 0.02477342059245371 0.042864409058024744 0.002272243895683368 0.02713765102027619 1.467448488392753E-4 
92 0.018020574579960858 -0.009162233098803296 -0.00807774898635697 0.045413070009902426 -6.939102867823399E-4 0.033914640659878724 -0.010670768877813963 -0.013172897413678154 -0.04348649525075652 -0.020005805160378996 
93 -0.03902426829964619 0.014597285379643466 0.023281705826528797 -0.021379657360566295 -0.03486370850065092 0.020876507516438693 -0.03889569052715035 0.031541045223700194 0.014158680119532885 -0.018334571597442294 
94 -0.04957900982336956 0.01984178916005206 0.003905549704763989 -0.01238809410098407 -0.010126113811275306 -0.009000354994177206 0.031587330809892414 0.03738149973756746 0.04740888162550268 0.012550437021989602 
95 0.037511813826741125 -0.03090966959251701 0.04762422498725231 0.0249404121246939 -0.02643884209202183 0.020233073553678472 -0.0013833562652493248 -0.04486222586973696 -0.0033829182222903874 -0.025394780906457547 
96 -0.04145230488074436 -0.015291780715410852 0.008690270975727322 -0.024089852206879692 0.017250793455679682 0.0013127089236777412 0.01717011903289293 -0.03794202687528177 0.021422021473496124 9.644251630708256E-4 
97 -0.03160392000050177 0.0016045507743415843 0.003285468274992531 0.04988590442646092 0.015662133235566443 -0.005654628986996468 -0.01790352397127054 -0.040563821434938065 0.018800892121976154 0.03177054960649488 
98 -0.004556112607405782 -0.024668308316075173 0.03665419575057834 -9.650532173771653E-5 -0.01696501748862317 0.033263619295096636 -0.03397795656375744 0.04698723175376836 -0.01050550864505706 -0.01298178142226033 
99 0.0010919890947699296 0.031548770908502534 -0.025318286346890918 -0.02766439414744114 0.03588619338568281 0.012563352159856322 0.020127411995141686 0.02999642035346668 0.008923553422776499 0.042756739602249974 
