100 15
0 -0.4499941849273512 1.9774302623234474 -0.6049677180621569 -0.0188774518521326 -0.2250084483380431 -0.7575391299217829 -0.07615766944493985 -0.32757154354341894 -0.20531572160508513 -1.3102454452384966 -0.7247999296628991 0.6653086648058828 -0.39995224292408726 -1.4902184983869105 1.0524222413222684 
1 0.05526559218928141 1.3773674259841953 -0.33620754448931306 -0.2592883247357281 -0.11833961269048407 -0.1505145108791901 0.38852184116602906 0.4801498737542607 -0.7219838159381216 -0.8379356322462765 -1.5082624355390755 0.7901715923988084 -0.2543423163576785 -1.5040504656519995 0.9063118506497425 
2 0.06019794844709297 1.3491354794530144 -0.2249626792650494 -0.08076467737942274 -0.5680009290927328 -1.0565340193839676 0.5991147048890223 -0.1088655239184558 -0.057321236581456894 -0.8460686219691083 -1.071441560659664 0.35863497313765413 0.11119264133931459 -1.3724076762742008 0.5213074360699911 
3 0.21480290877823163 1.1822845930592003 0.09531724367052509 -0.08764448734703881 -0.5814260105170694 -0.25728890479398187 0.5579791261246547 0.6201562627225472 -0.9360419871220105 -0.23046438796997087 -1.520196365107574 0.550732650430664 0.32245658573016683 -1.2138387576969094 0.15819748662399497 
4 0.8389556354441423 1.2996784162973347 0.5230197581259635 -0.11685370219044701 -0.857835069749794 -0.5814567971291382 0.9343508442614091 0.2936692843059944 -0.6476489611023597 -0.6043380680927312 -0.7982975293227508 -0.26909108510128066 0.43805789331908596 -0.7455143573400107 0.37861766051535095 
5 1.0953502256181 0.6600054721525737 -0.07731437197335254 -0.5124989733547486 -0.5941444136718259 0.19728225691088205 0.9769093952233748 0.07846945943974529 -1.443771866940305 -0.6651736770192155 -1.2402416915991188 -0.18590899446290235 0.6082836750567383 -1.0965295888310826 -0.02049615891559886 
6 1.2002157629714199 1.2521255035438232 0.3540675980386115 -0.4016289609304129 -1.1767070635358374 -0.614331540131233 0.7567642980181688 0.10304412155483134 -0.8498913799066695 -0.44771302627055903 -0.5347283010276125 -0.5195103988720361 0.006101676199898397 -0.7170310234529766 -0.14780841264664163 
7 2.264187296249081 1.0835591724474467 -0.5442102394262058 0.48701305980181164 -0.7149898579416103 0.6009232709951603 0.5175066290274375 -0.24941558104569575 -0.5196710834847447 -0.04761345648370253 -1.1943657299713584 0.397628624433044 -0.04757388909578233 -0.14240719772997903 -0.9391251315489746 
8 2.2502225956161284 1.2885964920936381 -0.6512104478240364 0.5155556959125133 -0.7964044109192258 -0.38588231694665626 0.16547587141938905 -0.5050576585696483 -0.48023985285797166 -0.029208187226377327 -0.38822098708540226 -0.1302724238767381 0.260373940071643 -0.0815974086683586 -0.9255709968547675 
9 2.365327343467217 0.8851097611480152 -1.0424304069650758 0.17224358448505442 -0.31894022279304285 0.433070157437034 -0.09673111730814789 -0.36870005476219075 -0.8891118819658385 0.19857067815437218 -0.5160647825389489 0.4012443660308842 -0.1390873473316879 -0.19025178675226065 -0.3040262508759062 
10 -0.29927516416244243 0.8395600596836259 -1.1860015342378043 -0.055126917396593506 -0.034180655833394656 -0.09951883036542955 0.2617695560873358 -0.5002581589411953 -0.14593508849917955 -0.5207709007370098 -1.3018418796141131 0.7283776003719297 -0.20170424927011105 -1.317391494365022 1.3380796365095942 
11 0.09654577580085139 0.9556725782103503 -0.14891550830724057 -0.11163074907896745 -0.49238102902519726 -0.8180162719806255 0.2236733910675532 0.04952152417662783 -0.35632951814260716 -0.667396195643369 -0.8157873102500043 0.9306193978008561 -0.510750249497623 -1.295890981901072 1.2362918123898243 
12 0.29298531063764727 0.3288148637145104 -0.27597647191103797 0.004477909913989284 -0.20410524075977907 -0.5583406366560516 0.3814782790555803 0.7537121346771919 -0.3979040567286192 -0.5663624273468278 -1.3249565758782411 0.7657484948407043 -0.22670995278136882 -1.4348154733258076 0.7762377046866469 
13 0.09922513141954967 1.2199070759849757 0.10991661828132997 0.12408255631294976 -0.8212940598768826 -0.7050952222968043 0.7100753388503586 0.7298892783149915 -0.654166251500501 0.03781942483321209 -1.235533706756574 0.2629268827814254 0.5514165828007485 -1.1140529908641623 0.24827406551106518 
14 0.9249617620099851 0.6258646370557985 -0.11901213383508386 0.12047836890964482 -0.5881433423598335 -0.12911524368312868 0.7052523356983398 0.6932752623554275 -0.6859867985756966 0.044417507988210723 -1.393662764117608 0.20693401373999276 0.4072021742990278 -0.7275912433559346 0.6732695663903248 
15 0.9347771903737432 0.9700218594906802 0.2636047632369186 0.07778592180814836 -0.5865030989509945 -0.5734161278478924 0.7754285237204103 0.01013359085852798 -0.9631079757172117 -0.28246125274270484 -0.9311434878625603 -0.9098628457917546 0.318133367708727 -0.5280544679438868 0.0603493238054199 
16 1.337299430453825 0.7705640518336713 0.008475060901831056 -0.2830071438417155 -0.7549841652025325 0.18900201323179938 0.9308830560874698 0.2737396100290776 -1.1056836198646431 -0.13462491863637846 -0.9284093414957055 -0.45041507170671724 -0.42374650774469147 -0.4069325205281878 -0.42213011198233613 
17 1.3852497516932665 1.4999710468874174 -0.24575935391529374 0.2939554967314503 -0.8272237937043059 -0.40761617071358536 0.5708654431293245 -0.36925401154931686 -0.2956815137120524 -0.17702841000797653 -0.6871239343814582 -0.4320669317590209 -0.1410921224482548 -0.38549888173446273 -0.37748650457274313 
18 2.083836212859704 1.1014700377353654 -1.01311928091438 -0.10118900728740275 -0.420840248653289 0.40158125895201363 -0.012420760807471641 0.0026931757358486467 -0.7769945335536799 0.9889870144109157 0.42879589172216004 0.8132626984028151 -0.6104474007122545 -0.6053061058669733 -0.05722198560651892 
19 1.8487729923118859 1.3540753355086685 -1.0089101989466676 0.35349341286594466 -0.2334041336322492 -0.442130579937954 -0.21984848723488526 -0.5917524829256535 -0.645646854684548 0.4536745914256521 0.5045243967176711 0.31949825446252267 -0.3768581358149609 -0.2714007070737893 -0.47900176944319467 
20 -0.12042506864184072 0.9209276663111281 -0.8315189442568731 0.5673471818356403 -0.5682969665686434 -0.5514402379538116 0.2319409030215172 -1.166989745038848 0.3054303266854868 -0.4214127956035433 -0.9547331764842629 0.2875015232826835 -0.2740693570216089 -1.2733019964329133 0.9976462565102496 
21 0.2399595319750685 0.17826013836434745 -0.20481415634204245 -0.035193758948207046 -0.506168902620106 -0.2205383299057243 0.26103660604292667 0.25530620779445606 -0.23234838735275465 -0.20298122402469468 -0.9966064807686271 1.3156134477621835 -0.6342932608068785 -1.3223187401003704 1.3194475575970355 
22 0.1979069515049999 0.2532058239819222 -0.2614092643779288 0.10119765914955621 -0.8368843884468334 -1.2633311475386013 0.009102084480838546 0.5941310092380485 -0.2127254868916461 -0.2413476488898049 -0.8181880815874898 0.3091681172872857 -0.23492170197710785 -1.2280202223427232 0.4987788282705712 
23 0.3345304633693256 0.11623906821633331 -0.3509244517722297 -0.20452823530375142 -0.5037257777698897 -0.5788549957149858 0.5135732770420274 0.9181131194511809 -0.4684613439489366 0.7310533342088253 -1.1426747418055956 0.2744824730426521 -0.10287756005610293 -0.8525054065755501 0.7055393124359906 
24 0.6668687939886162 1.1777995228266975 0.12728990875363988 0.059859010344612384 -0.6961752417955299 -0.9464293810295252 0.6771020874886922 0.7401413912017116 -0.2117554337684266 0.3374779479874779 -0.5432512677352968 -0.26142267421357474 0.19748540015318664 -0.334624128525732 0.6445549617132241 
25 0.8925749911214452 0.7064374528040478 -0.2967862172647134 -0.1528661447875897 -0.4286283080139565 -0.2022496682826016 1.2052396401170773 0.8720906158061227 -0.8806528596368778 0.4941493989457687 -0.5336419909417086 -0.12549575260194157 -0.4648658812678458 -0.3844924146884098 0.32362926613209386 
26 0.6526470880596608 1.388626932510859 -0.25148474228955736 -0.14882730253359908 -0.5641327015325716 -0.51924620953335 0.8349249285709944 -0.0805313193619698 -0.9756639067541755 0.27207887152649773 -0.02962766305119594 -0.6948959931773304 -0.6185076569297698 -0.20857345490021545 -0.18322261311759172 
27 1.0210291664265359 1.1234588816615338 -0.5008898382096737 0.02451771644425319 0.05387825327893359 0.3944907630487125 0.7319016006538168 0.38803831197128635 -1.378071905687208 0.9187251366423297 -0.005450998927150015 -0.15360323542688198 -0.3505793495237881 -0.4392586949637833 -0.0481193193344737 
28 1.5882840144921382 1.5379527152076347 -0.578812354300195 0.25712118391861283 -0.3906612199873988 -0.3558101056991366 0.08525529920951683 -0.4369239806387239 -0.9263354984802084 0.5704810105509616 0.8618910955524683 0.14716457315530412 -0.5012101345072556 -0.3597378891769915 -0.06282567383887586 
29 1.4956181188859352 0.6588807180612563 -1.0079357092925816 0.46839299307521615 0.5376093020375758 0.4646677328297755 0.04355794474908416 -0.30819097983140703 -1.1372468876108606 0.5150313807083376 -0.5048715807346197 0.13946025190652148 -0.571500727555842 -0.5129053527317347 -0.4288058235180452 
30 -0.012289963441775492 0.6911411339478973 -0.6660805195883732 0.7252947575453186 -0.5216195092445639 0.019176523914094978 0.22112983656444335 -0.5737901586543259 0.4169461701387182 -0.10682106506512429 -1.3267923544750984 0.8829764017878452 -0.42454393094055526 -1.145934663972319 1.2756872863863171 
31 -0.0636055286857695 0.6902627495230538 -0.42777151158370147 0.4101276893610428 -1.0410894859266127 -0.6668481092453195 0.13894538006076748 -0.48830205653290265 0.32701065937781 -0.227294462774367 -0.6123747173067832 0.7616831383829689 -0.24296725902117194 -1.259313094259273 1.3365173788868223 
32 0.19408875539698178 -1.0914828229546092 -0.6549454107330844 0.5787482600836265 -0.4940882785902858 -0.7331986067716116 -0.09315920259775316 0.3254797679759786 -0.4373422097554302 -0.24760571035656462 -1.3506521327874443 0.23713978422343146 -0.2550243122870934 -1.5325304569585465 0.7706454113796384 
33 0.2180054831417015 0.47475929801902506 0.07756210592299499 0.24851551528271382 -0.8443337190435198 -1.2061636728474023 -0.3349927450703016 0.7174335656902497 0.0034900322489482094 0.7544231991212239 -0.8765245034894178 -0.12337502016091215 -0.18243600144705588 -0.5117990449689303 0.47564886441987353 
34 0.7279693583495568 0.03154958254375156 0.3332352420141793 0.05213053139748918 -0.3571393947582557 -0.4116552279573728 -0.016276468099287893 0.8177683270014946 -0.8342724697662756 0.9138062548965451 -1.3638974601128449 -0.4381964429868194 -0.10046410248712523 -0.13751061948074048 0.9908418933482848 
35 0.7999539703274974 0.2644595036185224 0.6913162807329506 0.3749114459046231 -0.8839229161534831 -1.2461421141295055 -0.06701029463734248 0.8345745497794552 -0.34704285733088575 0.787866414952224 -0.8230657890104167 -0.6164548152891303 -0.4502927724203472 -0.1833185586510304 0.9689140531563859 
36 1.0436407880014227 0.694781236814912 -0.3853344301960669 -0.041830528419357624 0.4490886991188539 0.15196606818099923 1.4623140339831981 0.29384213158203676 -0.7157039095070945 0.7702659604525288 -0.5739701039523786 -0.716975404417132 -1.162794480214347 -0.2977519832360693 -0.039727660977075294 
37 0.7100432535462688 1.6196346147830532 -0.6047930611422185 0.246218418022164 -0.1472290678418351 -0.2912092759977968 0.8737720902612653 0.14315017126449114 -0.874089426394994 0.4230756689677739 0.4349288078874006 -0.6352739614636871 -0.5492469130792061 -0.13063104986754914 -0.11039706777498169 
38 1.2511809931644664 1.1082356751667066 -0.5913173972326405 0.464504154242667 0.3575395184968376 0.13992832096287763 0.5524573757591558 0.011328451501439877 -1.1794029650896427 0.7251372474647759 0.14687088002469678 0.11683754976047507 -1.0316482563808547 -0.281734704051426 0.1540006524138522 
39 1.1458888693468496 1.1718463685808846 -0.47680647857141817 0.6077276915340181 0.2959001196570558 -0.7354927472049331 0.012208475977654114 -0.5721774112834751 -0.6678296986631076 0.6210413140923543 0.41834255592734804 -0.3004581309636819 -0.4053898693243405 -0.5981135125813913 -0.4092684922261898 
40 0.2764892718244696 0.3576136774012798 -0.8503114829041196 0.9830212931891242 -0.8224084651634326 -0.6691143992947534 -0.19962562659558084 -0.5403692151616704 0.4007400863443537 0.03350948185165583 -0.39023775985701914 0.19687927395758312 -0.29143048602724086 -1.2668443344244842 1.1479863999927602 
41 0.5515170584037813 -0.5293509495336259 -1.004808575131093 0.7670158462544965 -0.054967742181919785 -0.2672475166986314 -0.11267117876094454 -0.09570784054442251 0.19044977817614403 0.44349042438971814 -1.133525195908607 0.24501917248469726 -0.3877528756129205 -1.1058057908966763 1.2004974659547223 
42 0.22123971485966087 -0.5936164567946007 -0.6674918758894854 0.5175543893657123 -0.5369776942154835 -1.236792198762633 -0.10632970807919732 0.2809752119526396 0.1843802344754931 0.08743419831008271 -0.794112444459542 -0.08920556975676086 -0.10505574829002202 -1.1854215739759084 0.8429867777873621 
43 0.2804064055812832 -0.3064532502548356 -0.39594738027919274 0.15777042523132426 -0.41518798767449633 -0.3310868935127854 0.22053203097184662 0.7476830655449092 0.10696389223901756 1.0745961830166286 -1.0883406954215586 -0.17227501739151838 -0.1595390102683602 -0.8220667750382136 0.947435292090228 
44 0.6682890515583384 0.16819275167588973 0.2995572453462465 0.3290029864844439 -0.3309180476127134 -1.3245331760409798 -0.026573294686335368 0.45294152787500663 0.19325519359754922 1.0153054728621371 -0.6778628476258555 -1.0045368376970165 -0.4794620846380111 -0.33479837224097947 1.0265960660600524 
45 0.8887715769787403 0.028156585906129447 0.7146807399091876 0.06152681818523355 0.08617009128245433 -0.6140086396993865 -0.1255903342012433 0.9152512673682185 -0.5485881695349859 0.6753700216154617 -0.9316808341636214 -0.5193268401456663 -0.6054002178035295 -0.13501207748976554 0.9771693983905956 
46 1.048832476272531 0.5390734988526283 -0.3034808729989087 -0.13126185384676767 0.18572285504609098 -0.5495497323987835 0.9285076944181456 -0.2709276488649521 -0.0789857199862281 0.8648105739965697 0.3048664617273756 -0.9815656666991491 -1.2260160843844663 -0.4831465622286763 0.02160738802621409 
47 0.5574180462290181 0.958892258078205 -0.7050725089628647 0.16518792152251352 0.45409271255695943 0.2847570289691314 0.5601756136727671 0.032931511603630934 -0.7985173718257871 1.1464383906251405 -0.09980744320851387 -0.8918225161532246 -1.1587322110063467 -0.1713952808408375 0.3821718523889109 
48 1.0788898562915605 1.3417894958174235 -0.5332232969561116 0.852756228721726 0.5113161705576934 -0.4647922342870364 0.39770502553167125 0.0019281783020749337 -0.7854573294580385 0.4535613056621954 0.750499873179704 -0.47897753785577585 -0.9702336042538845 -0.3580520603428387 0.26556202114955246 
49 1.0752811440159344 0.7869581815553637 -0.2308470599003829 0.6312237663177355 1.1039358140728943 0.19070981774588583 0.15561752076761964 -0.12191748985635138 -1.0781113246352956 0.7739087968851467 0.072141154544233 0.16057292994905262 -0.8715940373216955 -0.5085315258051071 -0.22780707120095112 
50 0.1695105351551934 -0.3809445383928594 -1.0115200350851004 1.006948075901865 -0.7112659210533451 0.5428478311391196 0.06690927502783904 -0.11575994775409207 0.4001479065607713 0.1339405271541288 -0.5125521211223205 0.2554116424039719 -0.6170565952521864 -1.5130575579807757 1.0137368460129412 
51 0.338276056663221 0.01857313195048268 -0.44162818331287157 1.3343638083731246 -1.187366332746758 -0.30296089028800827 -0.44020962962800525 0.0590441560980249 0.6281129609823458 0.07189282746256853 -0.05689315309733728 -0.3456097860524014 -0.5112600547719445 -1.183775182779431 0.3054219175443391 
52 0.27303535946469987 -0.7305890614019532 -0.7403519353780127 0.6909092686310943 -0.5220983532051208 0.08565965501271242 -0.056008775574676144 0.07740419646142443 0.38143288572470585 0.5462210512780369 -0.933910950290364 -0.3470638024602808 -0.7437978162741699 -1.3411716322444116 0.27934776658786586 
53 0.7226084828460425 0.13993680678341447 -0.07706890092443552 0.0753843530815109 -0.7449313016331868 -1.2767949306329232 -0.052175500167114384 0.3111914088072336 0.25337185759085146 0.9803790565779708 -0.5586573461704677 -0.6409217770239645 0.16238182082876973 -0.7226268521393637 1.1943693687686514 
54 0.5045390253573253 -0.21589794691160552 -0.33696505898264495 0.07185075261825224 0.17553952903016873 -0.24478623272998792 -0.08920785722979044 0.4656982392471904 0.13698141503726283 1.0046311550631288 -1.0314500214295663 -0.6421030093485702 -0.0928066444283883 -0.4779358281995676 1.1357403142882958 
55 0.5873563358682076 0.3361767661732724 0.23737084981403223 -0.15721584503482108 -0.3331819741994187 -0.8531222311045168 -0.19430585338129253 0.4327285980390615 0.22133297365914997 0.8691486220183818 -0.12883498367502988 -1.0435142810228193 -1.2169478885009029 -0.2651343134686795 0.3432468301108281 
56 0.7449342298424017 0.0489731396645248 0.11203980161106936 -0.032827941268425274 0.363683603983173 0.14657864538614612 0.3611321015012595 -0.1306982530191676 -0.43004371699644006 1.1356829184870374 -0.7691972612995468 -0.9178542035701494 -1.171078260114612 -0.22456206044507065 0.5480389967368721 
57 0.529562890831729 1.0631780694028132 -0.27654138814771956 -0.15319573834008632 0.1686989332366895 -0.3506950885458469 0.032011217383732596 -0.45718327140508797 -0.12674260291475986 1.0318340728484805 0.27353406710020073 -1.049467606195016 -1.0510172464546848 -0.35042325455946305 0.45888741397906796 
58 1.159210465246095 0.8680433074794189 -0.722183451328195 0.4080843108420222 1.0998378582951442 0.3574451203403803 0.6859248519622926 -0.09577693231998559 -1.0751468109872167 0.1537886017745505 0.449568325570352 -0.319586342677868 -0.8558704062005303 -0.4781579390513912 0.35240005063600677 
59 0.7672518983584528 1.468065097488095 0.11973057489469788 1.0253107066128375 0.9898758613332579 -0.6372306700488086 -0.2456218494695492 -0.5116479649814386 -0.17733352932231905 0.41066674248274604 0.5402786438514438 0.26354853720855526 -0.641981313045699 -0.9404309536006495 -0.8088083488575045 
60 0.330799098692663 0.2788774445172532 -0.6255020997991199 1.1423497723538374 -1.2203350118345129 0.3371647142398511 -0.45457813641410405 -0.5610691066809909 0.47565188417778875 -0.22686766956905174 0.5416542027000908 -0.414127638052104 0.009395484912867763 -1.5565509842272727 0.9283039318520477 
61 0.3567180175116098 -0.11591744053231506 -0.8316804477183252 1.30642377330538 -0.6615310911660832 0.8858618949624759 -0.4996840678645342 0.5418499623135102 0.5384396324396428 0.219034358246569 -0.2769036122092932 0.12895912611266455 -0.46884432758060757 -1.3257965446607207 0.6156267739442386 
62 -0.002576556832219379 -0.41650416431219234 -0.409201615664663 0.20916851439326012 -0.7359586425448894 -0.5618198995132757 -0.47651163433373184 -0.07778850908956246 0.5312246215302141 0.10569287731749864 -0.4926707721370094 -0.8651326383408432 -1.148607919144102 -1.1270162773698398 -0.2336707213335721 
63 0.4883840629612333 -0.877320825828648 -0.30801709484121975 0.4879674802807539 -0.18243451692456453 0.38275094023043826 -0.24383924248568348 0.3514064541041926 0.5605372172952613 0.44037394182053147 -0.8121185422414784 -0.798702234101253 -1.7124979514044494 -1.0729450560480582 0.05001475619114997 
64 0.6034861508146372 -0.35237285102585947 0.4171956569484094 0.14871710508532304 -0.2067796576093743 -0.609898634946941 -0.22558571643823544 0.31252627711932834 0.7125062513601246 0.32059299280156217 -0.09060516718167184 -0.8753640177396254 -1.2946446334652517 -0.7612436218784217 -0.04248308598805876 
65 0.5584636936736498 -0.059953531506448075 0.03281722080163983 -0.24590420815999753 0.3956890986097824 0.08602057359330399 -0.43948959181232977 0.787649985634679 0.4390071717912919 1.1685948959187067 -0.6349564723824785 -0.8237375886942564 -0.9517611980857764 -0.5399041659887742 0.32417617195613235 
66 0.7136108390138737 0.46047324948629714 0.8740790857457382 0.17639727218842777 0.18053644371177494 -0.41700829828633457 0.0904744666039933 -0.27207257646016014 0.11718921783034829 1.0504794551780219 -0.07461682319737531 -1.2647848901735144 -0.7198953274186243 -0.5421205289095967 -0.05581856377131556 
67 0.5082211915494357 0.17424079328728656 0.5485226605790171 0.1270828445170883 1.2105353491063842 0.11559137909037501 -0.1654097672509609 -0.4519478508729978 -0.4639077577633676 0.8599470220004459 -0.5557337202374129 -0.5510333613175113 -0.7647587619475101 -1.0912179851592279 0.14032242772702894 
68 0.42935410036049665 1.0995411948962588 0.6558696731763662 0.7708358493557854 0.9399654724208382 -0.6479443866593435 -0.28425648893679584 -0.3590524005356954 0.3921986398818801 0.8403379349593999 0.007166341257037138 -0.20461094313085457 -0.720261945592077 -0.9077582924006611 -0.31341876910632 
69 0.6013208543155472 0.9879097759803254 0.30616843294334883 0.6121856554328351 1.5904845660763482 0.13072201957518093 -0.21477596922274095 -0.16820544632385312 -0.4000654065306439 0.9222498948118353 -0.02967671147686718 0.40758230191545736 -0.7828141272479465 -1.12698451506372 -0.2142017184464 
70 0.3675192982046613 0.010128685592169895 -0.4464596816092671 1.057273317858762 -0.9268268674094894 1.4937973447474633 -0.3441570370306166 -0.5445421786748075 -0.28015294306569744 -0.26810133542955084 -0.09192170701401607 -0.6204899202663917 -0.16614347093461007 -1.659898954604523 0.9356805405394027 
71 0.3195876562270456 0.09908143281136403 -0.45374846279903713 1.1721232155857007 -1.2395008448890994 0.2499443386463766 -0.8505076305844934 0.30412169371638814 0.5842020738108756 0.14603074752565623 0.4786703576548571 -0.5376756030990787 -0.07079773916316298 -1.4522518478064272 0.25401320265972016 
72 0.3150588623248032 -0.032561095393847383 -0.5677242520673537 0.6002526543943765 -0.4654968808662443 0.8414464738010635 -0.6856329911330837 0.4318304160662897 0.23012196472473703 0.18184869730863096 -0.35228553660593365 -0.7843477950530181 -0.6088109864632776 -1.5419206407590214 -0.05672879291623125 
73 0.6875161416567043 0.18548558421109865 -0.17775491870277865 0.16820988056969205 -0.5314560321566965 0.06510150172884543 -0.9068014439060044 0.314460269996453 0.825030881752221 -0.37892151851079936 -0.014123859801167638 -1.1712188711052645 -0.7766100238790639 -1.0309056380171429 0.33032233086575663 
74 1.0341591362863194 -0.2181379218195616 0.23437367896910746 0.022298427131068894 0.25098150097314076 0.6541354779885427 -0.27890342673618135 0.7402372929527804 0.7338452821592334 0.08542437753763737 -0.24830857482291177 -0.5609133264441646 -0.935816762885908 -1.1800250077326517 0.24194111042167538 
75 0.29921856892153265 0.4071833949200561 0.5184820389429896 -0.15107031759704265 0.012236841435691245 -0.11213234577845528 -0.45827026880838956 0.4741894256806364 1.0312816422374842 0.45093167599609674 -0.007467883229903564 -0.8958037246807968 -0.6674055380771527 -1.0253424264166002 0.3632108711131853 
76 0.45259008566525305 0.3851257889598014 0.7949869861594834 -0.13202496275480796 0.9514392868306989 0.5122691062759248 -0.35715650538740684 0.09589958674608963 0.01039980671236235 0.6762316086101349 -0.31731835022395405 -0.367488339619011 -0.8171644011122029 -1.0622583411941744 0.30322941319119423 
77 0.8293719216804506 0.5972361748691531 0.6894888275014238 0.06970912640118354 0.5827482554539972 -0.6289114403445794 -0.5215502782375291 -0.8021582496252927 0.26304294652411053 0.4811592319136739 -0.04165542386862194 -0.6504988494976871 -0.5613385318563332 -1.3310475461719282 -0.1320582903661272 
78 0.8907353391017904 0.613581509034116 0.9116219139582855 0.5159967531187666 1.2850500365301083 0.6002850797561885 -0.41549956030910695 -0.4218425117461722 0.06368235190352074 0.44210247223220356 -0.5357457955672916 0.11177893376853179 -0.37086215617825763 -1.087638554567417 0.21671502278714755 
79 0.5723991798344322 1.419954971146571 0.7402984994878937 0.7336960494541839 0.9981618602554954 -0.17958167088095173 -0.12427622042424327 -0.31344736102727483 0.21603669568475342 0.7720475289824104 0.2561260464894195 -0.11858869014425494 -5.902605768168881E-4 -1.334749984003788 0.06816374267948838 
80 0.27526112454644575 0.5767553902404442 0.16696290909573078 1.3173333837263907 -1.3903871874484741 0.5778714161203908 -0.5775922863970863 -0.1625260023378702 -0.3210520610040879 -0.3130800001601284 0.29621491244530884 -0.9904928231196446 -0.2909858064500416 -1.618594771902238 0.5109394111432185 
81 0.31649003463119774 0.1615369776293703 -0.32618119382502186 0.8555492390528922 -1.1298114765604332 1.4841152875343742 -0.992255796193003 0.3435862764596075 0.10700968077637558 0.2199838159939007 0.10041681759778895 -0.6301404166240073 -0.23810747458133819 -1.4433303781362454 0.20509693636459966 
82 0.6071324257849323 0.26836907736942756 -0.5666153529357746 0.27898945506252437 -0.6196919200717104 0.45678796761199253 -0.8817563629683866 0.3136776057009284 0.22138232441170172 -0.19962428987608052 0.04021463084622574 -1.1632557279073383 -0.06502425250786695 -1.6297894922204026 -0.11153406652029922 
83 0.9069561376587038 0.27291121248858546 -0.31594043616305356 0.2632067714839953 0.18198663091728046 1.141591795895654 -1.0843022150693717 0.6043365717928755 0.3779942673499732 -0.4907667078233653 -0.3429459882520103 -0.9593135856905685 -0.4303095720095977 -1.1674780554346855 0.29148981011550196 
84 0.573863627181203 1.3106806506219952 0.2066610930964245 -0.24299582262673952 -0.09149598803537132 0.3316030422544243 -0.9922171962079391 0.2135162396532504 1.1754809715747363 0.04952390143391699 -0.04788720786662886 -1.1162546981847559 -0.17938655732964898 -1.3942317997704112 -0.2669252988683098 
85 1.044466085234487 0.5927245375472499 0.4893898907143289 -0.5148712329626896 0.28217102438039415 0.9650473901376332 -0.8202114914461188 0.48241037665822245 0.917207358227853 0.3422919080311165 -0.562533083087282 -0.2525118156537734 -0.4771383646620723 -1.2247784943786222 0.3092855322675083 
86 1.0030193897195192 0.8221428529179717 0.91368107552785 -0.4922482223743294 0.4723138223288511 0.13374822229598263 -0.7050617373563236 -0.2520481127104207 0.7960255053714472 0.2673280381556095 -0.12021607397971486 -0.182557204412538 -0.14814205619931609 -1.3361670502052954 0.3137415640872651 
87 1.0524287924126592 0.5269871052319848 0.8480016850638425 -0.28720771689241203 1.2681077689576175 0.607494503260871 -0.7610794879006219 -0.21036961542807864 0.03994700072883173 0.029542592742126707 -0.39151681929108745 -0.17379563772146894 -0.282098307706948 -1.3871980739258951 0.41115228397939396 
88 1.0260995775685946 0.7176532566460901 1.0340026604755521 0.45148593802599407 1.2574755735520748 -0.253500321669311 -0.14196894825428807 -0.6380534029691702 0.4422537109960757 0.16338100756404708 0.07858594830373224 -0.02655925602065963 -0.00880227140623498 -1.383405127723152 -0.053362429414590795 
89 0.9370907899900256 0.6085048637552909 0.9791561062556976 0.5029665335537582 1.5145876441637554 0.4557644121222138 -0.0527550808327483 -0.41172634922600526 0.22604891118095644 0.5595359441636636 -0.3045361322262609 0.2343876458864408 0.35093991807323643 -1.7144214947759522 0.29052814946088573 
90 0.27661717334931235 0.3051804503420338 -0.05201616065590904 1.6394859656054188 -0.962776651758977 1.2474483606434545 -0.43223892533676594 0.034746738993146 -0.7124788302195876 -0.16176198866620164 -0.19575044329275057 -0.3407094324245037 -0.45123842284808946 -1.5771354490685574 0.29040865534234256 
91 0.41497454448866067 0.27593950188934785 0.05869436128565747 0.9646171847371888 -1.4270780829465464 0.7178750713686565 -1.085432336887989 -0.17736270719833333 -0.28232811389165063 -0.021866210389630405 0.14812974731860762 -0.7385188575761535 -0.4963719426557192 -1.299505095691222 0.31615056322820273 
92 0.6898583975892628 -0.2188058844559271 -0.8327233083677006 -0.13196403952652516 -0.013758678217472484 0.8860477453433194 -0.6327890148342175 0.9333162880112937 -0.012627264966959883 -0.3661836173326772 0.2782295989337234 -0.9694557536732272 -0.38661974875653493 -1.916317572571705 -0.0941571639030879 
93 0.7601716349661521 0.44621692690447984 -0.26518998205470284 0.1654870836542604 -0.29379305903309527 0.383447872017849 -1.3263878123956951 0.5343116750539364 0.15932934778178237 -0.7035424843222369 0.3789564731476443 -1.1911637287094317 -0.29339336433088165 -1.3457631420188314 0.10971831768716578 
94 0.6463180423992565 1.140090147887043 0.09669922392413306 -0.07355694636434315 0.47979233595065973 1.1020234707541432 -0.6511325971974076 0.6249392225722353 1.0350865908702829 -0.007895795831848615 -0.9690949371127525 -0.9330945604057751 -0.18031045760894396 -0.925137629939168 0.15308098838231232 
95 0.6136042596119292 1.0900143444622514 0.557553935441885 -0.5544287956825995 0.03940594320008989 0.2728872155244133 -0.9044190275344048 0.08744910326839059 1.0098902721159613 0.40009547386837213 -0.30575662116341745 -0.7022925634109154 -0.3350096116692532 -1.0587843705538176 0.05933484763937058 
96 1.228598315498716 0.5573533652698014 0.5224109866361824 -0.7030933447430986 0.6935565842984716 0.7123516679855175 -0.9860202613584046 0.09083781940512593 0.36830718667431195 0.3957153944794921 -0.5124903369405639 0.04933033031510882 -0.23044238397993838 -1.3977558023777112 0.4412497090034557 
97 0.8197179755208235 1.092660947796526 0.8400040421099172 0.11817957163932316 0.7426891748968507 -0.130324991153764 -0.6102168127444421 -0.5233096371296595 0.47360604298137493 0.12207463499437207 -0.33201725667923043 -0.3701534069712545 -0.23144457350871445 -1.3616757931051326 0.2313625091500557 
98 1.4248642245266443 0.5938735657042608 0.758058146155478 0.22881375825861586 1.1131053754665836 0.5696029553334933 -0.17185062287445502 -0.4371381630335947 0.22155622273465383 0.0018117947627413773 -0.4142783382173401 -0.014433714661719999 0.11978859456598973 -1.509174186511322 0.5056689980765997 
99 1.0164986559557052 0.9570880646552992 1.055720032416107 0.5950078027685936 1.1810696300320729 -0.21750600337048862 0.15623061497442645 -0.6608716958434061 0.36873721042611063 0.3310161021786536 -0.03706026036886529 -0.01419555183211222 0.4101670842027514 -1.5485376299175986 0.16131184665150386 
