100 15
0 -0.7562835622831551 1.9175340296573973 0.42499056057922924 -0.5641087662696207 -0.3783434158800845 1.0660075991453768 -0.6860493006394535 -0.5513309314643562 0.9754917665104483 -0.2608848402178524 0.13134398272024525 -0.04080253939753711 1.2653521793124696 -0.37978156270692076 1.2568570904534802 
1 0.0037391540229316095 1.3588214814802544 -0.22840983244255333 -0.9624748583939666 -0.30074731060881443 1.4823950927832943 -0.6149914927110618 -0.3944516789321472 0.2441526311728474 0.01413880315725827 -0.32018770682332237 -0.44515183524288754 0.8959692579138242 -0.304550924877141 1.4170132859365165 
2 0.3423534408628416 1.6371770145932985 -0.1692419428006798 -0.23404833459556446 0.05900139036294457 0.8166830871713564 -0.44465493495273756 -0.550955069326386 1.1020599014097656 0.04616567378992182 0.2609110802902038 -0.08294081655487304 1.1407534246191944 -0.3601472199875932 1.1585577410622565 
3 1.0384547963009085 1.1781073703290164 -0.7189254977634785 -0.3881251880049681 0.29804856127896695 1.2623646843233387 -0.20355503375596723 -0.020335089129784545 0.6119233168051692 0.10563917941794046 -0.4968564229045835 -0.5376822734150605 0.7670614531691793 0.01700576546471018 1.2096723590643772 
4 1.143792406192786 1.801215899363631 -0.16741261511169298 0.11593327259346248 -0.01626995401692941 0.6304797481900039 -0.3277764193904417 0.12475693268002871 0.325876679745848 0.30038957363292873 -0.15240632836198956 -0.24380275944946547 1.0020463879480013 0.24496992701048478 0.8890795641581217 
5 1.4920552785631975 1.265448230832156 -0.3471081291570528 0.08288230353550727 -0.25527487313841346 1.3232365108957869 0.2142204716267914 0.4948750223039219 -0.07028655601632885 -0.14179122103509284 -0.769290610057488 -0.1706560973105865 0.7908347401873167 0.40928634385624063 0.6316147993815915 
6 1.8677242949328139 1.4382085720587552 0.29428991347589956 -0.14934703464450996 -0.9413764812662733 0.3259316430758991 -0.0635577083132244 -0.310109767445475 0.1903242590488949 0.5371761903002844 0.0574029527488094 0.0714413446340473 0.5198898796356605 0.16831488133769434 0.21999975920058462 
7 1.8973037410024027 0.9566169317283162 0.5360231965526995 -0.4886190343191617 -0.9093361589695462 1.0139683145817413 0.4047712979067421 -0.26001205278219913 -0.37820093702045254 -0.9095893629868179 -0.4752489728243977 -0.001715250459722744 0.2984386516349387 0.566609833647067 -0.21415932458922118 
8 1.5048514046061403 1.69374842689205 0.5637078611571972 -0.07615148089250041 -0.9354734375319891 0.7553599484198149 0.3546877691975284 0.057233462931960105 0.1231404315911092 -0.5290624698116233 0.25747981074569487 0.13701039399375464 0.40447619484038533 0.3565138592010212 -0.952362823256233 
9 1.4876312623965937 1.3572729394680696 0.33488542473796873 -0.5273877140019901 -1.129031300039342 1.2721156053453695 0.12727620067544895 0.34021027243007246 -0.7202176948896335 -0.9662289311498735 -0.3514129061044478 -0.08992430827017747 0.36847687330916007 0.40302079082751274 -0.5898094714046629 
10 -0.5997620066742091 1.3900492555021071 -0.24039552774024672 -0.7325151667621826 -0.18522003432934486 1.170154933481859 -0.2440529889965625 -0.6266971879648789 0.1390057890060178 -0.788215101891598 -0.0635606853915522 -0.31272035625912836 0.5265402661903542 -0.7996877146814831 1.6689177746396915 
11 -0.36628503097122767 1.4694937255126599 -0.33992755695867527 -0.35307887959817363 -0.3395876214308489 0.620824730922769 -0.6061146293061395 -0.5002733680961599 0.3940788874341154 -0.1074884201975938 -0.30188675630514233 -0.1915319781064549 1.1466549098281102 -0.8067263928038392 1.067352360475504 
12 0.22044896981527262 1.0740910218204822 -0.7931055412218856 -0.3228286361211263 0.10128590423287243 1.3414783452060304 -0.3952686849476993 -0.3340030634697847 0.3096526000335059 -0.10546427525112796 -0.3820146000272959 -0.33536760633013246 0.7682756185569325 -0.9270716020439296 1.0050792308676626 
13 1.1027689055799985 1.4867484773274682 -0.5820487313355488 -0.17952239684314558 0.5096723107421043 0.7856305639295 -0.34191828839876204 -0.07585828164675437 0.9056378964558727 0.2644936098127735 -0.022090978887310903 -0.041361707416470925 0.4116631180909851 -0.25295162059830134 1.1088801200096094 
14 1.1241261326652305 1.1929872499909846 -0.5186614488536334 -0.026943263489167507 0.23411442010215572 0.6365150573879118 -0.5426623903209565 0.29757540437496255 -0.0273152771895943 0.21502287744536908 -0.6662523023474031 -0.5303490115995965 -0.07736019030748181 -0.2768675562153996 1.1036445793797323 
15 1.1671849807277193 1.6325179921366861 0.046413535078350485 0.7905270465332705 0.2440552402754963 0.4535185883791966 -0.23031146412877437 0.34269608515367583 0.476036869642771 0.14360681320985483 -0.6045806359157014 -0.259487232841477 0.5562514778168998 0.18675438632332564 0.6171595626792692 
16 1.9856895295510197 0.7628023166094927 0.020088676302560737 0.2607633581753943 -0.721728409056182 0.7818872906461602 -0.28247986772373684 -0.5007505872759472 -0.8482199207830833 0.33445519751513153 -0.4140013342964174 -0.2469069991538061 0.4885279106672028 0.049285551306512576 0.23333759580398378 
17 1.6359670570754832 1.3697890547712677 0.83322377519817 -0.056128195493547466 -0.7766678327598012 0.5717999685779239 0.4195402189864687 -0.45345834842152216 0.653148855987385 -0.75112787147848 -0.04699981447681191 0.01955413652181938 0.5893834214080045 0.19152278016471605 -0.4735260195326336 
18 1.3957497815234154 1.3658865738990433 0.3767710320632851 -0.32791792024222 -0.7847682365094276 1.1613557793773583 0.3691289540484732 0.10372736548439895 -0.18031612575626405 -0.7520331534871801 0.004719966143385074 0.08750690453628293 -0.18581836567106888 0.13613268360739908 -0.5831363047027217 
19 1.126173035402888 1.6880676480946917 0.8152619450793452 -0.16400748613359883 -0.5767774275979961 0.6966654471027374 -0.13039473614381653 -0.0225433917995616 -0.19518068275465783 -0.4843216338715081 0.21423129681683425 -0.07007854005613673 0.24182201058029915 0.17599241118046943 -1.1582713563307963 
20 -0.2746013614379548 1.58852489332514 -0.07758750830198395 -0.21317302033361032 -0.3449453041886775 0.2249435092202929 -0.38012262516955386 -0.688489187299879 0.3958899291439489 -0.7673853954868123 0.4915205752730261 -0.23836354519592184 0.48739142572310695 -1.2536880536463764 1.0071253663264341 
21 -0.35551851180152144 0.9692513690544327 -0.6380131670401578 -0.30535289113694636 -0.28855158356138866 0.8175825180579068 -0.1865383220697885 -0.45933093222213794 -0.0017466002816145729 -0.8887717411493491 -0.4445249826519024 -0.5710682357042995 0.7612530683894059 -1.1130403664098187 1.2206135125768873 
22 0.2593324461868369 1.3555335878338184 -0.736900499806644 -0.027284499763331284 0.30261111708607336 0.4308005307580819 -0.5782777695752855 -0.2032941835970523 0.4891574016867331 0.2786363741707393 -0.1803069039824182 -0.13272649877780213 0.6185519831817823 -1.2457247427422327 0.7158703916387746 
23 1.018183496198464 0.8369602228463442 -0.9233903910677337 -0.4449760758201813 0.05460764676702772 0.4896516248164151 -0.40248338919433474 -0.04562428625156563 0.15667189877702076 0.043406514102313346 -0.44289529505632647 -0.07803513348813917 -0.40389653253918584 -0.9676414390305995 0.9922043568269301 
24 0.940369506941336 1.6088167671172564 -0.33505970146022906 0.05958327952653828 -0.027967698285842647 0.19182378514658935 -0.48057631013559104 0.03761717315422091 0.5631657714953886 0.4691966017263564 -0.15979624745966595 -0.2514080069627351 -0.0012934591598368628 -0.1404182296249545 0.4516175831898925 
25 0.9980075573732246 1.2114593551528172 0.17243734819758222 0.628393056038102 0.24182197232322253 0.4538737809663507 -0.11293091658960477 -0.15806550119042423 -0.6018930819078981 0.3668463825411137 -0.8474104199035762 -0.3248129850043766 -0.5246893581032471 -0.28639236722848616 0.5965644925854486 
26 1.4917034541428489 1.3534086567296115 0.45945850914032776 0.2587027708972085 -0.10561551991838858 0.4092008445523787 -0.547445932933051 -0.7206969519865745 -0.6519049957085292 0.6771441854686521 0.23933832645018716 -0.05982728567569953 0.09728415749669894 -0.2218564218132742 -0.23865312633812974 
27 1.446733158805696 0.9211180377428251 0.1480513010212288 0.06262262510285665 0.17466407722435226 0.8992141619928594 0.009387383607809024 -0.047928609591078364 -0.7670090090217768 0.007497740137479093 -0.44218233359838205 -0.34367729062802643 -0.5516032449432546 -0.26734907276109776 -0.29781692404684595 
28 1.3465027507841572 1.7279572427903782 1.0606097321283103 -0.06038351732414782 -0.48145698619981997 0.5570488044967069 0.07307761214557394 -0.3674906948228476 -0.07233452988675616 -0.5435222680029261 0.0779439746512943 0.34896736262109995 -0.3717376614121824 -0.17123035810350484 -0.7713944863758465 
29 0.8730309254697552 1.2192430521547915 0.2818639622828413 -0.5204562218971017 -0.35563708341729194 1.097687106068056 0.21864917914594634 -0.42297550796949235 -0.6837301250253612 -0.8007310237959442 -0.35236322357969013 -0.8258673369149379 -0.06488585173175587 0.06758998209019315 -0.8555471542990156 
30 -0.11391153798745259 0.9568808538580325 -0.5635519787717318 -0.3414854830784751 -0.32959512100846305 0.31115568689432177 -0.5139102549481296 -0.41039330945962554 0.04115920423230266 -1.2604844818339125 0.3889751952300132 -0.7852249152668879 0.2749980427018254 -1.078514366934546 1.2006252541162648 
31 -0.2885739849564065 1.5028108510856304 -0.5073616560785751 0.46500259874373234 -0.24857566588057656 -0.02695312677894232 -0.2405127686966996 -0.250505308673179 0.548994080633626 -0.6551551808415972 0.01641613028344132 -0.20708228618693802 0.3734160282533806 -1.07861556624327 0.8620481635814704 
32 0.22877007836837412 0.6560508763249449 -1.2338567811446755 -0.001875829260116875 -0.2690576520098467 0.431455769993651 -0.18415987170860315 0.14604818287714935 -0.25708301578422826 -0.42095325026591845 -0.23539833149226705 -0.3146027113758931 0.1346361248243776 -1.604688514989984 0.9630429194367752 
33 0.5131530134530313 1.1798371334700086 -0.0709811140625168 0.09378362480010427 0.15943081703864498 -0.3093230073470254 -0.7489042764594744 -0.29636682584662827 0.512972765298811 -0.0902456970306528 -0.7223524688066214 0.04731504954316587 -0.08083289709100462 -1.1709547965441958 0.5890369062406591 
34 0.8505611017926735 0.6603794220531453 -0.39726846996081416 -0.09965932371156011 0.2310174909343638 0.1456356740882984 -0.5116826380956778 0.1439823645073144 0.09995309222723887 0.1743714551843996 -0.9621471412015893 -0.7318648475575397 -0.7189172565359283 -0.43693813503952733 0.9976023462258092 
35 0.9746886976085766 1.404932623319845 0.07097491905262981 0.5524514631109546 -0.004317977945705414 0.12943819320508937 -0.08785196099800027 -0.315900316169777 0.10016198463215112 1.0659317919783555 -0.5012023435714978 -0.3302822782716561 -0.5326593356726573 -0.4797241647901127 0.45846062977248286 
36 0.9461517412157893 0.8358289195056359 0.5711658265766718 0.020355577277378464 -0.023975933035351657 0.8643121853867695 0.21948476868537134 -0.5311656848197311 -0.9867065763733356 0.35053563097662027 -0.6831206233105928 -0.5279219800853636 -0.7572044785461945 -0.4994418006832599 -0.022199356522858815 
37 0.9386573172335603 1.4502911256239526 1.2447032128367184 -0.05491670031000247 0.24743215436194077 0.19702169802998434 -0.313628748548428 -0.6865495876202775 -0.4958333664727833 -0.013408689490143698 -0.07589494078764998 -0.18450623555712156 -0.706214872024875 -0.4473395620506625 -0.5626043093302278 
38 1.2165716187704827 0.9591897853383174 0.9731815068994013 -0.18457701885169753 0.17222443292928566 1.0004048237852539 0.05472312346834246 -0.4310548066850147 -0.8725173462047499 -0.5071223162924471 -0.27873853934006304 0.028896149358008244 -0.2779595424590804 -0.6778188635499596 -0.6308146417826695 
39 0.842809368597008 1.2494272855559734 1.0339393594852744 -0.08797258640338149 0.19847861317715354 0.4209388645669891 -0.0577786907892871 -0.4222327701375186 -0.08407388424325993 -0.32963603152430776 0.4023124758127894 -0.19009240906875316 0.10240255202451123 -0.49204215046213357 -1.3899487854947106 
40 -0.038449334472666366 1.082533248577956 -0.228641611116218 0.23250319124076535 -0.2680866901908301 0.08521428264129752 -0.3216833518988917 -0.7015952218366451 1.0006538664123923 -1.1502101450275604 0.19798998496213874 -0.6806103697187182 0.5043391372033591 -1.1952142406336692 0.40594250011970306 
41 -0.14627129735051067 0.8740017562754762 -0.6997282638888247 0.041383524444333415 -0.3642601024324449 0.48510607714979953 0.126967833882345 0.14044448478067362 0.2229904900880895 -1.369287956152916 -0.42467177682644813 -0.7287215113266683 0.14035945360421692 -1.31512614712502 0.7674102355514875 
42 -0.10694881899699035 1.0063195423863076 -0.9023150525578224 0.5502884075624953 -0.7859949877628555 0.10849989678115568 -0.10802497963992239 0.135271043154784 0.3852110470783852 -0.34602469352757337 0.4927692876890925 -0.4685278200249309 0.2630507987616648 -1.8491622779557546 0.5660322335364083 
43 0.5917939713854298 0.32414356588186755 -0.09540543760983217 -0.1916387327732531 -0.1297028727396436 -0.021991923079763435 -0.3371608849485901 0.35918120197219777 0.38196925220379757 -0.24425118659652192 -0.939336190956489 0.03797615528436466 -0.6082633841232468 -1.240126266260855 0.9910901073560652 
44 0.8984898006877297 0.8869354591546215 0.1608364999821068 0.14760742558356282 0.21662916917871716 -0.6469456943312051 -0.6012226275864448 0.37481662318684156 0.2092187926049469 0.5885761327939518 -0.8475444786226739 -0.6939146499420754 -0.27822094942626774 -0.8908532543121517 -0.019485483679666203 
45 0.8824970968238319 0.779794143743436 0.0762518815664566 0.3513659551012874 0.23610537589740538 0.3990396811845079 0.28760299311134196 -0.37521927274678024 -0.16791618138022152 0.7924010031551896 -0.943276082455902 -1.0291215208506426 -0.7913316155305109 -0.5658779685588552 -0.045674200685620586 
46 0.6970595315593078 1.2400660859825647 0.8029897396777231 0.3618330275277176 -0.049637760564833495 0.13398678755296803 0.09687742099009025 -0.47304169102917976 -0.2589144538063767 0.7798118967352481 -0.3364691680496667 -0.5008209430851527 -0.9027431777417346 -0.7374651418988131 -0.18087720601016447 
47 0.8630844743028663 0.8519648707294123 1.1833309320509615 -0.24091397192926134 0.16332243056172618 0.4597602868543085 -0.0197713610307775 -0.5277234121413633 -1.1097872554449237 -0.07603987841013243 -0.44916504069252555 -0.6301435068150419 -0.6283562798998443 -0.3899703076798104 -0.13546634481738623 
48 0.7043042976849132 1.173275343294206 1.3015082896242134 -0.12482766017813783 0.7090546817179816 0.495345069056782 -0.023467652147712875 -0.38017117020600827 -0.30847208276997434 -0.20654099886785235 -0.2566013594946883 0.2215579610674807 0.15757999047240528 -0.8123365794411784 -0.8811326429611122 
49 0.6165576340870599 0.6440877946799899 0.839256441787922 -0.6973286525759227 0.36972082291228653 0.86465568170195 0.2687795776210021 -0.360721944920519 -0.8497589845180873 -0.46909827691809036 -0.3170061630439267 -0.47257113039619997 -0.08696325762176882 -0.6224400670299987 -1.1639468385881369 
50 0.009405214721863973 0.10955823648036393 -0.3690528421270838 0.30979261246279677 -0.41920243056082407 0.2962864550079644 -0.5748821435546972 -0.4618215988270478 0.0387102990425567 -1.7069879421102878 -0.06546787348270057 -0.8768114149436682 0.23226746841134613 -1.2484315012019733 0.6830132471247172 
51 -0.267707385619199 1.1467864619907626 -0.04301422417900123 0.7263910394843011 -0.543182973289118 -0.1967240717979856 -0.38360846777611474 -0.2153038369652843 0.7459964356253042 -1.0623931654903418 0.1837374726245936 -0.49022920683000215 0.3713958192992403 -1.345442559839215 0.1924260458868572 
52 0.13772866082315718 0.4899471849731452 -0.6650300477892228 0.20703145407472445 -0.9129607784792774 0.2274567585153968 -0.015119587764610424 0.33576908586777304 0.006990320688355242 -0.6390424889377325 -0.17603318866570955 -0.8973728760534007 -0.2687375001781328 -1.8094681700720276 0.28588030256617203 
53 0.8606308759035408 0.3800566972145183 0.2570655280880719 0.5431827564524188 -0.130880502486039 -0.6349257894386822 -0.583812041695841 0.0948071473128998 0.6912446441405097 -0.06521880558985944 -0.17497772731582897 -0.2890200744734865 -0.4305129323368864 -1.1117275244174678 0.6132324630586918 
54 0.5761029088381922 0.2827314926286019 -0.04165450289477952 -0.1211102967252807 -0.03535832996893265 -0.21359485716339643 -0.47555827207024604 0.37674272967183814 0.1539625571774606 -0.23325937461109442 -0.9902702647577734 -0.9678376807607653 -0.6894952110019633 -1.0152246511730811 0.5962840513336938 
55 0.4939381762576515 0.6302925051047708 0.1987658748208658 0.5327819994524623 -0.0906991568332472 -0.36344044944006065 0.17502314169453914 0.03255332953906005 0.47484072270296884 0.8423730122960021 -0.24109743660973476 -0.8963534375697639 -0.5684147318086485 -1.2245285224727938 -0.1600821638842546 
56 0.8988686135027438 0.23493541383606792 0.5408119920055681 -0.23045600152675344 0.14891295910340752 0.18627439665860085 0.306874072387409 0.1621309680134826 -0.47201584955772624 0.39723605078440655 -0.33119712130991374 -1.3215367510831673 -0.8948714769316732 -0.7849525495945835 0.06462917322216616 
57 0.42451142657570257 0.9941543509761623 1.421419076800697 -0.04468607966897756 0.25699386130857593 -0.415956045880585 0.1349652704624639 -0.0023282994762148373 -0.19995103207942036 0.11238747257113509 0.6139278278556093 -0.9258815618876327 -0.6000925735527061 -0.6596582140297629 -0.11409594086522025 
58 0.6208873700581712 0.5821938423102455 1.310115548885612 -0.5503739517458134 0.4277338138415537 1.1451371011797438 -0.07871736861773546 -0.580020974483156 -0.9253749053276143 -0.3079129719643435 -0.35556030032689007 -0.23983391909279944 0.06307316553058669 -0.4582559713569955 -0.7927261582094801 
59 0.46234444473171604 0.7876689784189581 1.0604488633363356 -0.5149027527699753 0.5766896329700409 0.6773527255140033 0.33646881501204456 -0.5011389387670602 0.1700048050948919 0.026516848241894535 0.5176918337950167 -0.20371339992617904 0.3860508996446413 -0.8784840398226805 -1.306759736313313 
60 0.24689026857490529 0.10908947840634418 -0.030199224396699437 1.1338210237701591 -0.7151467447412304 0.306053546654022 -0.7703456011018198 -0.4916379546756155 0.5449765395665744 -1.2798970627310047 0.5426812192790379 -0.6263326086980647 0.8758718274443483 -1.2286294550852024 -0.0890529927420556 
61 0.009572448929157672 -0.0655053794478639 -0.31119851440639024 0.3095559246680719 -0.616716058858878 0.23465963923921648 -0.12153481101445929 -0.17311823276017801 0.5367054250619483 -1.4889540792585718 -0.769698606160312 -0.6763129960024741 -0.11565354491087473 -1.3568787472533033 0.3757870111366378 
62 0.024037261511863865 0.33086649617849145 0.15755129476804688 0.28056356769793483 -1.182696213478541 -0.17259218553190908 -0.5110378645663937 0.27938485617166664 0.9648107779866477 -0.3290599133977018 0.03913186032131581 -0.36420130141678614 -0.4658874514455267 -1.4797031210721754 -0.05136880095695008 
63 0.4892383752233832 -0.34555884184353597 -0.017677351785631734 0.0730575594220301 -0.6073861173727328 0.15335965377245897 -0.63562066794522 0.6696192321062405 0.4133699246693071 -0.41892570628106474 -0.7125341048808977 -0.9652874881724894 -0.8660838081882714 -1.1085904293201325 0.36661252976960956 
64 0.35411714337589617 0.2197913070451458 0.3239292220767497 0.1072047245422398 -0.033921218229099145 -0.34921711952411577 -0.45709106549781015 0.6389517193314314 0.522268575822021 0.3454459792570696 -0.27770790374041765 -1.056987912796069 -0.6882535286615227 -1.2390327062158852 -0.38676459539376 
65 0.47412138050519054 -0.10656449119246801 0.40074758829778684 -0.1492917185188357 -0.11744052346888553 0.08326215183526813 0.3463170115837627 0.2249038503573029 0.03281882088512611 0.4884305864081462 -0.7408805845795671 -1.2676673289422218 -0.5757964991916521 -0.9356070125571292 -0.07655584782548877 
66 0.2877265263016054 0.4759692682608518 1.0905406375522597 -0.2987416866315337 0.12012557906305109 -0.349828121963972 0.34407330172895434 0.4212828582586659 0.08272228859179682 0.5454240961871907 0.11741614237791967 -0.7268984281676788 -0.4135070779824731 -1.0753980666300103 0.0476215045073338 
67 0.5684145086621165 0.3702785755376149 1.2176518420292677 -0.2256547328339902 0.4855105484654335 0.565560954799165 0.38436565481385887 0.21793643340297342 -0.532352020822268 -0.19809195008573555 0.2961372013978753 -1.311871538663834 -0.9244200344226775 -0.8183407960106601 0.18674359218809086 
68 0.40726231706496197 0.7061303380441419 1.129408437739919 -0.28968352546184173 0.9132903413833696 0.03860657083573955 0.09313341273239256 0.1698495310793084 0.11545793598014797 0.10170701628380494 0.8725038256941459 -0.9576090125926526 0.2512077388712728 -0.871998015410045 -0.6291084274825727 
69 0.2571538450797795 0.32537050571501686 1.232316046720276 -0.9148665491636399 0.6739145742600328 0.8625340112992452 0.35605011262566477 -0.43302848521066956 -0.550320315380308 -0.08442075693231196 0.12387631588024556 -0.9496563079004304 0.3286946312165526 -1.0136858912170168 -0.8353058451131216 
70 0.34132538458721473 -0.43321386342663903 0.28731251651463885 0.7439698294298278 -0.7103605799449884 1.093486831432817 -1.1258554443567457 0.11595913268647218 -0.13975603329231387 -1.486383367124865 0.22259215416009684 -0.9408496693184433 0.7345262011408855 -0.8923857988090086 0.364793264746063 
71 0.35590660657300455 0.14895883347401453 0.5638293607852013 1.28376953915385 -0.8896998037672416 0.4068033973726467 -1.390307007704818 0.04489901683003526 0.577848694256238 -1.0716692155773022 0.2531084544798015 -0.7772493548637328 1.113501093698291 -0.8339981591921225 -0.4273888056475648 
72 0.22591028383644682 -0.2578470874049349 0.423235215263447 0.11155036172758599 -1.2098809520533973 0.8981602275918251 -0.2754589850795047 0.525282216688151 0.5399322761838836 -0.5710995358187928 -0.37613732261329813 -0.9811202937962799 -0.5021242436275315 -1.1250593795053299 -0.22490753845199 
73 0.7257948687106041 -0.22695594523310636 0.5969804872842792 -0.004996083016980731 -0.7071751150180592 -0.06593444360657962 -0.5556680600023288 0.4920241800034777 1.2987643627089143 -0.263612926624425 -0.0765485479339473 -0.8541917203239129 -0.3321586067007816 -1.0882837619600285 0.11160519383136783 
74 0.40705574149019214 -0.20741387158052196 0.19529216779531 -0.12214956691039514 -0.2639313424607787 0.5993491527851145 -0.05918371499385474 0.8233453930669503 0.557442414718277 -0.09187721598899869 -0.5430848602644438 -1.4057691001460308 -0.32471446723774966 -0.7654573237313731 0.04199699803465773 
75 0.11178729130956438 0.2570866774120013 0.94233971226161 -0.02721959158447616 -0.48592015818950507 -0.49331116459522517 0.01902950713756116 0.47359242683495234 0.8737613714066956 0.5431784192959445 -0.5434218572834825 -1.0869070141353536 0.0290754179689798 -0.7407797840888176 -0.17223466838521018 
76 0.20730206819112582 -0.12040862048540933 1.221418378979384 -0.6216245325637191 -0.04910771978627026 0.35350010014665983 0.32118329639679594 0.5089972447029524 -0.1885765569247828 0.4055124550080434 -0.1578317013136508 -1.5226761505313882 -0.16609241151118417 -0.9202404779690383 0.365652674038493 
77 0.762296349770182 0.33856485891255483 1.1988375827969484 -0.5155943635491523 0.28534022050383406 -0.19382786985118078 0.44920261524284055 0.039438581666309376 0.45830518751538013 0.2697100180842266 0.6368796299506351 -1.2005659500043127 0.30884977523670376 -1.031855364740304 -0.04148958846892795 
78 0.4339706956622636 -0.017707399124940182 1.1348066219304298 -0.8339010385139286 0.6183908459090695 0.7257311527224223 0.7228633170347097 0.13478082299868702 -0.36009346267765474 -0.20077414455992632 0.26297951546240256 -1.0516158634896562 0.43408481871166027 -0.8022849330857887 0.061171999602039395 
79 0.3173980146882469 0.5724295853668155 1.35955657873352 -0.21940265534281167 0.7856627810383765 0.4309414578726744 0.2466730557646824 0.06327698651101399 0.3960934941501967 0.12254293920029138 0.2765656056247491 -0.6836408630591692 0.9979206269669829 -1.068134264883924 -0.8480371859667012 
80 0.5169471823333651 -0.061647495449407966 0.7805604809931308 1.3763177872743915 -0.728629081522633 1.0584787539043667 -0.9838895148786776 -0.026822294314636758 0.959840232230584 -0.8418468798503649 0.6786369069952272 -0.8726957366293664 0.3300207416301287 -0.7455391360504796 -0.0013938995989418133 
81 0.13737898811558197 -0.5181656131245985 0.47404554781893715 0.7682629110316765 -1.0613098101806904 1.019827321320039 -1.2008405615696593 0.5668281322142499 -0.05467498656317956 -1.0497433509361587 -0.07814273267164218 -0.9858432203335716 0.48429693749294267 -0.6962502914543468 0.0255325897205392 
82 0.49758207475085753 -0.32741186431105723 0.7138855384834055 0.2843133712963354 -1.018218234161902 0.6574556009952595 -0.959732500948965 0.5060939370028045 0.7382791884921379 -0.41843322626356055 -0.10861809777618842 -0.399735634522052 0.25772925766632604 -0.9665934018445456 0.09698363056944087 
83 0.6556853072661575 -0.7713699285759955 0.38207844174402283 -0.40197391853961484 -0.7834999246827594 0.8581200739630597 -0.5809469827764425 0.12746464134046825 0.7243951879298524 -0.5265845100086967 -0.43602897157760256 -1.081631362916701 -0.20655843255640774 -0.8421102425728663 -0.022538549715092608 
84 0.6037166078531109 0.052937454363105825 0.7221842872182438 -0.17985452625885165 -0.5262699548103964 -0.05485826340354501 -0.6893832023869004 1.0714266143972473 1.322051929773984 -0.13550937654248468 0.18106219275147753 -1.3227366563128973 -0.19104600697982205 -0.5157876179741135 -0.16046255564594913 
85 0.2667737129746528 -0.11634838406763932 1.0125194605170882 -0.6971374326599078 -0.4662243034558379 0.1828533191370807 0.4424720826831492 0.3757162480942189 0.4610511214617284 0.1890365066501611 -0.9022880001814542 -1.7059825947880631 0.4283283268223761 -0.6076768767618473 0.3392901260817051 
86 0.27391963863244595 0.09523016071053458 1.2886329066681812 -0.6524400000856743 -0.6684884827825632 0.11974192079363359 0.24375972472290852 0.5860252362145706 0.47771080568942603 0.5987511354211099 0.44056752243647285 -1.0840904539038159 0.49252449295612144 -1.0197661413215082 0.3826032256046088 
87 0.5721685780217449 -0.4270898332707027 1.030874163002991 -1.1650019781744594 -0.05595449563772004 0.41804195664670785 0.534213548642205 0.19812647852268864 -0.1377793547017878 0.00449873186775375 0.10049255418772438 -1.3895185245436545 0.7351861624613311 -1.0063693012811135 0.23667337173484862 
88 0.47076715232593436 0.08350847886883037 1.4672918916624564 -0.647596439735345 0.6613352409384072 0.37559927172747065 0.8645833630049268 0.14897140135027043 0.6282155552939692 -0.06064203542873948 0.593785384167244 -0.5398021193537857 0.9184481277642547 -1.2543143883173977 -0.21868179971508286 
89 0.3611166014393731 0.044353637644852256 1.2692265918728174 -0.7250482447351979 1.0311350992632855 0.6457051116060369 0.5776217299102363 0.8802066831977546 -0.2174762229548819 -0.4898035420301818 0.30613386835540085 -0.8792859415351519 1.038520370120901 -1.0150481988341435 0.03672379045860118 
90 0.42879873709137034 -0.36538190782590757 0.6108191059685378 1.2226090180371774 -0.5334266184740687 1.7853469735281786 -0.7112608042658968 -0.09724343296903139 0.39759149051599835 -0.9377131416437889 0.23102757178282 -1.2845613454831097 0.1266667982231875 -0.5496312055713255 0.3141821556898468 
91 0.3836138428879695 -0.23768977770451177 0.9752754343233416 1.0914028126049733 -1.028797557799918 0.6287388669053915 -0.9506087854607905 0.20738834642280315 0.5756434092851825 -0.5901240811488228 0.15694274066283537 -1.0421544181469278 0.4992472807416752 -0.5691009089213044 0.01220043554165852 
92 0.13389655719986923 -0.6229010929609659 0.8288160677758745 0.1934375644122584 -1.081926374439958 1.0527557260137563 -0.7975168563260433 0.44063855203923147 0.20572711225514645 -0.3580283536747756 -0.542772659875837 -0.742133703386994 0.18637143787699526 -0.9282378530676675 -0.1064890133816338 
93 0.6789370900243007 -0.5533534089746451 1.01890164737419 -0.2067438348959481 -0.8872748354475413 0.5372101972949693 -1.0708494448983383 0.35103703972510664 0.9624147849708571 -0.011023104942504771 0.021784935613699354 -1.0121547723550453 0.02691814382200347 -0.5953649991343574 -0.276026643460504 
94 0.5399954462413677 -0.5443311715750899 0.7638660183828605 -0.3070410304505042 -0.7295447768430922 0.8387673278407021 -0.028138763296572108 0.6958096116184866 0.832042041398077 -0.10747882959030383 -0.1922248803811336 -1.4759570839481175 -0.07743730859258623 -0.34456669140593876 -0.0842388793652634 
95 0.22883062457547668 -0.16078956190517374 1.2121866778227883 -0.24559018617940256 -0.6000259599306443 -0.01891913194037513 -0.016817337532534782 0.4296086122950563 1.1502160839759923 0.26092752714153894 -0.15316242280408887 -1.4485735305468932 0.39738085897551473 -0.5228499258944319 0.2136332561193239 
96 0.0022172842027012307 -0.16443272582909918 0.7437710899079396 -0.9036586943479669 -0.6535339513487348 0.8741958940874229 0.48443772156590753 0.6230560424140951 0.060517748185251435 0.16661473271077354 -0.0663531590122169 -1.548448412959764 0.6131011902946671 -0.8291542747187922 0.15668775237992644 
97 0.6543150079948049 0.12113920404040805 1.2306836079426506 -0.6476128379112426 0.07368384760457972 0.18105163851649891 0.193590425942736 0.17771934729518024 0.47477170955963094 0.03851414383837532 0.6191634970970371 -1.0369523325281989 0.9285936262087146 -0.8988641001375611 -0.04247104130144319 
98 0.647577703346179 -0.07868832161525685 1.035594456537699 -0.8234986501177893 0.1651259266143844 0.7949385801947437 0.9588161700123596 0.3498758873128478 0.15251231655268482 -0.13032568422471438 0.12662074651141997 -0.7923779403788571 0.904333795888537 -1.2792227720961913 0.32684546772642864 
99 0.5022005298206346 0.46332363029724744 1.4037480225398982 -0.5041046724445392 0.655931914695854 0.30055636172001937 0.6703551070451754 0.5260737855099893 0.11697032048712339 -0.1803087880101952 0.8755792288266102 -0.6148850923641462 1.4054597245496951 -0.9412802013747974 -9.850948131467571E-4 
